ESIN -1.8302698 2.3114274 0.5650668 -1.4816054 -2.7317696 1.1115612 0.09900687 0.45386443 -0.07865936 -1.0503352 1.2824341 0.53750366 -1.0313601 0.25417727 -0.07088215 1.1972865 0.58518636 -0.53526765 -0.45807847 -1.3190659 -0.47306326 3.0215814 1.2359196 1.7198334 -0.25638083 2.6945953 0.23907143 0.8945683 -0.27380052 0.069390625 -1.4672058 1.2359208 -0.9296577 1.5255857 1.2941409 -1.2034229 0.06997482 -1.035445 0.7790591 0.6296577 1.7465117 0.5543078 -0.5559809 1.8013383 -1.7139914 0.37735304 -1.133551 -0.61471605 -1.0727954 1.0061322 -1.4217794 -0.118562646 0.43620086 0.5690176 -0.6995489 -0.52968264 0.8466131 -0.3082622 -2.1387568 0.38035306 0.70997286 1.0092771 -2.5228806 0.39534122 0.8752305 -2.3748856 0.4086163 -0.92633396 -1.0568492 -0.22243603 1.1320883 1.1323806 1.0560137 -0.57307 0.68790424 -1.0005808 -1.0001197 -1.5014231 -0.22433662 -2.4573152 -1.5160952 -2.1957908 0.6955645 0.23501353 2.4411728 -2.234333 0.88503057 0.17185 1.8638151 -0.670957 1.0601841 1.6493148 1.8318682 -0.55255336 -0.0536562 0.6283168 3.3082592 1.8270763 3.2739072 -1.1853065
SFUD -0.78038144 -1.1136286 0.4239259 -0.042816125 0.90919834 -0.15375541 -0.50674 1.2478378 0.14182197 -0.85357654 2.4645293 -0.37718937 0.05345235 0.5017355 -1.0121961 1.5602502 2.2769508 1.1461259 -0.8268769 -1.715302 -0.6452265 0.49584618 -2.0741074 -0.40221617 1.4473792 2.8192284 -0.28160253 -0.9085088 -1.2865195 1.0557423 2.0725648 -0.7562465 1.1833022 -2.7449338 -0.27149636 0.63035053 1.3739905 -1.0387528 0.15518533 0.7360505 -2.4008305 0.18964171 0.2763788 1.2227561 1.4872091 0.29067233 3.2294633 2.1845624 0.94977266 0.51499987 -1.3112032 -0.8757782 -0.6136656 0.10782546 1.0072206 2.6673818 0.95939636 -1.7845074 -0.7820007 -0.16392095 -2.2940392 -0.48816925 -1.3010764 1.6634952 -0.061775517 -1.1883385 -0.42771932 -1.8541558 0.12300392 0.012541606 1.1745858 -0.74410444 -0.55715513 -1.016958 1.8659643 -1.0987802 2.1794682 -1.026859 -0.88740534 -2.710236 -0.80423284 -1.1780069 -1.1203791 -1.3224972 0.1077089 -1.3029374 1.8208874 -0.8443039 2.892194 -1.2667478 -0.16060337 -0.585239 -0.1394858 -0.8831877 0.26964256 -1.7843757 0.28004912 -0.76270926 2.6067505 -0.86254025
IWMQ 0.059801772 0.65085506 -0.58419895 -1.2477782 -1.3178369 -0.675232 0.29215288 1.985859 -0.7133059 -1.8802896 0.49006125 1.0792408 0.37212932 0.70959485 -2.7773066 0.5203309 2.0758202 -0.40168995 -1.5619122 -1.0527501 -2.1570194 3.0098548 -0.8327942 0.39241993 -2.0342524 2.4682004 1.6768051 0.069909774 0.8008531 0.7803179 1.5077388 2.712817 0.8100272 1.1822175 -1.9093443 -0.57365495 -0.0865834 -1.3705677 -0.11947126 1.2484883 1.7185061 1.8943989 0.34134844 -0.27260435 -0.33390632 -1.6829635 1.1450574 0.14948706 0.7213531 0.4697501 -1.9267915 0.3158345 0.48360616 1.0071409 -1.2084336 1.352142 -1.1491985 0.8825126 -0.8827826 0.12956491 0.4806796 -1.3400124 0.8092328 0.9729213 0.7688311 0.41913214 0.7568413 -1.5140741 0.20288095 -0.95674366 -0.56182504 -1.1298194 -1.0850986 0.45798215 1.5052369 -1.619935 0.086214796 -0.75770485 1.08446 -0.10250099 -1.5893747 0.87831587 2.0823352 -0.61894864 2.0597441 1.5316265 -2.088482 -0.53760964 -0.71298605 0.21265502 -0.8559393 0.38647255 1.8317178 0.9816741 0.29575935 0.7010024 1.9980764 0.65574884 -0.37896368 1.7106835
QKZR -2.129865 -0.8644564 -0.032168288 0.55733275 0.50366414 -1.3152279 -0.97576034 1.5723624 -1.4450588 -1.6668434 0.9636056 -0.090287946 -0.7716743 0.57608104 0.41696733 1.3932074 1.2340021 -2.4954922 0.19884197 0.59716904 0.43874454 -2.8994784 0.30552018 0.7542668 -0.019204555 0.9543297 -1.1255363 -0.29826698 -0.32816774 0.67437214 0.9564502 0.5083924 -0.12400577 -0.6413291 -0.18670082 0.47463804 -1.9716154 1.8290752 -1.1411144 -1.3502373 0.86733633 1.0388696 2.4755588 -0.9389859 -1.8002084 -0.3036981 2.7342649 0.3264625 1.2236631 0.65784234 -2.2954876 0.832581 2.378737 -0.14648901 1.7012521 1.0691003 -1.453259 0.7645625 -0.30025744 -0.05890337 -0.78287184 0.29156253 -1.2897749 0.11918186 -1.7091653 -0.17083387 -1.3282607 -0.46538532 0.6149693 -0.4263037 2.594575 0.8356751 -2.4003587 2.2252073 2.2554789 -3.6173174 -0.3349801 -2.027377 -1.6450986 -0.6700572 0.070742995 1.9981463 -0.019847741 0.764517 -0.8720685 0.950267 -1.9095503 0.8010488 2.8007784 -2.7987692 -0.96254134 0.75582683 0.06363071 0.15447493 0.31116053 2.4099467 -0.5515323 0.5010591 -0.36713675 0.5292926
MULO 2.9030375 -0.057732604 0.12095101 -0.23705164 0.9340505 1.3730016 0.48409548 1.0247508 0.7746379 1.7446551 -1.0336297 -1.9322535 0.9690956 1.8859048 -1.9984229 -0.0137001965 -0.20894766 -1.422743 -0.4386044 -1.2011037 1.8298728 0.8011611 -2.0458128 0.03789604 0.14449587 -0.80523413 0.27757674 -2.8094282 -0.9540329 1.1480548 -1.6817364 -1.595785 -1.1921066 1.1338608 -0.51242346 -0.6350432 -0.34043452 2.1831622 0.14722525 -1.5637895 -1.0356914 2.1231823 1.0802367 0.15034987 -0.4589372 -1.4389602 0.79509413 2.6297896 -1.4213763 -0.92875236 -1.8291698 0.88412243 2.069352 -0.06518289 0.722234 0.5056498 -0.4830749 -0.11932353 -0.5649607 0.1186901 -0.7167958 0.17322415 2.4231148 0.1589069 1.2019747 0.7928792 -0.7423907 0.4382685 2.062209 -0.30923465 -1.7721462 -1.2179562 1.1774347 1.2951239 0.15340786 -3.3924863 -1.1521883 0.30049232 1.9439316 0.58664644 -1.2396026 1.3734255 0.08323534 -2.4529533 0.10196459 2.1453156 -0.7220622 2.03807 0.37811786 -1.42189 -0.6295086 1.2826303 -0.014332398 1.9716203 1.5476277 0.7751084 1.5811579 2.1859303 0.71927905 -0.27026516
YGTV -1.9432142 -1.2635378 -0.14080134 0.49959317 0.7941078 -0.8641295 -1.0327783 1.7816918 -1.4015601 -1.7326322 0.7789797 -0.14431778 -0.9276373 0.6101722 0.3418616 1.1377845 1.1984502 -2.2374334 0.41165426 0.6699529 0.47452176 -2.7086432 0.35068226 1.071215 0.0011392332 0.95935297 -1.3018594 -0.34396976 -0.3012573 0.7598143 0.587333 0.29704985 -0.149591 -0.5225961 -0.12446207 0.30811262 -2.0176184 1.6927916 -0.86288786 -1.1132284 0.80713075 1.2313378 2.2452767 -1.239343 -1.4383378 -0.30800956 2.8208032 0.3981696 1.147845 0.19251004 -2.528001 0.86223453 2.2835197 -0.023238614 1.9461374 1.2728667 -1.4303893 0.8178159 -0.14616059 -0.103975356 -0.69177717 0.14543155 -1.3639454 -0.060862564 -1.469821 -0.5504055 -1.45216 -0.49636164 0.83793527 -0.47140488 2.2977366 0.7641954 -2.205875 2.3384023 2.412618 -3.6749933 -0.33973435 -1.9563577 -1.2177521 -0.7362329 -0.05013755 2.1463423 0.16373813 0.6011865 -0.9625784 1.2037122 -1.8186908 0.73586243 2.9241796 -2.4798136 -0.7634173 0.49090624 0.20268671 0.06407211 0.28138417 2.3688767 -0.43280065 0.72914845 -0.29908478 0.71372086
EFLR 1.7716109 -2.2642975 -0.57907075 -1.3434976 0.3759321 -1.2556338 -0.62702674 -0.18622974 1.7692713 -0.14230998 2.3156722 -0.36609772 1.1666355 0.009302765 0.042508837 -0.20375422 -0.71675205 1.2239408 0.53973067 0.77468824 1.2394077 0.04468895 -1.1205105 -0.3971819 -2.4418461 0.31353292 -1.290423 -1.785436 -0.08307232 1.5073836 -0.7972298 0.7599737 1.4428511 1.1654505 -1.8318225 0.06100705 -2.9769497 1.7431797 0.6694813 -1.59032 -0.71561545 1.7902142 0.60576487 -1.4987737 -1.0903274 -1.5436504 2.8247862 0.44955176 -1.9590019 1.328553 -1.176855 0.06736793 1.2994026 1.001206 -2.1692915 0.653944 -0.842307 0.35546935 -1.099837 0.55021477 -1.5803165 -0.9172776 -0.32085586 -1.0829501 1.5463029 1.1343141 -2.9322193 0.52103835 -0.3411069 0.4966617 -1.2769792 1.4170955 1.5238435 0.07903091 -0.80698997 -0.58899623 1.0665693 -1.7436428 -2.1248736 -0.8464827 -0.52458405 1.2108961 0.685647 -0.5917126 2.1925716 2.0756066 -2.7786455 -0.15138842 -0.57613015 -0.17076628 -1.5892445 2.6393564 0.2724517 0.371034 1.8759767 0.6877065 2.607345 0.35304064 0.89116824 -0.25841096
ELJV 0.45304626 -0.8165785 -0.65282524 -0.5671037 1.682304 -0.397837 -0.00014475256 -0.742469 -1.4527719 -1.4662108 -0.120857164 1.1091415 0.8342982 1.659478 0.8700558 -0.48576698 0.9208647 -1.3622508 -1.594011 -0.37992853 0.06636368 -2.4794312 -0.29880393 -1.070459 0.2402007 -1.5983896 -0.08464484 -1.7579553 0.40940073 0.5115943 -1.9365162 -1.2334914 -0.36401328 0.537806 0.94854575 -0.22175027 0.59565884 1.7157414 -1.6149247 -0.6009992 1.238215 0.9128049 0.16953714 -0.25227273 -0.087206356 -2.4940562 1.4852298 2.6308985 -1.2170327 -0.082818106 1.7700849 -0.44286022 1.8747768 -0.4924303 -0.77037305 -1.6087655 -2.1307838 -1.1169817 -0.6537124 0.75302273 -0.77450454 1.353256 0.056953084 0.1943408 -0.049904864 -0.99836814 -0.13614517 0.6291988 0.40768832 1.2796832 1.4402484 -0.39822283 0.5687504 0.48437995 0.5205482 -1.469927 1.1284693 -2.030742 -0.17778926 0.8365195 -0.21085174 0.62794787 1.6873113 1.8035284 2.1886933 1.6430992 -1.1365443 1.2625142 0.96971774 0.6232494 1.2687463 -0.18872343 -0.6956149 0.31302997 -0.38907757 1.1827003 -0.2120006 2.5193143 -0.97222745 -0.58747345
PWVT 1.9046874 -2.5801709 -0.5458389 -1.3290551 0.24186626 -1.6941953 -0.34456736 0.16449754 1.6641519 0.24069183 2.1031735 -0.18269712 1.1781034 -0.14377964 0.37162888 -0.45965132 -0.4832099 1.5886934 0.6473591 0.53353035 1.0164964 -0.014831072 -1.1170512 -0.38079146 -2.5592966 0.36896324 -0.90959173 -1.9030827 -0.47508895 1.5397754 -0.6922312 0.89395046 1.1719534 0.7121832 -1.6926948 0.164209 -2.900572 1.3027126 0.8148396 -1.6271721 -0.9960657 1.9495255 0.45877987 -1.6408031 -0.92297274 -1.5163407 2.407229 0.44026124 -2.0004427 1.5985034 -1.0914916 0.04459932 1.1739061 1.1758932 -2.3311667 0.7409572 -0.57932323 0.24522734 -1.0495251 0.24508339 -1.7140882 -0.968514 -0.076204166 -1.3679934 1.6210736 1.3352376 -2.762681 0.5947966 -0.59412354 0.9542307 -1.3068831 1.4730358 1.5477463 -0.019980839 -0.7695291 -0.25581715 1.3376658 -1.7254702 -2.2788224 -0.8473973 -0.43277168 1.2781045 0.88798124 -0.65086496 2.066904 1.8830345 -3.0194705 0.09725663 -0.6632804 -0.49971813 -1.7360798 2.7593648 0.6659218 0.6685228 1.790032 0.39330605 2.4518678 0.38718683 0.6678946 -0.61841816
PRWM -0.47548375 -2.2121298 -0.3219422 -0.31648532 1.0585055 0.17513055 0.23544759 -0.49793154 -1.7951179 -0.1143373 -0.5956499 0.8976258 -0.37102532 -0.61526865 1.6644965 0.34701422 0.7067522 -0.7826058 0.55151707 -0.59883636 -0.027349956 0.013359937 -0.291857 -1.6469144 -1.3297287 -0.40212905 -1.7603898 -0.630638 -1.5343546 1.3007455 -1.3275224 -0.43492445 -1.2911844 1.3364483 0.49785057 1.7640678 -0.3077644 1.5118247 -0.016222177 -0.10383413 0.6133485 -0.44619778 -0.023537097 -0.9249849 -2.078534 -0.38241524 0.2008898 -0.044624656 -0.26330248 0.028069034 -0.64190555 -0.85265845 1.0241964 -2.23776 -2.2740068 -1.736584 -2.1615438 0.8984847 -1.6876408 -0.13720047 -0.87072366 -0.12265347 -1.1945689 1.1170013 0.4330978 -0.87656003 -1.2446907 -0.8361588 0.1950316 1.2611587 -0.63830334 1.1258951 -0.6902576 0.017544392 -0.2998995 -0.99076307 -0.41072163 -1.9546542 -0.95405805 0.5181685 -0.66923416 -1.2099428 -0.75707835 0.63777447 0.40289977 0.6867972 -2.287514 1.0110844 0.79101086 -0.93084306 0.98357916 -1.9088978 -1.385468 -0.8064725 -0.15602222 1.0597048 -0.53662556 0.3409383 -0.11863368 2.882553
SGPU 0.56847566 -0.5214935 2.7897348 1.008178 0.16279602 0.41070327 -1.061178 -1.9149759 2.0548353 0.77936274 0.08104684 1.5095493 0.115673445 -0.04433862 -0.84333676 -0.4587364 0.16070536 0.63985974 0.32973376 -0.23740126 -0.512154 1.1571513 -0.20129064 2.2724178 -0.8468285 -0.18662186 -1.5860577 -0.03245391 0.054915033 -0.07435247 -0.026469309 0.96364594 -0.80133843 -0.113132484 0.75864846 2.0485463 0.2728955 -0.13085562 -0.6734036 -0.35773444 -0.47201508 0.8777946 1.4797311 -0.02244352 -0.8353007 1.4620454 -1.1217946 0.4342666 -1.6711514 1.1738425 0.9374839 1.3772174 -0.2803002 -0.37499517 -0.7650628 -1.3305725 0.5083875 -0.012141216 -0.65620184 0.51478195 0.20529886 0.016793739 0.24415803 1.5880687 1.3597473 -0.58569705 1.1598703 0.0066233757 1.686798 2.4348128 -0.59019023 1.2378039 0.07542577 0.12205386 0.2683852 0.108552925 0.6464993 0.30530185 -0.57373494 0.19221638 -0.19268884 -1.3481326 -0.8350379 -0.43858075 0.7377922 0.4140495 -0.44174537 1.4367696 0.7676651 -0.8233337 -1.0432534 1.3937861 -1.6472797 0.8479714 -0.22917122 0.5174307 -0.8680529 0.53911686 -1.00622 -1.1220381
KMIY -0.61982614 -0.862351 2.4963872 -0.2620184 -1.4054848 -0.92733425 -0.40954873 0.77995384 -1.8493625 -1.8352243 1.0966854 0.40499148 2.1494143 2.5060863 -0.7225892 1.6394492 0.7754001 -0.3105587 -1.7514125 -1.5610799 -0.8002584 -1.2177764 -1.1890322 -1.4717605 0.7079148 2.4300966 -0.4667658 0.89504737 1.5112214 -1.2323464 1.7354009 1.7189823 -0.12290383 -1.2475401 -0.017651021 -0.8945013 -1.6380775 -1.3450489 1.3917129 -0.762519 -0.67399955 -1.3458657 -0.9636917 -1.6107135 1.0718411 -0.32663763 -0.055123635 0.37757063 1.103372 -1.6403329 0.8490447 1.4799298 0.42947978 -1.3403544 -0.8408937 -1.0416484 -1.5615699 1.5589143 -1.0031478 0.5107825 0.29739225 1.3181999 -0.042002894 -0.36348823 -0.85333806 1.9690566 1.1605271 0.9829859 -2.0437682 -1.4894553 2.1966317 0.06028298 0.16404374 -0.620728 -1.2921152 0.48463017 -2.2960415 -1.5997165 0.5292558 -0.23611644 -1.9988233 0.34478718 0.047392517 0.41339657 1.1796746 -1.3089976 1.7767311 -0.6710774 1.1398124 2.0977807 0.20233628 2.4138372 0.68476903 0.38816524 -1.5766267 -0.75646913 1.0611619 1.3123735 -0.56258994 0.5380922
QHUT -3.0082412 1.6774799 0.19622813 -2.213573 -0.8072019 -0.3669581 0.21174017 0.5185703 -1.5446993 -1.2903237 0.09533405 -1.3167737 1.7770196 -0.3195452 0.4522383 0.6057634 -0.14818804 -0.13925327 -1.928986 0.4932618 0.3956538 2.08921 1.0828167 -1.8431634 -1.7566007 -0.8129222 -1.2190839 -0.41976088 1.7087152 -0.89083207 1.7964514 -0.25875565 -1.0943943 0.0003363836 -1.1098963 -0.7179408 -1.2328578 -0.13602039 -0.03839346 -1.1699083 -0.9516951 2.168884 1.353081 0.40031636 0.981025 -1.6411442 -0.80265313 -0.945454 -0.28561664 1.6831275 1.1462344 0.4523291 -0.49255323 1.6835036 1.1745552 -1.6898365 0.3775155 -1.7228717 -2.1647818 -0.26736334 1.6103358 0.620208 0.826121 0.3802727 -1.5166923 -0.23232707 0.6960775 0.9463801 -0.9873067 0.39262235 1.9298198 -0.36332244 -0.88814235 -1.3099736 0.11350288 -0.3220788 -0.52394986 -1.1143043 1.6059772 1.0048938 0.7682165 -0.2616582 0.2572468 -0.9383664 0.20162117 -0.70776135 -0.46539554 -1.6855508 -1.7926941 1.6376384 0.7676398 0.79324234 -0.3982735 -0.26668403 -0.5053106 -1.4909564 -1.242202 -0.9754475 -0.4464126 -0.29662916
HTNG -1.0590761 -1.0673143 0.72558707 -1.7603248 -0.07983311 -1.6355162 -0.11596922 -0.90041244 -1.8218862 0.75579715 0.7706646 0.046455782 0.63260293 1.106485 0.40171805 -2.0698893 0.5097348 1.3781246 -0.84746003 0.39461666 0.9824262 0.22594784 0.050944436 -2.800984 -1.596895 -0.62770426 -0.45073232 -0.62668175 -0.059879117 1.0239415 0.23817642 0.61099404 -1.1163852 -0.74883133 -0.8286345 0.18203089 -0.55784065 -0.9914806 1.6423967 0.16949488 0.09998102 -0.37598488 1.4199935 1.0233022 -2.3414416 -0.31533885 -0.11026963 -2.576776 -1.1426477 1.0699878 1.6893915 -0.27871385 -2.1110272 -1.1812766 0.13001093 -0.21897714 0.37339342 -2.1255028 -2.287796 -1.5112872 -0.3346509 -2.5616014 -0.21036138 -1.1813334 0.20696962 -0.19610278 -0.098392464 0.35629767 0.57106376 -1.8923798 1.3258685 -1.4232496 0.6377554 -1.1571665 0.17762995 1.1611184 -1.2843232 -0.38623267 1.2553464 -0.47274953 0.20038909 -0.022235002 2.823681 1.06852 0.94648063 0.37289453 2.2052934 0.751382 0.4205027 -1.0966355 -0.26096144 -0.17730604 0.02790767 0.63660014 -2.0945709 -1.0319177 -0.18050969 -2.8995743 0.88595504 3.8411777
SZVX -2.0331383 -0.6845915 0.2481864 2.120044 0.16274689 2.2991734 2.0188239 0.4129265 -1.7388729 -0.20058364 -0.42804995 -2.874349 1.9373595 -1.5621232 2.6072328 -0.24318852 2.1971152 0.5314858 0.47022852 0.35234967 -0.10953517 1.9697567 0.10913998 -1.3259336 -1.121992 -0.8831605 -0.8273401 -0.19635859 1.9061539 -3.2283926 0.6762369 1.1052802 -0.7730142 -0.6509664 3.1194258 -0.62244993 -0.59652 -1.1315242 2.2528875 1.4392697 -0.4701527 -1.9144346 -1.4203815 -0.82427126 1.6526002 -2.262469 1.0787286 -1.072777 0.7091304 1.8754165 1.0333887 -0.64263815 0.44178748 0.40777144 -0.77005196 0.44810957 2.2438245 0.4432645 -1.4222509 -0.5923481 -1.0896261 0.6173818 -1.9599099 0.105828084 -0.3203501 0.32971454 0.25943527 0.98874015 1.0635352 -1.5767913 0.94670373 -0.40572202 1.3907872 0.9810046 -1.835687 -1.216602 -0.089736834 1.523548 1.3471631 -0.31005752 1.5320255 -1.3237478 0.2371005 -0.4513571 0.03816277 -0.4772592 0.90979934 -0.61357176 -1.0234063 0.049245205 1.9259795 0.68528944 0.8513069 0.8163091 0.6580838 -0.799127 -0.021580668 0.48631418 0.4426915 -1.1363261
XDHN 1.7379155 -1.2942905 -1.6274105 0.77737236 -2.5539863 -0.36658797 2.0518303 1.3086782 -1.4864658 0.7302206 -1.1862714 1.3987823 1.7438358 0.2151317 -0.10725789 -0.8524451 0.5275851 -0.4345793 0.9750911 2.7911663 -1.943312 0.92675555 0.8959959 -0.5873867 1.043138 -0.7453447 -2.9475875 0.59097296 0.52154535 0.2939751 1.730156 -1.2809881 1.0161618 1.4906265 -1.1431245 1.0156931 -1.0074733 -1.3527933 0.27919975 1.8755215 -1.2250854 -2.3962018 1.2409642 -0.16638829 0.29993743 0.96029377 2.1587567 1.433084 1.2790169 1.0242752 -1.2101865 0.8268628 -0.07666368 -0.5382855 1.5478803 -0.6232281 2.1109002 -0.58335304 0.17365783 -0.295964 0.000786123 1.8284873 -3.1394227 0.38630563 2.9713616 -1.1498436 0.027826121 0.47962487 1.0611147 -0.05000527 -2.3578877 -0.54085183 -0.19565104 0.3960828 -1.4477336 1.1273983 -0.5465134 0.2579118 0.21337087 -0.32176718 -0.023888484 -1.0520155 1.321038 -0.387985 -1.7943978 0.06700957 1.7259841 -0.0019791045 -0.0648478 -0.40245277 1.387095 1.7315334 -1.1381686 -1.1837406 -2.519037 -0.41161478 -1.0627327 -0.35106707 1.0325788 0.4954451
SOWM -1.2501749 -1.0655751 0.93311673 -1.2653105 -0.05341546 -1.5549654 0.17635043 -0.735929 -1.7307804 0.8422178 0.7925164 -0.036915034 0.8037285 0.9786135 0.7091075 -1.9693326 0.7625889 0.9973055 -0.74594474 0.75553983 1.1415447 0.5233487 0.09040903 -2.8954427 -1.7288239 -0.4079933 -0.53777164 -0.6192095 -0.22668749 0.90021616 0.41464055 0.79735047 -0.98085696 -0.93734723 -0.6898808 0.29078805 -0.6724894 -0.99208874 1.5143089 0.42432624 0.17138039 -0.04900431 1.2354664 0.7189839 -2.1737921 -0.09755504 0.1210029 -2.491995 -0.66014886 0.74542505 1.4119737 -0.29463223 -1.8669628 -1.1313889 0.10982847 0.022941029 0.43151844 -2.1005177 -2.4536636 -1.5933561 -0.2567941 -2.4814925 -0.3783765 -1.4304862 0.033234827 0.12642016 -0.3111253 0.39127758 0.8731264 -1.6392106 1.5411739 -1.2122762 0.4213459 -1.0683796 0.33952644 1.0125129 -1.297834 -0.54447746 1.212102 -0.39173058 -0.123631395 -0.2532812 2.9301832 1.012056 0.8792675 0.080411464 2.2266371 0.69715124 0.6106867 -1.3875457 -0.13374683 0.096886486 0.1801816 1.026375 -2.2930677 -1.0150272 -0.5037943 -3.1632273 0.663793 3.710074
SGFU 0.74326414 -1.9082177 0.3880857 1.0125581 -1.3607038 0.97437847 0.3591094 -1.9338015 -0.4258605 0.77807593 -0.26824176 -0.64527166 0.59046674 -0.15253049 2.1417532 -0.027162887 -0.24807255 -2.08072 0.41600248 1.8661286 -0.78093123 0.57088816 0.9661697 -0.8273433 -0.6841675 0.7032819 -2.1231651 -0.5570448 -2.2789958 0.06680728 -0.63152575 1.7458326 -0.11722056 -0.9923157 -2.0662115 -0.06849637 0.46743277 -0.4916072 0.067083634 -0.15194109 -0.6546628 -1.0642979 -0.8261792 0.772777 0.66958064 -0.08117509 1.6647995 -2.1807404 0.7855883 -0.23798168 1.2433614 -0.88295436 -0.84927166 -0.6840838 -1.9352093 -1.8035659 -2.2884986 0.6277817 -2.2723072 0.98784053 -1.9451404 0.0074300673 1.1704104 -0.25089145 0.27613458 1.5775961 0.07770874 0.85059977 0.075965986 1.3823069 -0.4853451 0.53822756 0.8505095 -0.36993697 -0.88658005 2.5210643 0.16755451 0.530829 -2.28253 -0.26147038 0.66419554 0.32360783 -0.4389946 -1.1178299 1.6373537 -0.52591187 -0.56725436 1.7727114 0.961059 0.47673032 0.10595374 -0.8780445 -1.4194219 -0.8375123 1.9849716 0.15672944 -0.5491466 -0.15495962 1.458808 1.0905029
HTRM -0.43505126 0.043076325 -1.0818383 -1.0169995 1.9205414 0.21922411 1.3132313 -2.928894 -1.7574434 1.0172746 -1.5817611 -1.3028562 0.18979159 -1.558196 1.5601736 -0.81007844 -0.04938072 -1.1577512 -0.9342531 2.019806 -0.2177227 1.1320375 -1.7850292 -0.048122346 0.4013099 -0.021900926 -0.017440181 0.87188745 1.3212967 1.2057071 -3.3384302 -0.7550303 0.888668 -0.98463184 -0.10381664 -0.14798112 0.43796277 1.4621686 -0.20150411 -0.61906016 1.0556672 1.6867543 -1.385628 0.7229524 -1.0545592 1.6838249 1.5799671 -0.25995296 1.4543318 -0.85012347 2.541301 -0.17195691 -0.6926627 -1.0207673 -0.33907664 1.6098853 0.5153889 -0.6622963 0.26999164 -0.7734209 0.39692605 -0.20295666 -0.8587409 -0.98277503 0.91085684 1.559794 -2.107497 -1.4388392 -0.030840838 1.05674 -0.3124177 0.2837602 0.7104931 -1.5040706 -0.7824214 0.22829331 -0.7507055 0.023293959 -2.2341092 0.80737704 -1.9764607 -0.7693873 0.2864502 0.030340394 -0.5601638 -1.2146509 -1.4278036 0.5251566 -0.60237074 2.0456839 1.202912 0.45640072 -0.10417463 0.86031175 -1.2840999 -0.06128268 -0.22927257 -1.005673 -0.42216578 0.3355337
GXIH 0.34413257 0.6421633 0.56223583 -1.5141748 1.8024536 1.3902204 0.052050244 -1.2459974 0.28321165 1.3862524 -2.3161864 -1.1691295 -1.6579835 -0.1953891 1.6211109 -1.7787477 0.606264 0.06913731 -0.94969827 0.23721942 -0.62145776 -1.134944 1.3683403 -1.8317949 1.3665503 -1.5411831 -0.22957845 -0.38231966 0.5978037 1.5434002 -0.17392878 -2.9806347 0.27088302 -0.12996775 -3.125544 -0.786084 -0.8165451 -0.13979542 -1.0052419 0.08860271 -0.3547412 -0.5357153 0.74563813 -0.1328316 -0.4020505 0.01577067 0.5818382 -0.9152548 0.300691 0.8341892 -2.0524802 -0.4201336 -0.665404 0.11335002 0.46396613 0.29593548 0.3187692 -2.175733 -0.38863945 3.2442093 0.21933189 1.2469754 -0.3777392 0.3065852 -0.79569924 1.2294546 -0.32886225 -0.1737576 0.46541473 1.4356751 -2.199898 1.2800902 -0.5100081 1.7359092 0.45453313 1.066755 -0.4064692 0.96617895 1.3348349 -0.4664659 -1.6482825 0.5755649 0.49466002 0.98560566 0.47406313 -1.5673305 2.5051386 1.0925409 -1.9353774 -0.0024844867 0.1633551 -0.95853263 2.672525 -0.42603254 2.148516 -0.49361366 -1.2400784 -0.00346372 2.1085718 -1.5084667
YPCK -0.93573016 0.617716 -0.9320819 -0.8403254 0.87981117 1.3481065 -0.35573873 -0.96785074 0.9932692 0.5966879 0.93876517 0.03324763 -0.02658507 -3.5143588 0.77543056 -0.4004686 1.8345687 -1.7594339 1.1198158 -2.1449907 1.0635381 2.2372677 -0.34330133 -0.7348662 -0.27571413 -0.19650097 0.83143336 -0.24096286 -0.26080984 -1.3252236 0.44642144 -0.81830025 0.84039664 -1.3818096 1.2420077 -0.7991104 0.874207 1.2218808 -1.2912532 0.45007578 1.1409779 -0.38846004 -1.1829684 1.1756846 0.40546435 -1.09614 0.070082985 1.592369 -0.35226333 1.1012113 2.3269267 -1.8801728 -1.034548 -0.3249619 -1.1351008 0.07370453 -1.239108 0.25201538 0.055721648 -0.79676163 0.0395933 1.3078578 0.059636135 -1.6168112 1.1193949 1.587787 1.1506739 0.94003415 0.60378647 -1.233625 -0.2777135 2.1722414 -0.12751591 -0.96711177 -0.914354 -1.1119263 1.7383364 2.3115249 -0.33899453 0.709545 0.9540366 -0.9836507 1.0268604 -0.050144773 2.627477 0.5760612 1.497829 0.857283 1.0926467 -1.3960526 -1.0312068 1.2898766 -0.3529312 -0.62403715 -0.30561274 0.20102733 -0.61389273 -0.3754925 -0.33653587 -1.3791687
GEJD -0.762972 1.602341 1.499804 2.2714505 0.9643459 0.3263537 0.54335254 0.18381017 -0.8449107 -0.23042375 0.059566785 -1.2872077 0.27496648 1.3429143 -0.7897726 1.6222785 0.40478387 1.4066615 1.5681858 -1.2738692 0.2383058 1.3310009 -0.893777 -1.8087252 2.3458328 -0.55023 0.7898921 0.09554191 -3.7748213 0.94654155 0.20055272 -0.4709907 0.6299641 -1.6717149 0.8850462 1.7258073 0.29268855 -0.17816672 1.0423342 2.856557 -0.30028275 -0.775855 -1.5867587 0.108274356 0.91532624 -0.71642756 -0.30317214 -1.3900859 1.3766955 0.2158701 -0.26791087 -0.28208765 -0.51671237 2.5178676 -0.31402612 1.1590904 -2.0783772 -1.0909779 -0.35137638 -1.4992214 -1.3457618 -2.1477165 0.42191127 -0.123462744 -0.4175624 1.209147 0.8439413 -0.10523009 0.91650116 -0.79582405 -0.5875084 -0.89072025 0.089506686 -2.7983859 -0.85302603 0.539159 0.18956658 0.6269888 -0.46791255 0.8418387 3.044449 -0.6255568 1.3425447 1.63973 1.295278 0.0849876 1.5748479 0.7245951 0.8067508 -1.8398577 0.88758147 2.7622354 -0.4121109 2.4754906 -1.6459492 -0.874169 0.15698166 -0.99652654 0.2541349 -1.2500482
ZJHC -1.2169875 0.054144382 -1.5386537 0.4097169 1.340005 2.3109527 0.5645288 0.615582 2.350206 0.9290792 1.3889084 0.24824992 0.5669258 -1.4854429 1.5647929 0.51366 0.61998445 -0.888567 2.257046 -0.651803 1.5422337 0.009266299 0.026802089 -0.6485372 0.879717 -0.44279885 1.8700774 -0.78444743 -1.3374362 -2.3990886 -1.3620188 1.2651234 -0.11366829 -1.5046178 0.4427909 -0.38910285 0.8820918 -0.39656308 -0.90447164 0.98743457 1.0332217 -0.08094241 -1.1130003 0.9064679 -0.223796 0.6217649 1.5035502 -0.12078551 0.2822845 0.64023644 -0.85146344 -1.3240907 0.6660749 1.1117415 -1.5510134 -0.45895383 -0.5366773 -0.57220256 1.6506333 0.59025204 -0.41277206 0.8587184 0.82611644 -1.4084357 2.1483061 0.24156652 -0.7322576 0.3715289 0.90939814 -1.018266 1.9791703 -0.79394287 1.7223089 -0.6571054 -1.4542968 0.15860498 1.463446 2.4069018 -0.33752292 1.3702786 0.5294942 0.062062886 0.49490693 0.7842873 0.8709753 0.17182614 1.4924527 -0.08804012 1.3446492 0.3107832 0.39180058 -0.8251195 0.93626 0.11819163 -0.5920372 -1.1466376 0.039237503 -0.558467 -1.113934 -0.33468828
JITZ -0.4115448 0.9564062 1.841581 0.37829256 -1.0002495 0.53072673 -0.49123883 0.7722488 0.45092306 0.0669732 0.9153282 -0.51885384 0.95325625 -0.024840454 -0.38375932 2.205043 -0.22769664 -0.35929516 0.45607576 -0.95868474 1.6177418 2.5652773 0.6015521 -1.4912087 0.37146905 0.36849216 -1.6137266 0.5661854 -0.082934014 -1.7332647 1.3900312 0.6861232 0.3337187 -1.8051412 0.9843476 -0.6485903 -0.63590616 -1.4865994 0.9206816 0.485468 3.3403928 0.124979414 0.3724097 0.7847212 -0.639783 -0.8012705 1.5757823 -0.61122614 1.1983266 -0.41178024 1.264507 0.16229154 -0.2700982 -0.19517158 -0.4165635 0.4854456 0.13816595 -1.9304535 -1.3684496 -1.0352354 0.68729484 -1.369147 0.59741604 -0.5083986 0.5353378 0.84305763 -0.11742358 1.080852 1.1143754 -2.0329492 2.852389 0.4141581 -1.096084 -0.29354668 -0.9717485 -0.052848727 0.5181127 0.5311787 1.3882413 -0.43802717 1.0411578 -0.07825636 0.34032398 0.31145984 0.38618925 2.834785 0.7151079 -1.2627414 -0.8893918 -0.012279762 0.1502408 -0.90901303 0.8695297 -0.6812323 0.702508 -2.2964306 -1.8638215 -0.16905974 -0.6058709 0.5423622
WAEL -0.45036098 -0.84454733 2.5027158 -0.2539556 -1.1771882 -1.0441933 -0.2749578 0.8697601 -1.9345071 -1.628781 0.91878855 0.32014853 2.1807096 2.51813 -0.7315188 1.4632638 0.79943496 -0.19441158 -1.4938536 -1.716127 -0.6157522 -1.4642785 -1.1911566 -1.4486177 0.5224584 2.2638874 -0.61454403 1.121319 1.4984546 -1.3299363 1.6809275 1.7531092 -0.12228006 -1.2136681 -0.18078665 -1.0841972 -1.7532065 -1.0917804 1.2145016 -0.9597077 -0.87454367 -1.3516103 -1.0242317 -1.7774459 0.9672215 -0.5807281 -0.12670262 0.19441631 1.1173667 -1.7325183 0.9374591 1.4779711 0.6229162 -1.3869705 -1.1112251 -1.1409218 -1.7496498 1.7259332 -0.87900805 0.5214219 0.26437807 1.1685629 0.14123333 -0.30950183 -0.6626544 1.7950941 1.3206413 0.85629773 -2.0371149 -1.5142032 2.069484 0.2131869 0.17038596 -0.87902683 -1.2225633 0.59380907 -2.3416715 -1.6612626 0.6498786 0.054324742 -1.985583 0.38837135 -0.031197377 0.4051011 1.2494692 -1.4683007 1.9184223 -0.64168924 1.3830347 2.0888062 0.15800753 2.4220607 0.90793645 0.49566296 -1.4391688 -0.8476047 1.0358034 1.0079795 -0.48663825 0.44854248
BLHF -1.502335 0.27889517 1.2985302 -0.377754 -0.010199659 1.1702452 -0.14795995 0.70860285 -0.5453448 -0.23464267 1.2543364 0.35172793 0.9297823 -0.46755496 -1.1858541 0.5515658 0.24719346 0.38937956 2.4779968 0.33512592 2.484029 1.5328399 -1.9740527 -1.0770657 0.95928913 -0.5878806 0.6193085 1.2835212 1.2585641 1.2883356 1.4504749 0.94067234 -0.057031397 -0.15680039 1.1475604 -1.1382866 -2.0176525 -0.63942766 -1.826932 1.863666 0.96243036 -0.32999536 -1.2244848 0.6731297 -0.068479046 1.665819 0.47911662 -0.12465646 -0.14469638 0.67648214 -2.1011727 0.11442445 0.041553065 -2.1659544 -0.75060934 0.07905089 1.8415272 0.5022724 0.7838244 0.779793 1.3905971 0.14798376 0.69084525 0.09214578 -0.84371924 0.20317681 2.153643 0.7287893 0.12805468 2.7204733 0.8312056 -0.18932796 1.1217687 -0.70557714 -0.7432324 0.32735968 1.8747388 0.20580956 0.90813166 1.186614 0.40577552 1.8100733 1.1311568 0.001163643 0.6584908 1.3796179 2.2154436 0.05165816 -0.9792242 -0.55188626 1.1996624 0.099020146 -0.829458 0.6678262 -1.5389478 -1.3596841 -0.75587374 0.13098323 -2.0511072 -0.10924846
SHUX -1.0606855 0.70289916 -0.72079635 -1.3611169 0.88365734 -1.0240883 1.0772089 -0.5148997 1.101448 0.42706528 -0.8032245 -0.47770306 1.2713689 -1.3163365 0.671047 -0.08983119 1.3717952 0.8649701 -0.12286012 -0.47570193 -0.49474546 0.43084222 0.37597117 -0.85500294 0.37578088 -0.111413054 1.444355 -0.3949649 -1.1169553 1.739268 -0.51354736 -0.38219953 -0.802628 0.92424697 0.7498593 -0.6850919 -0.1782318 -0.4891273 0.2034236 -0.3476471 -0.88044614 -1.5848321 -0.5527322 -1.3110143 1.7122128 1.7320969 0.03175245 -1.7892255 -0.98689765 0.06694097 -0.16507167 -0.31372494 1.0321265 -0.52630395 1.1973671 1.11947 -0.20132594 -1.0718365 1.3829371 -0.3988871 0.93758744 1.1602025 0.09381444 -1.4569035 0.30757585 -0.20499259 -1.1984013 -1.2986369 -1.2705959 1.9591303 0.08977397 0.06379864 2.4687278 -0.53924906 -0.5546361 1.0240132 0.5822206 1.0977167 -0.7886608 2.0855625 1.160153 0.5506766 0.97134125 -1.2765646 -2.9130685 -0.8284816 0.18107688 0.94560486 0.33837193 2.2345579 0.7539889 -1.1314584 -1.0691235 -1.3831306 -0.3761581 0.9573741 0.68486285 0.6412807 0.25292554 0.49853948
DZHO -0.6862386 1.1500386 0.049957722 -1.0821037 -0.7014231 0.052215017 0.08462905 -1.3816 0.7848553 -0.8591722 1.19126 0.44453436 -1.0732341 -0.036484566 1.2611955 0.3120796 -0.061854023 1.9830863 0.27455336 1.1756595 0.47246966 -1.0803463 -0.47847655 -1.5377376 -0.31253564 0.047364492 0.92249435 -1.2071729 0.780934 0.1471313 -1.8038216 0.876669 3.3183897 1.2021362 1.3413404 -1.2198148 0.9873235 -0.30104977 -1.9154307 0.32712516 -2.003149 0.63406664 -2.0040727 1.5214543 1.0648044 0.21611798 -0.057848666 0.60910356 0.42540544 0.287049 0.17179993 -0.34695074 1.6830826 -0.882478 -0.46111095 1.5459226 0.4569223 -0.10616628 1.1583308 0.21129705 2.0359747 0.41182932 -0.32693022 -0.535339 -0.21366401 -1.0437297 -0.39078146 -2.20036 -0.14657865 0.5927566 -0.68035764 -1.214262 -0.2883257 -1.819272 1.6717477 -0.15431504 1.8909252 0.28636336 -0.5833356 0.043230284 -1.5989288 0.36166054 -0.14382736 -1.2240261 0.76698035 -1.5722845 1.905134 0.45248744 0.2708179 0.318018 1.0524273 -1.8468031 -0.5012766 -0.27181736 1.1737312 0.8892674 0.14288703 0.891747 1.2030287 -0.951697
FYXA -0.448253 2.0858343 -0.11218603 0.67816323 -0.8024168 0.65098035 -1.5487001 0.7173451 0.5836136 -0.23676164 0.20738746 1.5668182 0.34670976 0.96078837 -0.5337369 -1.0828962 2.1193323 -0.33532572 -0.60578734 -1.7924565 -0.15608224 0.58291155 1.5955726 3.048663 0.5083966 2.6107423 1.3009725 0.5575918 0.9373954 2.7358778 -1.0954655 -1.4114351 0.8837747 1.5437115 -1.2071931 -1.235354 1.1637467 -0.64506567 -0.67925495 -1.5349249 0.2695311 -0.13941626 -1.2692586 1.6327145 1.4230701 -0.101029284 -0.8885259 -0.72027886 0.18948986 0.7753243 -1.5551833 -1.4902374 2.2675962 0.7337686 0.4049222 2.1021845 0.7245 -0.388007 -0.75329775 -1.723297 0.031082513 0.43374276 -1.0873516 -0.2615344 0.70820254 -1.5772566 1.6022992 -1.9102651 -1.9017048 -0.2532095 1.8617365 1.5540086 1.330351 0.9063659 1.1476582 0.65883356 -1.2876483 0.10925935 -0.07169062 -2.4590483 1.1232135 -1.3859876 1.8612161 0.64958537 -1.2099366 -1.1374726 0.71410286 0.004794481 -0.9539829 1.1336601 0.4904102 -1.4988992 2.8322823 -0.46812916 1.7880538 -0.6284733 1.3188283 1.2055436 1.0725099 0.7303222
HWUL 0.5421127 0.25193983 -0.030647064 1.823087 -0.03295825 -0.06555597 -0.7087981 1.1698769 0.1748158 1.0311763 2.6347628 0.20107858 -0.13667564 1.1037495 1.6494775 -0.1493509 0.76978964 2.149315 -0.5203018 1.1190068 -1.9056103 -0.50156623 2.646232 0.69170725 0.6299838 1.0080283 1.7274196 -0.8473182 1.0175089 -1.9062972 -1.45781 0.598496 0.48970902 0.57424426 2.1256013 -1.4098414 1.7703775 -1.5857761 0.9323217 -1.0120755 -0.78733003 -0.9671009 -1.9702767 1.5390247 1.4328519 -0.5205299 -1.7587825 0.5597254 -0.9122489 -0.6361223 1.029061 0.8207908 1.5167198 0.062542304 -1.9134595 2.3336341 1.8661932 -2.1562884 0.90334064 -1.3023121 -1.8029214 -1.0861343 -1.127248 -0.8106856 -0.9719009 -0.8356089 -0.80053043 -0.33349082 0.3596657 -1.2652559 -0.35423243 -0.3881449 -1.3589671 0.73678637 -0.2476394 -2.4409752 0.4558089 -0.8556439 0.47815445 -1.4012359 -0.59657925 1.1176001 -0.08289832 -2.3664267 -1.4916929 0.12592034 -0.014519998 -0.48443112 -1.1241819 -0.1761106 -0.15419358 -0.967313 0.19111452 -0.35025924 2.082244 0.41166696 -2.0957725 -0.064970754 1.7904265 0.51786625
VKEF 3.1990116 -0.42903173 -0.7989048 -0.5829088 1.15097 -0.6309904 -0.13983972 0.5178583 -0.03174579 0.77781624 -0.7337181 -0.40026405 0.41881993 1.7495967 1.1201938 -1.4524704 1.2234362 -1.296402 -2.38871 0.802861 -0.17407048 -1.8143818 0.11137729 -1.191841 2.6274219 -1.081275 -1.049459 -1.4226389 1.8080254 0.022475941 -1.651258 -2.103616 -0.5414029 1.1060958 -0.9150039 -1.2758664 -1.1199455 0.9150788 -1.2795169 0.034504052 0.4912491 1.1050597 1.2806873 -0.94003505 0.47254354 -1.7130342 0.6522585 2.169294 -2.0608253 -1.0457246 1.8160859 -0.23463956 0.080684066 -0.6179254 0.55367213 -1.4769444 -0.054667976 -3.4701986 -1.1401163 0.21174529 -0.5407497 0.8615371 0.9330642 0.22625016 0.30420628 -1.7120878 -0.0026429712 1.4834536 -0.03598026 2.4013882 -0.19888699 -0.5900129 -0.29758814 1.9750352 1.4857655 0.94636506 0.3406427 -0.83982617 0.7280096 0.2359885 -1.38392 1.9199009 2.2289705 2.4449666 2.0167725 0.4079652 0.7321913 0.90665376 0.25900114 0.3301228 0.5914805 2.251279 0.10112815 0.5048512 0.92204124 -0.6834484 0.15962122 1.4840491 -2.096473 -1.1038632
IZOX 2.5649674 -2.1626506 0.9270978 -3.0179536 0.6287683 -0.5445425 1.4867754 -0.87659556 0.5575271 -1.1237264 0.511401 -0.25869825 -0.13032864 -0.6917636 2.9058626 -0.5436236 0.2245309 -0.496018 -1.6669465 -0.53286105 1.9721045 0.51757205 -0.11716617 -0.17492455 0.40819213 0.8253435 -0.08921763 0.3830401 0.012433536 0.8153776 0.837034 0.91310024 0.6520611 -0.2482245 0.6282602 -0.6017744 -2.478493 -0.008912018 0.4055093 -2.1198251 -1.3792461 1.5655863 1.4289298 0.43500918 0.0065079066 -2.3527129 -0.09308936 1.4912361 -1.7075683 0.5619223 0.38619366 0.05345532 0.29636037 1.9407169 -0.4990022 -2.267331 -1.658829 -0.7130085 -0.064764 -0.46726623 1.1536483 -0.6330673 0.16537847 -0.5393175 0.5278967 1.4248358 -0.6574396 1.5411072 1.2623978 0.2964597 2.7728748 -0.9610768 -2.5123658 -0.7763725 -0.5609615 1.7303846 0.05157731 -4.1482205 -0.8848822 -0.9119453 -0.715914 -0.5581502 0.973328 -0.1769197 -0.1505353 -0.50222766 0.63723665 -1.5015352 -2.0092607 0.9579989 -0.32656634 0.5161028 0.7398267 -1.1158252 -0.40730685 0.9948737 -1.2063538 -0.39859417 -1.6844369 1.418763
PODA 1.0214942 1.3297322 -0.18146254 -0.7669778 1.1435077 -1.3599749 -0.3676912 0.40544042 0.13003162 0.5312088 -2.8280265 1.2272192 -0.5132512 -1.6132106 0.013825209 0.29099524 -0.26789284 -1.3414282 -2.257751 -1.0515207 0.32003403 0.013774242 0.98222584 -1.001439 0.22264756 -0.8262135 -0.38756493 0.2667444 2.8770573 0.92228144 1.9552021 0.4130829 -1.2781782 -0.7181964 0.21236788 -0.90207195 -1.8972428 0.9578238 -1.1550578 -1.5179775 0.85257983 -0.6558508 -1.044836 -1.8848057 -0.058170795 -1.2901314 0.4651674 1.6798215 -0.6899999 -0.95885855 1.8784167 -0.09411131 -1.5122724 0.83462095 -0.72484446 -0.5602938 0.46552333 -1.9539825 0.98758805 -0.45559826 0.39840698 0.8554571 0.2042693 1.15066 -0.16939524 0.80538666 -0.13870935 -0.17899936 -0.48708725 0.4873695 -1.8802744 1.4781662 -1.4126788 0.3516145 0.13187784 1.3357061 -1.5839589 -0.49754554 -1.4096534 0.5827184 -0.72384024 1.4439682 -0.31612906 1.1878933 1.2487143 -0.79376906 1.0293458 1.1899116 0.7840944 1.0672292 -0.97279155 0.044244636 0.10445862 -1.0072702 0.6702041 0.39419782 -2.0532765 -1.5194448 -0.028813234 -1.153213
QAIW 0.64941835 0.090855934 0.27305776 0.6456199 0.36830002 1.2457924 1.9433849 -2.15091 -0.57082444 0.79041296 0.31207964 -0.5309883 -1.4503307 -0.275476 -1.2325201 0.8704616 -0.9985923 -1.2545923 -0.087707154 1.8679584 -0.7451954 -1.3096954 0.7958793 -0.4047548 -0.96868104 -1.1428456 -0.52373314 -0.67548114 1.3233014 -1.4107867 -0.20552477 -2.093874 0.77357143 -0.40748388 -3.5204496 -0.1705005 -1.5876 0.84772474 -0.59214264 -1.026229 -0.6556906 -1.6175778 -0.69180137 2.755088 -0.4035706 -1.5862015 0.230401 -2.579185 0.9955171 3.550168 -2.2646961 0.68931067 0.4123718 -0.7618415 0.5809814 1.3229268 -1.5104703 -0.13533695 1.3432277 0.6033453 2.250579 0.917485 1.8706255 1.0257049 -0.7678523 -0.26134175 -0.4303169 0.30266502 0.80548894 -0.0038976048 -0.42182758 2.3308587 -1.5765501 -0.79448223 0.31439057 0.056941755 -0.7378784 0.05240798 1.7425164 2.216424 1.2505461 0.34756717 0.63179266 0.16399653 0.008013887 -1.7091595 0.9584829 -2.6898997 -0.8314982 2.1368876 -0.29437986 -0.70315015 -2.2865965 -0.6305666 -0.9133989 0.68362796 -0.5428408 -1.4627951 1.8000262 -0.6891949
OGKU 1.195344 0.06573449 -0.76628464 1.5971023 0.41637784 0.5761547 -0.88902617 -1.8606523 -0.24912022 -1.186299 0.13966785 0.14911672 2.933484 1.4875813 0.3610732 -0.12924892 -1.3620876 -1.070555 0.60683024 -0.96817285 -0.082462706 0.04676687 2.36705 1.9805671 -0.36183038 -0.7179188 -1.4353144 0.7679692 -0.5533655 -0.6705477 -0.45086646 -0.92033565 -0.3747835 -0.1601936 1.3992176 0.72569424 -0.029157098 1.1654658 0.72711813 -1.6740808 -0.40576488 1.1914754 -1.096336 -0.68679625 0.7722627 -0.012398859 -0.6024094 0.034905132 0.9244721 -0.18008226 -0.34940842 1.8734041 -0.6175668 -0.51127243 0.2668677 -1.5326769 0.06735145 0.2577467 -0.6506427 0.46414614 1.5647945 -0.48266026 1.2563349 -0.8155701 -0.8177752 -0.10929885 0.1435269 -1.1614892 -0.5978207 -1.3185551 -1.1760887 0.7983514 -2.8241484 0.81313753 1.2081774 -0.20437692 1.0335996 -0.2335603 1.8614944 -0.33029535 -0.4942271 -1.116782 -0.94014233 0.33309537 -1.8982713 1.4290587 -1.1383258 -0.36120328 -0.13778237 -0.17757386 -0.20849691 0.34611475 1.4722792 0.5615374 -0.92574304 -0.6118668 0.085446514 -2.8675976 0.011427099 0.94020474
HNZK 1.3018744 -2.1591322 -0.5480039 -0.84739536 0.331739 -1.6362383 1.0111408 -0.25533396 -1.0718378 1.164883 -0.52663946 1.6667563 -0.39084876 1.3965265 -1.0751123 0.6381915 -0.27719495 -0.7280797 2.378096 0.20922995 -1.606123 -0.91161424 -0.727102 0.3832629 2.0792584 0.521744 -0.38325453 1.3860853 0.6310358 -1.2483623 -1.1453028 0.8752974 -0.5899907 0.16303138 -0.56241894 -0.40678585 -1.5662076 3.9288473 -0.011003027 -2.330804 0.5910134 0.28581166 1.0258089 -1.5224746 -2.6502473 -3.1983252 0.92217284 0.9265244 -0.50835085 2.1329272 0.21021777 -0.12341308 0.21958455 1.8348559 0.18119901 -0.31928053 -0.63236886 0.12376846 0.69198406 1.2272475 -1.0865154 -1.7681354 -0.6403668 2.0557284 1.6548 0.21653582 -1.5318086 -1.433349 -3.0487154 -1.3973091 -1.845062 0.7766464 -2.0467234 -1.1232605 -0.033273384 -0.795311 -0.09923757 -0.5398904 -0.26458302 0.48095742 1.4876468 1.5794545 -0.39177147 -1.5720903 -1.5958554 3.1931396 -0.8682275 -0.71952385 -1.5918651 -0.1561844 -1.2241744 -1.6825832 0.5255904 -0.53261113 1.7252742 0.35284698 0.23303774 -0.23316617 1.9072849 0.87525076
YUCO 0.34367728 0.7623271 -0.32606313 -1.3097159 -1.4977077 -0.43292686 0.22794814 2.0868165 -0.7774144 -1.8255607 0.5083807 1.4224454 0.36989155 0.6901694 -3.3317316 0.34972605 2.3115819 -0.29341403 -1.2292976 -1.0383401 -2.1269858 2.7273192 -0.48348314 0.40732688 -2.0073974 2.5458322 1.7561958 0.18354769 0.71295834 0.9684179 1.694311 2.3772728 0.7154351 1.5362589 -2.2673666 -0.5059581 -0.08982682 -1.3634684 -0.12893629 1.2910997 1.6480087 1.9260863 0.566533 -0.52199847 -0.3281172 -1.804926 1.4023342 0.035126094 0.7311091 0.21472041 -2.0278044 0.13477047 0.5218131 0.9109704 -1.0757853 1.2769219 -1.2344524 0.8042716 -0.8045657 0.0014029834 0.3957442 -1.6005917 0.6947181 1.0547692 0.92031515 0.26086628 0.9750797 -1.4115708 0.20884138 -0.65176874 -0.5318271 -1.0173221 -1.0071546 0.39577737 1.5517678 -1.4149753 0.08179976 -1.0090951 1.215728 -0.41575962 -1.9120064 0.91859186 1.8199244 -0.48988187 2.0501783 1.5223962 -1.7128736 -0.6065207 -1.1623276 0.23134731 -0.5432799 0.08501747 2.0071034 1.0321459 0.5827821 0.5976972 1.9827588 0.6562166 -0.19651774 1.5651414
OZJX -1.3408917 0.5926854 -0.38281107 -1.1954782 0.760773 -0.4984775 -0.39945018 0.09237361 -1.2586638 -0.6635744 0.90093136 0.37094778 0.70954317 0.18135267 -1.2215285 0.82729024 -1.5909467 -0.82873136 -1.9183313 0.61849695 0.75289595 0.5319586 0.48068973 -1.137212 -0.645284 0.27193633 0.091528825 0.7113482 0.5258251 -0.55598044 2.2471843 2.1616614 -0.6459453 0.0728605 -0.76781255 -0.79379267 -0.24048626 -1.3243457 -0.63634086 0.4357377 0.053645603 1.0666969 1.448162 0.48086753 0.8278644 0.28190523 0.44558224 0.65040475 0.1698799 -0.699216 1.9771826 0.2648611 1.1320909 0.028737418 -2.0364802 1.2349784 0.086951986 -0.3602872 0.3358373 1.8254663 1.4042245 0.29323646 0.4225966 -0.10256597 -0.27768895 0.6233793 1.3833439 1.0484341 -0.3717045 0.18490212 1.8512548 -1.4981678 0.869525 -1.1758517 -0.135628 -0.36739573 0.8965748 -0.7128814 0.65497845 0.516941 -1.3491521 -0.22952127 2.589336 0.28766957 1.0292474 0.59322006 -0.6804688 -0.4521452 -1.0059525 0.23775263 -0.07391164 -0.51813203 1.2471133 1.4690071 -1.1962334 -0.5118211 -0.6365202 -0.49649674 0.5819643 -0.0021681315
TUEM 0.34722048 -0.033927403 0.269549 -2.0932364 1.4999352 1.0976218 -0.32439908 -0.99896204 -0.8594183 0.50772727 -0.7902546 -1.6672983 -0.9951077 0.8798744 0.9149863 0.5234086 0.82345086 0.9166674 0.29515386 0.48984915 -0.87317294 1.0403593 -0.18312052 0.4754988 -0.58220595 -0.2664815 -0.18607064 -1.3173511 0.94799674 -1.7623582 -1.4370272 -0.82753986 1.0446174 0.037545662 -1.7682251 -1.9872863 0.745983 0.9665162 -1.298318 0.5917847 -1.0806361 2.03781 0.38537332 -1.2159216 1.4311395 -0.4922022 -0.24667417 1.1092566 1.0818112 -1.129369 -1.7172005 -0.9442225 -0.73650384 1.6770021 2.4281979 1.3238503 1.9434087 -0.6480262 -1.5527354 -0.17607838 2.1529653 -0.4577314 -1.3396167 1.0254394 0.24630766 0.3862705 1.2047342 0.3889769 -0.82558125 1.1416441 -1.5590914 -0.81232864 0.7180257 -0.7169841 2.5498729 -1.4687487 -1.3552431 0.9880289 -0.9052463 -0.76833576 -0.040958095 0.004034557 -1.2781904 -0.2981855 -0.57102925 -3.1835842 1.1861919 -0.07709704 -0.588302 -0.2061294 2.3833957 -1.3889104 -0.774652 -0.61689436 0.52261955 0.06897263 -1.21008 -1.4819963 0.29978696 -1.541224
YBAN -0.2449506 1.7573886 -1.2362468 1.3068863 0.44093606 -1.197418 1.022177 0.5963827 0.07933172 -0.50566936 -0.4381268 0.27007684 -0.04686591 -0.25893226 0.7076955 -1.1278455 -1.0462886 0.22883117 0.3084081 -1.3492657 0.34018272 -0.9236937 1.1856376 0.6904 0.7906219 0.6761312 -0.36015514 -0.9842866 -0.71128595 0.6531293 0.17504074 -2.2681155 2.5567946 -0.212477 -0.2879716 -0.21836437 -0.17279421 1.3312366 -2.1677341 1.2400815 0.7765238 0.8674902 -1.8102431 -0.985692 0.020188749 0.20053056 0.32369256 0.050404307 1.8843567 2.775953 0.07928791 1.1449287 1.6442214 0.8793859 0.9378315 1.1366489 1.509159 -0.022464111 0.85724586 1.1945859 1.0048566 -1.6019555 -1.1073803 -1.6945261 0.81283915 2.1963089 0.07220691 -0.7801441 -1.6568978 0.7317983 0.8038834 -1.1801347 -1.0488498 0.5782225 1.5026387 -1.2269397 -0.41135937 -0.033465777 0.78827155 0.6774296 0.6114868 -0.78967667 -1.2819092 0.99556285 0.68344676 0.5460779 -1.877415 -0.10650027 0.8761341 -0.8924095 -1.3670176 -1.5393393 3.2629235 2.2372584 2.1306813 0.9924488 -1.3834985 0.432826 0.04963764 -0.63604563
IVQB -1.6878338 -0.3435125 0.52921414 -0.5531071 1.9775419 1.519568 0.70675206 -0.2609026 0.51332253 -0.2363695 0.6301852 -0.7295134 -0.4123211 -0.32542372 1.0698284 -0.20547698 0.1090179 -0.00047486447 3.5739336 -1.1680169 0.82920533 1.0732532 -0.5358883 0.33764392 0.6372608 0.009985158 0.582904 1.4132288 0.15577982 -1.3172865 -1.1206081 -0.46169052 1.0120164 -0.7885465 0.77469695 -1.120569 1.98475 1.814881 -1.2884897 1.8429673 1.1063694 -0.19251108 -0.14143181 -2.1364813 -0.4731903 -1.1687769 1.5979892 1.115114 0.5029418 0.2735539 0.38598326 -1.2119634 -0.0466205 1.1247607 0.90890193 1.6092122 -0.67028314 0.9611543 0.891668 0.6365403 -0.13020726 -0.08195891 -0.65632564 -1.4595599 1.219233 0.38086155 0.37348124 0.74504066 0.34270835 -1.7320426 1.4161037 0.9955168 0.9726775 -1.1940106 -0.9314903 -0.7128332 1.8447046 2.0733993 1.5324892 0.79751694 1.1407456 -0.06784808 1.0989041 -0.1676029 1.6185604 1.2391078 0.8143767 -0.6097486 0.9048219 -0.45428434 0.14557783 -0.5563073 1.8410494 -0.03469769 0.48818976 0.38344124 -1.2423756 -1.0304409 -0.40490484 -1.8902546
FGQI -0.093930885 1.3912596 -1.5941118 1.0565217 0.4605206 -1.1389903 1.0704625 0.31248727 -0.2514053 -0.35180062 -0.55671835 0.12786737 -0.1962259 -0.18128014 0.66853344 -1.4733156 -1.039811 0.3420577 0.4697051 -1.1940937 0.23281834 -0.9912837 1.3573309 1.0424474 0.82507426 0.7847052 -0.15836546 -0.81368536 -1.2494158 0.72318786 0.099113345 -2.148598 2.391992 -0.27682537 -0.3412803 -0.24852866 -0.08929205 1.3415707 -2.1434708 1.0092529 0.4738011 0.5579232 -2.0726447 -0.7850861 0.010420936 0.32263938 0.20222747 -0.20857887 1.5860344 2.4777865 -0.0672652 1.2742962 1.4736149 0.9498299 0.8266082 0.8003421 1.4740818 0.13685775 0.71951807 0.9780332 0.5364704 -1.5762475 -1.2178755 -1.6506828 0.6401807 2.4209309 0.056353167 -0.9497913 -1.7317917 0.89851147 0.8349247 -1.2803928 -1.0383618 0.38494018 1.3640381 -0.77529776 -0.29442605 -0.28117976 0.637883 0.74961156 0.60952175 -0.8808017 -1.2165518 0.682792 0.3953965 0.5621692 -1.8566192 -0.07657733 0.8380884 -1.0326309 -1.5648199 -1.3666254 3.167242 2.1922336 2.1468155 0.94583124 -1.1299478 0.15449081 0.13012184 -0.66072714
UMPW 0.7419423 0.374238 3.5021858 1.3078457 -0.64281464 0.18087848 1.4077724 2.4450157 1.3571752 0.13034801 -0.47101644 -0.20406473 0.64096 -0.63191956 1.6226007 1.6472826 1.3523104 -1.155368 2.3215625 -0.96689767 2.0129995 2.082552 -0.44458514 -1.450456 0.8365627 -0.98420537 0.6029673 1.6294489 -2.3945096 0.3347609 0.14747807 -0.5533994 -0.5086194 -0.36687922 0.8550135 2.5679097 0.8878399 -0.15678334 0.29175246 1.1281067 0.8622302 0.04004557 -0.07442762 0.0058593256 -0.24300244 -1.8013052 -1.293712 -0.9754498 0.85948586 -0.5892223 -0.40419453 -0.44216338 0.2774737 -1.5230544 0.9458572 1.7812915 0.48881626 -0.2354833 1.4291906 0.4348149 0.518799 1.2052453 2.6159303 -1.496088 1.4532233 1.1134669 -0.6322218 -0.07777735 -0.15451294 -1.5132961 0.48525664 0.9234905 1.0340393 0.5139293 0.75351334 -2.240974 -0.7666182 1.60001 1.1162552 0.2309127 -0.41449597 1.381039 0.012045524 -0.51291615 -0.31485406 0.41129658 0.8952256 -0.72252023 -0.7540108 -3.413631 0.5158163 2.6705852 0.1288958 1.9411389 -0.99363303 -2.4241707 -0.104853004 1.2561114 -1.2505485 -1.8980879
IOQU -1.4043325 0.3226232 1.316004 -0.4635232 0.086958505 1.187595 -0.15537485 0.5082117 -0.39294833 0.031521283 1.2033514 0.20338091 0.73082733 -0.37326032 -1.4501989 0.6095358 0.10391911 0.3139961 2.300436 0.11176751 2.3576982 1.7346234 -1.945372 -1.0099351 1.0039716 -0.25632122 0.46980107 1.3733459 1.1989454 1.2911052 1.3237244 0.8675289 -0.10041661 0.10882328 1.0572884 -1.5610923 -1.9958054 -0.9005741 -1.9040504 2.0179448 0.9390762 -0.46853408 -1.263381 0.7095711 -0.10708819 1.7629384 0.34594947 -0.027781142 -0.57187796 0.57522994 -1.9448681 0.33914733 0.1191582 -2.2378933 -0.82839125 0.10593914 1.754201 0.6598337 0.72358835 0.76052713 1.1736411 0.21996087 0.554986 0.35139894 -0.6575224 0.32174832 2.061199 1.4095005 0.12592144 2.932722 0.9363545 -0.057108924 1.3268113 -0.9518938 -1.25693 0.4261232 1.5698421 0.5127983 0.97686386 1.0529885 0.23193234 1.887437 1.4425771 -0.2793047 0.8432014 1.5596508 2.0236592 0.34243375 -0.8953945 -0.24652402 1.3242946 -0.08065419 -0.8609505 0.8473869 -1.5235007 -1.2178271 -0.5948671 0.08382777 -1.785755 0.065855615
ALDQ -1.3574154 0.6725886 -0.50012106 -1.5591102 0.8536972 -1.0899923 0.9910181 -0.40039745 1.4034034 0.4588589 -0.5933108 -0.4069283 1.5450468 -1.3705236 0.68954355 -0.1500115 1.1927046 0.6968312 -0.502679 -0.5284378 -0.6376785 0.30124703 0.40008503 -0.5808351 0.2754322 -0.12158351 1.4627522 -0.28307322 -0.9949628 1.9234213 -0.7261084 -0.4000448 -0.88262606 0.8508989 0.6377015 -0.55244297 0.016089965 -0.6992315 0.34264046 -0.556337 -0.8595576 -1.6776524 -0.47807482 -1.1995319 1.7641217 1.6033498 -0.028914757 -1.7938837 -0.98525804 0.15211041 -0.060459003 -0.1424008 1.079458 -0.5260334 1.4106225 1.127922 -0.17379959 -1.247257 1.4145455 -0.44239467 1.4324757 1.400849 0.2025098 -1.4268981 0.3349864 -0.2700862 -1.3358507 -1.1632468 -1.1243895 1.6855198 -0.09600307 0.1903124 2.4708493 -0.45028707 -0.65795374 1.1002895 0.84205616 1.3444968 -0.45052058 2.1054208 1.2074614 0.5494911 0.9213441 -1.5126399 -2.9925892 -0.7529474 0.21684399 1.1286039 0.26617154 2.209332 0.8636016 -1.3010213 -1.154627 -1.4781446 -0.5349424 0.85061544 0.64372957 0.6593024 0.12218113 0.7749867
IBGH 0.5374773 -1.7373384 0.491743 1.2242078 -1.2791692 0.8968087 0.20445967 -1.792349 -0.36393687 0.81339467 -0.27022448 -0.8016232 0.28857312 -0.40029982 2.256841 -0.27811912 -0.28291708 -2.2350628 0.31944868 1.6512431 -0.57105213 0.37166408 1.1183002 -0.80949795 -0.8646076 0.650825 -2.0176568 -0.6811874 -2.7282805 0.22080287 -0.8047048 1.4590845 -0.093234494 -0.9857559 -2.2325735 -0.13588099 0.24843721 -0.2951057 -0.02728626 -0.039931897 -0.36244282 -1.2002373 -1.0930479 0.8425097 0.6122248 -0.21996352 1.5786158 -2.2472937 0.79789346 -0.12836584 1.4004755 -0.7243032 -0.8092121 -0.5680236 -1.9635717 -1.9325399 -2.2127907 0.50275844 -2.0594866 0.98176646 -2.19363 -0.14770839 1.0869114 -0.38796908 0.38769785 1.432075 0.12683041 0.9187068 -0.1385383 1.2535355 -0.44917122 0.8155233 0.8669885 -0.11072746 -0.87433887 2.5048795 -0.11640916 0.43238214 -2.003137 -0.4503483 0.7338508 0.14815941 -0.41213885 -0.7758604 1.66032 -0.22180839 -0.48141155 1.6459107 1.291047 0.2709566 -0.10470702 -0.5101586 -1.3258018 -1.0288001 1.9229548 0.22536382 -0.54347724 0.02476425 1.3072588 1.0361562
OZPN 0.18824436 0.3466239 -0.5823078 -0.5017759 -0.087470055 1.653096 -1.1877152 -0.6666211 1.0431815 -1.5432262 -0.5546344 0.27574727 0.16746585 -1.4289174 0.7354472 1.5901976 -0.2258374 0.62281156 -0.029562505 0.62156826 1.6676791 0.10283985 0.9349487 -0.26020378 0.25190789 -1.5046686 0.20549533 -2.055855 -1.1674004 1.6055474 -0.023528572 -0.16781059 -0.49225375 1.3062238 0.6182782 2.8990512 0.7667697 0.5127427 1.5891517 0.7204397 -0.7081421 -0.23100792 1.5128373 -0.53231436 0.3430543 0.52986646 -1.1762118 -0.3897096 -1.0142199 1.4001759 1.2914723 0.29048434 -0.4616579 -0.5688284 -0.056667496 -0.7591324 -0.7278389 -0.45174184 0.09419306 -0.2801107 -0.5361874 0.9316001 -1.0192494 2.3033862 0.22533488 1.7892429 -1.5490633 0.7074665 0.6782463 1.8646345 0.0968381 2.1779923 -3.0515935 -1.3571271 -0.25194204 -0.06620579 -2.1758997 0.89079416 -0.87151027 1.2759744 0.28614032 -0.5354948 -0.7557384 0.56299233 2.9493122 0.08159968 -0.5382925 -0.5349871 -0.15409945 2.8338282 1.6944454 -0.31452474 -0.20833991 -0.40368912 -0.34368476 -0.28201818 0.6259883 -3.0460277 -1.636215 0.9037379
PXTA 0.44271007 -1.8303233 0.06578813 0.17712018 2.037037 0.7909243 0.38823482 -0.4282385 1.0303713 0.856116 0.55642015 -1.0112292 0.49788788 -1.9064331 1.4405229 1.4000092 -0.18093045 -0.53580725 1.6809539 -1.1296709 1.6970384 1.9928783 -0.6705323 -1.6270337 -0.33198997 0.35035482 -0.7566251 -0.04892131 -1.5974115 -0.81120425 -0.58134896 -1.176549 -0.65875924 0.4736492 1.4679815 0.9509439 0.32990897 0.027838828 1.514553 1.6585873 0.66803545 -0.76782393 -1.2661302 -0.97013146 -1.0295798 0.086007155 -0.41598502 -0.5708662 0.46498638 0.0062649 0.0022623008 -0.51903296 -0.8773552 -1.7478367 -0.72256225 0.38228792 -0.29320067 0.73851806 -0.452996 -1.5663855 -0.39387104 -0.86434567 -0.3682716 0.018139971 1.74655 -0.44535914 -0.6238694 0.3119562 1.4155463 -0.27806693 0.91535133 1.5694367 -0.3519063 -0.36292025 -1.4409579 1.012611 0.27469772 0.68908876 0.8127006 -0.1414592 -0.23719741 -1.2225456 0.026884962 1.3386225 2.0964088 0.52831286 0.46121505 0.29601085 0.50195044 0.15097521 0.25217614 -0.7236259 -0.19907045 -0.7509486 -0.6850038 -0.50457335 0.5634098 -1.0303888 -1.0915214 1.1681881
QADT 0.79447794 -0.31707788 2.6953652 1.1910609 0.18097535 0.5843504 -1.162941 -1.8809733 2.122933 0.6335667 0.10861431 1.2544398 0.1305575 -0.25275555 -0.76078796 -0.81873363 0.13943394 0.60164315 0.26514268 -0.22406146 -0.7104394 1.2165375 -0.21959955 1.8951337 -0.78313553 -0.019930348 -1.5086128 0.03774622 0.20260307 -0.039616507 -0.13547179 1.0070242 -0.737305 -0.04430591 0.9720485 2.0204728 0.3397837 -0.2547508 -0.5614975 -0.37387213 -0.5113975 0.6920872 1.4436852 -0.1862675 -0.976647 1.3250968 -1.1620152 0.008328485 -1.9337046 1.4278122 0.73123205 1.2855864 -0.24153496 -0.36003163 -0.85805285 -1.4383262 0.2832705 -0.13829139 -0.5699518 0.87046945 0.3377021 0.2786176 0.562878 1.6043322 1.468233 -0.78214014 0.9882022 0.13948837 1.7638844 2.5915103 -0.7639197 1.4065262 -0.072197095 0.05142504 0.5439696 0.016971014 0.8884521 0.5583359 -0.37181365 0.530478 -0.25259432 -1.3963536 -0.56071025 -0.6452375 0.7078356 0.36702567 -0.7027406 1.3417594 0.8284817 -0.60405797 -0.80001855 1.2934979 -1.5901202 0.9052115 -0.050408773 0.49937522 -0.7917237 0.5029707 -0.999741 -1.0687788
UJBV 1.6439229 -0.032721553 -2.1893666 1.5694382 -0.06883448 0.40157235 -1.7167487 -0.7951842 -0.30614194 0.23786555 -1.0776255 2.3286545 -1.7893459 -0.7199406 0.09497263 0.8709806 -0.62635946 1.1249279 1.0832064 -0.33715212 0.6120613 1.5576717 1.0930666 1.3759226 -0.20811749 -1.703907 -1.7551606 0.18895032 -1.7422704 -0.32363284 -1.1836978 -0.71472543 0.5699559 0.12718625 -1.628212 -1.4657739 0.11584139 -0.5390439 0.6424224 2.6811569 0.040903855 1.4524916 0.9576834 -0.10914376 1.2183706 0.22611946 0.6962575 -1.178909 -0.17726567 -1.850566 2.2146437 0.3210099 -1.383528 -1.2146634 0.5466769 -2.1899557 1.1383612 -0.31497923 1.1731502 -0.14352377 -0.18750209 -1.0115765 1.2338197 0.9791813 -1.6731795 0.39191437 -1.14061 0.48383892 -1.440979 -1.4369276 -1.6880622 1.2753295 0.22584127 3.2501721 -0.019030387 -0.624325 1.3702949 -0.7433209 0.28260276 -1.9711249 -0.33638138 -0.21036126 -2.5335238 1.207339 -1.0939939 0.442809 0.67174363 -0.48106962 -0.67494875 0.8600773 -1.1507381 -0.7237755 -0.49849766 -1.0219549 -0.6262935 1.6359811 0.59387136 0.4710067 -0.54615617 1.5066384
OMAL 0.86919683 -2.1858714 1.260426 0.18032885 -0.59033906 1.1351769 -1.224945 -1.7358596 -0.3207618 -0.15443192 -1.0132244 0.0516768 -0.09142221 -1.1124829 0.16497846 -0.34749475 -1.2353314 0.00054338103 -0.5173029 -0.77892387 -0.91626436 -0.4548753 1.2191128 0.03227148 -0.73286307 1.1122946 -2.5588245 -0.8830035 -0.50508 0.9485167 -1.3489996 -0.18642515 -1.1417141 -1.5265387 1.1730719 0.3307188 0.9924418 -0.03969687 3.2025025 0.17339915 1.1457562 1.3254966 -0.9641155 0.4977728 -1.4288172 0.4721212 0.42639402 -0.85054404 0.44735634 -0.2695653 1.8963268 -0.21324372 0.8505775 0.15514629 -0.82845527 -0.003104233 -0.07216993 -1.4150597 -0.86916184 1.000368 0.71784556 -1.4740477 -0.48898593 -0.57651705 -0.55954707 -0.48608282 -0.44004723 0.6551668 1.1860423 -0.66637224 -1.8881475 1.9624785 -2.3581402 0.1453901 -1.0794278 0.7155355 0.73367274 0.3553107 0.27858457 -0.0070058103 -0.1518265 0.06592389 -2.253278 0.07525641 -1.6753558 1.2498608 -0.8435961 -0.013461399 0.30315506 0.7589277 0.58800805 -0.73469126 0.44601142 -1.1193832 -0.66011286 -0.53867507 -0.066385694 -0.02962324 -0.43489116 1.844291
GKQO 1.284739 -0.026883326 -2.0391183 1.2974781 0.035087798 0.3555909 -1.9985014 -1.0736647 -0.34694168 0.18626967 -0.9828578 2.202473 -1.8117007 -0.79377687 0.10805614 0.8701634 -0.39306587 1.5119354 1.0878092 -0.22402039 0.5055862 1.6652106 1.2214416 1.3830466 -0.36436635 -1.6010702 -1.6681143 0.24239969 -1.8793457 -0.03993172 -1.4427611 -0.52054274 0.42357793 0.18916072 -1.8059455 -1.494732 0.2211355 -0.63865465 0.68910927 2.6883783 0.017262323 1.7657316 0.99408984 -0.3803607 0.8330865 0.077493735 0.27878848 -1.4349538 -0.1865884 -1.8364996 2.3300223 0.5697552 -1.2545695 -0.89496124 1.066802 -2.1550574 0.9290486 -0.3603401 1.1078839 -0.2459073 -0.61938673 -1.4073368 1.1552929 1.3557355 -2.1210783 0.4900857 -1.3628793 0.40472603 -1.4119993 -1.1840236 -1.5565783 1.3935816 0.111805886 3.1088889 -0.014825384 -0.91338784 1.5021099 -0.45610452 0.3514519 -2.2413468 -0.2112948 0.1616531 -2.775265 1.2364311 -0.93606776 0.29193014 0.4681353 -0.2848195 -0.5843392 1.0678545 -1.0632389 -0.78907484 -0.29886356 -0.8692991 -0.5352906 1.7470309 0.61066055 0.3070798 -0.4767377 1.402252
LETO -0.26884902 0.2992493 1.1574575 -0.46536365 -0.059957735 0.871301 -0.42568222 1.8705763 0.26399505 -0.06762675 -1.3033974 -0.905805 -0.7728886 0.18904762 -0.6631697 -1.7498995 -2.1374578 0.8548515 -0.6015882 -0.37623867 -2.1171649 -2.4817202 -1.5645643 1.4402587 -0.67254734 -0.8468489 -1.468829 -0.39574754 0.6735768 2.903712 0.97365946 -2.7004693 -0.7249655 -2.5297763 0.25370464 0.06094798 1.3251432 -1.5897605 1.2925136 1.2994549 -0.28078732 3.540412 0.028598258 -0.8093421 0.7185269 1.4924273 0.7116949 0.49827304 1.9687957 1.3459903 0.7274993 -2.1083553 -0.37394026 2.0129185 -1.2935404 -0.3647359 2.1297693 -0.5848214 0.5840435 1.6005617 1.5551995 0.20839116 0.29702488 -0.76274043 -0.691653 -0.91560364 -0.47713318 0.052250143 -0.9945953 -0.7144284 -2.783424 1.9948121 -1.6347232 0.9208961 -1.24657 -0.6364679 1.3012162 0.959482 -0.53413624 -0.24946463 -0.17266944 -1.1549909 0.1052783 0.540153 -1.217568 -0.9485434 0.4749966 2.8845375 -0.094540045 0.5331567 0.991371 -2.206734 1.9100492 -1.0345222 1.5287073 0.20344648 -0.5388149 0.5929984 -0.028979123 -0.4286805
IMOT 0.91315025 0.066170715 0.0013470496 -1.7571515 0.39447358 -0.44788074 -0.87087196 1.3456905 0.13366795 1.3544416 -1.6379825 0.2886112 -0.3774294 -1.3631465 1.2778705 -0.68789065 0.25039124 1.3885497 -0.28695863 0.52827007 -0.024970919 1.9138066 -0.047416057 -2.3598344 1.0981535 -1.8228939 -0.39583653 0.38692802 0.105896205 0.34406614 0.0911903 -1.24625 0.5289015 1.0205141 -1.2743087 2.0045235 -1.8405825 -1.657436 -0.30581442 0.96112615 -1.1952994 -0.6389329 1.0756903 -2.2464585 -0.20642053 0.59514946 -1.280412 -0.11806292 0.5362339 -2.598163 0.0654309 1.0952567 -0.6679827 -0.41585168 -0.1783182 0.38766488 -0.575106 0.59834415 0.84457165 0.5044789 0.63413227 1.6048813 1.198736 -0.12338286 1.9340447 -1.1623437 -0.40623277 0.29225755 -0.16678543 2.8461833 -1.3568276 1.6796932 -0.5822525 0.43586218 1.9609885 -0.566495 0.65879345 0.79967546 1.6574627 -0.46580538 -0.076522015 0.3664224 1.0064107 2.1035197 -0.28064114 0.1562204 1.1683167 -0.085297085 0.31164366 -0.80695677 0.96026313 1.5404329 0.22976238 0.2532912 -0.6338955 -1.695568 -0.69170314 0.9751167 -1.0446595 -1.6036243
TCBW 0.7073442 -1.3064934 -0.16030511 0.65164316 1.1849036 -0.16077992 -0.08650627 0.060486276 1.8377889 -0.021491209 -0.897865 1.319791 0.16120031 0.5829549 -1.9049793 1.2696276 -1.5509462 0.019062933 -0.052474458 0.14878076 0.102544926 1.3870283 -0.78268266 -0.2715863 -0.6123789 -0.1784205 -0.5717525 0.25265566 0.30297294 -1.3976783 2.3364947 1.0253528 -1.4260557 1.6922295 0.528127 1.5541873 0.04655279 -0.71621364 1.1547661 -0.013490114 -0.9461112 0.6925482 0.11419717 -0.6540018 0.24894905 1.5248425 -1.9741651 0.33257312 -0.62858033 -1.586297 -0.45236626 0.044818956 -0.38757646 0.08365415 -1.6250871 0.8763465 0.5476174 0.5094986 0.17698961 0.5978451 1.0030258 1.6301765 -0.079303384 2.4413323 -0.22362112 -0.85999894 1.5117184 0.6108023 -0.25267228 0.54049265 0.116115466 1.1341579 -0.09651579 1.30931 0.8491868 -0.5469839 0.071315944 -1.941634 0.27307293 1.4040064 -1.1875443 -0.76835245 0.77981967 0.914097 0.04021204 0.8306027 -1.3319196 0.5981913 1.0571631 0.47213048 -1.6345109 -0.55139714 0.15455098 -0.5915433 -0.42045823 -0.3863239 -1.5912844 -1.1700491 0.32530874 0.27927595
MOED 0.60618734 -0.4599703 1.0864067 0.8848714 1.0626471 -0.88482445 -1.7480522 0.23070987 0.42200273 1.3828015 -0.037052613 -0.42340297 0.5481998 0.5325001 -1.9033073 1.1361957 -2.2216773 -0.2670162 -0.32717365 -0.7275743 0.20845439 0.7041242 0.9029416 -0.0010450968 -1.8030455 -0.8726827 -1.5977492 1.7525127 -0.07195901 -0.57297325 1.628886 0.69573325 -1.0435712 0.81529284 0.057502747 0.65204495 -0.4895646 -2.2288742 -0.3674305 1.1060412 0.10945887 -0.3745808 1.3291639 0.099167526 -1.088736 0.84592324 -1.6855577 1.0602626 -0.19167311 -0.53549135 1.298544 1.1349958 0.91126424 -0.06708142 -1.3778211 0.4040803 -0.68246055 -0.4094706 0.561491 -0.69076717 -0.031129466 -0.6245859 0.11821945 2.791172 1.1691011 -0.4196052 -0.046361722 -0.29854682 -0.6975761 -0.0564518 -0.10954334 -0.5052174 -1.2953078 1.127214 -1.1138791 -1.3966303 1.0129297 0.75488436 0.2758303 -0.46406332 -1.2460902 0.19093132 -1.057275 0.9363647 -0.52760637 0.16188164 -1.9827954 0.46787447 -0.30117503 1.0821102 -1.128223 -0.9088257 -0.6116675 -1.411372 -0.46109754 0.35540158 -1.1174535 -0.55091965 -0.52430934 -0.30678764
YLFA -1.4061188 -0.019044202 0.48181596 -0.5461741 0.9421917 -2.360157 -1.3208392 1.7300434 2.0359979 0.34104487 0.98109555 -0.7910129 0.1270354 1.1143485 -2.4201953 -0.17615478 -2.7070653 -1.3122777 -1.8281697 1.4180598 -0.30659056 0.71510524 -1.5569153 0.16576387 0.27375302 -0.14021091 0.7147235 -1.9991187 1.0079138 -0.8613788 1.6739068 -0.4114898 0.1278999 0.7187023 -1.4623083 0.6561386 0.13038157 -2.5646756 -0.5650664 -0.3498937 0.5703467 -0.18055028 0.8751366 0.2811518 -0.1126936 0.15840068 -0.53830165 1.2190619 1.4310551 -1.2846022 -1.1622839 0.17928857 -2.0119479 1.9212476 -0.8067292 0.3003306 0.6681557 1.9324172 -0.0979748 0.17604871 0.7823895 2.4036415 -0.43170473 1.139536 -0.3955856 0.783666 0.54437846 1.1714729 -1.0070082 -0.29708597 1.1159244 -0.6539102 0.4149761 -0.4703849 -0.22882646 -2.6319196 -0.21397509 -0.3328642 0.62918997 1.0127846 0.2683807 -1.0665269 0.48672196 0.7870967 -1.2960211 -0.773741 -0.058219243 0.498359 -0.122002795 0.6291792 -1.3232336 -0.011120931 -1.3360552 -1.5180048 -1.0721536 -0.30595678 0.030731203 0.7180494 -1.3201722 1.5737728
FYBK 0.749467 -1.8216218 -0.9858744 1.2337238 -1.3931535 1.2876439 -0.19266278 -0.37830567 1.624892 0.23862562 1.2658333 -1.008152 -0.7789879 0.2486675 0.15153398 -0.5371314 0.21439676 -0.31859386 -0.7803824 0.8958946 0.16755871 -1.952662 -0.36725524 0.6179564 1.1667376 0.14662892 1.3490252 -1.2106167 0.6978012 -0.24759822 -0.01065828 0.94847494 1.9168845 0.041632876 -0.5844074 -0.31445223 1.2959045 0.2782274 0.5342784 -0.24595383 -0.28865603 0.5339832 0.6474159 2.1351764 1.6809034 -0.0048281145 -2.0019448 0.7265578 -0.6055433 0.27461118 -0.87646407 -1.2506722 2.1895304 1.0143034 0.026957348 -0.3013114 0.57866216 -0.5639325 2.704754 -1.9096885 0.13779941 0.7717544 -0.7037412 1.7185434 0.117925696 -1.8633655 1.2646728 -2.7439058 -1.4855108 -1.6929988 0.15090115 -3.4122036 0.9316143 0.7478936 1.5364764 1.6697925 0.42219275 -0.77354497 -0.29515484 -0.7120386 -1.759116 1.4621586 0.018548172 0.46428835 -0.5902666 1.8259963 0.23170583 0.00025363994 1.3348112 0.4423082 -0.42634165 -0.28653112 0.41577032 -0.9504139 1.9530171 0.57419133 0.1855138 0.93791634 -1.6444588 1.0173248
DFAW -2.204025 -0.56425065 -1.0610484 0.69088936 0.6724398 -0.9138335 0.12693103 -1.1719438 2.3086724 -0.3721896 -0.7190797 0.76346 -0.05191118 -1.4288702 -0.24784914 1.342524 -1.1120051 -0.6175273 -0.003024641 1.4437963 0.051708944 -2.1364536 0.5215598 0.11593156 1.0507246 0.9608016 1.0556077 -0.7949496 0.009889678 0.48721704 -0.22980003 1.174427 -0.08751077 2.1036384 -0.101222895 0.24596854 1.3791542 1.2142844 0.31368327 1.3994896 -0.820617 -0.7471352 -1.7931937 2.3106976 1.6785939 -0.42263305 -1.277875 0.60237086 -1.6990589 0.1106389 0.20805714 -0.55373883 -1.2818533 1.0806234 -1.8457018 1.665126 -0.86385554 2.135518 -1.5121071 -0.9069649 0.3955318 1.0392582 -1.3228234 -0.5066895 -0.18799908 -0.34090143 -2.7703912 0.41761523 1.3451529 1.7981988 0.9761776 -1.2878997 -0.06140003 -1.3411429 -0.89870244 1.318694 -0.28439635 3.6511767 -0.169412 -0.37263432 -0.10060178 1.5939538 -0.90434515 1.5648116 0.17663394 0.34662 0.88475704 1.070382 -2.2155843 -0.15164883 -0.5181425 -0.6343747 -2.026895 0.122365095 -0.25705796 -0.1466557 1.7680086 0.636366 -0.927279 2.793655
QFCU -0.17087997 -2.094723 -2.8154876 -0.8119186 0.42419887 0.44843438 0.4529396 1.6056238 0.85792047 0.8383672 0.8569063 1.1342988 0.5421623 -0.20708929 -0.53291863 1.1798079 -0.81397533 -0.59557855 1.5631098 1.9179741 -1.1110696 -2.055594 1.561593 0.7421901 0.8029422 -0.41654268 0.3949275 -0.4738714 0.27960566 -1.5383157 1.5757697 2.3418074 -1.5425482 -0.619549 -1.082606 0.38314208 -0.631898 -1.7836107 0.68447864 -0.88106734 -0.06734001 1.0590249 0.90244824 1.3779119 -0.2592752 1.9591002 -1.6258079 -0.6191173 -0.7517976 0.9158602 -1.4238919 0.1483143 0.43472484 0.8923526 -0.8943015 -0.020586163 0.2672319 -1.1327673 2.246883 -0.8999873 0.32621154 0.68970245 -1.5939872 2.4072058 2.0024102 -0.19789757 0.84121495 -1.1010058 -1.7384301 -1.306518 -0.080900796 -3.1393 0.5141903 -0.33910364 -0.12667692 -0.47557673 -1.30394 1.0119019 -2.3580804 1.373055 -0.61547685 2.887243 0.8081411 0.01106764 -0.0750683 0.97597396 -0.34299326 1.136144 0.96923804 0.6955655 -1.0876364 -1.6257274 1.2280751 0.43754205 -1.6610731 -2.0193634 -0.13379216 -0.059684623 -0.27251258 1.3898165
VFAP 0.028507426 0.02350847 -1.6815331 0.253866 -1.1460385 -0.920338 1.4065514 0.65008247 -0.15392125 1.1188654 1.1622815 -0.16739832 -0.9414293 2.7536209 1.263145 -0.78850305 -0.31015965 1.4371655 0.35991356 1.414772 -1.4589803 -2.2764637 2.6935081 1.3998735 -0.063891284 0.733687 1.1839242 -1.2463348 1.1869134 -0.8291566 -0.37584218 1.3932489 -2.624592 0.33851406 -2.0523422 -1.0057691 0.6559188 0.42167222 -0.2144871 0.22687936 0.023223588 -0.67679274 -1.2013268 0.08528183 -0.3065905 0.731029 0.07576289 2.7803633 -2.238463 0.8022268 -1.223107 1.4459342 -0.9402792 0.15106659 -0.7370299 0.610538 -0.23469658 0.25069585 1.1884564 -0.56922686 -1.8768318 -0.20485942 -0.73181355 -1.7107637 -0.67799777 -1.2346157 -1.5362558 -0.6394728 -1.2079735 0.56652266 0.88925916 -0.8737487 -1.7392939 2.9030008 -0.8334625 -0.8761186 -0.4151162 1.8610386 0.8181365 -1.8272625 1.3761754 0.45772395 0.8283721 0.26585844 -2.7486188 -0.029727086 -0.688538 -0.38129812 -0.15716036 -3.5396311 -2.2915506 0.13732946 -1.2679536 0.63853145 0.21343231 -0.0561699 -0.5859322 -2.3228083 -1.0949074 2.818325
GALQ 0.47976997 -0.3090337 -2.557626 0.6082558 -1.5760328 -0.7585499 -0.24083069 -0.8158316 -1.6360282 1.4034923 0.32737863 0.64594835 -1.6964455 0.09906845 -1.1897163 -0.5368357 -2.0130093 1.3502103 2.1444507 1.3860877 -0.42975575 -0.7097917 2.72811 -0.48915598 -0.22602555 0.9186934 -1.3658099 0.013711051 0.026982801 -1.6183004 -1.3844457 0.006937741 -0.6450728 -0.90618753 0.7890983 -0.9443529 -1.2065406 -0.06146944 2.2568948 -0.39972606 -0.9621548 0.38668874 0.1762173 0.024587024 -1.2967092 0.3342449 0.4948375 -0.5977722 -0.7462037 -0.40158853 0.12794952 1.5716548 -0.5828259 0.6551035 3.452282 -2.247824 0.57896554 -2.8284178 0.11201604 -0.9674159 -1.1267984 0.60259193 -0.67043114 1.8681014 -0.6416406 -0.1847669 0.2495475 -0.09581589 -0.84532243 -2.6250606 -1.3324735 -0.26780394 -1.4394057 2.4614613 0.674452 0.860566 -0.8380377 1.9054879 -1.273549 -0.438499 0.35549742 0.69771993 -1.0395852 -0.12620926 -1.8064482 2.751837 -0.56900775 0.009215235 -2.1262176 -0.25572976 -1.683044 -1.754691 0.81695527 -0.37106964 -1.5847211 -1.5635525 -0.6558053 3.4567566 -0.08099309 -0.6839324
FWXY -2.1896107 2.0574908 -1.9198205 -1.5429738 -1.301411 0.3177122 -1.9545777 0.48178038 -2.8789454 0.76515746 -4.2276053 -2.2146065 0.25433093 1.5457743 1.5432438 1.4785316 -0.5414048 0.63483167 -0.8132843 -0.75118 -1.1336359 -0.6252232 0.86994046 -0.22477578 -1.9518442 -1.8885192 0.11220496 0.69867975 -0.54505706 -2.6138508 -1.4973513 2.2139397 -2.1185985 -0.63181084 -0.039238233 -0.012355096 0.8100254 1.319923 1.8392897 -1.7768145 -0.12569582 0.80812025 0.13631763 -0.08736524 0.047077928 1.092497 -0.89883494 0.24382283 -0.23208943 2.4528677 -0.9292775 0.69461286 -1.3380044 0.7470903 0.95076984 -0.7425293 1.3848314 1.5095371 -1.4415118 -1.6853917 0.17360324 -1.4757818 -0.73843145 -0.9029161 0.3107398 -0.7502379 -0.13647223 -1.7146482 -0.35307717 1.2156448 0.067499876 0.058598567 0.4923255 2.204629 -1.369624 1.8157871 0.73117334 -1.064003 1.8544693 0.16564794 1.1700804 -0.13356078 -1.3411164 -1.6590508 -0.64688903 -0.6579913 -0.6620782 -0.32842523 -0.06141915 -1.8181858 -1.1082202 -1.0120547 -1.1380569 -1.1150476 -0.14540571 -0.9681247 1.7426761 -0.42151996 0.22802466 -0.77649724
BHWK 1.2003872 -0.39551264 -1.0459818 -0.63332456 -1.7147188 1.0988811 -1.2229575 -0.5873155 -1.7809552 1.991594 -4.0411363 1.5290745 -0.776386 -0.5806058 0.67795664 -0.9708738 -0.5555074 1.3025843 -0.019697957 0.28738493 -2.9221995 -1.4556755 0.7151949 0.31100386 1.5503865 -0.7745048 -2.5996435 1.4402074 2.054459 -1.901226 -0.21106853 -1.8113171 -0.60619795 0.04229153 0.5624902 1.0965272 -0.8846868 0.19223593 1.0751936 0.4746336 1.2963715 2.7159028 1.4493676 0.059913773 -0.6550215 1.177316 0.9034853 2.4819462 0.045260426 1.628681 -1.0881759 0.79092914 -0.6105659 0.54300374 0.5616953 -1.3203412 -0.23572335 -1.2646589 2.6273034 1.2923454 0.7807829 -0.52200973 1.4206245 -1.6122714 -0.8125347 -1.8111598 -0.7560238 -0.058675934 -0.30438617 0.08255326 -2.35956 0.9921804 -1.682037 1.5535496 -0.079607464 0.9104288 0.35138026 0.97987 1.8958045 -0.07236689 0.57649 0.47412902 0.42452812 -0.08992523 -2.7465184 -1.4694939 -0.3689791 -1.2825639 -0.0067445342 -0.7506392 1.0142901 1.0935204 -0.46321583 0.70873433 0.7587984 -2.2852604 1.223185 -2.55208 0.58347493 0.4188998
QAHX 0.41003397 -0.39627478 1.1239442 0.58378136 0.91805434 -0.891633 -2.0445828 0.35003823 0.26442555 1.3782812 0.1876015 -0.35271606 0.21505842 0.61833286 -2.148539 1.4350101 -2.3273125 -0.034142077 -0.5035773 -1.0079299 0.33753905 0.9824794 0.9518838 0.15600005 -1.9318324 -0.761239 -1.7804612 1.6831121 0.09408665 -0.67641294 1.4188367 0.67533135 -1.1467122 0.6910542 -0.034876093 0.7030885 -0.43669012 -2.458003 -0.6842137 0.88506407 0.06300739 -0.3014301 1.3133816 0.25539798 -1.2610469 1.1223868 -1.5623919 1.2268112 0.06491465 -0.57543355 1.099532 1.1570077 1.1431134 -0.26958117 -1.4234512 0.7382814 -0.38421232 -0.22676097 0.4870882 -0.825444 -0.023127284 -0.5673753 0.31833136 2.5601974 0.92298174 -0.2250067 0.13555446 -0.30015722 -0.65876615 -0.25209832 -0.33551893 -0.089403115 -1.3144928 0.8659148 -1.2996675 -1.6884668 0.86883354 1.0628684 0.17431429 -0.43470985 -1.4337065 0.18173505 -1.0239525 0.6474141 -0.39909604 -0.070523605 -1.9978803 0.4153084 -0.29033497 0.97675765 -1.2580181 -0.90737075 -0.11198024 -1.3117748 -0.47476637 0.12410198 -1.1175269 -0.6054995 -0.56956214 -0.571718
FIJA -0.13100791 -2.3918135 -3.0526953 -0.66251785 0.1570652 0.24796318 0.9164985 1.6273075 1.0257486 0.7652876 0.41999087 0.9063238 0.59254956 -0.4130154 -0.5042873 1.1252154 -0.9099746 -0.2624425 1.6019685 1.8195724 -1.336138 -1.8971366 1.0400652 0.62373424 0.9337948 -0.31509727 0.29227787 -0.12617418 -0.051263288 -1.3577158 1.7900031 2.5251315 -1.2342668 -0.40554556 -1.5273707 0.36961424 -0.35161215 -1.8822421 0.7848709 -0.5905723 -0.31186664 0.72346115 0.6724145 1.6342297 -0.1048556 1.994363 -1.5051565 -0.912749 -0.80945224 0.8043982 -1.2496805 0.1559225 0.9855365 1.2441108 -0.95597845 0.024333661 0.21876627 -0.91351634 2.5549192 -0.7939073 0.13586205 0.6841394 -1.5352852 2.249699 1.8731774 -0.23404571 0.4270466 -1.1078662 -1.5138506 -1.1823839 -0.08300172 -3.1871116 0.67405266 -0.32804263 -0.26873136 -0.08275995 -1.1370931 1.1088943 -2.1230464 1.466711 -0.06496488 3.085193 0.9120883 0.19014646 -0.43973094 1.3880947 -0.73983055 1.0466048 1.0481368 0.6914554 -0.90988 -1.5728879 1.2134813 0.26394 -1.3379422 -1.8649374 -0.20716578 0.08474747 -0.44874832 1.5239055
DLJG 1.4365277 -0.06830548 -2.2883763 0.64614 -3.0304604 -1.0064825 0.8527941 -0.49598557 0.29637352 -0.25162667 1.4647517 0.5840909 2.2167134 1.8494451 -0.60052145 -1.3909572 0.27324826 -0.23199217 1.2204832 1.470752 0.2897921 -1.492934 3.032997 1.1154735 1.5090634 -1.2767804 -1.799402 1.3346248 1.8198723 0.1965631 -0.008387325 -0.7929024 1.4370059 0.45389584 -0.060201176 0.657288 1.3055218 0.49457213 1.675145 -1.9494675 -0.85627264 -1.7811602 1.3778774 0.6039769 -0.4149578 -0.062595315 -0.822346 0.34873277 -0.14996433 0.20460716 -0.7598468 -1.1021751 0.67457885 -1.1585867 0.9303685 -0.0062866975 1.3312478 0.85920537 -0.085066155 -2.4313195 -0.14211269 1.0271791 -2.6286874 1.3317995 0.80854225 -1.9221109 0.4486908 -2.430752 -0.8375521 -2.5136142 -0.8465776 -2.2770615 -0.84752405 -0.18957712 0.4927023 0.34807578 0.86034465 0.966985 -1.241588 -1.5223619 0.9203271 0.4072099 -0.78360826 0.09690594 -2.3541756 2.394961 0.7433048 0.35807592 -1.1980686 -0.96019346 -0.54695773 -0.91858274 1.7629803 0.839394 -0.94654995 -1.6694473 0.23541747 -1.4102852 0.93448794 0.98449755
EYRO 0.14943513 0.06910541 -1.4747355 0.42871007 -1.0801957 -0.84681714 1.2640907 0.62229764 0.010341419 1.0530721 1.0108786 -0.13790731 -0.7582895 2.7431972 0.97635335 -0.713582 -0.23372595 1.5215199 0.40732336 1.272578 -1.3689032 -2.2505248 2.6343439 1.4400885 -0.29475975 0.7353809 1.2089827 -1.2152299 1.405069 -0.83177054 0.06330519 1.5269077 -2.602375 0.116089545 -1.8998303 -1.1565273 0.7216785 0.26890272 -0.1374134 0.34152025 0.08860728 -0.8135454 -1.3106629 0.12688586 -0.17443946 0.47635248 0.17670818 2.891889 -2.0763474 0.6625389 -1.3981656 1.618938 -0.9151902 0.31398454 -0.7432289 0.684073 -0.23772378 0.022953877 1.0336682 -0.56094176 -1.8337855 -0.13022693 -0.9431546 -1.6395602 -0.7087988 -1.1959734 -1.6733953 -0.7396599 -1.2064073 0.34031394 0.8954314 -0.7257734 -1.9634175 2.8862724 -0.9943996 -0.7489469 -0.30331558 1.7327781 0.9525877 -1.7345055 1.2387913 0.48622826 0.82173795 0.1842188 -2.7187831 0.16416782 -0.47131407 -0.38689685 -0.09660412 -3.3357563 -2.4776607 0.20642994 -1.4242609 0.56580615 0.34882888 -0.04675448 -0.6573433 -2.6632838 -0.9615577 2.6268122
LGEH 0.5247253 -0.1832387 -2.4445822 0.82354504 -1.5577475 -0.83548164 -0.49275452 -0.66863036 -1.6602771 1.2765247 0.41525984 0.5459562 -1.8730073 0.29338455 -1.304272 -0.73489165 -1.8311021 1.7540858 2.0647776 1.16614 -0.40133446 -0.66360474 2.563718 -0.8748747 -0.27056342 0.9189047 -1.4147569 -0.20746687 0.16533996 -1.5473053 -1.36641 -0.2719548 -0.5880559 -0.85887104 0.7955888 -0.9743892 -1.3147585 -0.23076166 2.164055 -0.44819257 -0.9251465 0.20985328 -0.08514219 0.09144022 -1.5083714 -0.06764025 0.48263106 -0.46242848 -0.8945343 -0.14267772 0.15742467 1.4280521 -0.45613784 0.6901199 3.2295434 -2.3866642 0.61197287 -2.6265604 0.20606105 -1.0065477 -1.3842758 0.7832316 -0.65046114 1.5259606 -0.7912386 -0.20957772 0.065197326 -0.073222384 -0.9469896 -2.8175495 -1.1215869 -0.29648098 -1.60092 2.232331 0.5206844 0.29980204 -1.2060956 1.9009409 -1.3575231 -0.6170899 0.50141793 0.71316844 -0.9926293 -0.010350814 -1.7473619 2.657614 -0.5990229 0.3174935 -2.1138172 -0.5382196 -1.622851 -1.5705053 0.91662765 -0.2183041 -1.4087996 -1.299721 -0.5001087 3.532318 0.008658636 -0.7174701
HWQK -0.34518448 1.2072922 0.0411913 0.5187966 0.080469094 3.2707152 -1.4591407 1.6641784 0.48749202 0.39258143 1.6688547 -1.0328091 -1.057423 -1.3842512 -1.604587 -0.31371987 2.0123305 1.4035857 2.3024273 -2.1720784 1.829962 0.6597583 -1.6759106 -0.02686765 0.29643038 0.40678748 1.089132 1.1698782 0.15175697 -0.10732306 -0.86803734 -1.0771495 2.3469057 -1.351388 1.3434304 0.12903784 -0.32383794 0.1981758 -1.2466452 3.1676013 0.7845741 -2.6497946 -2.3601916 0.21389776 0.5036767 -1.0348552 0.06952216 -0.88836217 0.98924124 1.0953633 -2.1068115 -0.51119065 -1.4671378 0.45244908 -0.6203961 1.3127071 0.6298549 1.2770624 -0.15549676 0.5971738 -1.0426548 -1.1072797 1.59971 -0.02573009 1.5372112 -0.118151106 2.1115086 0.6137501 0.5040032 -0.036360953 2.0773273 0.37579575 -0.5445446 -0.07579611 0.3094657 -0.20772262 0.39428788 -0.0800703 0.678773 0.5360671 0.29057303 2.0439537 -1.3461732 0.022855707 -0.35927525 2.8039393 0.21546201 0.17625143 0.52272695 -0.07556458 0.34929168 1.2168558 0.92437375 0.62423426 0.36243558 -1.5815262 0.22379439 -0.92082447 -2.6560152 0.23171335
GUBY 0.31585512 0.26386565 0.00024835303 1.3742708 -0.43204233 0.038543273 -1.4245636 1.0056988 0.33767763 -1.3947166 1.8643941 -0.61449057 -1.0256834 -0.036716115 -0.79772335 1.269977 -0.11357093 1.1168435 -0.54249805 -0.88953054 0.84592503 0.13887703 1.1316643 1.1019354 1.5591077 1.0417488 -1.7314844 -0.25499862 -0.29109022 -0.052590538 -0.99418455 0.89014775 0.75974786 0.93317974 0.5969251 -0.41755056 0.91103464 1.4717532 -0.89811134 1.7879117 0.2823092 -0.5917188 0.9319109 -0.87324667 0.8912215 -0.28055596 -1.143744 0.8355966 2.0062852 0.33941442 0.23729952 -1.9248812 0.5310648 -0.8256022 1.795316 2.2107246 -0.005443094 0.5916812 0.4834115 1.0516346 -1.1484708 -0.8142945 0.9004638 -1.953085 -0.9538516 -1.2377247 0.070769034 -2.4507573 -0.68756247 -1.1409458 -0.395661 0.1848276 0.6003589 -1.1813047 -0.12315665 -1.3080763 0.3373122 -1.2154077 0.6542433 0.1773649 -0.48415676 0.8281186 -0.53087884 -0.42216167 -0.2779077 -0.9460512 0.36654493 -1.6135037 0.4804677 1.1588192 -3.045017 -0.83467263 0.841486 0.45851418 0.3992204 0.5818108 -1.8586601 0.73726684 0.6487284 -1.1078687
JUXF -0.725602 -0.87825173 0.25196832 -0.12591435 0.58614343 0.1599501 -0.49336055 1.2259071 0.23292135 -0.959504 2.3519716 -0.5362054 0.24698083 0.16623774 -0.970357 1.8292414 2.36347 1.3614695 -0.88250214 -1.6215141 -0.513206 0.39546064 -2.3504257 -0.07902532 1.3643051 2.854517 -0.41095653 -0.4757538 -1.0614171 1.0540621 1.9597319 -0.23308283 1.1675378 -2.6325667 -0.1331062 0.6452536 1.4931235 -0.98688895 0.46205086 0.6878251 -2.3397558 -0.041976646 0.14186558 1.1471133 1.5116657 0.3354116 2.9955263 2.372677 1.1893421 0.29771185 -1.558877 -0.98102736 -0.3557943 0.24285594 0.9263407 2.2886438 1.087323 -1.5908405 -0.8753385 -0.14039099 -2.219832 -0.36461282 -1.5813804 1.6818726 -0.23133214 -1.2865852 -0.7702033 -1.9498655 0.1799547 0.039948292 1.3554097 -0.45551622 -0.6017544 -0.84835446 1.5132383 -0.9562545 2.2220643 -1.2288607 -1.1685153 -2.6261458 -0.89028865 -1.1554307 -1.4362936 -1.384228 -0.00988421 -1.5517757 2.1652927 -0.70728064 2.6500013 -1.1663417 -0.2785782 -0.7375412 -0.20249204 -0.6800375 0.32423222 -2.0785272 0.39809814 -0.8056949 2.5958147 -1.0827805
JBIN -0.4139026 2.237822 -0.061537694 0.6760616 -1.0075241 0.47999024 -1.2656425 1.0195264 0.4333033 -0.18394716 0.17175427 1.239808 0.28881714 0.8595243 -0.43826586 -0.99955255 2.256348 -0.15977022 -0.7629857 -1.6152378 -0.09285747 0.57340276 1.1173389 2.9987972 0.2954126 2.4651554 1.2555352 0.6735083 0.6963769 2.8590095 -1.3659496 -1.2193303 0.8744662 1.2292175 -1.2542222 -1.3624275 1.0088558 -0.74868816 -0.70871365 -1.6399466 0.25799173 -0.5009628 -1.3183565 1.5665019 1.3244048 -0.41211256 -0.78508 -0.5032618 0.3932455 0.8752735 -1.3271828 -1.2075676 2.558938 0.735598 0.42989054 1.9956734 0.45888498 -0.34930936 -0.5797862 -2.163975 -0.2578712 0.30294934 -1.2144188 0.05561804 0.75245225 -1.4275599 1.3323476 -1.8532121 -1.8505586 -0.18238772 1.9083047 1.3683397 1.5110316 0.83255637 0.9389561 0.53993064 -1.2723539 0.19683754 -0.2713036 -2.4202003 1.0899636 -1.5580308 1.8308269 0.30910075 -1.1360861 -0.95279795 0.6760717 0.32007837 -0.80748206 1.1418214 0.44980246 -1.6153103 2.701072 -0.16790164 1.8352594 -0.5594866 1.0708916 1.0883503 1.1043298 0.8785772
ADBX -0.70355296 3.238325 0.3891858 0.69375414 -0.37270433 -0.04182129 -1.4033148 -1.3191286 -0.7357109 -0.2186629 -1.037173 0.079381436 -0.71787816 0.25164706 -0.9575453 -1.2416438 -1.8939403 1.1454068 -1.1473407 -1.4749117 -0.33021542 -0.36342105 1.9138933 -1.8904161 -0.814742 -0.30454126 0.31020594 0.7326384 2.542002 -1.6087828 -0.34972498 -0.24833931 0.6392064 0.32345566 2.7041714 0.34464368 -0.51544154 -0.54037446 0.93913126 1.2470931 -0.9265015 0.7328632 -0.13859753 -0.32530758 -1.4243723 0.0053774924 0.93457013 -1.5302094 0.028904557 1.6418962 -1.8131133 -0.04697157 -0.8776297 0.2975751 2.956048 -0.022593575 -0.18615015 -1.0310192 -0.39526734 -0.3471383 1.5694554 0.32281658 0.4135098 -0.98419654 0.44945616 -0.3094848 0.5052834 1.8066268 -0.7524174 -1.834453 -0.8644744 -0.92374253 3.0100102 -0.4969361 -1.676346 0.95927054 -2.5504975 -0.21593185 -0.45060107 0.04099799 -0.061662693 -0.6702622 -1.0013344 -0.18189245 0.86655986 -1.7779818 0.74627167 -0.40634218 0.4774138 -0.5483064 0.54667634 -1.3415112 -1.2407707 0.7651228 0.70704687 0.58710337 -1.104028 0.6144876 1.4668953 -0.5256717
QXBG -0.8195985 3.313858 0.23084575 0.6887609 -0.6650695 0.03398234 -0.9849912 -1.1951872 -0.9019329 -0.21239309 -0.90036196 0.1817915 -0.9388589 0.14809364 -1.2423733 -1.5669837 -1.9262254 1.2480142 -1.0338343 -1.2295909 -0.30755198 -0.5726854 1.6649723 -1.8421296 -1.124249 -0.28625962 0.4908053 0.68002707 2.8545306 -1.4935503 -0.06461556 -0.26474026 0.6358452 0.0800608 2.636585 0.27719507 -0.6500542 -0.26472655 1.0065147 1.4462543 -0.90723157 0.83931816 -0.32216692 -0.39503717 -1.5311292 -0.18997975 1.0450152 -1.4502046 -0.15162006 1.569959 -1.9541674 0.02362944 -1.3733913 0.33146527 2.7545714 -0.17784166 -0.42866418 -1.0435891 -0.40296537 -0.36666787 1.3824353 0.22200325 0.27558383 -0.68232685 0.53813297 -0.51020163 0.24585699 1.8075434 -0.7952899 -1.8438253 -0.69154024 -0.86031145 3.0627174 -0.39683864 -1.4258049 0.87903786 -2.588648 -0.24878414 -0.2499179 0.05307214 -0.33899894 -0.6045122 -1.0258267 0.14986682 1.0645636 -1.7874725 0.53200585 -0.48100856 0.873771 -0.5860488 0.536387 -1.1478341 -1.3156438 1.115669 0.78919864 0.2934996 -0.9629895 0.35437372 1.4981459 -0.5629017
QOYC -0.58581567 0.7289163 -1.8560175 -1.207271 1.5512136 0.06379417 -1.9479858 0.022709036 -0.61100775 -2.1412537 -2.0603433 0.34365878 0.50511414 -0.17793705 0.080738716 -0.43252832 0.5818194 1.747695 -0.47495404 -0.66304094 0.80121315 0.70926446 -0.3491976 -1.9319321 -1.7627527 -1.1752753 0.15601088 0.85344094 -1.1259487 -0.902528 0.85731703 -1.1731794 -1.3599226 0.76895714 0.84104234 0.54420644 0.6009286 0.03332459 -1.2819719 -1.2806867 -2.3047612 1.1233338 -1.4825046 0.52274525 -0.49381122 -0.16410416 0.4675448 0.15490939 0.49465555 0.53517455 1.292285 0.0676571 -0.050711002 -0.054693673 0.22289471 0.002282872 1.0941586 0.7365158 0.2227727 0.14640939 -1.8085649 0.5273201 0.7009344 0.3603123 -0.74171525 -2.3858018 0.32325566 -0.52044654 0.13871199 0.6461369 0.72136563 -0.9409315 1.121462 -0.64910454 -0.5343947 -1.0626231 1.3383745 1.280441 0.3931071 -0.011776931 -0.33117586 -3.1073778 -0.8128293 0.31040737 0.8468678 -0.02605931 -0.64792526 -1.7668765 0.6266168 0.55680454 0.37770927 -0.38286322 -0.44957983 -1.9164406 -0.35617694 -0.018635085 0.51631504 0.24166365 1.1920944 -2.3375194
WKQF 1.3672569 -0.28901887 -0.9594924 -1.053365 -1.886742 0.59595054 -1.2764752 -0.72475183 -1.4031824 2.1041422 -3.7963264 1.3222197 -0.86189026 -0.66495115 0.69021505 -0.9092101 -0.4793363 1.2580979 -0.33534166 0.07834725 -2.6942892 -1.5173178 0.76757544 0.13805811 1.488319 -0.7830901 -2.439964 1.6078019 1.9147185 -2.0499568 -0.20337458 -2.14565 -0.6056946 -0.16201012 0.86834514 1.0174491 -1.2941123 0.36444363 1.4316128 0.49655446 1.4346397 2.7983797 1.349544 -0.028757988 -0.5478568 1.182916 0.9051899 2.6124158 0.5307739 1.4838345 -1.2028719 0.8884706 -0.9711837 0.5842532 0.5272069 -1.0800118 -0.46870807 -1.4204265 2.1593459 1.4680612 1.053589 -0.52963954 1.3078822 -2.031464 -0.57457626 -1.8894197 -1.1340861 0.10912018 -0.28377634 0.03177516 -2.6062431 1.4107373 -1.8698385 1.5679469 -0.30255118 0.9990807 -0.0048839725 1.2073312 1.5541909 -0.18090506 0.71773285 0.5217275 0.38869333 0.15316918 -2.6520631 -0.8882792 -0.32740688 -1.0125976 -0.29761657 -0.6046698 1.0922961 0.97681624 -0.6859147 0.39309803 0.94873124 -2.4011815 1.2087051 -2.3247106 0.93931377 0.26373696
DJFA 1.2185984 -0.002882696 -0.6198959 1.5316647 0.38293275 0.929939 -0.6008727 -1.9520265 -0.17021915 -1.1495546 0.12120338 0.05760742 2.8896139 1.4709222 0.31702745 -0.19507957 -1.3768984 -1.1007367 0.5792929 -0.73556376 -0.39639628 -0.20058058 2.2546186 2.0528822 -0.32509094 -0.7063138 -1.3895714 0.65812385 -0.47470692 -0.88745856 -0.5992001 -0.6569322 -0.48692206 -0.005331159 1.4635171 0.49402452 -0.18037409 1.0596416 0.79984564 -1.5833915 -0.39671758 1.0439495 -1.0296904 -0.5734929 0.946467 -0.1711016 -0.5116176 0.008975523 0.91763365 -0.40444505 -0.2638698 1.7395809 -0.625306 -0.51843137 0.41677767 -1.6177151 -0.38102502 0.38149863 -0.3879409 0.5976502 1.1293077 -0.5835248 1.3136156 -0.64116484 -1.0535425 -0.03235612 0.35274145 -1.1646318 -0.86128986 -1.2505853 -1.3829709 0.671631 -2.5427582 0.8170346 0.82809365 0.15414898 1.0640454 -0.5407867 1.7847774 -0.32056028 -0.48685688 -1.2115562 -1.0274664 0.2988488 -1.982392 1.2796935 -1.1768103 -0.4735866 0.045412663 -0.04851174 -0.25458905 0.31096476 1.5004458 0.51920396 -0.7850414 -0.33026275 0.12244916 -2.92389 0.029747086 1.07323
FJID 1.3461258 -2.013718 -0.6602903 -0.61264384 0.08642558 -1.6493938 1.1792289 -0.018333115 -1.27557 0.9585471 -0.65353835 1.6459415 -0.32667723 1.6132352 -0.9041138 0.8810734 -0.46095204 -0.5260266 2.3573878 0.33641937 -1.6420847 -0.5706356 -0.60321015 0.37340903 2.035063 0.5238963 -0.41249776 1.044358 0.61029685 -1.1438855 -1.2554961 1.0699377 -0.76808345 0.11215579 -0.6416498 -0.4951965 -1.3893431 4.066034 0.29581067 -2.2839065 0.5441345 0.4068239 0.9242264 -1.6048641 -2.629298 -2.970167 0.92718124 0.61276484 -0.50666255 2.0352676 0.6199945 -0.24956699 0.30641046 1.8268569 0.11014553 0.10000578 -0.37676403 0.14320792 0.53037095 0.9894242 -1.2934042 -2.0746648 -0.5842333 2.0454888 1.4689062 0.31680033 -1.5663521 -1.2508959 -3.2462587 -1.3214856 -2.159338 0.8153535 -1.8706275 -1.1181359 -0.03497695 -0.78542703 -0.3423531 -0.35669807 -0.39483047 0.40309983 1.7422955 1.469088 -0.41760355 -1.6858301 -1.4377997 3.3406775 -1.1848453 -1.104614 -1.5120418 0.01661578 -1.2054704 -1.739677 0.6220775 -0.47193608 1.6901811 0.48311508 0.15128021 -0.35011038 2.0258455 1.1208297
NPCQ -0.50078434 0.6504599 -1.8870395 -1.289183 1.4243634 -0.08921306 -1.6949949 0.09625013 -0.72683793 -2.3132846 -2.040892 0.3391832 0.53035027 -0.02455461 -0.05052962 -0.5244054 0.8507864 1.9631213 -0.7680398 -0.9582652 0.8317111 0.5179366 -0.05279082 -1.8904341 -1.8103527 -1.2075489 -0.19214231 0.665096 -0.79967284 -0.75913304 0.90174484 -1.2004846 -1.7170151 0.61452085 1.1935375 0.46045405 0.117789455 -0.20942971 -1.1953827 -1.2024369 -2.5547788 1.1064762 -1.7020209 0.17849606 -0.3991787 -0.12031051 0.7893651 0.12853196 0.6812676 0.76851207 1.2612014 0.1250807 -0.07851397 -0.32675576 0.22773615 0.41435555 1.1302373 0.6178193 -0.1299518 -0.005987879 -1.7420496 0.5931938 0.72028863 0.16044444 -0.92801946 -2.4679778 0.19135432 -0.6976561 0.3940256 0.74790865 0.3855712 -0.91786504 1.4006423 -0.5053646 -0.7500055 -0.6938463 1.424858 1.3439103 0.30355522 -0.076644436 -0.7615709 -2.7655683 -0.84024113 0.21715426 0.87643784 -0.02408764 -0.5895644 -1.4729555 0.65859884 0.75082666 0.26859143 -0.38428715 -0.09521697 -1.6700318 -0.3157716 -0.0824888 0.41770256 0.37437168 1.5455698 -2.3943808
UMIQ -0.6425066 -0.40646502 1.3035944 -0.88953394 -3.3103638 -2.4086845 1.858055 0.061784558 -0.090564586 1.0620946 1.3300521 0.83743536 0.84955865 -0.80262643 -1.5751902 -0.18420082 1.2879906 -0.022052364 -0.69246304 -0.052764952 1.5858014 -1.1309516 1.7835696 0.32816988 -1.887379 -0.8551024 1.7549266 2.262278 -0.6161655 -1.0640455 0.92314786 -1.262828 -1.1603658 2.1824348 -0.005905041 1.5116978 0.41453588 1.3830644 0.78810424 0.6978312 1.0678349 -0.73060435 0.8585363 -0.26758382 0.35967177 -0.40445015 0.8634269 -1.3882587 1.7708056 0.6432628 0.9158546 0.6564656 -0.46022952 -0.9381461 -0.38281563 0.77766556 1.1854631 -0.57698464 0.49303237 -0.19314903 2.2845542 0.09280067 1.4796778 -0.13447392 -1.3999726 -1.7943342 2.8376975 -1.1374002 -1.22899 -0.9434554 1.0060419 -1.8486826 -0.22863048 0.68089646 0.6275821 -0.6551386 0.20279633 -1.0708636 0.25573123 1.246134 0.58112895 -0.82045525 -2.5083766 -0.33398002 -1.2944174 1.0024115 -0.8467794 -0.8022144 -1.5372676 1.0919268 0.6982279 1.774163 -1.2420434 -1.2775382 1.4190341 -0.8370701 1.626774 -1.6416489 0.8891149 -0.24402297
RVBW 1.2040131 0.8441267 1.7462834 -0.94939476 -2.0467477 -0.26096672 0.963578 0.5345333 1.1812029 1.5932233 1.0840993 1.5482819 1.1904279 1.2609725 0.23851752 -0.26374 1.2644414 2.7496998 -0.24203837 -0.24445961 -2.472032 -2.301655 0.93274933 -1.1342211 -0.44542 0.35116616 -0.07038121 0.16616587 1.8729844 -2.048075 -0.45924675 0.5640197 -1.267703 -0.19439714 -0.50294083 0.16670205 0.4443705 -0.6818902 0.09974848 0.17825662 -0.39380854 -1.2391042 0.50984186 0.60411274 -2.0276992 0.82607096 -1.8174007 -1.2809747 -0.5278109 0.48335716 1.5039129 1.1639686 0.21627484 -1.9806743 1.151724 1.6149309 1.6199874 -0.529636 -0.10793208 0.3784704 -2.9537878 -1.1423154 0.8502405 -0.2025964 -0.7463144 -0.76560044 0.5263819 1.1643711 -1.0005721 -1.0450541 -1.038156 -0.2066681 -0.5460012 0.97225535 -1.4950023 0.042755175 -1.2093078 0.6813337 -0.09300108 -2.5412464 0.34672254 -1.1865969 0.112861805 -0.2392555 -1.9108526 2.0653841 0.28086594 -1.7731907 0.10012118 -0.39496338 -1.1880081 0.62842053 -0.20641327 0.28743193 0.08431602 0.8456032 -3.29174 -1.0327983 -0.48890594 1.7554226
QAMU 0.47336394 -0.19338046 0.34830728 0.61076343 -1.2276391 -0.76816356 -0.46429673 0.027697047 -0.30050406 0.39503396 -0.32570675 0.8373602 -0.500569 1.026215 -0.4026407 0.5031521 -1.1287185 0.20728894 1.0830214 -1.2527236 0.15135494 1.8865881 -0.12549214 -0.9878588 -0.12655738 -0.09977132 -1.6234517 1.2402476 -1.7455697 -0.3665518 -1.0067931 0.6811115 -1.3002361 1.0183709 0.3712396 0.9625771 -1.028617 1.541366 0.17400436 -0.97964936 -0.8312893 -0.9153835 0.21435234 -0.66448176 -2.087782 0.21520604 -0.77746874 -0.11054491 -0.9966752 -0.19625278 0.8522698 -0.27441725 0.99459696 -1.461785 -2.068529 -1.5900632 -0.98913836 0.046805095 -1.1165144 -0.24973576 -0.74785 -1.4921602 -0.74448675 1.189619 0.63976157 -0.9149295 -1.7582957 -0.12163348 -1.043561 0.5036992 -1.6025163 1.647773 -1.3971444 -0.007212738 -0.6950317 -0.46815553 -0.14137454 -0.5081572 0.33874914 0.17392044 -0.41629338 -1.4608097 -2.3786933 0.5086491 -1.2851803 1.2552116 -2.6754937 -0.71653044 0.06483017 -0.8529497 -0.032794453 -1.9558704 0.05332686 -1.6031874 1.5862572 0.51780707 -1.9590217 -0.57064414 -0.12260508 0.8428887
ISEG 0.45798346 0.108691365 3.6868508 1.231803 -0.6851459 0.55016464 1.3522445 2.1449385 1.325073 0.21285367 -0.35648972 -0.23762438 0.4650107 -0.32235852 1.5579114 1.3689082 1.2922347 -0.9216412 2.1694868 -0.955502 2.0035636 2.16337 -0.8302806 -1.276695 0.7967692 -1.0145936 0.75573415 1.1648452 -2.3709643 0.6073417 0.07484485 -0.74302554 -0.71376413 -0.7047195 0.6668074 2.8123481 1.391204 -0.021403382 0.35500872 0.90183556 0.918075 -0.17711787 -0.14586157 0.065760784 -0.22670731 -1.5528507 -1.2357676 -0.9332129 0.44050887 -0.42877764 -0.51719654 -0.7711887 0.13994747 -1.5099561 0.7723548 1.5136555 0.60486364 -0.31550643 1.4379169 0.50642717 0.34455788 1.0986085 2.6072834 -1.5903736 1.0837665 1.0367932 -0.5579721 -0.014572737 0.2526202 -1.7388431 0.5483734 1.0435218 1.3744843 0.6250565 0.83551157 -2.3024018 -1.0290078 1.4487969 1.1156368 0.5368025 0.036007933 1.4162264 0.18863885 -0.6619635 -0.35526642 0.21612914 0.85104954 -0.49999776 -0.7545378 -3.3249514 0.5550529 2.4502916 -0.2761186 1.8790381 -1.0719794 -2.3056169 0.1054753 1.3914461 -1.5412848 -1.6765064
DZMQ -0.26138917 2.766513 0.7031234 -0.95429814 -0.36261582 0.7927588 -0.3107822 0.101608485 0.54610944 1.4092001 2.2199187 -0.94018143 2.844189 -1.1767313 0.2353696 0.6152512 0.20808971 1.3213419 2.4388773 -1.9292929 -0.17572252 -0.17180775 -2.009661 -0.7229255 1.5130045 0.09135657 0.56440705 2.0312223 2.597722 0.04663304 0.86494255 -0.38272396 1.1422253 1.8899745 -0.21226944 0.5679999 0.81027406 1.8569579 -1.1224352 -0.33430737 -0.015298717 -1.2879046 1.0117589 0.85395056 -1.433919 2.1998165 0.18913507 -1.7575839 0.16908433 -0.81248987 0.5152416 -0.40330425 -0.2296563 -2.3799245 -0.37428606 -0.68852216 1.7933147 2.4795408 1.4080456 2.5410402 -1.666038 -1.1645608 1.62314 -0.6317683 -1.0718491 -1.2431574 2.9342585 -0.15514556 0.92129153 0.26589638 0.6653724 0.16338171 0.47812688 -0.14192465 -1.929251 -0.75598824 0.24299023 -2.4233663 -0.11015558 -0.39517906 2.7655187 1.5178471 -1.218378 1.1106863 0.13142025 0.22819877 -0.1362783 -0.4115429 -0.71235883 -0.9351358 0.9499066 0.88600475 -0.6946962 1.8381352 -2.2308085 -1.0277088 1.6890918 1.1559012 -0.9406977 -1.5676733
DKAP -0.04268402 -0.30883077 1.428252 -1.4830579 -1.4369936 -1.0342414 0.6094169 1.3069426 0.48601025 -0.43127078 -0.66345626 1.2907486 -0.9799207 -0.79314595 1.1403178 0.18572336 -0.87926906 1.527351 0.17607695 -0.7146474 1.7789439 0.60157275 -0.08787857 -1.7263664 -0.38657832 -1.3057971 0.8841329 1.7968192 -1.6546074 0.47800088 -0.90885323 -0.49663615 -0.26074252 0.28060633 0.39660063 2.4738564 1.1401116 -0.8984602 -0.58320576 0.7771996 -0.46033967 -1.370933 -0.2970714 -0.51395553 -0.6225377 -0.100607984 -0.95804113 -0.47644678 -0.58298 -0.8030931 1.3578051 0.055836543 -0.04913278 -0.83998865 -0.68723077 0.94082767 0.27205455 1.4702455 2.133242 0.6752297 1.1332811 2.6424706 1.4117279 -0.62218773 0.655061 -0.42318556 0.29444107 2.0149667 -1.2421225 0.6169573 -0.026453443 1.0296582 1.4004738 -0.62813306 0.87017184 -1.658432 2.19764 0.2211095 0.2721535 0.2403074 -0.94012904 -0.85268116 0.72990525 -0.39558497 0.27747655 0.9202359 -1.2115526 -0.46499723 0.044991452 -1.2521436 0.7791254 1.0598336 -0.009581976 0.86155677 -1.1717806 -0.6749306 -0.38205746 0.58680856 -0.54764277 -1.4580956
AUCJ -0.69171196 -0.628866 1.0508782 0.78461134 -1.2199094 -0.56202775 -0.40439788 -0.33016145 1.7036823 -0.94191414 0.4861437 -0.1575424 1.1882929 -2.5236382 -0.04611733 1.643139 2.10612 1.0662664 0.20696636 -1.1575879 1.1584798 1.2598023 -1.2207097 -0.42011002 1.4320625 -1.1520627 1.9306471 0.6604364 -0.8711122 0.86991674 0.565136 3.0244489 -0.76916826 1.511639 -1.0113852 3.5758722 0.3329102 -0.63739634 1.3163882 1.8701581 -0.25163674 -0.64098525 1.2960185 0.3273276 1.7477434 -0.7345564 -2.3092744 -0.8102871 1.0144769 1.0710427 0.8918295 0.16932978 -0.8756095 -0.19313742 0.11607453 0.34374714 -0.94847536 0.6629466 1.5386515 -0.15225323 0.91891927 1.8101623 0.49609292 -2.0151784 1.3712146 0.61962706 -2.0935562 -1.4961312 -0.69866925 0.9236235 0.26869226 1.4519427 -0.03155805 -1.5451899 0.013665089 -1.9310396 -0.47361207 2.0557601 0.4701383 1.4680943 1.648166 2.7870977 0.020038582 2.36446 0.28535166 0.7156992 1.311804 0.7080584 -0.10071324 -1.2514496 0.7389268 0.5721809 -0.33690092 1.7168055 -0.68764955 -1.8037994 -1.0261369 1.2566656 -1.8281802 -1.9792212
XTHN 0.893962 -0.40308776 -1.6059209 -2.4817474 -1.3382906 2.4278486 0.058125634 -0.05082239 1.697924 1.1654779 1.8815166 2.0444944 -0.37340268 -2.1845815 -0.8300568 0.5558431 0.83443314 0.25005195 1.7911013 -0.606065 1.5575119 0.5858932 1.6270893 0.06458494 0.059416503 -1.0504053 1.025828 -2.1638157 -0.07521092 -0.5330734 1.1884618 -0.48542094 -2.5131822 -0.12605976 1.5507104 1.858046 -1.8022633 -0.51885957 -1.0797046 -0.29220304 -0.39098895 -2.599023 -1.0493994 -0.02936533 0.81488264 0.8930294 -1.6255158 -0.93831295 -0.467629 0.39702076 -0.39214972 -1.2192137 -2.2255425 -0.3121597 -1.4446462 0.37288588 -2.108562 -0.20791441 -0.066826835 -0.39437917 0.5407088 -0.28241518 1.4843527 -1.086923 0.9509704 0.43418792 1.8218324 -1.2306741 -0.5224731 1.8030763 -0.81779605 -0.19357595 0.9015501 -0.09051294 0.08743549 0.52327955 0.61062294 0.8286372 -2.3708446 2.6775842 0.4882416 1.3172537 -1.8064475 0.31984484 -0.80558234 -0.3989223 -0.5464204 1.106779 1.6761233 0.6237815 -0.07050045 0.34005803 -1.2540178 -2.3789449 0.23935594 0.8484384 0.39223975 0.2305748 -0.56887984 1.3043927
NCEO -1.1860002 0.88715804 0.8294227 -1.0423753 -1.7912724 1.1755048 -0.19008048 -0.98937976 3.0071504 -0.56296134 1.0237452 0.7916206 1.4742833 -1.7431651 0.24324238 2.1012828 0.70461977 2.009549 -1.8398243 -0.82657385 0.7776058 -2.6780906 -0.92656523 -0.4125264 0.50959355 -0.4078631 -0.05820385 1.4320105 2.7906506 -0.6524036 -0.32495788 1.3987999 0.10290352 2.2713478 -0.84369963 2.379574 -0.3502167 1.8257289 -0.5157219 0.95109963 -1.719233 -0.5484603 0.64488155 1.6485837 1.6467772 1.4790176 -1.59254 -1.1278354 -0.17946135 2.0891366 1.2228049 0.62717354 0.20839559 -0.8077296 1.3702617 0.50092334 0.16986363 1.9547323 0.23756465 0.046327185 1.7620164 1.316038 1.0880139 -0.16235453 0.008329808 -0.780571 -0.8456481 0.123608254 0.08925467 0.5592159 -1.6916263 0.03620622 0.6474739 -0.47443074 -0.29690993 1.008545 -1.5623283 2.3919575 -0.67672026 -0.1593493 0.8104162 0.18364945 -1.4781129 0.2761 1.9208475 1.3419079 0.7456435 -0.36702764 -0.5158803 0.20211728 1.0866958 -1.5278074 -1.6655705 0.8005995 0.33469456 0.7756138 -0.8257951 0.637944 -1.0108984 1.6453007
ZCTK 1.1473966 0.96960425 1.491233 -1.0459477 -1.9273807 -0.1088872 0.97435033 0.33800375 0.9489922 1.4871908 1.0988023 1.4174 0.9079045 1.3126037 0.10947761 -0.21541208 1.18395 2.564883 -0.2469684 -0.4128858 -2.4478204 -1.8895768 1.0965693 -0.6583286 -0.45243415 0.24138115 -0.1851321 -0.24815388 1.6440047 -1.824567 -0.33056334 0.26817966 -1.6309632 -0.6599672 -0.58856046 0.04736578 0.5235451 -0.58124405 0.121685505 0.07660506 -0.3216759 -0.9832475 0.66769856 0.72003675 -1.9773916 1.258721 -1.8587979 -0.967098 -0.75455076 0.5598078 1.6060328 1.0056535 -0.011105263 -2.105674 1.1289163 1.5758775 1.4691789 -0.597205 -0.09948129 0.39874598 -3.0396066 -1.1903392 1.1776522 -0.3341339 -0.9023951 -0.65755415 0.35549232 0.79046315 -0.7985737 -0.68349373 -1.0164397 0.08727658 -0.73715425 1.1006774 -1.293929 0.07711252 -1.2848275 0.93624556 -0.20561193 -2.6231933 0.46981722 -1.1945701 0.057893556 -0.1321362 -2.1039557 1.8237282 0.19649214 -1.8368974 0.100577466 -0.20890993 -1.4013405 0.66911983 -0.41930026 -0.035757575 -0.18032096 1.069813 -3.2882388 -1.2525418 -0.5125384 1.812506
RXOK 0.9817987 1.5648365 0.7369775 -1.8537742 -0.41342923 1.3804774 1.9260341 -0.09457913 -1.4254974 0.99328405 -1.411463 1.2287767 0.20817527 -1.3845718 -0.590686 -2.070475 0.07491114 0.7406636 0.8066082 3.2952507 0.9504697 -0.5823923 -0.57722694 1.1221857 -0.5479236 -1.2949986 0.15022178 0.526446 0.8223368 2.7981293 -0.934897 -1.5562441 -0.86347586 -1.0688758 -0.61628807 0.14449145 -0.885354 1.2769973 -0.5515911 -0.98052436 0.042142052 1.6321478 -1.008586 -0.43966845 -1.0513101 -0.5013678 -0.70077497 0.8396303 -0.5040564 -1.35797 -0.39606458 1.0216722 -0.4777147 0.15522946 2.1270587 -2.780751 0.7561511 -1.3202797 1.5261402 -0.40063885 -1.0736053 -0.3703605 -0.49093205 1.448785 -1.066634 2.1748998 -0.8487154 1.0682726 0.855932 0.9148759 -0.20794122 1.412322 0.42301327 1.7110019 0.5323637 -2.0992663 0.3844481 0.7373712 0.46624202 0.0010825054 -1.4560524 -0.909441 0.33372062 0.094168544 -0.9671281 -2.2937908 2.6227837 0.41931415 -1.2904212 0.97621256 -0.51450664 0.15215746 -0.3694252 2.0090976 0.7534512 -1.5804303 -2.071806 0.040034384 -0.8546997 -1.6392967
DYMH -2.8536377 -0.073829144 0.7949477 -1.0152144 1.4025588 0.28498232 1.1335639 0.79317826 1.0922256 -0.5665902 -1.4520054 0.60863614 -1.8593674 -0.29460967 0.5806181 -1.8060389 -0.7953022 -0.32099932 1.5413646 -1.2349434 -0.5182311 0.018394068 -0.38168564 1.7722392 0.6298279 -1.6205066 -0.46464935 -1.5368434 0.12830132 -0.54824597 -0.86381996 -1.6526219 1.5637941 1.3216287 0.7755581 0.02388115 0.31460467 -1.3305335 -1.015731 -0.44524097 0.087440714 0.09175021 0.32489365 0.55229336 0.3710881 -0.03351143 0.34485486 -0.43390614 -1.3840984 -2.0968885 1.2224175 -0.6679067 1.3919135 0.43758532 -1.814868 0.3054383 1.1045235 0.7710987 0.3885481 0.046994995 -0.33424827 0.44451186 -0.7588398 -0.56692076 -0.989188 0.8809961 -0.85314053 0.059459973 1.351777 0.26260975 -0.4274411 -1.0591545 0.70831686 -0.7168547 -0.49915954 1.122306 0.34884036 -0.41146415 0.7537231 0.6244855 1.1879903 0.31508893 -0.18554246 1.0105739 1.9623538 -0.040787004 -0.043185532 -1.3857696 -0.16585052 0.2139669 0.3895098 0.7996626 0.99677837 0.8123113 0.44093075 0.6534206 0.99059737 1.168513 0.62275034 -2.407031
