ESIN -1.6434444 2.116432 -0.05109703 -1.6864663 -2.9944234 2.0224798 0.6206699 0.88095325 -0.47878516 -0.4801361 0.9464647 0.88864356 -0.6277591 -0.621757 -0.5447768 0.7533307 1.0789267 0.15470661 -0.5572741 -1.4524908 0.3592528 3.2714534 0.046328068 0.7003802 -0.50400776 2.693214 0.368019 0.31275564 0.053298034 -1.2898089 -0.9528723 1.128809 -0.09001741 0.6566996 1.9085137 -2.0988042 -0.006720548 -0.2930491 -0.8287072 1.6607949 1.1132766 1.229324 -1.1475104 1.2866081 -1.9390496 1.4716148 -0.9007797 -0.50976706 -1.3755109 1.0259104 0.0009693996 -0.49863654 0.9189373 0.18902715 -0.8371832 -0.3478956 1.2740045 0.29333737 -1.7705296 0.56011546 0.28563696 0.45413616 -2.4641414 -0.26170605 0.7346575 -1.6742697 0.19017474 -0.84572136 0.049530864 0.13148238 0.61568505 1.1804283 0.4433757 -0.689664 0.24302603 -0.8498848 -0.14585495 -0.20288476 -0.92801815 -2.6067119 -2.119255 -2.1443045 0.89193314 0.6819361 2.0479593 -2.0381656 -0.025269177 -0.27894858 1.0982808 -0.26288182 1.3578154 1.6214151 0.7718093 -0.6054949 -0.48419705 2.0211937 3.914007 1.0927118 3.0332 -1.8051655
SFUD -1.5772796 -1.255923 0.840987 0.0038327512 0.74573344 -0.20353925 -0.29117972 0.5505776 -0.059546053 -0.06169219 1.6639307 -0.5214644 0.04673722 1.0873513 -1.2095265 1.677961 2.5768874 1.4597836 -0.031977285 -0.9856833 -1.3312554 0.18709292 -2.6465247 -1.3960605 1.7406119 2.2002592 0.00459498 -1.1267177 -1.2623681 0.9103908 1.8710424 -0.7248279 1.3888751 -2.113085 0.049992353 0.72442806 1.0264173 -0.9577492 -0.06481834 0.8550389 -1.176862 -0.1472179 -0.058170624 0.6629734 1.9088016 -0.34600845 1.4304045 1.421887 1.9540268 0.2477777 -0.2687967 -1.4327033 0.3264932 0.13929711 0.4449489 2.54656 1.3484141 -1.5968603 -0.7784907 -0.7519906 -2.3107567 0.3384614 -2.5073156 1.8894413 -0.7288527 -0.47513402 -0.15757833 -2.645821 -0.33770823 -0.15193881 0.537246 -0.37628755 -0.7639252 -0.97426057 2.0439718 -0.90426457 1.8195509 -0.7757043 -0.100016035 -2.8081217 0.39697227 -1.9967673 -2.2432024 -0.44320357 1.0811251 -1.2509532 1.7832241 -0.27611887 3.2944179 -0.6771497 0.024980934 -0.09956927 -0.52110773 0.15435888 1.4590003 -1.3375758 1.58449 -0.116098896 2.9824677 -0.78898686
IWMQ -0.6353337 -0.105499774 0.52574325 -2.5027313 -1.608139 -0.32526 -0.17564732 2.3639657 -0.22165982 -1.8863839 0.8341428 1.2944161 -0.3882711 -0.26035854 -2.8068268 0.34432665 2.222994 0.06162151 -0.7385188 -1.3066803 -1.2983756 2.9721117 -1.0314215 1.0836383 -1.6033692 1.8655148 1.4191039 0.3180104 0.6056273 0.23704292 1.691145 2.618376 0.9867162 1.2530006 -2.856816 -0.7123265 -0.16826648 -0.81340104 -0.56395394 1.929839 1.0687115 1.5796541 0.058186036 -0.85030115 -1.058017 -1.4338365 1.2118275 -0.62681055 0.8120502 -0.17725423 -1.2953366 0.5808471 0.21600777 1.2528799 -0.4562028 1.6397284 -0.5498882 1.1785191 0.011182534 -0.16216153 -0.0715459 -2.3369422 0.46155733 1.7396461 1.1714809 -0.5862914 1.3188351 -1.6549101 0.7384058 -0.8466703 0.18437202 -0.8032154 -2.5521724 0.55583966 1.4175892 -1.900699 -0.16305746 -0.6050007 0.628877 -0.36518264 -1.2645378 1.6144283 1.4030701 0.4601206 1.931053 1.5982937 -1.8598369 -1.1111147 0.026723824 0.32133737 -0.05052619 -0.23244254 2.122835 1.1902113 0.2654536 0.69411224 1.0862302 -0.0059900484 -0.15567927 0.4613796
QKZR -1.7294666 0.051810645 -0.9081753 0.9041209 0.42074656 -0.41510883 -0.5113423 2.01034 -2.452556 0.28126264 1.1281382 0.7884146 -0.590236 1.1068118 0.38037896 0.89142257 1.8239019 -1.7979003 -0.038067877 0.8271962 0.438725 -2.7770047 0.37605563 0.40259257 -1.0632356 1.1995426 -0.05849136 -0.8791506 -0.9340536 0.26157215 0.005680557 0.36249772 -0.48556182 -1.2881513 0.012772256 1.724578 -1.8300436 2.1053705 -0.55359906 -1.2744085 1.6673431 0.43692526 2.4170725 -1.9569587 -2.120337 -0.509461 1.8028224 0.7596001 1.7469732 0.7767089 -2.253637 0.48865476 2.4961817 0.27046186 1.254103 2.1455383 -0.78529423 -0.30196953 0.09620271 -0.21790104 -0.9250364 -0.16804557 -2.0788102 1.0092036 -1.2907716 0.82751995 -1.4694257 -0.71042234 0.82187337 -0.525553 1.6452602 1.4783806 -2.5466123 2.5879722 2.44518 -3.9138336 -0.3502987 -1.6715004 -2.0677617 -1.1076382 -0.4326408 1.3151678 0.07470188 -0.29802224 -1.1658219 0.83868957 -1.4135779 1.0882715 2.0920954 -2.408297 -1.108032 0.67251563 -0.42234123 -0.044298057 -0.039690655 1.2991105 0.4840336 1.3809391 -0.51326144 -0.79527384
MULO 2.5833056 -0.5222151 0.5231951 0.052086446 0.7740488 2.16138 0.40075102 0.947716 0.79090035 1.5557497 -1.4594741 -1.2298933 0.8486187 1.4830271 -2.1112347 0.4989036 0.06663238 -2.0998418 -1.384603 -1.4620258 1.6885787 1.4417183 -1.4714601 -0.46866173 -0.19543749 -0.33577698 0.9997391 -2.4181452 -0.44036838 1.4674163 -1.374121 -0.45958468 -1.5572536 0.6044218 -0.98309386 -1.0767732 -0.86634594 2.717129 -0.053305905 -1.274865 -0.31370774 2.3768034 1.0755556 0.42122447 -0.07658804 -1.7250433 0.9004429 2.9841452 -1.3039773 -1.2276264 -2.293314 0.39039695 1.5698878 0.24349009 0.21039872 0.3207687 -0.7950408 -0.3017964 -0.5216051 0.45864046 -0.9475936 0.22952387 3.0540614 0.114813805 0.85730505 1.4413475 -0.245327 -0.7016217 1.5927001 0.078587934 -2.3746154 -1.7989848 1.0868213 0.7271668 0.4956293 -2.9788272 -0.34627116 0.5648549 1.5302414 0.80912745 -0.9272031 1.2673336 0.10071064 -2.1953156 0.14386667 2.3758206 -0.5630836 0.91776925 0.66303235 -1.1735651 -0.1431889 0.9856749 -0.023614978 2.4642098 1.9793109 0.79927677 1.0923047 1.7558124 0.6071235 -0.6905463
YGTV -1.4816886 -0.16807716 -0.9317246 1.1040701 0.27563947 -0.13157767 -0.73482543 1.8682523 -2.4758947 -0.0057562026 1.2885281 0.8070259 -0.7519306 1.232941 0.6874695 0.5715624 1.7314386 -1.545452 0.06828127 1.0513762 0.21482751 -2.8312607 0.60443795 0.6940555 -1.2178379 0.89120495 -0.007976561 -0.98693377 -0.4511498 0.28980178 -0.36243337 0.36827523 -0.23201406 -1.4291853 0.24078757 1.4524472 -1.5181837 2.010914 -0.40270412 -1.2914202 1.6482894 0.3856139 2.3751075 -2.1792998 -2.2111363 -0.42762476 1.9708209 0.9088619 1.4894323 0.67690265 -2.4324307 0.4537424 2.2098517 0.21427323 1.4464964 2.2964556 -0.46364412 -0.37045068 0.17751634 -0.1489691 -0.95968497 -0.221306 -1.9775966 0.84501 -1.418009 0.43669352 -1.4403058 -0.67657256 0.99397546 -0.37806204 1.4936265 1.3498199 -2.6766603 2.6617382 2.5959957 -4.0273743 -0.08918366 -1.1093477 -2.101588 -1.2619584 -0.029477034 1.6068144 0.13430202 -0.10065287 -1.0516039 0.9824633 -1.4142332 1.1485441 2.2311678 -2.6228328 -0.9451352 0.66153437 -0.1428092 -0.10276407 0.008477188 1.0565568 0.8400828 1.3578666 -0.54909027 -0.98080623
EFLR 1.554099 -2.7550497 -0.13820544 -1.4305227 1.1130508 -1.2539189 0.018870484 -0.28486556 1.6984695 0.15213458 1.9521002 -0.24532157 0.8753506 1.172165 -0.59866714 0.2514435 -0.46492678 1.1105196 0.64480555 -0.030535186 0.85702175 0.65262485 -1.984277 -1.1658907 -1.8953693 0.31745812 -1.3555089 -2.0802743 -0.6053427 0.6682051 -0.2316722 1.134438 1.2838246 0.7481747 -2.2848089 0.030569572 -3.451577 1.2695566 0.8535464 -1.1931994 -0.32486323 1.5306195 0.092320815 -1.6430925 -1.1256413 -1.1544296 2.273695 0.4724121 -1.972656 1.4477555 -1.0474849 0.9170349 1.5824188 1.7371895 -2.056333 0.8988324 -0.8419129 -1.0113347 -0.19480672 1.2791507 -1.4595989 -0.74313855 0.60257137 -0.7253067 0.79660386 2.0507479 -2.177488 -0.7999516 -1.5940553 0.68694335 -1.3105923 0.8919086 1.0333388 0.9188901 0.43308625 0.14687507 -0.0071847145 -0.6847247 -2.4515007 -0.1121059 -1.1852926 1.0464064 1.441939 -0.40943602 2.4112365 1.9386027 -2.9147964 0.6383597 -1.0342361 -0.4295116 -1.5155197 2.2293975 0.021842957 0.5667687 2.2401521 0.9897127 2.7230453 -0.17711776 0.43466988 -0.83787686
ELJV 0.7061369 -0.8511499 -0.0032783062 -0.60915476 1.3384389 -0.09950912 -0.030756718 -0.24518855 -1.83409 -1.4142671 -1.1781528 1.0482519 0.8555462 1.0812535 0.26696545 -0.8453029 0.5486891 -1.2222251 -0.73896676 0.18604848 -0.54397345 -2.2710197 -0.45898008 -1.265664 0.5862529 -1.4651965 0.2837175 -2.2327862 1.1548178 1.2564914 -2.0353298 -1.020025 -0.18605417 0.97464603 0.94650877 -0.21601671 0.7314438 1.6923193 -1.7817155 -0.5981182 1.5035764 1.0450274 -0.30986518 0.05813961 -1.0644157 -2.3707216 1.6681966 2.2125556 -1.2029533 0.17423965 2.402578 -1.494212 2.6529841 -0.5432105 -1.0471134 -0.6879889 -1.9573663 -1.2481205 -0.7342046 0.7380998 -0.96458817 1.4322255 -0.42291972 0.7069033 -0.041407783 -1.207156 0.09308749 0.43265903 -0.14639528 0.92213523 1.5555854 -0.27561194 0.035831824 0.76513684 0.88342655 -2.604655 1.0266734 -1.3791972 -1.0108306 1.2052832 -0.95158195 2.0049696 1.8116206 1.3368869 2.0694325 0.93937325 -1.1063685 0.9191393 0.21613258 0.38917473 0.63408005 0.08659943 -0.87908876 -0.61784273 -0.41499037 1.4707452 -0.40920618 1.8733376 -1.5394394 -0.08622844
PWVT 1.8482226 -2.9269834 0.24690472 -1.5221484 1.0275347 -1.5156922 0.2462162 0.09058833 1.6428401 0.4509052 1.8874878 -0.11551022 0.68663526 1.0161201 -0.3416848 0.3176613 -0.36864442 1.2205211 0.6681032 -0.0005021347 1.0365157 0.772859 -1.7634896 -1.4294949 -1.7634286 0.37017336 -1.0044887 -2.345468 -0.63135976 0.93817204 -0.60451066 0.9821063 1.0077391 0.46979263 -1.9815626 -0.16103052 -3.4925225 1.1622361 0.91426146 -1.1557361 -0.3076857 1.588183 -0.15493235 -1.6291171 -1.1593016 -1.4035403 2.0750442 0.1744401 -2.0759783 1.5759025 -0.8403364 0.9402045 1.25719 1.7057465 -2.0250332 1.2997596 -0.7780659 -1.0989733 -0.4150723 1.0337484 -1.7523936 -0.9338332 0.4140146 -0.7071224 0.71043205 2.1685796 -2.3472083 -0.72434413 -1.5599082 1.2292491 -1.3528986 0.8792862 1.0292431 0.8335722 0.19220027 0.2370671 0.32010594 -0.7284502 -2.4256766 -0.07806747 -1.1956358 0.74835294 1.4285015 -0.36371765 2.3182933 2.253783 -2.8811781 0.73527604 -1.1099981 -0.43298978 -1.2798257 2.3955593 0.3431975 0.8702826 2.0910418 1.1348921 2.4857705 0.19184776 0.26922098 -1.0560087
PRWM -0.5418168 -2.6150322 -0.13094954 -0.84715635 0.7510587 -0.1338808 0.40625083 -0.12887461 -1.9295901 0.19125485 -1.0789465 1.0273751 -0.721572 -0.39235973 1.6934565 0.8303285 0.49504712 -0.5485768 1.5228231 0.23954502 0.0856329 0.4412891 -0.678476 -1.4362326 -1.542086 -0.13120058 -1.6774886 -0.6842559 -1.5749571 0.9798327 -0.8248326 0.035550587 -1.981852 1.3875114 0.59790295 0.7804005 -0.0756625 1.7267061 0.043213885 -0.35749102 0.7584716 -0.025491757 0.14130528 -1.6280432 -2.2377393 -0.3536318 0.3229971 0.29231387 0.43256333 0.21641614 -0.2134338 -1.5766963 1.2983661 -2.6482255 -2.6408293 -1.0851575 -2.2255025 1.0710592 -1.5586747 -0.4611361 -0.69618034 -0.078692235 -1.089673 1.403923 0.034926593 -0.23678437 -1.3142711 -0.72355604 -0.17417216 0.9808147 -0.0070557543 1.3924745 -0.59108895 -0.17448719 0.3220329 -1.7258484 -0.27028897 -0.28287384 -1.1982715 1.1700492 -1.2749081 -0.7391531 -0.83192885 0.55940014 -0.29790607 0.4939002 -1.8783778 0.9747934 0.09478182 -0.8409402 0.66651505 -1.2121896 -1.2713665 -1.3558033 0.09310346 1.6568596 -1.1730213 0.19632229 0.28734457 3.2188137
SGPU 0.97707146 -0.21583217 1.8830372 1.6293861 0.61570966 0.57092756 -1.2340732 -1.4880006 2.040315 0.522137 0.5366236 1.9252614 0.26470107 -1.1131164 -1.0658107 -0.04391529 0.68721163 0.9651768 0.37699562 0.037566096 0.19066998 1.6772406 -0.30574316 1.3737917 -1.209431 -0.40675446 -1.3106425 -0.13421641 -0.20908083 0.53312665 -0.5846025 0.63697475 -0.4417759 0.049925167 0.81601787 1.8201394 0.33089983 -0.3387143 -0.32897222 -0.56596714 -1.0568687 0.9441022 0.87539685 -0.2714597 -0.5521119 1.3072884 -0.63686097 -0.6085173 -2.15862 1.0297306 1.2614298 1.3954813 -0.39691103 -0.26005563 -0.7713793 -2.1360025 0.58970535 0.09978775 -0.46653667 0.31908262 0.3443395 -0.18500686 0.31093156 1.3426315 1.6463068 -0.761067 0.47164044 0.23196477 1.2726219 2.5828495 -0.55051404 1.6477705 0.297798 0.21187454 -0.31503397 0.06656507 1.4915128 -0.068819135 -0.6146183 0.46219528 -0.35460955 -1.598605 -0.78427476 -0.42849755 0.30082557 0.9183835 -0.105853826 2.0376904 1.0674993 -0.28724086 -0.3372411 0.5022153 -1.6650606 0.74121124 -0.40361673 1.1960512 -0.7155993 0.52372336 -1.2716395 -0.6954518
KMIY -1.4136963 -0.67646915 3.1900494 -0.16720872 -1.896275 -0.9657297 -0.14945541 1.2082715 -2.4285793 -1.9805255 0.6258184 0.8104804 1.612584 2.8814957 -0.7016184 1.2114234 1.388958 0.12994733 -0.60915273 -1.5875967 -1.3599557 -1.2811221 -0.8873585 -0.68688715 0.3867567 2.0896597 -1.266861 0.8303954 1.5103704 -2.0063992 1.1701351 1.3004333 -0.08361994 -0.7600111 -0.55615246 -0.43264002 -0.9745068 -2.061088 1.1153467 -0.6029121 0.3787045 -1.0599306 -0.8375561 -1.9725403 0.112334736 0.5527792 -0.020969061 0.31762365 1.3480023 -0.944494 1.5845522 1.1989716 1.5267653 -1.2051543 0.6080609 -1.305649 -1.0163547 1.3458008 -0.93954885 0.58648264 0.49014774 1.3363904 0.32316637 -0.13745855 -0.04171296 2.1604266 1.6454211 1.436966 -1.202275 -1.4662079 1.7016959 -0.18660872 -0.21332636 -0.7080618 -1.5503187 0.6628918 -2.0803986 -0.8061528 0.96877795 -0.32117078 -1.7095875 0.68866575 -0.10363644 -0.22838293 1.0268153 -1.0730917 1.5516732 -0.17980388 0.9036608 1.3200564 0.47359306 2.9770818 0.7592783 0.18980299 -0.6031232 0.46295336 1.2130644 2.2946453 -0.13310143 -0.44815627
QHUT -2.9192932 1.4284774 -0.14835449 -1.7906059 -1.3220243 -0.15879662 0.036755085 -0.17860799 -1.7378592 -1.4342827 0.13349272 -1.2791272 2.7840593 -1.1592948 0.27059743 0.18853252 -0.17219432 -0.83031803 -2.466445 -0.22784172 0.37376282 1.0972726 1.6904403 -1.0495173 -1.2772808 0.098434515 -2.349873 -0.74429446 1.8536509 -0.5115822 2.4450412 -0.9523364 -0.5969636 0.25734666 -1.1821212 -0.446091 -1.8007319 -1.1501102 -0.6738998 -0.7561037 -0.25772533 1.9543891 0.85420245 0.6084453 -0.12051993 -0.7658542 -0.5835122 -0.92895204 0.48659158 2.0471857 1.267764 -0.08568557 0.30132985 1.8700235 1.6962658 -0.5791869 -0.022776695 -1.5193436 -1.9077498 -0.78044826 1.2666833 -0.054736745 0.1794819 0.4500745 -0.84888995 -0.7403373 -0.009388512 0.906873 -0.71212804 0.07413641 1.0959836 -0.14031819 -1.1293273 -0.2208563 0.043447826 -0.1659929 -0.20427276 -0.98620236 1.6143689 0.05497796 0.84250987 0.37375146 0.61678284 -1.111951 0.16093212 -0.45907965 -0.6833154 -1.2771416 -1.1438202 2.1113622 1.2279221 1.007051 -1.0112249 -1.0494359 -1.1386694 -1.6005464 -1.4022424 -0.5636062 -0.56018484 -0.62851864
HTNG -1.3812847 -0.2237036 2.457261 -1.6624284 -0.90720934 -0.6497197 -0.035380144 -0.7011318 -1.6515566 1.5344442 0.5286865 0.5148631 0.7406924 1.2975897 0.21494584 -1.430618 -0.21798918 0.86245745 -0.12563299 0.17736977 0.4219476 -0.43874806 0.83977723 -2.6452606 -1.9475415 -0.7078027 -1.231181 -0.6797825 -0.25567657 0.5044238 0.5342886 0.5377344 -1.1586272 -0.2962122 -1.2516121 -0.3200148 -1.1529733 -0.9307227 1.7314489 0.4712467 0.26945633 -0.05057773 0.6806366 0.621656 -2.8762717 -0.5066284 0.16190712 -2.2400753 -0.62980634 1.3279481 1.861758 -0.86765313 -1.4287076 -1.2239385 0.071356826 -0.07806448 -0.13253848 -1.9751005 -1.8461944 -0.86403185 -0.9557467 -2.3510604 -0.5317364 -1.5196778 0.3220067 -1.110784 -0.61854565 -0.10003341 -0.21937625 -1.8789005 1.1715167 -1.4390401 -0.150632 -1.6089568 -0.3087244 0.7222914 -1.0283717 0.30577412 1.9771485 -0.7005575 0.9918883 0.1576698 2.591221 1.8267722 0.8424822 0.6679063 2.6603444 0.13242143 1.2816856 -1.1340694 0.26715273 -0.16369945 -0.43351924 0.283625 -2.1535137 -0.6338476 0.0703888 -1.8221929 0.87036574 3.006446
SZVX -1.9187479 -0.6992432 0.16584724 1.629362 0.030965285 1.9548413 2.0005317 -0.4693577 -1.6108617 0.061902784 -1.6828786 -3.7501917 2.700975 -1.1950665 2.2932472 -1.6328071 2.3184252 0.48306558 0.31731197 0.34468865 -0.86041653 2.0045154 0.2335133 -1.1528639 -0.5819001 -0.39595145 -1.514406 -0.0058361446 1.5612787 -3.289184 0.47586346 1.1595792 0.35991666 -0.46573767 2.4014425 -1.2479293 -1.1530708 -1.7896283 2.2845476 1.6148587 -0.02251955 -1.9417808 -1.2527188 -0.9076706 1.4971904 -1.5090147 0.4905651 -1.1452152 0.7936228 2.210413 1.6239663 -0.850126 0.99101067 0.7367098 -0.46490073 1.8501595 2.028582 -0.16092025 -0.9143175 -0.9590978 0.06626006 -0.047100574 -1.241021 0.484474 -0.058796536 -0.042070463 0.16342162 1.1750945 0.61870664 -1.1073908 0.7443358 -0.91694343 2.2154849 1.5849543 -1.3336474 -0.21497811 0.0931543 2.2081814 1.0668375 -0.12363563 1.4337323 -1.1312886 0.44858208 -0.43881798 -0.09648243 -0.45190054 0.012490941 -0.18261033 -1.4011936 0.5818121 2.110835 0.44732726 1.1531025 0.15621401 0.5444439 -0.6354671 -0.17446288 1.0674138 -0.8013492 0.014546288
XDHN 2.8096673 -1.293515 -2.2093627 0.8773186 -1.5100247 -0.38104475 1.1845326 2.5093853 -1.2627764 1.3000457 -1.1287957 1.3973216 0.9391781 0.24587567 0.26519302 -1.1292498 0.17442068 0.09000085 0.76523745 2.7106898 -1.6689342 1.8167613 0.7130533 -0.5181155 1.1768798 -1.9578921 -2.1720238 1.0170412 0.14504887 0.2141345 1.7540888 -0.6551717 0.48259348 1.2949711 -0.65491056 0.80830365 -0.9698487 -1.5518419 1.2288499 1.572025 -1.6027763 -2.7431867 0.70427704 -0.8695864 -0.21917528 0.40796104 1.9152073 2.294633 0.9057123 0.9543158 -1.6308993 0.73209447 -0.33229944 -0.10371817 1.1337786 -0.26676902 2.2918153 -0.8189357 0.08093826 0.045375116 -1.2808754 0.8013448 -2.2957978 0.51792914 2.8819294 -1.265577 -0.34226745 -0.27708045 0.57135004 0.24923976 -1.7294238 -1.4380515 -0.27913514 0.79096496 -1.6434919 1.1457807 -0.25084668 -0.20021291 0.48631713 -0.47670072 -0.27530843 -1.0707121 0.94604367 0.18112253 -1.9974126 -0.29475284 2.143872 -0.540586 -0.26323527 0.14326127 0.76312673 0.59066415 -1.8188225 -0.9619361 -1.6707633 0.40007526 -0.12840433 -0.06892187 1.6678362 1.4403689
SOWM -1.4823865 -0.06717361 2.2999501 -1.451145 -0.79851013 -0.5989711 -0.07025666 -1.1361178 -1.9131385 1.6366285 0.2078684 0.42810693 0.9323997 1.3613213 0.37211424 -1.2766691 -0.261376 0.42472976 -0.17093535 0.11146759 0.21756583 -0.19739722 0.65515095 -2.5021114 -1.8153737 -0.34226596 -1.1052833 -0.7670614 -0.75627804 0.40981585 0.38634545 0.7591866 -1.079066 -0.35957596 -1.2993039 -0.024631381 -1.3048147 -1.0992517 1.7377806 0.5103809 0.06266594 -0.031702857 0.15861416 0.7608735 -2.672433 -0.4729993 0.2246929 -2.1861806 -0.35430843 1.4230727 1.6477374 -0.33826196 -1.5723627 -1.2979304 -0.051380616 0.024609836 -0.47980142 -1.8128169 -2.012421 -0.91012913 -0.9158685 -2.4219406 -0.78546983 -1.5931584 0.14640771 -0.7470034 -0.8174852 0.23658164 -0.16330332 -1.5989048 1.4694331 -1.1087676 -0.15447073 -1.3530989 -0.17458071 0.85938704 -0.9998686 0.22974607 1.9883987 -0.86338675 0.7571897 0.06660048 2.600215 1.7131143 0.75720054 0.5452002 2.500771 0.14409119 1.0935549 -1.4255737 0.18910684 -0.01502803 -0.2025441 0.937833 -2.3547032 -0.91297877 0.027037967 -1.918811 0.5584935 2.7689657
SGFU 0.15645058 -1.0280809 0.47817862 1.5831887 -1.690626 0.59013176 0.09284423 -1.0256451 -0.078494065 0.14952792 0.07328521 -1.143586 -0.25385064 0.1411058 1.9074199 0.3232126 -0.48245993 -1.5913485 0.6654304 2.0841403 -0.7782082 0.6128985 0.9987466 -1.1458682 -0.8518751 0.1892444 -1.762626 -0.07477213 -2.202318 0.18920256 -0.83201855 1.893435 -0.14458905 -0.43698102 -2.3643413 0.05482653 0.8795437 -1.267971 -0.17149542 -0.8715909 -0.6948825 -1.7923112 -1.7797747 1.0985153 0.20173837 -0.8291543 1.9614778 -2.131594 0.60274756 0.47600344 0.96528554 -1.0730624 -0.34793675 -0.03114215 -1.9323208 -1.8904569 -2.4758132 0.41717204 -1.4206399 1.5423938 -2.1620815 0.4962644 0.98307186 -0.046302732 0.72647107 1.5871722 -0.23955613 0.32550153 -0.541517 1.7755874 -0.8850521 0.40876326 0.67604256 -0.18458396 -0.518281 1.9632224 -0.12636845 0.074998915 -2.2361119 0.32242125 0.15863025 0.7543783 -0.6328845 -0.10656203 0.9399245 -0.5604081 -0.6439823 2.1218297 1.7380396 0.5213363 0.64063543 -0.43969667 -1.0557914 -1.2140795 1.6491916 0.3577701 -0.728804 0.13527662 1.421648 1.0322585
HTRM -0.44847563 -0.71158487 -0.594641 -0.6156446 2.1376388 -0.29532972 1.6526158 -2.3204648 -2.0718262 1.5681087 -1.456595 -0.7862367 -0.53596044 -0.77910453 0.0155917 -0.5768472 -0.29621908 -1.5378313 -0.24910307 1.3321545 -0.5499722 0.69938034 -1.8174201 -0.45217443 1.7367117 0.14190905 -0.8181197 -0.15104261 0.5170542 0.9732469 -3.548015 -0.77170885 1.3737892 0.3050125 -0.031584967 0.86494464 -0.25690633 0.6419961 -0.016797526 0.17117742 0.86704135 1.1125708 -1.286055 0.8581258 -0.6665159 1.2817955 1.7161555 -0.27592683 1.1306525 -1.1076863 1.2824994 -0.014455954 -1.2716097 -0.8770265 -0.12722588 1.4680973 0.21244822 -0.64005864 -0.19866891 -0.15450124 -0.15452725 -0.17747092 -0.5849348 -1.5497415 0.9427505 1.4326874 -1.076697 -0.8964441 0.28155723 0.6632708 -0.05094159 0.37333462 0.634517 -2.158878 -0.23603329 0.6090652 -2.1530168 -0.17198975 -1.7689129 0.52331126 -2.8138282 -0.18746053 0.83249635 -0.5280615 -0.8971324 -1.4084651 -1.0213073 0.91336524 -1.0426209 1.7620745 0.31585687 -0.05982597 0.5654122 1.1965683 -0.9481583 -1.2629877 -1.9175049 -1.8536028 -0.67676294 1.1913184
GXIH 0.37852323 1.0119921 0.14500621 -0.84028405 2.210563 1.4992882 0.69715667 -1.1533998 0.47852257 1.0439156 -1.7262045 -1.1197546 -1.2787045 -0.49151233 1.2091972 -1.421658 -0.084015585 0.50398684 -1.276196 0.678271 -1.849038 -1.3951719 1.5995197 -0.8382806 1.2086494 -1.228384 -0.64648664 0.8835318 0.98712105 2.237748 0.35645455 -2.9743185 -0.3974725 -0.8565267 -3.0652986 -0.72082996 -0.85113215 -0.15917784 -0.54666346 0.39307237 0.3067873 -0.94370186 1.3173461 0.87791866 -0.31758615 -0.8879576 0.07254486 -0.5062893 -0.7670702 1.3776693 -2.2477252 -0.79172766 -0.6292218 0.37440482 0.20787798 0.00047081732 -0.37564 -2.1192443 -0.3423185 3.428028 0.5519752 1.1286924 -0.40196675 0.32868376 -0.52404195 0.7083234 -0.18603384 0.04566761 0.22244683 1.7672826 -2.5865152 1.9840858 -0.37360758 0.7841118 0.51736414 0.13556439 0.23573643 0.0129010305 1.4156042 -0.22168265 -1.4014863 -0.054702185 0.39328033 1.3575205 -0.7059021 -2.0139897 3.0315654 0.8361566 -1.6299325 -0.13230444 0.20523266 -0.82843226 2.100319 -0.1430874 1.5459594 0.22721943 -1.2859132 0.15646406 2.7960017 -1.4704033
YPCK -0.81023157 0.04018403 -1.0286174 -0.059260145 0.71600723 1.0902829 -0.6885454 -0.80125815 1.6154366 0.45411742 0.15372775 -0.19730699 -0.030672034 -2.8540618 1.0675304 -0.49485505 1.9887174 -1.562874 1.6059649 -2.0513477 1.1740979 1.3406659 -0.73182446 -1.338598 0.17960474 -0.6440696 0.23130532 -1.0172336 -0.46323037 -0.33002073 0.010905428 -0.85637945 1.3347442 -0.05877 0.9826119 -0.61504775 1.0880961 -0.21784137 -0.8795452 0.30068505 0.40866083 -1.5287102 -1.0320989 1.1050721 0.94031155 -1.1144897 1.4420588 0.44650543 -0.23229948 1.1362396 1.8533162 -1.5694776 -0.62398994 0.0071486835 -1.2409871 0.9378852 -0.28494465 -0.6976965 -0.0687704 -1.155298 -0.3008618 1.0266265 0.17051297 -0.6272298 1.0301304 2.332044 2.3190947 1.8910711 -0.14010099 -0.34584722 0.19633612 2.76348 -0.34571752 -1.3174359 -0.39653888 0.003307245 0.43139946 3.6690307 -0.7024691 0.5741811 0.46410358 -0.27533242 0.9824557 -0.70631635 2.3326054 -0.41318142 1.278456 0.8110875 0.63885844 -1.4436227 -0.96570605 0.62168896 0.03708915 -0.58449197 -0.668394 -0.801017 -0.34113935 0.28992435 -1.2241368 -0.1520606
GEJD -0.5420244 1.9208621 -0.10959761 1.5905752 1.13704 -0.0009882988 0.24259041 0.54537684 -0.9583026 -1.1093729 -0.5483315 -1.3017373 0.08585925 0.16707525 -0.89246583 1.6548431 0.4698447 0.703551 1.6934673 -1.2847137 0.277619 0.715814 -0.14666568 -1.9328244 1.6702882 -0.4182827 0.7152286 0.14993283 -3.4438932 -0.5164132 0.5247337 -0.39425403 -0.6103417 -1.4192276 1.3286633 0.9316189 -0.2638512 -0.34864745 1.6789451 2.346382 -0.17001846 -0.85866416 -2.1980748 0.4224324 1.4361122 -1.4644643 -0.70669645 -1.3599694 1.3977624 0.011509332 -0.19440608 -0.18151031 -0.7101837 1.8201423 -1.1355193 1.0051363 -1.416871 -0.047022324 -0.04616733 -1.3930215 -1.2692857 -1.2355863 0.8296895 0.63058054 -0.766517 0.8938535 1.4695969 -0.7435979 1.0437355 -0.15974195 0.14247414 -2.3466344 1.0866114 -2.5111146 -0.92430496 0.09902267 0.17597306 0.16103753 -0.42271012 1.4541032 2.878086 -1.4281168 0.95338434 3.2618868 1.4758662 -0.19075431 1.8261876 0.3035517 0.53107256 -1.6627612 0.9490465 3.0639906 -0.5326571 1.9444846 -1.8127731 0.3511499 -0.31972158 -1.0140011 -0.064936735 -1.7490021
ZJHC -1.2308652 -0.71260786 -1.6561229 0.19359146 1.3184458 1.9191082 0.32370955 0.21168312 2.4082015 1.0651071 0.5584568 -0.39961278 1.578562 -1.6021518 1.292746 0.3446419 0.95839995 -0.86711127 1.9200813 -0.61941105 0.6204331 -1.3524733 -0.5666449 -1.0239124 1.532661 -0.49951494 1.5936887 -0.40327045 -1.32875 -2.4012563 -1.4040701 1.1301984 0.1612118 -0.43331844 0.20214228 -0.38501802 0.8712082 -0.82924473 -1.1512961 0.65607715 1.6627659 -0.79783034 -1.638924 0.83094287 -0.5556807 0.19382115 1.1677917 0.38418248 0.62268275 0.1015917 -0.32393897 -1.2642671 1.2321246 0.70840883 -1.2800952 -0.061467063 0.09921539 -1.9464916 1.903343 0.4733757 -0.013516143 1.2950482 0.5297373 -0.1193969 1.4597203 0.14333116 -0.07069973 1.2961488 0.26673234 -0.46802792 1.3129891 -0.6769776 1.4980431 -1.4316089 -1.0687234 0.25074357 0.87407273 3.0793736 -0.67365915 1.2569625 0.50654465 0.007429486 0.25231296 1.0126727 1.0039856 -0.15415744 1.0910096 -0.16627222 0.87006384 -0.6130178 0.20741126 -1.2487497 0.8254798 0.15089819 -0.86896545 -2.266986 1.1963838 -0.67148817 -1.6551379 -0.07479486
JITZ -1.5131932 1.3842762 2.1536036 1.1321508 -1.4116007 0.73944855 -0.5333403 0.7221511 0.4438395 0.52044195 1.5120214 -1.4678012 0.6165571 -0.15259224 -0.3822141 2.2351515 0.94630617 -0.757059 1.0509593 -1.6025678 1.7869006 2.0620635 1.6332381 -2.5791652 0.13489369 -0.862761 -1.4452447 0.56505764 0.58371615 -1.4076604 0.9227249 0.06406266 1.1728797 -1.304181 0.35412878 -0.4677672 -0.29586604 -1.7691681 1.3103502 -0.25784573 3.4996388 -0.69295627 -0.68692166 0.9066697 -0.7506697 -0.47480798 1.5705047 -0.042992022 1.4002607 -0.815068 1.0814553 -0.4081286 -0.32985985 1.0597364 -0.06399683 0.22935712 -0.24651386 -1.4851937 -1.041676 -0.6420303 0.22869027 -0.7175323 -0.062148932 -0.06407372 0.29473677 -0.12622197 -0.20327735 0.907247 0.34885862 -1.6451012 1.296497 0.28863797 -1.5607045 0.2681374 -0.42183658 0.37033033 0.18694907 0.123010345 0.96606547 -0.26099986 2.0928233 0.1578878 0.06682117 0.7442847 0.32724172 2.2915032 -0.50577235 -0.43219417 -0.5843029 -0.60514 0.28007826 -1.1098281 0.57200503 -0.35360155 -0.754236 -1.7905562 -0.6843751 0.50272465 -0.59999967 -0.10265107
WAEL -1.2050624 -0.8361456 2.9545023 -0.30050474 -1.8525622 -0.9452691 -0.20485559 1.0891827 -2.573189 -2.0008416 0.46989214 0.73120755 1.5148679 2.9566548 -0.61606884 1.0815923 1.461688 0.19990192 -0.66302115 -1.4841208 -1.1408333 -1.6137298 -0.8166701 -0.656134 0.44974053 2.1909208 -1.0029125 0.95705914 1.4618624 -2.1029289 1.391563 1.2191617 -0.24305668 -0.7246879 -0.3447329 -0.36508086 -1.0766414 -1.6293117 1.0125238 -0.9568102 0.20981428 -1.0931199 -0.7260963 -2.256506 0.012472525 0.3087535 -0.26315892 0.23557921 1.2981656 -0.97432077 1.8215412 1.2486181 1.3101099 -1.0733929 0.59398067 -1.175346 -1.3548992 1.4556518 -0.8089855 0.7122514 0.632691 1.110678 0.5489422 -0.18183553 -0.08911316 2.1264467 1.6252391 1.5367228 -1.3321533 -1.4186279 1.7769077 -0.01702516 -0.28046092 -0.6132027 -1.4944395 0.3973372 -2.4104388 -0.95675254 0.7870905 -0.45049617 -1.5619285 0.8518187 -0.2001203 -0.3750376 1.0937471 -1.0119213 1.172934 -0.200645 0.67310053 1.296426 0.39881462 3.1504061 0.7252501 -0.121600546 -0.529765 0.6392599 1.3589833 2.2069805 -0.008184171 -0.57945323
BLHF -1.7319747 0.38066465 0.47058225 -0.13920857 0.6683407 1.1205202 -1.0015255 1.2173184 -0.09731002 0.29126668 0.2447463 0.53219527 1.6550545 0.17003185 -1.4968182 0.2514762 0.3772118 1.0019883 1.3615258 1.3090097 2.8821173 0.52015877 -1.0909096 -1.5336628 0.57585824 -0.08965344 -0.20091711 2.3410752 1.6629217 1.176685 2.2521772 0.33824894 0.24861233 -0.24950045 1.0590949 -1.2515525 -1.1614119 -0.87669414 -2.0502136 1.8793204 0.86177677 -0.7202861 -0.6478058 0.017036213 0.0767553 1.5587413 0.7836985 -0.5408659 0.089248136 -0.35892904 -1.1825203 -0.29100302 0.72878015 -1.7291142 -1.7375635 0.3197403 2.056286 0.544698 0.46280375 0.60867184 0.77880687 -0.3463638 0.389714 0.7162881 -0.43524686 0.70404285 2.0120509 1.3725437 0.2876561 2.396674 0.98755294 0.22696902 1.1336896 -0.8856466 -1.0590324 0.021243729 0.68834335 0.30036446 0.368858 0.17044476 0.27862382 1.9866146 0.15871629 0.8274385 0.17502655 2.0736458 2.7867973 -0.044240154 -0.838576 0.17098516 0.3480309 0.24972121 -1.1023067 1.2116085 -1.9024761 -1.4156247 -0.39491522 -0.033851117 -2.6857994 0.8445401
SHUX -1.4263641 0.5493347 -0.5445057 -1.6205028 1.008205 -1.4921789 1.3089358 -0.88002694 0.74289453 -0.18014163 -0.8257062 -0.006418461 1.4124537 -1.1366205 0.17724918 0.063999586 0.8835874 0.614392 -1.0075897 -0.1470059 -0.8529242 -0.41485792 -0.22279318 -0.3256219 0.9544577 0.10844544 1.8047459 -0.040869616 -0.6338358 1.4374273 -0.63298875 -0.5440179 -0.10065813 0.9903537 0.80043435 -1.2907909 -0.66170126 -0.5917914 -0.36441272 -0.41023922 -0.5899005 -1.2493615 -0.29006696 -0.48043853 1.0293375 1.2929509 -0.08735363 -1.2043991 -0.40187854 -0.49821225 -1.7408384 -0.37215185 0.8980574 -0.9858651 1.7659422 1.372384 -0.7476861 -0.99051553 0.9680647 -0.22684298 1.7381978 1.3030132 0.5274861 -1.7055486 0.09151219 -0.16120544 -1.3103838 -1.6145436 -0.66671985 2.401348 0.22523263 -0.9950163 2.6441357 -1.5972987 -0.66720223 1.8893406 0.59402126 0.7958003 -0.32112294 2.36017 0.78999823 1.1105403 1.2728549 -0.9513842 -2.536268 -1.2462714 0.19614244 0.42920944 0.32864454 1.6992639 0.9059796 -1.310197 -1.1225888 -1.1434664 -0.7663308 0.56907713 0.51503557 -0.21765655 0.34795386 1.270711
DZHO -1.0365871 0.6901335 -0.42697805 -1.1062859 -0.13180548 0.24708226 0.42900974 -0.27644774 1.4278376 -0.9780003 0.38493118 -0.0043845735 -0.7103255 0.497573 0.6734953 -0.36358702 -1.0057079 2.444789 1.1435901 2.2440794 0.60228914 -1.2563304 -1.553843 -1.1966158 0.9009172 0.16493216 0.42163143 -1.1553344 0.62015367 0.20662567 -1.344945 0.29652756 2.4956458 1.0624055 1.1071057 -0.7459877 0.47461084 -0.7706301 -2.8482819 0.8449324 -1.8472357 0.29050884 -1.1771654 1.4714606 0.8044347 0.6930662 -0.75938255 0.008695592 0.62463313 0.06358957 1.0184824 -0.17893799 1.7533296 -0.86780035 -0.17284684 1.3240458 1.4898075 0.16891447 1.0434445 -0.120983064 1.7584159 0.60265076 -0.34424093 -0.5584817 -0.52830523 -0.2790578 0.12495682 -1.7462286 0.38481036 0.4893529 0.09030144 -1.0853441 -0.9120547 -1.8231081 1.6070973 0.110391505 1.0351185 0.5316101 -0.72519976 0.12477146 -2.7691092 0.7675463 -0.39653835 -1.3214153 1.2187312 -1.7994237 1.5763009 0.044233542 -0.43898442 -0.25379598 1.489441 -2.1216354 0.14009954 -0.4841971 1.7709898 0.027237305 0.13350143 -0.46913573 0.67263615 -0.5744877
FYXA -0.84242004 1.6997246 -0.18220824 -0.12855372 -1.1208755 -0.14798194 -0.7152113 0.95931 0.027601026 -0.9186966 0.41755947 1.960697 -0.18080682 0.2928057 -1.1084528 -0.473995 2.33838 1.1139358 -0.8682243 -1.5514053 0.06825757 0.84348804 1.2489034 1.9470391 0.7279027 2.2842033 2.4591978 1.3268968 1.2909037 2.2959118 -2.3402858 -1.0325798 1.6397947 0.8778436 -0.6255261 -1.9498724 1.2809017 -0.1170984 -0.22345307 -1.7622092 -0.060542796 -0.4831328 -1.5232083 1.8409163 1.3180848 -0.36047935 -1.0257459 -0.5691934 -0.7732604 0.24324746 -1.6939766 -1.4413567 2.822376 1.013493 0.7249032 1.7947464 -0.516338 0.8876938 -0.82229507 -0.9145151 0.9652149 -0.17369927 -1.1936716 -0.38256708 1.2029693 -1.782877 1.1814055 -2.0589478 -1.0793436 -0.49622187 0.71584105 0.8773755 0.23663013 0.12253766 0.89489543 0.8897482 -0.2963154 -0.7809643 -1.2674814 -1.9477336 1.0808271 -1.5352457 1.0608907 1.3698359 -1.3412672 -0.9978135 1.1446724 0.23511775 -0.5079685 1.2928971 0.9518887 -0.9276164 2.5831091 0.09005709 1.8382531 0.5233232 2.1114564 1.0388314 1.7892771 0.12370263
HWUL -0.46046236 -0.41666186 0.95999604 1.1615236 -0.16792995 0.31559905 -0.23954825 0.12873596 0.25910544 0.5569773 3.0228083 -0.028302137 0.37629882 0.6975667 0.7208829 -0.55559975 0.16608582 1.8731494 -0.28403822 0.65301794 -1.5341357 -0.19676843 2.01001 0.77769876 1.4271455 0.8472561 2.0345132 -1.7234808 0.86737746 -2.3662138 -1.2906231 0.27634263 -0.029734055 0.16632977 2.416813 -1.8623375 0.87573665 -1.0912864 0.63015944 -0.4358137 -1.1320144 -1.4950596 -2.1327553 1.1958457 1.9225464 -0.20161161 -2.1945412 0.22866155 -1.2428079 -0.8328314 0.7148068 0.46443608 1.4828068 -0.36065266 -2.0092216 1.7866483 1.3619299 -0.87054694 0.9025534 -1.0444279 -1.0876012 -1.0561465 -1.1051835 -1.1321905 -1.1998659 -1.033536 -0.6818458 -0.8536855 0.51884997 -1.5865504 -0.75125974 -0.58132464 -0.48438406 1.1409454 0.7506489 -2.359019 0.8951136 -0.421266 0.156248 -1.6630999 -0.74351114 0.8832872 0.25980768 -2.0567997 -1.2913222 0.050370242 -0.34237617 -0.6051071 -1.6472093 -0.4058346 0.02336337 -1.787511 0.699315 -0.42126212 2.1274302 0.39765248 -1.6276919 -0.8114177 1.9985877 0.695145
VKEF 3.5726693 -0.35723066 0.44329068 -0.04809494 1.4684741 0.1772099 -0.24479775 0.6006821 -0.056528147 0.5422764 -1.2774146 0.5017031 -0.27155823 1.4543653 0.2550308 -0.94410384 0.45292833 -1.4825099 -2.8073452 0.44121444 -1.2059366 -1.1239438 0.34432745 -0.75131947 2.7828395 -0.82962984 -1.0631186 -1.6065387 1.9939718 1.5734613 -1.1436961 -1.8563826 -1.126053 0.28336915 -0.6307688 -1.0752416 -1.1427462 0.39183205 -1.1289711 0.018635454 0.36775526 0.30377805 0.91911757 -0.14651665 -0.11323163 -1.208879 0.37831688 2.5274677 -3.034894 -0.6768865 1.9555073 -1.2054855 0.69510525 -0.17542315 0.32821074 -1.1288779 -1.1406515 -3.6361103 -1.2436689 1.2779682 -0.7471408 0.7069196 0.93843055 -0.13652621 -0.22674583 -2.544628 -0.7822139 1.6449596 -0.10700736 2.0743284 -0.19949308 -0.67014754 -1.2941066 1.8015894 1.1497084 0.08902882 0.5247208 -1.2428213 0.9528964 0.08272561 -1.5625839 2.203356 2.1407745 1.6567434 1.213525 0.13954405 1.2450659 0.15423682 0.40284765 0.19518459 0.4264226 1.7276671 -0.35300565 -0.05829146 1.0199821 0.31758735 -0.2811799 1.6595249 -2.3706455 -0.6890362
IZOX 0.8917689 -2.3929205 1.9954876 -2.9102113 0.495555 -0.3364832 1.3952054 -1.0007173 0.2599629 -0.88642687 1.9457135 -0.7268533 0.3701202 -0.6625923 2.3852282 -0.09405428 -0.024455383 -1.1492645 -1.717703 -0.99350035 2.2817292 -0.22498497 -0.3879599 -0.49646744 0.79882985 1.0446963 -1.1496725 0.26735634 -0.5567845 0.96444076 0.8878347 0.66184324 0.9683182 -0.69149315 0.30509993 0.12616323 -2.1244693 -0.2760275 0.006099212 -2.3634267 -0.90275514 1.0271059 0.6891453 0.59240896 -0.5449521 -1.6106453 0.40422222 1.6802851 -1.0135156 1.8798823 0.44816178 0.9657233 0.6879219 1.6571915 -0.177883 -2.311851 -1.7646059 -1.444271 0.4375528 -0.48948237 0.6345547 -1.2096397 -0.4257662 -0.68385154 0.026940787 1.581516 -0.9223563 1.8894141 0.24728744 0.3609204 2.745288 -0.7425824 -3.1394355 -0.6094167 -0.25422874 1.6996939 0.6475582 -3.4129868 -0.7215106 -0.87975085 -1.1098821 -0.43003738 0.24409063 -0.005657282 0.25617546 0.0028544657 0.5090916 -0.97580814 -1.4373661 0.49877384 -0.5077602 0.99024725 0.4111754 -1.0892248 -0.97549564 0.8006672 -1.9078542 0.04267902 -0.7869061 1.6376617
PODA 0.6187805 1.4417722 0.4915422 -0.95363224 0.7889267 -1.7982414 -0.49133128 -0.60718125 0.19123657 0.6366498 -2.4281385 1.4265825 -1.3799752 -0.7489179 0.97385556 0.0136363 -0.8620803 -0.30755857 -2.707819 -1.3958137 0.29156476 -0.0197095 1.4971298 -0.41064224 0.22426511 -0.42215797 0.096658416 -0.6188261 2.6096196 1.044655 1.4356391 -0.51762056 -0.6702365 -1.1386629 0.7561247 -0.35907418 -0.8399477 -0.25895056 -0.41212535 -1.6001668 -0.26073352 -1.3991916 -0.032304 -2.0948174 -0.08017411 -1.6994784 0.28423196 1.1575216 -0.7437183 -0.8432463 1.5689559 -0.09532197 -1.755907 1.303679 0.066115186 -0.06755871 0.11660309 -1.6466177 0.58873016 0.09581394 0.50395656 0.5018423 0.6322758 1.3387055 1.162563 1.7729597 -0.3503378 0.515527 -0.30077305 0.48500887 -1.5442855 1.8044612 -1.6769757 0.30574596 -0.10012036 1.112525 -2.692609 -0.29729116 -0.8400946 -0.29975092 -1.5239407 1.8317678 -0.50045776 -0.12650543 0.9451608 -1.7599032 0.6784295 0.5135655 0.46956086 2.0327039 -1.5679885 -0.22757757 0.550835 -1.0347482 0.061580084 -0.18105784 -2.2604725 -1.2108015 0.20956813 -0.78430825
QAIW 0.20596746 0.562277 -0.7398162 0.44872662 0.69451606 0.8687775 1.0918521 -1.3829836 -0.29699817 -0.021829447 -0.06543541 -1.1623937 -0.90567124 -0.14136751 -1.8556955 0.79027975 -2.4006202 -1.0581348 0.21305412 2.401274 -0.20241834 -1.3648533 -0.21580292 0.31005734 -0.19555248 -1.4577106 -1.438208 0.690721 1.9011492 -0.7046643 0.46900263 -2.308634 0.21004629 -0.17477885 -2.9724042 -0.05645876 -1.3439928 0.30510798 -0.3092516 -0.89962345 -0.8711002 -2.1696737 -0.99052423 3.2079046 0.19478181 -1.2847728 0.017026879 -2.336868 0.94909674 3.5524678 -2.5100121 1.7078266 0.43401086 -0.5593582 0.5986526 1.1955044 -1.5165243 0.53436124 2.1355093 0.7599323 2.8003485 1.3968304 1.5393319 0.8983566 -1.0402085 -1.0547497 -0.37621102 1.2385306 1.2759039 -1.0561688 -0.9875323 2.4674535 -1.6487398 -0.16441119 -0.35913467 -0.87511307 -1.1876612 0.111910306 0.26874197 1.1703913 0.3587275 -0.06362086 0.60291344 -0.31868038 0.9229609 -1.1105428 0.6733773 -1.7377833 0.31127554 1.218109 -0.5592475 -0.2878747 -2.2302022 -1.3183123 -0.89619845 -0.126597 -0.38443986 -0.5973389 1.6666193 0.6015588
OGKU 0.928879 -0.038879767 -0.5138866 1.7607402 -0.1826012 0.16176753 -0.8602678 -1.5026824 -0.40534183 -1.7703148 -0.5706518 0.9024679 2.7011538 1.0679541 0.8043699 0.74997634 -1.5902023 -1.4585192 0.26514417 -1.8192575 -0.5596226 0.40099514 1.4277122 1.7982635 -0.8013759 -0.7332067 -1.9280496 0.0074825725 -0.113007076 -0.3737771 -0.4881069 0.33474958 -0.29534554 -0.47516885 1.1280583 1.0441116 -0.08465738 1.1502303 0.6218109 -1.2952237 -0.7584875 0.9663472 -1.3336225 -0.6642047 0.7673905 0.09244326 0.08047239 0.7488963 0.9217232 0.7031807 -0.21484429 1.7620636 -0.23958714 -1.1565377 0.27590117 -1.3525141 0.46766493 0.26273876 -0.82971394 0.1894562 0.9370363 -0.14708461 0.9083457 -1.0747938 -1.1142842 -0.20728195 0.2900193 -1.5868819 -1.0688534 -1.0140452 -1.0983344 1.2490728 -2.5339215 1.0045794 0.95629716 0.0754435 1.4312212 -0.0039098756 1.7140083 -0.41740903 0.094709024 -0.95203835 -0.74741656 -0.15167849 -1.8110489 1.7838932 -1.2224755 -0.641291 0.36703905 -1.0083469 -0.11566121 0.4150923 1.9403855 0.29894224 -0.5370852 -0.59724915 -0.22705674 -2.360515 -0.09601639 0.5327612
HNZK 1.0727843 -1.8978002 -0.8568067 -1.1321208 0.7533532 -2.4597392 1.2195623 0.22151767 -1.4672263 0.8712819 0.1560537 0.7517643 -1.2939395 1.2865665 -0.835107 1.6835144 -0.7249822 -0.9867459 1.597986 0.6869044 -0.57925236 0.5143133 -0.31140134 0.45398584 2.1569984 0.64753354 0.35039106 0.761323 1.2396766 -2.2158718 -1.2767175 0.9455754 -0.83475065 -0.3254828 0.2795343 -1.3562392 -1.1795955 3.753889 0.54358464 -2.9934335 0.6627135 0.78323567 1.1083312 -1.3763142 -1.562582 -2.8659964 0.23951453 0.038034316 -0.20010626 1.6574792 0.304595 0.42272797 -1.2936803 1.5808265 -0.04724518 -1.0484701 0.26619324 0.3025685 1.3485258 -0.0714345 -0.6037555 -1.0657513 -0.099768564 1.6975412 0.3956093 0.93182135 -1.648862 -1.5385768 -2.12016 -1.3602648 -2.0731878 1.3954177 -2.1622572 -0.46377063 -0.2575405 -0.6128668 0.06878545 -0.9144035 -0.7280222 1.7678914 1.8654668 0.8538066 0.44412795 -1.4918752 -1.0453463 3.3425093 -0.35728404 -0.16618733 -1.138434 -0.2509539 -1.0065912 -1.4259421 -0.41734213 -0.27047944 1.9806039 0.87264395 -0.18512309 -0.36109042 1.8294994 -0.23457749
YUCO -0.62378526 0.043767318 0.90829504 -2.1079051 -1.7333658 -0.48305205 -0.14326759 2.2652423 -0.09023033 -1.6326326 1.1386278 0.911431 -0.31344238 -0.045154274 -2.9161506 0.27916053 2.1783762 0.05634379 -0.5290856 -1.2472564 -1.2938272 3.0309079 -0.8072112 1.0244242 -1.5549232 1.8430334 1.6703902 0.29337794 0.7082818 -0.055509016 2.0557857 2.5945246 1.0218132 1.482837 -2.6534119 -1.0190743 0.04554081 -0.7711705 -0.6274966 2.1053782 1.1510043 1.7593921 -0.009796508 -1.0084081 -0.7679936 -1.5404899 1.4846576 -0.5484401 0.8732408 -0.2400307 -1.1666558 0.5880718 -0.30801824 1.3059468 -0.5189147 1.4108111 -0.4546398 1.2882869 0.007696888 -0.15397823 -0.14371753 -2.2370384 0.36788234 1.5135179 1.2885966 -0.7496449 1.3875307 -1.7013799 0.43366775 -0.74188846 0.11757547 -0.7788398 -2.3410494 0.5319951 1.1469963 -1.6385674 -0.15984586 -0.6195731 0.8377993 -0.24776538 -1.2213521 1.6867725 1.4026833 0.40419793 1.9089727 1.5800754 -1.6316226 -1.1134409 -0.1048623 0.29844755 -0.19708969 -0.51153874 1.6508646 1.1548724 0.58385986 0.74808073 1.0630144 0.015565972 -0.056757998 0.23704453
OZJX -2.0818703 0.11270992 0.95438194 -1.0117494 -0.2518523 -0.28251535 -0.3746437 0.43372822 -1.0544695 0.15926386 0.616686 0.47358793 0.9286377 -0.30533972 -1.526183 -0.098979 -1.0412616 -0.4385394 -0.8248026 -0.3566123 0.82561195 0.25251034 0.6726596 -1.2593437 0.091667555 0.56902987 0.04462615 0.5451447 0.11905009 -0.35223836 2.1794584 1.7054368 -0.19278969 0.0667514 -1.0537146 -0.2857634 -0.14154343 -0.8458306 -1.3994507 0.49263537 0.2402956 0.9564859 2.1833441 0.61911917 -0.808298 0.3197402 1.3976151 -0.09284449 0.55844504 -0.7817927 2.9032748 0.23091829 1.4163526 0.86612207 -1.19957 1.1721778 -0.08790977 -0.07758285 -0.14059842 1.8387239 1.1166174 1.0025307 0.1572095 0.704405 0.8400897 -0.0064228354 2.1885536 1.275134 -0.25580275 -0.5369215 1.5192325 -1.1372582 0.06929491 -0.7207024 0.46878564 -0.47740746 0.76324385 -0.6322572 0.73139054 -0.2190566 -1.0529552 0.90932393 1.8533198 -0.06978602 0.79307866 0.019042222 -0.90785486 -0.82213616 -1.0335903 0.6267826 -0.4468052 -0.9961375 1.2884325 0.6279513 -2.046626 -0.6639316 -0.76370853 -0.67745334 0.16794008 -0.08559383
TUEM 1.6739836 -0.25345775 0.15014376 -0.94014466 1.4008135 1.7253362 -0.5816955 -1.6595143 -0.72210974 0.6985772 -0.8804565 -1.027154 -0.20766978 1.6691531 0.72492385 0.420632 0.14457226 0.2573783 -0.43426606 1.7398969 -0.9570064 0.96912956 -0.26413503 1.3370792 0.283463 -0.49628317 -0.6800615 -0.16964895 0.41806874 -0.9854566 -0.46793938 -0.55797553 1.5378542 0.015394985 -1.4714143 -1.0170237 0.61692756 0.89213425 -2.5755715 1.3698862 -0.74485266 2.4315724 0.62339 -0.12189635 1.4978539 -0.42380232 -1.3662615 0.84039277 1.1059623 -1.2649416 -1.1617417 -1.1172277 -1.149994 1.7256604 2.1970477 1.0256587 1.2967039 -1.9583019 -1.4122651 -0.18943112 1.8989575 -1.492998 -1.5094643 0.8615335 -0.43416268 0.8905987 0.26941627 0.40995225 -0.61360496 0.5293149 -1.4323537 -0.33415398 0.42128927 -1.309604 2.1251278 -1.226947 -1.2889339 -0.19404358 -0.21615924 -0.6186253 0.36877277 -0.15533774 -0.6406698 -0.03447657 -0.6105701 -2.936369 1.6950753 -0.49240342 -0.22790478 -0.031265274 2.9870794 -1.634093 -1.4257728 -0.0691201 0.7401537 -0.38639447 -1.074797 -0.2580424 0.96763784 -0.9557173
YBAN 0.299783 1.963925 -1.6354817 1.1298541 1.1433288 -1.00718 0.9286697 1.4883558 0.45139354 0.16046834 -0.8180738 -0.10766331 -0.42107508 -0.2834061 0.3799911 -1.3224937 -0.89619076 0.97491235 0.7255114 -1.477237 -0.45829064 -0.81557083 1.8068804 0.832278 0.6270233 1.1393293 -0.2807458 -0.9405332 -1.0230818 0.9977249 -1.177551 -2.4898992 1.532368 0.25260508 -0.84294945 -1.0781107 -0.23794818 1.8604556 -1.4543915 0.7740446 0.8486686 0.2947847 -1.438455 -0.5420892 -0.42575067 0.4055107 0.20058832 0.39177078 1.9726784 2.326123 0.04897279 2.0832734 1.459869 1.1296668 1.2579904 1.6182249 1.2410309 -0.11452445 0.676111 0.85665774 0.766953 -1.1418469 -1.2005378 -0.710251 -0.32102954 1.5100744 0.8043322 -0.25748917 -1.5851351 0.90803224 0.5071685 -0.4144463 -1.2884701 0.3738527 2.0815616 -0.74287707 -0.9603896 -0.26141226 0.4872032 1.1824558 1.3504568 -1.2251589 -0.91037655 0.7940256 0.41522685 0.57725525 -1.8579978 0.05304183 1.0131233 -0.68112653 -1.5942732 -1.7958828 3.412988 2.0848184 1.6778907 1.1105294 -1.8404577 0.022068482 -0.1547784 -1.1223788
IVQB -1.1810417 -0.6382524 -0.19628787 0.43875065 2.3710608 1.6952037 0.14959821 -0.33572865 0.6670787 0.15994047 0.9431258 -1.178138 -0.046653327 -0.6295229 1.5975194 0.49528128 0.79499614 -0.48926532 3.0205693 -0.4207873 1.1266768 0.48516852 -0.5713813 -1.0824223 0.28704888 -0.77235913 0.75164914 1.9018002 0.15412922 -1.210396 -1.9244472 -0.3832382 2.0304797 -0.42828026 0.630786 -1.4270098 2.419317 1.7377589 -1.5690469 1.0665838 1.2762666 -0.36374488 -0.7709747 -1.8175921 -0.51232654 -1.3830662 2.0309384 0.95616627 0.4995916 0.55804306 0.37150592 -0.6746269 -0.045621544 1.7851704 0.9495907 1.571275 0.886235 -0.5361833 0.9109537 0.44891524 -0.20688647 0.45164138 -0.41110307 -0.10304924 0.6962004 1.2596604 1.2274225 1.194469 -0.22186007 -1.1568366 1.21651 1.3185333 0.7712902 -1.3874153 -1.1349766 -0.66691566 1.4184582 2.8211212 0.72026294 1.2071278 1.6919523 -0.3550651 0.9865696 0.32751456 0.8691331 1.0167232 0.89058197 -0.3461354 0.06910756 -0.6057111 0.607571 -0.44166353 0.79943097 0.34539855 -0.038842984 0.27528587 0.061747707 -0.3249292 -1.1286386 -1.783992
FGQI 0.21213832 1.7420628 -1.946632 0.97631127 1.105719 -0.9407529 0.8657034 1.4261099 0.35312977 0.21831535 -0.83221436 -0.20030136 -0.69475746 -0.37706682 0.28507897 -1.3658231 -1.0492482 0.96025705 1.0872483 -1.4522209 -0.14084166 -0.95756865 1.8905789 0.80588627 0.7358271 1.1247871 -0.33060655 -0.70049196 -1.3650334 0.9047172 -1.0600216 -2.5859575 1.5121999 0.09247345 -0.6942659 -1.1018738 -0.2417838 1.9500443 -1.6052194 0.73097694 0.8473252 -0.12552573 -1.6569886 -0.5326738 -0.59772533 0.4356057 0.2977014 0.18739605 1.6459235 2.1252186 -0.22777452 1.9252236 1.5950468 1.0488031 1.1077324 1.4855115 1.3189514 -0.13718015 0.5757453 0.64624417 0.5225516 -1.153966 -1.3235568 -0.6089896 -0.1769777 1.3291944 0.6692329 -0.43527776 -1.434999 1.060406 0.5818313 -0.8243895 -1.1639413 0.27076706 2.1161833 -0.6357081 -0.731231 -0.32080677 0.24867478 1.0924175 1.404298 -1.2146124 -1.1871783 0.7564013 0.66807485 0.71965057 -1.8792974 -0.05720856 1.0269012 -1.0024189 -1.7446363 -1.7559263 3.2573364 2.1375685 1.5572196 0.9604807 -1.3784436 0.022972653 0.08635387 -1.3336854
UMPW 0.6752711 1.1210661 2.7697232 1.2765962 -1.1470622 0.41065645 1.0902941 2.6441953 1.4152118 0.97571385 -0.22797546 -1.5334529 0.82337254 -1.200401 1.9658079 1.6182812 1.7064443 -0.42591673 1.6746173 -0.88001037 2.0298162 1.8509183 -0.7646712 -1.4764216 0.9387811 -0.8675677 1.0418801 1.835628 -2.069727 1.2002587 0.6211731 -0.49586216 -0.8452587 -0.25234553 0.9632275 1.948561 0.7901874 -0.2884278 0.5089459 0.9981209 1.0644075 -1.0461277 -0.8524787 0.242684 -0.062269762 -1.3089353 -2.2195132 -0.15155141 0.63538367 0.28244728 -0.1402489 -0.22077937 -0.6587765 -0.7774209 0.5855354 1.7644258 0.6973145 -0.3169912 1.7959894 1.2093734 0.5887216 0.36513832 2.3739393 -0.9234694 1.1065431 0.649768 -0.21129939 -0.3966786 -0.5283516 -0.9331106 0.22945626 0.28510958 0.9382724 0.41172436 -0.46659604 -2.3875394 -0.8435335 0.22226933 1.1837258 1.717461 0.21584111 0.4500967 -0.4193564 -0.71058995 -1.0064695 0.3502109 0.8662314 0.15517095 -0.29685402 -3.2647521 0.7098178 2.784088 -0.06700561 2.791944 -0.7869169 -2.5497322 0.7402755 1.5610842 -2.1362267 -1.6801497
IOQU -1.5195684 0.3015935 0.4227164 -0.22066855 0.5083585 1.1966555 -0.89489794 1.3222042 0.07194557 0.41262594 0.14062186 0.6648385 1.4094626 0.084750615 -1.5547662 0.36995205 0.296657 0.9155626 1.4022174 1.2076912 2.8096015 0.74311686 -1.1821884 -1.5355713 0.71788794 0.0018824801 -0.44398132 2.2549536 1.4080414 1.31064 2.4385428 0.16046934 0.19066043 -0.18478972 0.7074691 -1.4065056 -1.4812667 -0.9739072 -2.109477 2.1888425 0.7391428 -0.76206815 -0.6159081 -0.07634231 0.18236813 1.5963386 0.5600656 -0.8061624 0.034764264 -0.2712514 -1.4903896 -0.28198066 0.7364811 -1.6516454 -1.610917 0.1373404 2.1598217 0.50157595 0.5521502 0.67202777 0.89850116 -0.16107969 0.28916067 1.0826986 -0.62505776 0.975829 2.1220846 1.8553717 0.09734643 2.6404104 0.75610805 0.24605608 1.3204902 -0.7485688 -1.0442433 0.226346 0.7845287 0.42211783 0.46891 0.12040675 0.16973351 2.0153742 0.038093485 0.74292135 0.28031665 2.0433922 2.711027 -0.101158835 -0.713754 0.3723643 0.47881994 0.2364709 -0.9475968 1.3919322 -1.9677479 -1.4593378 -0.32244605 0.30016842 -2.5805676 0.7991267
ALDQ -1.454803 0.48860866 -0.44194114 -1.4687692 0.62747055 -1.4225035 0.98777956 -0.88741535 0.6756137 -0.12910965 -0.80208343 0.25005877 1.2918079 -1.0954822 0.19940363 0.28723958 0.7984413 0.4939782 -1.0891991 0.18135875 -0.6536678 -0.13037123 -0.036910962 -0.49869415 0.907685 0.17640302 1.7661388 0.23380868 -0.33447164 1.5217062 -0.770577 -0.26640132 -0.084725454 0.8500528 0.6913246 -1.0904043 -0.5261627 -0.64072347 -0.36771953 -0.60598737 -0.4544036 -1.3642484 -0.48307133 -0.5363521 0.9833744 1.2947648 -0.122339465 -0.95739514 -0.66926336 -0.39033362 -1.7637883 -0.50044554 0.50078875 -1.1586221 1.9165772 1.5783224 -0.79684836 -0.9380977 0.99368817 -0.36395076 1.7983953 1.4504199 0.4735078 -1.6740378 0.22211412 -0.13541196 -1.3272058 -1.8263611 -0.5778252 2.3275273 0.049838897 -0.9028054 2.6392193 -1.4117206 -0.80995184 1.9037231 0.7725345 0.9705544 -0.09286344 2.150989 0.61246324 1.1209936 1.1116737 -1.1327722 -2.570744 -1.339676 0.15038769 0.44860402 0.10778233 1.5834372 0.88944304 -1.2475492 -1.0306265 -0.95917785 -1.1146175 0.26196712 0.5304393 -0.21477047 0.055713512 1.2223234
IBGH 0.1171178 -1.068229 0.2599675 1.4749607 -1.562316 0.5760125 0.32324815 -1.175884 -0.26303262 0.20469116 0.054282118 -1.1044768 -0.18829887 -0.000531985 1.8394608 0.29217348 -0.52133745 -1.7413524 0.6866785 2.2915766 -0.6971503 0.7241835 1.1601217 -1.0362287 -0.7992222 0.22496092 -1.8091203 0.11958092 -2.1672668 0.24700883 -0.97595453 1.9385115 -0.24253283 -0.5491877 -2.6488698 -0.043288678 0.76861644 -0.82747257 -0.23005489 -0.70938987 -0.5195688 -1.9769492 -1.486275 1.297201 0.23248847 -0.95220894 1.9898518 -2.2782686 0.22747919 0.921396 0.9459748 -1.0699166 -0.3132405 -0.18303266 -2.1157808 -1.7411342 -2.3969915 0.51000005 -1.3739233 1.5633734 -2.2691228 0.3872474 0.68484914 0.20928967 0.8321247 1.4820752 0.02808657 0.25566143 -0.6190604 1.9172723 -0.9007195 0.44374493 0.7388698 -0.1999066 -0.3289072 1.7825958 0.15239173 0.15322459 -2.1311994 0.33932477 0.29574272 0.56356394 -0.5225482 -0.10377032 0.9609888 -0.5256622 -0.6631788 1.7869309 1.7780534 0.440091 0.45980102 -0.33191434 -1.0437535 -0.95307493 1.3949144 0.46293464 -0.6657738 0.044734474 1.2734206 1.0617034
OZPN 0.15960501 -0.57829994 -0.2744792 -0.7283172 0.44780248 1.5327858 -1.1416569 -0.57830817 0.599241 -1.6852428 -0.6994114 0.03751306 -0.586785 -1.5718983 0.7533909 1.8869734 -0.6155613 -0.28943458 -0.27273294 -0.4682117 0.9158688 0.27382055 0.8503635 0.15327246 0.21550629 -1.835082 -0.51466537 -2.0256422 -0.8417761 1.8673013 -0.47433406 0.38088515 -1.4880717 1.067716 0.22597976 3.1572163 0.33402604 -0.4892004 2.3238378 0.12321203 0.35657743 -1.063007 1.2878629 -0.3046461 -0.36099017 1.1871809 -1.6218083 -0.13113888 -0.80130535 0.6695988 0.7759324 0.7469364 0.15570177 -0.9834994 1.0772406 -0.49168852 -0.26221135 -0.9104941 -0.18138097 -0.91661686 -0.31170395 1.0239793 -1.0826387 1.4924738 -0.7874098 1.565842 -1.8301209 0.46998718 0.3953585 1.9750497 0.84482634 1.1359717 -1.5021278 -1.6487759 -0.49494585 0.06508699 -2.0744224 1.7468848 -0.7973388 1.0901911 0.37438044 -0.9344695 -0.252692 1.3531312 2.5602703 0.43616238 -0.7718164 -0.71983874 -1.4322236 2.7412944 2.1861677 0.25694478 -0.28473285 -1.0625328 0.24473973 -0.042647045 -0.057039782 -2.2723413 -0.77285576 0.88521093
PXTA 0.48241067 -2.1785731 0.7705721 0.26775843 1.6039228 1.1114146 -0.0035356455 -0.7328541 1.4269929 0.9165316 -0.81074935 -0.91991657 0.239959 -1.1736873 1.9161237 2.1396945 -0.035871066 -0.8761922 1.8949939 -0.8417701 1.4592608 1.5055004 -0.90718055 -2.085466 0.01499859 -0.2787174 -1.6046631 0.18315856 -1.741105 -0.4278175 -0.2672413 -1.2253658 -0.8484178 0.17834853 0.9038992 0.16665807 0.46543723 -0.52413756 1.6872194 0.82897466 1.1434559 -1.0045722 -1.2689347 -1.0405169 -0.8633442 0.49523222 0.046408534 -0.6154119 0.7840419 -0.15048347 -0.034151196 -0.90579283 -0.24775398 -1.7448227 -0.3313817 0.6409609 -0.17617068 0.08089223 -0.4217903 -1.0790507 -0.13270307 -0.033268366 0.0387266 -0.09662669 0.49008194 -0.5905674 -0.20753962 0.65564483 0.6538839 -0.069100186 1.2075224 1.1070076 0.2050058 -0.11223103 -0.9235145 1.3519628 -0.2036828 2.0579753 0.69024354 -0.4131954 -0.23328874 -1.2222904 -0.0338087 1.5212705 1.6670133 0.92777884 0.24309775 0.707313 0.23293608 -0.39971796 0.4874251 -0.16809379 0.13736369 -1.0239563 -0.05693357 -0.10333765 0.53528374 -0.7271269 -0.9669734 1.7265564
QADT 1.091135 -0.11076208 1.7166297 1.7555166 0.43914428 0.38015255 -1.2334726 -1.5553659 2.0921795 0.53391814 0.5639622 1.7191329 0.082362846 -1.0723684 -1.0319937 -0.18168253 0.466065 0.9188062 0.33220592 0.053739637 0.06905332 1.8337733 -0.2664058 1.3145815 -1.2978781 -0.23503137 -1.2258046 -0.16487165 -0.26799902 0.53850454 -0.40849063 0.68556905 -0.44613403 -0.033409026 0.9210352 1.9785337 0.3683111 -0.5874581 -0.38021663 -0.43834242 -1.2151184 0.56594807 0.875578 -0.3682519 -0.4263078 1.369603 -0.6308866 -0.64845467 -2.2981238 1.0785497 1.1678556 1.3638303 -0.44908017 -0.41333786 -0.8474333 -1.8778496 0.5115566 0.24661481 -0.5265088 0.1999343 0.04564494 -0.12887463 0.4327714 1.5102812 1.5651205 -0.73020434 0.6582498 0.12859729 1.4023426 2.6359293 -0.4577054 1.4817739 0.1750288 0.068874195 0.00023177444 0.12690502 1.4552454 0.13879706 -0.71083796 0.48512635 -0.33411765 -1.6574241 -0.70895225 -0.3482699 0.2763609 0.84316444 -0.13577716 1.7998419 1.1128939 -0.23424321 -0.21888818 0.7599044 -1.5205364 0.864721 -0.45250082 0.8935978 -0.6548979 0.4454989 -1.3099836 -0.5300649
UJBV 0.8018321 0.64723456 -1.3253344 0.31966513 -0.61242926 -0.045136098 -1.2556938 -1.2768229 0.45089087 -0.43977594 -1.3207219 1.2213445 -1.222912 -0.16939859 0.68148196 0.42843375 -0.61073697 0.008345392 1.5084137 -0.49786937 0.118235044 2.1796556 1.4046794 1.794473 1.2014005 -1.9729427 -1.1529607 0.3270356 -2.7089477 0.50317794 -1.2150143 -0.5356096 -0.12943946 -1.0601015 -2.058553 -1.6556056 0.2754046 -0.0154837165 1.4494203 1.8398983 0.81379265 1.0790712 0.81850225 0.2498257 1.3964612 0.14757793 1.2287449 -1.0104008 -1.086193 -2.1793346 2.3756235 -0.22515717 -1.1107421 -1.0478243 1.2952297 -2.1183252 -0.2998605 0.15004827 1.8309392 -0.58932495 0.015856352 -0.8354937 1.1556133 -0.6258639 -1.4377619 -0.19063775 -1.6331363 0.24357635 -1.5516443 -1.0618417 -1.0331743 0.7295619 0.38824657 3.5096693 0.2884609 -1.1763533 0.70161045 -1.1915923 -0.45552984 -2.4088206 0.29199648 0.31005216 -3.4231691 -0.6858042 -1.3971297 0.25427237 0.10222249 -0.8216543 -0.58778965 0.44251376 -0.97326976 -0.9531929 0.3409039 -1.5010793 -0.9042337 1.1772461 0.8548329 -0.8830784 -0.12824498 1.7168815
OMAL 1.6078105 -1.9158341 1.3693365 0.5815261 -0.18673547 1.3248712 -0.9098722 -0.32147607 -0.5193877 0.1690119 -0.0883318 0.80847156 -1.0450528 -0.97255653 0.34975302 1.3328373 -0.91417915 0.2896294 0.05732986 -0.076540776 -0.90392435 -0.5503156 1.1460743 -0.54542947 -1.0636237 0.24517925 -2.278066 -0.9441695 -0.25457928 0.35267937 -2.0781417 0.18119836 0.049794104 -1.6759772 1.3707354 0.23018692 1.0938919 -0.6836721 3.6699598 -0.45789698 1.4098477 1.1431158 -0.85338736 0.585812 -0.7616964 1.2710488 -0.16756372 -1.1214166 1.3129457 -0.7276385 1.4110775 -0.1461629 -0.15882383 -0.016868535 -1.1924132 -0.4390791 -0.37098894 -1.4156185 -0.29477876 1.1990386 0.29939675 -1.6026541 0.099423215 -1.0354255 -0.87645787 0.28331903 -0.99243724 -0.5547398 0.977539 -0.50430393 -2.3066554 1.5160462 -2.359523 -0.06868467 -1.103833 1.1310809 1.404389 0.9075295 -0.20754857 0.4491022 0.10224972 -0.3022159 -1.7011697 -0.29574525 -2.2804568 1.2315145 -1.263457 0.64455616 -0.010936593 0.6142389 0.4036991 -0.76333004 0.8271071 -1.9236281 -0.4073749 0.097828135 0.05308586 0.08508204 0.21781193 1.4466056
GKQO 0.6919849 0.6665483 -1.4410237 0.1450453 -0.7404525 0.5084167 -1.5640651 -1.3704627 0.49104416 -0.5269566 -1.3796109 1.2342166 -1.3487694 -0.3783216 0.73957044 0.6687478 -0.4683774 0.11092869 1.4789437 -0.45907155 0.082605384 2.1453974 1.4204614 1.6294854 1.1870474 -2.0962033 -1.2306336 0.14628504 -2.4269047 0.4828048 -1.298852 -0.389831 -0.21322002 -0.9203017 -2.461842 -1.469083 0.28386024 -0.19458519 1.2324232 1.9371207 1.0826613 1.1081682 0.7799412 0.2769271 1.389432 -0.038326137 1.1640881 -1.0399348 -0.99214387 -2.1648607 2.381018 -0.2491089 -0.87868696 -0.9091993 1.2851017 -2.203286 -0.30169973 0.05328862 1.9355686 -0.6812303 -0.12501536 -0.890407 1.1978837 -0.6651977 -1.9474367 0.2413389 -1.6513575 0.2280088 -1.6405903 -0.8093618 -1.0440394 0.7847955 0.14910801 3.5162523 0.339866 -1.3669423 0.85898376 -0.8959568 -0.42990026 -2.4983666 0.6003357 0.61869633 -3.4708812 -0.5636556 -1.0433741 0.11950328 0.057590775 -0.87627345 -0.67162865 0.53163946 -0.8676382 -1.0955926 0.4095353 -1.4259366 -0.39070478 1.2919254 0.70424443 -0.99503523 -0.27637365 1.5213673
LETO 0.76479137 0.9084694 0.43844768 -0.28348866 -0.35272956 1.0069976 -0.22826004 1.9805639 0.16493033 -0.23893385 -0.46769682 -0.9527038 -0.23662353 -1.1707795 -0.23415393 -0.64592576 -1.3498224 1.6375496 -0.9465748 -0.41495883 -1.68304 -2.2017896 -0.6125653 1.0444494 -1.3837773 -0.24743247 -0.37694976 -0.22932926 0.8739018 2.863534 0.6451419 -2.503932 -0.46868286 -2.6935441 -0.24551117 -0.96431106 1.4450328 -1.1380363 1.8743109 1.1108837 -0.42607754 3.6864748 0.34996402 -0.6487396 1.2979997 1.79493 1.8627118 0.26360425 2.0835717 0.5192025 -0.12566125 -2.1123428 -0.68488836 2.2659104 -1.0488731 -0.6772367 1.9251773 -0.08177629 1.279632 0.8984295 0.54910797 0.33227476 0.14148961 -1.2125907 -0.635649 0.18489574 -0.15273437 -0.20724882 -0.4705004 -0.37494397 -2.697454 1.3104002 -0.44026804 0.5721838 -1.4531108 -0.9812843 1.2913167 0.64514625 -1.4291319 0.29369697 0.32174027 -1.7711277 0.32111198 1.2850367 -1.8733449 -0.77048486 0.5307089 2.6163836 0.19355772 1.3978496 1.301052 -2.4175472 2.0644398 -0.9827732 1.4174205 0.5615645 -0.981363 -0.21620585 -0.0627184 -0.94600725
IMOT 1.3099651 -0.03760062 -0.1277551 -1.4806079 1.2138323 -0.3392756 -1.6316674 1.0917608 0.91318476 1.1142781 -1.5389062 -0.54787964 -0.46208924 -1.7606331 1.8432034 -0.10867172 0.14802507 0.8456714 0.4055759 0.2262674 -0.49471104 1.7457702 0.050181523 -1.4652358 1.9081653 -2.0437 -0.41997856 0.45580584 -0.077760614 0.6056661 0.56475866 -1.1865225 -0.4806649 0.42614615 -1.4086291 0.82923084 -1.8490974 -1.9036889 0.074865535 0.47698894 -0.6938148 -0.5301331 1.749237 -1.87133 -0.5087525 1.3111197 -1.9006088 1.2410359 0.11059476 -2.1941195 0.3370891 0.26952937 -0.9071242 -0.9484809 0.282178 0.36253446 -0.8152434 1.0485362 0.35052153 0.9178456 0.4794621 1.3153173 1.2658613 -0.36102715 1.7905463 -1.3244239 -0.7390873 0.4050793 -0.53142273 2.645779 -1.3642161 0.9269078 -0.51702046 0.07190268 1.1975261 -0.6740076 1.1750607 -0.56660175 1.7474834 -0.5888451 0.17299134 0.5980628 0.8916405 1.7815473 -0.90815187 -0.9414592 1.743236 -0.42999977 -0.4681162 -1.0181806 0.73373216 1.8054816 -0.35590708 -0.00077614794 -0.14802474 -0.9667862 -0.9560966 0.5227246 -1.4318553 -1.1893305
TCBW -0.13621774 -1.1165715 0.8027586 0.6360101 0.97042835 0.13982248 -0.86003256 0.254488 2.2975647 -0.19458069 -0.79727465 1.6252539 0.52821934 0.51957273 -1.535711 1.5272858 -0.26560715 0.5430186 0.29485345 0.007738968 0.49584073 1.6893923 -0.24932347 0.29320198 -0.7654899 -0.37055537 -0.42449194 0.26137912 -0.26550937 -1.2091032 2.4234827 1.0981776 -2.580333 1.2698252 0.7114839 0.52133983 0.40861982 -0.56718755 0.5554404 -0.25838628 -1.4588633 0.8855141 1.7027769 -1.3901467 0.39897305 1.7050707 -0.943704 0.5813914 -0.14594407 -1.9461551 -0.24448115 0.3715408 -0.5288618 0.52629846 -0.8559851 0.717784 0.14859064 0.9680564 -0.47750032 0.6125541 0.65092427 2.0556955 -0.02283779 1.4040451 0.1267495 -1.17546 0.9814843 0.76499075 0.13549146 0.06781333 0.29312173 1.2591087 0.10892185 1.616335 0.9241143 -1.0267158 -0.21098004 -1.0360676 0.6459723 0.3730904 -1.1093352 -0.53008753 0.48849678 0.57182944 -0.0867432 0.9796665 -1.0381159 0.88529074 1.1354817 1.2765024 -1.8493681 0.034365777 1.415702 -1.2015761 -1.2596012 0.1842362 -1.4119196 -1.5389649 0.6268158 0.8377684
MOED 0.4648983 -0.0479121 1.744181 0.77449 0.6785637 -1.1834092 -2.2876434 -0.19325802 1.1284611 1.6465855 -0.043621372 0.2940125 -0.08943019 0.5685825 -1.7513931 0.5426268 -1.6162711 0.005286093 0.7217221 -0.57359755 0.43939984 1.2150683 0.11674937 0.92482907 -0.81700873 -0.64758456 -0.83258593 1.3275433 -0.7004325 -0.28157875 1.4045064 0.02140805 -1.6815138 -0.68385875 0.3590446 0.814769 -0.18351798 -1.3570406 -0.009314313 0.22672142 0.36578354 -0.3413371 1.599112 -0.28701937 -1.0895802 1.498943 -1.6056161 0.4249304 0.086279415 -0.8211031 1.302753 1.025082 0.3166708 0.42344707 -0.6047897 0.29133922 -1.1567276 0.33440682 0.08909488 -0.9913287 0.185064 -0.18708713 0.41095516 2.3815606 1.9137801 -0.58548194 0.7111576 -0.5504809 -0.38839352 -0.8907456 -0.5455722 -0.28783557 -0.7873136 2.0273228 -0.80616474 -1.2378633 0.48740262 0.79402345 -0.12860525 -0.95285124 -0.6985102 -0.09201854 -1.2767894 -0.9259924 -0.91548085 -0.033428613 -2.2561917 1.3291376 -0.65462226 1.2171845 -0.90355545 -1.0705549 0.0521052 -2.1894052 -0.3869197 0.5203787 -1.4009794 -0.8319832 -0.22587903 -0.1953797
YLFA -1.6290836 -0.2078075 0.80113375 -0.753478 0.48937273 -2.1703424 -0.7678297 1.0730333 1.8568493 0.5694538 1.2193065 -0.43664035 1.0903051 0.97391045 -2.4744103 -0.116555825 -2.1560082 -1.8287295 -1.9459106 0.44805732 -0.12462362 -0.0349006 -0.79826766 1.2983127 -0.94513834 0.2204232 0.9514368 -2.2625833 0.73100126 -0.8088452 1.3383726 -0.7270799 -0.83870137 0.99680734 -2.0303802 0.25701487 0.470966 -2.6819746 -0.07666695 -0.7905563 0.93767965 0.8608114 1.8111827 0.66311055 -0.15713355 0.6323184 -0.98585457 1.3728471 1.6904864 -1.8647363 -1.4009062 0.35301945 -1.3005724 1.3842483 0.23809536 0.24978837 1.1750693 2.2955995 -0.6864009 -0.2566694 1.1025534 2.0576603 -0.82364833 1.1436594 0.5114054 0.4656523 1.1776963 1.392926 -0.750026 -0.8573594 1.0722624 -0.7946902 0.92359173 0.05430561 0.21846133 -2.4284635 -0.45214915 -0.5636754 0.5962371 0.1502394 0.49791047 -1.1326897 0.35038027 0.8777009 -0.80408233 -0.778768 0.12435257 1.0096117 0.3433911 0.4590427 -1.738568 -0.0019640056 -0.9720067 -1.6192181 -0.91281027 -0.24629074 0.16562642 0.8060363 -1.0937474 1.0154785
FYBK 0.51907974 -1.4329383 -2.0106533 1.252037 -0.70999384 1.1959096 0.38215947 0.5408154 2.0503747 0.14157507 0.74607235 -0.28044674 -0.86234874 0.7346833 0.22543094 -1.5095065 0.10853099 0.34119326 -0.50740933 1.0927948 1.0712928 -1.8789141 -0.391979 1.2052362 1.5416275 0.8150264 1.242643 -0.3480385 0.6334884 0.21408777 0.16389754 0.9836334 1.7099044 0.17097029 -0.1731734 0.08681423 1.491265 1.116179 0.04579922 -0.7145201 -0.25220937 0.48553875 1.1706718 1.9898548 1.3039224 0.51725245 -2.285108 0.1549672 -0.9447057 -0.5083371 -0.084764026 -1.0246831 1.982474 0.80523777 -0.9393945 -0.7859698 -0.0628962 -0.8675628 2.4400342 -1.6191999 0.5847501 0.5266275 -0.52979004 1.2113352 -0.0586967 -1.6088092 1.7449383 -3.3025458 -0.8417064 -2.4642417 0.44897124 -2.882287 0.1824911 0.7769416 1.79491 1.5194751 0.24871437 -0.9538149 0.20203383 -0.6259714 -1.8083568 1.7125545 0.111677326 0.56288165 -0.35191804 1.3793579 0.95050013 0.44213384 1.4915175 1.0426539 -0.38146657 -0.2595976 0.4656425 -0.9135229 1.5218762 0.7993072 0.84466755 0.48966908 -1.2486384 1.1813822
DFAW -2.0528288 -0.67245716 -0.8113881 0.3965996 -0.06152958 -1.5504757 0.23748772 -1.2587804 2.2177413 -0.33597523 -0.66299623 1.6627324 -0.7539816 -0.5881501 -0.5495595 1.0348186 -2.1786315 -0.7484993 0.4755533 1.6745304 -0.22699305 -2.5292559 0.40037996 0.33634314 1.2154595 1.5201839 1.6104724 -1.3455176 0.037193343 0.4973006 0.15914926 1.4408952 0.23168012 2.1485221 0.06667674 1.016617 1.0033993 0.27645415 0.7749905 1.938114 -0.50918865 -0.15555671 -0.6454062 2.4086735 1.7150325 -0.66352177 -1.0711483 0.6173602 -1.2076144 0.28774178 0.021881321 -0.63254696 -1.500123 1.2117033 -1.5231371 1.5083857 -1.5440781 2.6396062 -1.9441063 -0.49712706 1.1866428 1.614661 -2.0019097 -0.6556824 0.20168975 0.52181464 -2.6757417 0.7275607 1.2701416 1.0625497 0.86939806 -1.636065 -0.21320163 -0.77414066 -1.0619026 1.4190934 -0.19683279 3.026058 -0.6529151 0.35554963 -0.56169724 1.4605939 -1.5280279 1.1020627 0.665683 0.5657814 0.81088173 1.4999455 -2.0212736 -0.51285124 -0.27140528 -0.30510804 -1.4522525 0.29131672 0.48834682 -0.74381167 1.1785076 0.34612972 -1.1887277 2.6643322
QFCU -0.56238204 -2.270012 -1.9841496 -0.89363635 -0.46535596 0.20198195 0.2175407 1.1821187 1.5565035 1.3216844 0.4016836 1.5489157 0.97998303 -0.5567143 -0.61825764 0.846755 -0.9742084 -0.113980375 0.84130406 1.5713239 -0.51810944 -2.7077227 1.4169272 2.3426976 1.5835217 0.80672306 0.107105345 0.085332066 -0.458064 -2.425002 1.5471584 1.9942334 -2.6428907 -0.33231 -1.0899132 0.45667347 -0.450979 -0.6913379 0.92298335 -0.7601498 -0.07655285 0.5993318 1.6340472 0.43167624 -0.6575484 1.8447765 -1.3612283 -0.25420332 -0.3830217 -0.20844342 -1.7751029 0.14905539 0.8929215 0.85975397 -0.6754939 -0.15178867 -0.5651798 -1.1171714 2.1385438 -0.8702224 -0.29224357 0.8440009 -1.8625234 1.88685 2.3993018 -0.6216691 0.74613506 -1.2429723 -1.0280536 -1.4032894 -0.5297474 -2.5045443 0.47442868 -0.54159874 0.17260079 0.14829193 -1.3889796 0.5257743 -1.2605993 -0.013640958 0.061390337 2.16457 1.4558201 -0.47418 0.072966374 0.79837835 0.2228222 0.9305785 1.5157051 0.8891242 -1.2007833 -1.8705611 1.2934804 0.24776325 -1.2426827 -2.8124685 0.5938344 -1.2212569 0.13249977 0.45703423
VFAP -1.1152526 -0.5386465 -0.23669681 0.4340141 -2.173091 -0.5753728 -0.14838108 -0.19536822 -0.03418219 1.3010205 0.6574177 0.55202734 -0.82248324 2.4976716 0.29907593 -1.0716286 -0.101473585 1.8195112 -0.3331928 1.6112298 -1.5262408 -2.1162677 2.2203417 1.1664693 -0.4352604 1.2390047 2.441019 -0.82243943 0.9772158 -1.1171591 -0.3556263 1.8591847 -2.3139522 0.19965369 -1.1341772 -1.4350524 0.29572573 1.3250152 -0.22737157 0.42098653 0.31776693 -0.18845354 -0.8506709 -0.054825593 0.22536805 0.18932799 0.057399027 3.592304 -2.3147573 1.3670009 -1.5319283 0.9003236 -0.58598876 0.7846924 0.014389426 0.77117693 -0.30777785 0.2610082 1.3587873 -0.69023937 -1.3920044 0.6541369 -1.8029219 -0.56643724 -0.59005094 -1.8505182 -1.3059232 0.054637015 -1.0081 0.14066243 0.19536102 -0.4781957 -1.7385496 2.1013815 -0.6177993 -0.26252824 0.4410565 1.9324629 0.9268487 -0.89745945 1.4539453 0.037764907 0.4839351 0.1462911 -3.1452818 -0.45503017 -1.1411207 -0.4609289 -0.016534425 -3.5139587 -2.0268269 0.58110476 -0.6997713 1.2773693 0.9501788 0.0146482885 -0.5933203 -2.9661644 -1.200795 2.6556306
GALQ 0.9224233 -0.24504243 -2.3371828 -0.27064058 -2.4018667 -0.5420929 -0.032389123 -1.6095704 -1.5624447 0.6896504 0.6089479 0.5049274 -2.1703386 -0.24837726 -0.5910327 -0.5078382 -1.8586614 1.1384671 1.8816783 1.3467841 -0.49517393 0.3682968 2.563625 0.031346336 0.51493204 0.64697963 -0.89204025 -0.32976866 0.07289193 -1.3272204 -1.3256456 -0.1266231 -1.5484654 -0.98732185 1.3228674 -1.3178445 -0.7899915 0.7436558 2.803511 -0.42925844 -1.0469471 0.6096173 -0.40570474 0.30308852 -0.6140435 0.5638941 -0.17324845 -0.31755123 -1.0826157 -1.2142419 -0.26698837 1.064917 -1.2150197 0.49062157 3.7272537 -2.7196512 -0.17390463 -1.598485 0.6261811 -0.10184955 -1.212351 0.74059826 -0.5712498 1.6181751 -0.69129145 -1.3168919 -0.36439112 -0.26151627 -0.42947447 -2.5625904 -2.2052276 -0.85453784 -0.8505068 2.6748724 1.0860983 0.9640951 0.14862515 0.91983527 -0.36181957 -0.25783855 1.1054072 0.56070626 -0.974263 -0.9917676 -1.6659933 2.0281107 -0.2679387 0.2988442 -1.8952358 -0.29308203 -1.3572567 -1.8254126 1.0271883 -0.24318738 -1.7164264 -2.247444 0.17361842 2.8571286 -0.1290889 -0.9020601
FWXY -1.6939118 1.8728375 -1.9885542 -1.4149832 -1.6567471 1.0162237 -1.9333469 -0.33881044 -2.8262317 0.55289704 -3.5114448 -2.3972611 -0.09851755 0.9788278 1.1088332 0.98980486 0.15913832 0.98550034 -1.329015 -0.38426527 -0.79085654 -0.62338686 0.6198203 0.17052157 -2.140353 -0.8129819 -0.0267237 0.28177032 -0.16050546 -3.5504813 -1.3396696 1.7005605 -1.2758831 -0.19683187 0.041613817 -0.6675457 1.3544788 0.8594782 0.89695835 -0.87864274 -0.9930631 1.8779788 0.2840712 0.5465501 0.17370752 1.6168799 -0.69308794 0.8410372 -0.16345195 2.794129 -0.89065677 0.1916635 -1.2607019 0.44786215 0.35228214 -0.90578383 0.6002842 0.49460068 -1.4716772 -1.5852928 -0.08636649 -1.0999521 -0.29089677 -0.40013617 0.37710437 -0.47869036 -0.78764707 -1.6786795 0.034926407 1.2296737 -0.14437005 0.63200825 1.6021327 2.458141 -1.3866107 2.7373047 0.62027377 -1.3440022 1.7741116 1.15496 -0.23301949 0.04018033 -0.68573177 -1.7535294 -0.37429798 -0.5600267 -1.058422 -0.47663245 -0.6959893 -1.4115692 -0.5095375 -1.128919 -1.2952279 -0.59169555 0.14487334 -0.7659765 1.3179953 -1.7165257 -0.2830454 -2.076632
BHWK 2.4648309 0.95990926 -2.027052 1.1023468 -0.41784328 0.5016947 -1.3814784 0.79532206 -1.1945604 1.9619782 -2.5374308 1.8480068 -1.6322718 -0.68892235 0.53164625 -0.6395187 -0.871783 0.69952166 -0.66142166 0.09493709 -3.0861785 -0.14153324 0.8743958 0.4843664 0.60353523 -0.52986985 -2.0078568 2.075552 2.3140666 -1.4351544 -0.20974031 -0.90690666 0.6264103 0.34966362 1.5685707 0.98170054 -1.0663778 -0.8288988 1.7473605 0.574033 0.7890956 2.3088756 2.1212645 -0.07747179 -0.27653995 0.49628943 1.5314889 2.5519726 0.29431 1.7152983 -1.0484582 0.79981685 -1.8776101 0.52026147 -0.8398391 -1.8256762 -0.1588604 -1.6010146 2.3347967 1.0578406 0.34034452 -0.9635537 2.1038868 -1.8944558 -1.3895911 -1.333215 -0.7177695 -0.02133299 -0.7464861 -0.052616235 -2.4492564 2.147154 -2.1604075 1.2561336 -0.64644563 1.0536193 1.1731867 -0.21800514 1.5294939 0.578053 0.48108742 -0.21478744 1.073589 -0.15967707 -2.7237792 -1.3048658 -0.2123474 -1.0100201 -0.4679972 -0.50105256 0.78474057 0.5353971 -1.270087 0.29036185 1.528258 -1.7858335 0.47845247 -2.1044858 0.77488285 0.04252984
QAHX 0.4844429 -0.22347468 1.8187467 0.7172417 0.7473244 -1.2276598 -2.3311214 -0.11713357 0.87789106 1.6290945 0.11427731 0.59685725 0.12890129 0.5491737 -2.0985515 0.80328476 -1.5808629 0.114483885 0.85063106 -1.1027517 0.39077803 1.3859512 0.18592471 0.982757 -0.83100414 -0.71292514 -1.1383443 1.5593436 -0.5837781 -0.28771338 1.3332268 -0.255524 -1.7462468 -0.8511131 -0.0025545831 0.8249384 -0.21764338 -1.6337603 -0.21403866 0.46468276 0.49824557 -0.49608847 1.4401748 -0.22840749 -1.0998302 1.5153716 -1.109417 0.6702108 -0.08361087 -0.80425376 1.3167899 1.2450112 1.0643628 0.18429792 -0.68355453 0.7675555 -0.9033102 0.23996928 0.020406965 -1.1542332 0.123982474 -0.019466635 0.6189911 2.1167567 1.9341371 -0.4753833 0.8199191 -0.46991453 -0.66904384 -0.99034417 -0.45579702 -0.32960385 -0.748982 1.8383974 -0.8153412 -1.4721911 0.6642929 1.0912905 -0.23084614 -1.2021638 -0.77806854 -0.2276734 -1.3763899 -1.0876975 -0.84405136 -0.10100991 -2.3687546 1.0619748 -0.8393875 0.91197985 -1.0283422 -0.8101025 0.43725532 -1.6276585 -0.13709801 0.3385833 -1.248009 -0.998884 -0.24519657 -0.55487245
FIJA -0.47410282 -2.4528358 -2.1139305 -0.5444619 -0.59634185 -0.24059787 0.63195807 1.541021 1.5745162 1.3870585 0.27766976 1.5025393 0.7197014 -0.19012323 -0.37667355 0.5302559 -1.1408502 0.08048868 0.94030976 1.794939 -0.4800584 -2.603838 1.319445 2.116493 1.7451268 0.77438545 0.11137998 0.34750876 -0.56175476 -2.352864 1.6656843 1.8738096 -2.5847797 -0.14225575 -0.928892 0.5162342 -0.2899822 -0.84100455 0.9552032 -0.5154111 -0.11584048 0.32987466 1.4580766 0.51791143 -0.74421597 1.761845 -1.2353746 -0.2686855 -0.50704443 -0.046330933 -1.5705849 0.05788662 1.2138462 0.8393214 -0.76382935 0.014960312 -0.5942669 -1.0907209 2.3258739 -0.649924 -0.29879358 0.8930129 -1.7328184 1.8136228 2.0666835 -0.66865945 0.5233104 -1.292939 -0.8239437 -1.7112457 -0.6074422 -2.8992662 0.8176943 -0.2533525 0.039302297 0.41798458 -1.6177105 0.4088896 -1.1610767 0.332143 0.3579783 2.309245 1.4069096 -0.26937476 0.0067543094 0.95826185 0.09576259 0.9763571 1.3044627 0.69360024 -0.88683164 -1.8361975 1.1746992 0.23638125 -1.4054843 -2.5684526 0.6378974 -0.620543 -0.24966313 0.7672777
DLJG 2.0241559 -0.53391117 -2.345484 0.40636706 -3.6049976 -1.028995 1.1795006 -0.6789558 -0.14932424 0.20543161 0.9870727 1.2769643 1.9533454 1.9640226 -0.31953067 -1.5778395 -0.23968561 -0.16036345 1.0557283 1.1973351 0.65785754 -1.1071582 2.3845637 0.9784386 1.7405404 -1.3349901 -1.2787986 0.49355617 1.611751 0.0782118 -0.52807 -0.8255209 1.2471093 0.5559004 0.5187192 1.2418913 0.58341223 1.3488636 2.3417711 -1.8362126 -0.87118644 -1.6310612 1.4189689 -0.30894 -0.017231384 -0.11189022 -1.321191 0.94059294 -0.6193625 0.1311178 -0.9724009 -1.5039895 0.64171416 -1.0241879 0.57864875 -0.032464325 1.7990942 0.96451133 -0.42529055 -1.8484304 -0.5055734 0.6687864 -2.5495694 0.26209447 2.1249082 -2.028682 0.673265 -2.834343 -0.7710654 -2.9992983 -2.2195675 -2.140275 -1.1999161 -0.2289616 0.2921786 1.479515 0.33745635 0.10301942 -0.6292718 -0.92654216 0.8254079 0.34089833 0.0979982 -0.59146774 -1.7351732 1.8506572 1.2097281 0.21002877 -0.9600955 -0.90099305 -0.45039958 -0.8282579 2.0823178 0.7468827 -0.41854283 -1.2453276 1.3206084 -1.6057967 1.0389694 0.11229694
EYRO -1.1668165 -0.41854733 -0.3048418 0.5012717 -2.1432436 -0.63536483 0.036357332 -0.3495175 -0.030851478 1.2517735 0.7214325 0.2963032 -0.84917176 2.3950503 0.4300026 -1.1079543 -0.10672234 1.7362645 -0.42030242 1.2181416 -1.2759401 -1.8242612 2.2249043 0.90156084 -0.3700903 1.1779742 2.5551906 -1.0805932 0.92276466 -1.0636519 -0.34637052 1.8559539 -2.1799135 0.22826535 -1.043867 -1.4369364 0.36243114 1.2998453 0.03477764 0.3246181 0.015780231 -0.12869653 -0.9248569 0.046209734 0.32280332 0.027035862 0.21791112 3.5469062 -2.2776537 1.4985607 -1.5852872 0.90792257 -0.58363646 0.7089793 -0.0017012621 0.8080028 -0.3561842 0.23841101 1.4309217 -0.80947405 -1.3321787 0.6282455 -1.8423431 -0.4937484 -0.7261517 -1.6318094 -1.3481262 0.117750086 -0.7543463 -0.026804386 0.03137111 -0.49010462 -2.0251505 1.8532884 -0.5970781 -0.14409634 0.24647151 1.7165538 0.93660384 -0.84409904 1.4785974 -0.066263564 0.40363622 0.14035538 -2.9508631 -0.5527841 -1.1868765 -0.53600925 0.025962774 -3.3327754 -1.8799906 0.32310286 -0.55292624 1.3369843 0.73941964 0.024946002 -0.9881954 -3.361219 -1.1623368 2.884158
LGEH 0.9417727 -0.27967906 -2.4825473 -0.22388928 -2.4016578 -0.859655 -0.012042659 -1.353495 -1.5996996 0.98292 0.4100433 0.26380777 -2.0975232 -0.3107904 -0.45320508 -0.60848165 -1.4677644 1.4369489 1.6789058 1.1886709 -0.6163816 0.12513275 2.4620402 -0.16727817 0.53106004 0.57666194 -0.88344765 -0.3707709 0.03505734 -1.3676064 -1.0814409 -0.34744343 -1.817715 -1.1120299 1.0369294 -1.4589987 -1.4390695 0.53420544 2.6032608 -0.33315283 -0.9884921 0.42430687 -0.42225686 0.2044812 -0.57091576 0.5531133 -0.22156225 -0.50076175 -1.2394514 -0.93515766 -0.4103778 0.9587697 -0.8944883 0.43679515 3.5297215 -2.5757718 0.07178703 -1.5099398 0.7425065 -0.35213014 -1.3868791 0.70800287 -0.36475095 1.4804393 -0.7636897 -1.1390948 -0.6634671 -0.5761937 -0.59378964 -2.3150575 -2.2901964 -1.1029949 -1.0293065 2.999401 0.9503321 0.5940032 -0.11361547 1.0168204 -0.74906015 -0.4697054 1.1241544 0.57747906 -0.80426574 -1.0055472 -1.8710289 1.9295164 -0.59596944 0.7105086 -2.16761 -0.39630976 -1.346287 -1.9187667 1.2983345 -0.25747764 -1.4796512 -1.9693377 0.098607935 2.9840689 -0.29610616 -0.8350733
HWQK -0.64621836 0.7181003 -0.82086784 -0.30149436 1.0450376 2.6677537 -1.7816615 0.94251007 0.9674943 0.02082557 1.0550567 -1.01871 -0.488626 -1.3961041 -1.3530345 0.19977975 1.8496923 1.0311832 2.2619307 -1.4199942 1.2173331 -0.3013456 -0.7416811 -0.34529638 -0.23531261 0.025723433 0.14943916 1.0571386 0.40356377 -0.742577 -1.4106563 -0.68196774 1.7426935 -1.0039256 0.6969955 -0.85657287 -0.81439894 0.4620647 -0.23289563 2.4358177 0.85970205 -3.3346434 -2.3058748 -0.51977056 1.390022 -1.2899518 -0.82918245 -0.090274796 0.97790736 0.14460155 -2.0007467 -0.25694278 -1.0283154 -0.350774 -0.42626974 0.62803304 1.2096429 1.5994021 -0.16915081 -0.30109283 -1.1078271 -1.3682141 0.9829255 0.28061044 0.38704744 -0.32181153 2.3760674 0.89971095 0.095686786 0.1952867 2.3830109 0.5677832 -0.034718666 -0.54806733 0.5084576 -0.68200123 0.4502422 0.05582009 0.4340698 0.007399955 1.045169 1.2108601 -2.0639572 1.5042394 -0.3743813 3.5933502 1.3076596 0.43825543 0.8235227 0.23623656 0.7610536 1.8442806 0.87446547 1.3465062 1.2621512 -2.089536 -0.036205705 -0.48481467 -2.4765322 0.35206944
GUBY -0.11445788 -0.08787873 0.15930441 2.4626071 0.003515272 -0.35249993 -1.4392558 0.7637817 0.56005 -0.7232679 3.0219042 -1.0152555 -0.76822615 -0.64968604 -0.7793809 1.8659757 0.18888713 1.2284365 -0.07462037 -0.277439 1.8984559 -0.4695172 0.6143178 0.60336566 1.3978933 0.7566096 -0.7582072 0.040469594 -0.32047158 -0.71919096 -1.664508 0.49007478 0.7680807 0.092371084 0.54536825 -0.4018765 0.9779706 1.4097823 -1.2742298 1.3240936 0.528765 -0.10366918 0.8874171 -1.0219263 1.1373221 -0.3281944 -0.8752368 0.31121257 1.9491907 0.7357131 0.40981463 -1.5039757 1.1067903 -0.6319223 1.6750023 1.9334071 0.53557587 0.7773275 0.5728094 0.3097742 -1.3492684 -0.11873138 1.4973043 -1.3240831 -0.8618177 -0.44841662 0.09717749 -2.6457784 -0.88997227 -1.4659141 0.13537906 0.45633045 -0.007719577 -0.9259835 -0.88968277 -1.4700117 0.76671124 -0.5270937 1.0828394 0.15364861 -0.39380655 -0.26310226 -0.553382 -0.43179458 -0.54451674 -1.3970888 0.34207338 -1.7094973 0.051316172 0.6076634 -2.9647682 -0.7183823 0.6877377 0.3968718 0.95458376 1.0463985 -0.45583585 0.6728768 0.31444252 -0.8248295
JUXF -1.3378743 -0.90091914 0.92901474 -0.043937605 0.42573228 -0.29337114 -0.42589578 0.7561033 0.02969938 -0.33628258 1.9758596 -0.48831043 0.042878523 1.2429562 -1.2554967 1.8366878 2.5754163 1.8586435 -0.40205604 -0.8434875 -1.2915077 -0.17720936 -2.4578671 -1.2579759 1.7671947 2.4160075 0.04148829 -1.0016296 -1.1510264 1.0298039 1.8234389 -0.65257704 1.4693707 -2.2206354 0.078345105 1.0992968 1.1793336 -1.0426983 0.08113955 0.98150384 -1.0447619 0.09076876 -0.011675497 0.7539651 1.7591497 -0.28814903 1.443889 1.646656 1.8707895 0.32602096 -0.5280684 -1.3841863 0.24668285 0.2223567 0.4687591 2.4111795 1.4706638 -1.5381162 -0.8454289 -0.7225187 -2.620427 0.33212763 -2.5580275 1.9537901 -0.45464897 -0.59858364 -0.5083872 -2.5458267 0.06631732 -0.38789198 0.83294326 -0.40551007 -0.43733728 -1.0696434 1.5567503 -0.8646326 1.4972655 -1.014567 -0.4079262 -2.9695587 -0.18333355 -2.058888 -2.3319113 -0.448552 0.83823675 -1.075407 2.041194 -0.26655874 2.899826 -0.7082733 0.20780432 0.16634221 -0.651961 0.44034955 1.5108734 -1.5527523 1.5533019 -0.05764749 2.7958634 -0.74469995
JBIN -0.8436965 1.7020277 -0.37146086 -0.24700151 -1.2518555 -0.030434398 -0.79863024 1.0754709 0.07983807 -1.0692425 0.3118642 1.8346688 -0.3258762 0.10945757 -1.0554348 -0.4886064 2.114982 1.1369028 -0.93286574 -1.5503075 0.31382906 1.0723567 0.90574956 2.3231363 0.46932265 2.306727 2.546472 1.4295835 1.2727516 2.3582113 -2.358845 -0.5397756 1.672289 1.2172637 -0.7047907 -2.082922 1.2129968 0.03311392 -0.20244525 -1.9980881 -0.031576995 -0.40586397 -1.603963 1.7493768 1.1553636 -0.6406105 -1.0390618 -0.5212793 -0.8240841 0.3642796 -1.8305098 -1.4265982 2.6055005 1.2788812 0.5766837 1.6700021 -0.40090698 0.9249116 -0.95291483 -1.2192553 1.2187684 -0.24653299 -1.2169979 -0.47366303 1.1273159 -1.6609372 0.7798723 -2.0334675 -1.0334034 -0.3354347 0.6342925 0.84131706 0.48557088 0.09326709 0.9802575 0.86773926 -0.203858 -0.78180397 -1.2082181 -1.8611871 0.9958549 -1.5860769 0.70434624 1.3691789 -1.1729828 -0.97153395 1.0790199 0.35652727 -0.5640944 1.0534708 1.1385242 -0.69798154 2.63093 0.29126117 1.9600948 0.3949567 2.1062994 0.65293455 2.1013598 0.30641803
ADBX 0.16280721 3.314392 -0.9739424 0.7517768 -0.37987667 0.75546575 -0.91207474 -0.9257332 -0.7676285 0.029428083 0.055991158 -0.33760622 -0.75586194 0.6873248 -0.6935764 -1.7221936 -1.2956873 1.8138525 0.16432965 -1.4744205 -0.07044414 0.16255495 2.209494 -2.546735 -1.6157912 0.5758426 0.35640156 0.6718455 2.1951163 -1.6783373 -0.4567985 -0.68961847 0.9162989 0.5122301 3.0443194 0.03371521 -0.3385549 -0.88447773 0.7692819 1.6048002 -1.409515 1.2420328 0.084104165 -0.4843706 -1.4887167 -0.57097304 0.74838346 -1.975769 0.21507393 1.2253038 -1.2965529 0.043367345 -1.0527947 -0.24424891 2.6527145 -0.7213941 -0.48352903 -1.2693704 -0.3131709 0.43218926 1.8844646 0.21891962 0.24411424 -0.09277978 1.0679023 -0.053558514 -0.063817866 1.6526698 -1.5514736 -2.3136542 -1.1296257 -0.57685506 2.896322 -0.19887698 -1.0829542 0.12904565 -1.7144417 -0.49857882 -0.16289003 0.04134581 -1.317025 -0.77668285 -1.2999489 0.51487964 0.86289245 -1.2572547 0.29873627 -0.61292136 0.06475842 -0.09080063 0.51361066 -1.4996929 -1.3650712 0.63815725 0.028993307 0.88287354 -0.68583214 0.90127355 1.1203158 -0.58249223
QXBG -0.101328135 3.1641362 -1.008952 0.7969595 -0.29913673 0.7512725 -0.67348796 -0.59696406 -0.5227355 0.023872431 0.08551208 -0.28798103 -0.6697851 0.7167884 -0.50728214 -1.5529933 -1.6148651 1.7842559 -0.03522599 -1.4130708 -0.10973194 -0.02608366 2.1749804 -2.6490622 -1.5433832 0.6473288 0.32348248 0.3086729 2.3337836 -1.5705488 -0.56315905 -0.6599951 0.7803933 0.45375147 3.1017945 0.19163266 -0.3583163 -0.9305069 0.8811905 1.415234 -1.3165008 1.3794452 0.28459895 -0.63277584 -1.7519886 -0.29493314 1.16179 -1.7777379 0.5643487 0.9736672 -1.4381021 -0.011413429 -1.0790247 -0.1664077 2.5691977 -0.53253096 -0.527044 -1.3755692 -0.09094658 0.4482087 1.7146122 0.25399613 0.5228172 -0.07813071 0.9288952 -0.14560553 -0.027317625 1.547979 -1.3228602 -2.451846 -1.1424106 -0.79108506 3.0274935 -0.37770617 -1.1344768 0.16655652 -1.6489524 -0.27698734 -0.03836902 0.24197891 -1.2799579 -0.60947835 -1.0884877 0.6677389 0.9567419 -1.464828 0.34353077 -0.48839924 0.6575426 -0.082397036 0.45577627 -1.4075834 -1.1985483 0.62940365 0.4438573 0.6812102 -0.5602682 0.80885625 1.0721371 -0.7196256
QOYC -0.7454066 0.16653289 -1.4214289 -1.5212998 2.230641 0.08773654 -2.0103273 -0.6291868 -0.18485826 -1.6340837 -2.4447 -0.40273437 0.3027583 -0.39806873 -0.02721258 -1.6920397 1.4895331 1.4443697 0.15257573 -0.32532194 -0.06222493 0.06227856 -0.3056925 -1.2534755 -0.6421144 -0.09989093 -0.4735304 0.80389667 -0.31040373 -0.73838943 0.74046344 -1.2326769 -1.0263461 0.82646024 1.2369531 0.9939372 0.45070353 -0.40138888 -1.6045387 -0.81006765 -1.7042347 1.7621483 -0.0030931206 0.7384987 -0.118717395 -0.17662233 0.51010644 -0.14532755 0.6517611 0.19510937 2.2031941 0.27017003 -0.3438973 -0.09225184 0.16006799 0.8022028 0.88357633 -0.27482644 -0.83116764 -0.04831035 -1.2610985 1.3100482 1.0879574 -0.06979929 0.2894162 -1.4858414 -0.52929026 -1.1824623 -0.12149877 0.5501106 1.0446756 -0.2974129 1.8442827 -0.28179577 0.034543857 -0.29546568 0.14579517 1.9972517 0.28580964 -1.4799876 0.00067072775 -2.63357 -1.849186 -0.9069404 1.0404915 -0.015656624 -1.0374738 -2.0066986 -0.5656234 0.35795423 -0.4997631 -0.016036978 -0.47455642 -2.16965 0.23592299 -1.3895503 0.25958216 0.43108988 1.0006568 -1.8391575
WKQF 2.4494975 0.71477395 -1.7810823 0.9063281 -0.30241317 0.3742167 -1.5880028 0.40392917 -1.5571879 1.984809 -2.3321464 1.6796526 -1.4394624 -0.31312126 0.39153698 -0.7403859 -0.84619117 0.7273974 -0.4965578 0.042233083 -3.0471578 -0.41516092 0.887622 0.4601488 0.5675797 -0.5885374 -1.7381934 2.083547 2.3883796 -1.1233324 -0.3885217 -1.2711961 0.69977534 -0.106811464 1.6553532 0.8253688 -1.1252074 -0.5482243 2.1441624 0.7773359 0.8933242 2.2808037 2.0298576 -0.22571094 -0.16019645 0.84629935 1.7024559 2.631266 0.2887404 1.8009046 -1.1674346 0.81549376 -2.2747266 0.071114466 -0.563216 -1.6281712 -0.53341454 -1.6355708 1.927675 0.88038355 0.6892664 -1.0505557 1.891822 -2.3695414 -0.91670734 -1.3683163 -0.8266696 0.018362537 -0.96675146 -0.109206855 -2.2258816 2.2257507 -1.8268317 1.2588189 -0.58174825 0.92810917 1.0648382 -0.16929947 1.4325291 0.6152242 0.47679198 -0.04580179 0.9876988 -0.084086455 -2.57359 -1.0838165 -0.2906281 -0.69271797 -0.5135588 -0.6345901 0.99415654 0.465447 -1.261051 0.18723617 1.5521519 -1.8735422 0.70547813 -2.0311031 0.5681733 0.12984663
DJFA 0.96727 -0.06928919 -0.38386083 1.8706517 -0.16454656 0.21935825 -0.72244716 -1.5132886 -0.4799397 -1.583442 -0.42786327 0.810358 2.828485 0.96315444 0.8716539 0.5467604 -1.5602536 -1.7032351 0.35795403 -1.7101812 -0.7847487 0.5878931 1.3732339 1.7835383 -0.72272485 -0.7122152 -1.929948 0.082129814 0.20651715 -0.26857945 -0.76126355 0.15502433 -0.11383046 -0.34847757 1.002321 0.86233604 -0.06112358 0.95774925 0.6861816 -1.4834569 -0.5016803 0.90604836 -1.3275484 -0.63966566 0.63043237 -0.020041935 0.17646287 0.833269 1.2434568 0.56828517 -0.23546384 1.8028724 -0.21878935 -1.3794465 0.18138826 -1.2714558 0.3410782 0.33895916 -0.7440945 0.3581476 0.9273462 0.057423763 0.8439134 -1.0639813 -0.9922701 -0.3413362 0.5668525 -1.7501903 -1.1277674 -1.058531 -1.1915286 1.268577 -2.6673832 0.8562849 0.6918185 0.07950072 1.465169 -0.007430843 1.7254332 -0.41481027 0.11934751 -1.0600752 -0.59967905 -0.19290897 -1.8592963 1.680252 -1.2241237 -0.46368766 0.2053185 -0.7581576 -0.0475004 0.31618267 2.2827687 0.319761 -0.5684399 -0.5407898 -0.37292358 -2.3430147 0.0037650405 0.24495001
FJID 1.2851553 -1.8886083 -1.2622389 -1.0496902 0.55096805 -2.5208964 1.3895521 0.39007023 -1.5448078 0.8005178 0.49278614 0.88746566 -1.2708449 1.1593063 -0.9873384 1.8699096 -0.7528532 -1.0004494 1.6688873 0.84384 -0.5946236 0.7964178 -0.46805507 0.3545946 1.8384918 0.77505815 0.31055328 0.78644687 1.3144612 -2.2975738 -1.3962139 0.92482674 -0.95944154 -0.22846344 0.38805482 -1.5810603 -0.83692193 3.835375 0.53232497 -3.064609 0.6211888 0.5393023 0.84429824 -1.643661 -1.7143574 -3.1089656 0.36690068 0.08276266 -0.11469302 1.8956116 0.091608845 0.20102754 -1.4188726 1.6180283 -0.05951037 -0.90889275 0.5044411 0.21199127 1.4732919 0.09588381 -0.8805914 -1.4002287 0.1170828 1.8580971 0.36159202 0.98714453 -1.2689154 -1.6703857 -2.2111695 -1.1392304 -2.3339765 1.6963311 -2.0306451 -0.56393707 -0.04440881 -0.564475 -0.0018413931 -0.7378753 -0.902231 2.0496418 2.1915383 1.0681702 0.5733291 -1.4362547 -0.8905253 3.7522686 -0.35287392 0.05552337 -0.9664618 -0.27661455 -1.2121351 -1.5524682 -0.33876872 -0.28702837 1.8796061 0.74305326 -0.21236826 -0.6044056 1.8441767 -0.12293017
NPCQ -0.7670805 0.2542179 -1.3139298 -1.9947935 2.1598816 0.07029235 -1.92034 -0.65018034 -0.29520747 -1.8585278 -2.462412 -0.21734998 0.4617413 -0.14082684 0.020238994 -1.3366554 1.3403676 1.6218219 -0.07200438 -0.1765292 -0.042401697 -0.09279689 -0.43293378 -1.3268353 -0.7799069 -0.33407846 -0.77930665 0.53919667 -0.177097 -0.1648908 0.52668333 -1.1685467 -1.1540542 0.7567168 1.0519135 0.8296249 -0.1306961 -0.38889974 -1.6659042 -0.61748326 -1.8171135 1.8368788 0.05809292 0.5608807 -0.09119526 -0.059482407 1.0357074 -0.076398775 0.6393632 0.3173245 2.0753543 0.38963112 -0.1757235 -0.24505156 0.24269125 0.9168594 0.844595 -0.41834038 -0.8479437 0.023061816 -1.3215398 1.2641191 0.9163406 -0.21690872 0.21311586 -1.5733954 -0.5491427 -1.506356 -0.1557146 0.82402635 0.8761843 -0.4358334 1.6851897 0.024918508 0.14714564 -0.46481228 0.5756119 1.975804 0.2829055 -1.71552 -0.20777752 -2.1903398 -1.2515028 -0.9062539 1.1181217 0.16395943 -0.9671569 -1.8119864 -0.15322773 0.55365425 -0.38250273 -0.17891727 -0.21409352 -2.154215 0.021771077 -1.239353 0.457943 0.6343258 1.0385445 -1.8004591
UMIQ -0.34509107 -0.8849952 0.8432282 -0.82244545 -2.4839637 -2.3057342 1.832787 -0.27515313 -0.70235205 1.5105779 1.3501787 0.35692713 0.9914141 -0.15260915 -1.2586268 -1.7754935 0.8355002 -0.68449193 -0.42463505 -0.82952166 1.6607996 -0.24404585 2.3482668 0.86238414 -1.5231866 -1.5069033 1.280079 1.5732363 0.3490556 -1.3523439 1.2525929 -1.3761526 -0.17474535 2.0075898 0.9448185 0.93106186 -0.13513537 1.6968694 0.08706137 0.66474235 0.7451262 -1.1941344 0.561203 -0.46595773 0.4088768 -0.47109044 0.43802378 -1.8353242 1.4919484 0.8057506 0.8779703 1.1975915 -1.4202201 -1.2479255 -0.42842382 1.2657923 1.0511152 -0.17064106 0.016684107 -0.22261272 2.5603862 0.13574222 1.5758184 -1.3218105 -1.5092762 -2.463726 2.094602 -1.5292578 -0.9549951 -0.44629988 0.41603565 -1.1837085 -0.5145552 1.1312014 1.067078 0.38492328 0.5190554 -1.2367473 0.7618911 1.3682158 0.29619795 -0.33328873 -1.8074107 -0.801736 -0.65605426 1.2336307 -1.0260079 -0.8124122 -0.20878625 1.3307981 1.075681 1.855356 -1.7354745 -1.4496806 0.8949464 -1.3070647 1.8757049 -1.439333 0.35001498 -0.87947965
RVBW 1.4787148 0.88535714 1.9751692 -0.056152556 -2.6258695 -0.3075822 1.2437046 0.058810085 1.1523006 1.8903083 1.4797606 1.4218853 0.89085716 1.0479184 -0.31328955 -0.11911836 1.6067739 3.1902475 0.24707818 -0.10138145 -2.2626016 -1.6366435 1.7480555 -0.9833848 -0.73692393 0.16461445 0.5597646 0.7608947 1.9795772 -2.0463853 -0.71389556 0.54230094 -1.2995267 -0.025842095 -0.7504182 0.017081503 0.14521623 -0.1151579 0.0026084117 0.16039592 -0.5337713 -0.44785732 0.62469554 0.80529875 -1.0736324 0.9189211 -1.4633762 -1.562901 -0.63719946 -0.18837084 1.5368799 1.2033105 0.0017861996 -1.7327625 1.1151687 0.99447596 1.0109035 -0.93994635 0.0474591 -0.39721322 -2.0596952 -0.71201485 1.1437443 -0.24935037 -0.7368844 -1.2176403 -0.5600885 0.31211197 -0.9047176 -1.0978678 -1.0230707 0.29985636 -0.9751762 0.44641712 -1.6233253 0.8345721 -0.88688415 0.81646955 0.7315958 -2.075845 1.3123629 -1.4378759 0.0045308433 -0.23336692 -2.4249024 1.9686372 -0.25087193 -1.5775967 0.44341633 -1.3109766 -0.49847886 0.7868669 -0.8337754 0.45356628 0.9335362 1.4268099 -2.9285333 -0.2923029 0.43630856 1.8802058
QAMU 0.3876579 -0.5980502 -0.013741823 0.5027417 -0.30598816 -0.89868134 -0.18236521 0.68132025 -0.5201278 0.18620014 0.35024008 -0.031345185 -1.1541466 0.9099587 -0.04889231 0.8610922 -0.31900632 0.24919835 1.9511073 -1.3129762 1.0443138 2.3833847 0.11803092 -1.4035636 -0.37479764 -0.15196297 -1.5247253 0.94821143 -1.1924865 -0.17434362 -0.53663594 0.107100874 -2.3379035 0.374868 0.31136557 0.19126272 -0.19492906 1.521852 0.5054158 -1.9465873 -0.59952474 -1.0430351 0.60611755 -0.50656146 -1.9224802 0.60019517 -0.8410728 -0.016168257 -0.45553163 -0.6173017 1.0835929 0.033145953 0.37669435 -0.9467035 -2.1589475 -1.4385345 -0.74153054 0.747499 -0.9812529 -0.58633447 -0.6003951 -0.63382083 0.023423567 1.3045688 0.087777674 -0.68507385 -2.3264093 -0.4581788 -1.1490663 0.42333835 -1.4761926 1.3041761 -0.6722674 -0.056638766 0.10333612 -0.3531663 0.13490084 0.49430403 0.10980782 0.76416284 -0.0073485356 -1.3263072 -2.8202014 -0.20047042 -1.8743953 1.2307571 -2.415964 -0.29274356 -0.34801793 -0.60133964 -0.12993485 -1.5058035 -0.07109203 -2.224345 1.5950257 1.4541701 -1.870018 -0.6305647 0.395038 0.18775353
ISEG 0.58101386 0.9817465 2.7500317 1.246219 -1.2754163 0.79236907 1.0891826 2.4710462 1.2897794 0.68765116 -0.32036448 -1.141728 0.7994689 -1.1152596 1.6673833 1.5349367 1.9000038 -0.594147 1.4310321 -0.56179327 1.8595848 2.0914717 -0.6647965 -1.5927122 0.8251135 -1.0953424 1.1862292 1.5255969 -1.872075 1.2879869 0.5212545 -0.7358071 -0.6569945 -0.14020889 0.81519896 2.2474983 1.1873358 -0.15065825 0.5791056 0.84678197 1.2958369 -0.7156455 -1.215968 0.42130646 -0.10577689 -1.318192 -2.2017124 -0.07245739 0.42702222 0.2382562 -0.31975785 -0.53631127 -0.60896915 -0.45562273 0.47381195 1.7142879 0.7664558 -0.379676 1.7655358 1.2105234 0.65382814 0.43311635 2.4334176 -0.78049 0.8963153 0.6262364 -0.05606049 -0.4224248 -0.009457269 -1.0366458 0.1543733 0.2555415 0.99309385 0.28154984 -0.35459384 -2.6763473 -0.83239967 0.53998536 1.1416683 1.9739759 0.50104123 0.3025934 -0.10201547 -0.53343403 -1.0488306 0.42773464 1.084643 0.075980954 -0.6366841 -2.996949 1.0583413 2.9007404 -0.41606003 2.8672128 -0.9448544 -2.6864784 1.01032 1.7481045 -2.0719857 -1.5950489
DZMQ 0.08011591 2.1979911 -0.023312468 -0.7010739 0.19728442 1.217825 -0.11638247 -0.7844306 0.8293689 1.3730885 1.21749 -1.8079712 3.4182217 -1.3795456 0.050492123 1.3407704 1.0740716 2.004588 1.5528768 -1.3736769 -0.3068224 -1.1523484 -2.1457746 -0.6848052 1.3747454 0.69475114 0.37994367 1.6157717 2.9111726 -0.97509325 0.43166003 -1.0845429 1.2176734 3.0754478 0.68358 0.222579 0.27854875 1.680529 -0.88283277 -0.4989896 -0.13469854 -1.0676788 1.2093734 -0.37267575 -1.171796 2.378823 0.85983497 -1.5773373 -0.18319042 -1.6566225 0.691361 -0.09567947 0.41559356 -2.9764926 -0.30064213 -0.9653519 2.0903666 2.4236348 0.48133194 1.5227243 -1.7883195 -1.7373937 1.6944731 0.47281832 -0.7480796 -0.71023464 2.9439027 0.06425231 1.736122 0.7541666 0.08598713 0.3422449 0.053085454 -0.36071563 -2.8709762 -0.87771314 -0.73597074 -1.7925104 -0.13269112 -0.12206117 2.4801323 0.69904107 -1.6544782 1.0067779 0.21482001 0.18904771 -0.0347243 -0.6091114 -1.0229344 -0.21680243 0.45449966 1.6925476 -1.1390512 1.6176125 -1.1344366 -0.5581351 1.7233377 0.617679 -1.7030183 -0.6533543
DKAP 0.65407395 -0.47358447 0.7950049 -1.8551943 -0.30594635 -1.407231 0.08176529 1.3796374 1.2503331 -0.09118737 -0.78886557 0.4399451 -0.48717967 -0.90195394 1.2788936 -0.27617386 -0.5461316 1.3866297 0.700998 -0.24864751 1.5544416 0.4304451 -0.7111879 -2.5545087 -0.19078445 -1.457567 0.8670846 2.0383003 -1.662168 0.2882019 -0.23004779 -0.9408898 -0.12387242 0.6831351 0.26996818 1.4891596 0.8230536 -0.97167116 -0.60301 0.23192258 -0.25543436 -1.2195224 0.180137 -0.58447784 -0.66084266 0.6908832 -1.3036509 -0.33189198 -0.5868472 -0.7094511 1.4287151 0.22859879 -0.9750284 -1.3267877 -0.5768726 1.9301302 1.0786079 1.2760653 1.9801472 1.1078074 0.83742905 2.2124813 1.5476108 -0.74862957 0.38387996 -0.45867953 0.50782806 1.2930783 -1.6299752 0.7889081 0.27849734 0.51254565 1.7923685 -0.520322 1.1582507 -2.1328747 1.6624202 -0.11264672 0.53714 0.8058454 -0.58950716 -1.2267035 0.26169124 -0.15335613 -0.12225895 0.3019554 -1.1913234 -0.32109424 -0.28633237 -1.1995384 1.0151794 2.2359812 -0.31698078 0.35050577 -1.5930132 -1.10315 0.15243301 0.0951407 -0.8700798 -1.1613687
AUCJ -0.84149355 0.2280656 0.86748093 1.1932482 -0.57881415 -1.1048557 -0.16405587 0.09025153 1.0798091 -1.0730065 0.84575206 -0.7426082 1.0688624 -2.7406864 1.1109637 1.3088682 2.3795934 1.4106315 0.7426315 -1.7542417 1.7099992 0.3394798 -0.9515904 -0.22375786 1.8741586 -1.0895736 1.1070269 1.1661944 -1.4545355 1.7343941 0.97517127 2.1441712 -0.1270102 2.8915312 -0.36585152 2.3704703 0.22203211 -0.62603 2.0565941 2.395605 0.07515729 -0.9588209 1.1150448 -0.11700208 0.945202 -0.65645254 -2.9599457 -0.3553319 0.5582422 1.0013721 0.6022397 0.33511415 -0.17412433 -0.14176142 0.21932389 0.7491553 -0.9984811 1.3326782 2.1572227 0.5376887 0.78585464 1.1184036 -0.1923402 -0.5171303 0.84651893 -0.1829481 -1.4377506 -0.79728276 -1.3424404 1.2685273 -0.4152944 0.43662673 -0.3186122 -1.6052222 -0.9527251 -1.5041102 -0.7375936 1.8952138 0.22130165 1.2957555 1.4341031 2.5562394 0.13317934 1.9587485 0.37474227 -0.5661141 1.6431596 1.0949516 -0.017380975 -0.5142098 0.06953078 0.9815184 -0.9824242 1.575387 -1.7001044 -1.2824156 -0.15880942 1.065116 -3.0910976 -2.2854981
XTHN 0.053125504 -1.7911938 -1.4907383 -3.0519629 -1.4732105 2.1882906 -0.9262297 -0.44432458 2.6412363 1.0671693 0.9465767 1.1672226 0.020618673 -2.6101627 -0.7724411 0.21703508 0.6151391 0.09654397 1.4289932 -0.40864006 1.8043859 -0.36125323 0.9421932 1.1366872 0.41025424 -0.9446786 0.8656448 -1.9076635 -0.09105786 -0.596262 0.94362986 -0.18019402 -2.907033 -0.041039553 1.5302173 1.3196281 -1.6634358 -0.34218013 -1.8017937 0.05567143 -0.31855997 -2.392531 -0.24891946 -0.40629646 0.8209603 1.2684387 -0.786235 -0.5518571 1.0230063 0.45296142 -0.9429993 -0.89619654 -2.172051 -1.270041 -1.4310472 0.044410225 -1.6209458 -0.61423177 0.06183165 -1.0391878 0.4230502 -0.0035579046 1.0514072 -2.0015593 1.4072077 0.36102027 1.1898209 -0.58189565 -0.72016925 1.9927783 -0.12099464 0.32861793 1.4845331 -1.7358713 0.10002557 0.6084447 0.5142026 1.1415472 -1.316657 1.7088101 0.7531079 1.8963165 -1.5007825 -0.28141364 -0.62413996 -0.19927147 -0.16647846 0.66250354 2.4133494 0.5990257 -0.33608606 0.2835351 -0.41657287 -2.3922489 0.62004185 -0.4532848 -0.21565112 0.45716584 -0.65984476 1.3267887
NCEO -0.53371805 1.2926399 -1.1863618 -0.29630932 -1.8379995 -0.18555045 0.12751739 -0.9625727 2.3670006 -0.29380247 0.75089633 0.7607284 0.7322981 -0.75881684 0.46452463 1.8975947 0.7528355 2.3956985 -1.5513258 -0.19693747 0.88350624 -2.6456037 -0.64428806 -0.06873829 0.25484252 -0.46092504 -0.040211927 2.1689193 2.2460284 -0.28659382 -0.47585294 1.4590646 0.53243697 3.3250513 -0.6039598 2.4304729 -0.21094543 0.99136555 0.004541065 1.496261 -1.4198599 -1.2171218 1.837965 0.67607147 1.2969544 0.85029763 -1.0727063 -1.5026605 0.5163707 1.6495515 1.3755184 0.51411915 0.65732044 -1.3069067 1.1317941 0.3212333 0.16897683 1.2860171 0.12188519 -0.39828727 3.0070224 1.432367 0.43917948 -0.300748 -0.30116826 -0.037979223 -1.3263137 0.1467525 -0.0635651 0.60834485 -1.4535733 0.36305237 0.49989495 -0.06831169 -0.80790406 0.75998765 -1.4648982 1.6880014 -0.5914684 0.43668297 -0.06735869 0.16860995 -1.9591398 0.45106217 1.7874817 1.5493767 0.78641 0.5400391 0.14777267 -0.05142746 1.7378857 -0.8543979 -2.0363445 0.20394805 0.632563 0.54637134 -0.73897815 0.55104095 -1.2572572 1.5914823
ZCTK 1.5213066 0.86201936 1.6810594 -0.11644403 -2.766208 -0.3279139 1.2321281 -0.18610902 1.358288 1.9598463 1.7792679 1.2947718 0.9168718 0.9029905 -0.42183262 -0.0145403985 1.7078159 2.935797 0.089254834 -0.036781125 -2.2104723 -1.350742 1.5691309 -0.6107903 -0.31852874 0.00064763654 0.6997846 0.74708146 1.902528 -2.1864877 -0.64340305 0.5186144 -1.5072471 -0.36874223 -0.5993924 0.22327457 0.13249238 -0.19215591 -0.24657749 0.07188491 -0.43005633 -0.51718646 0.7156279 1.0400695 -1.0377343 1.2532398 -1.2317735 -1.3292377 -0.56831634 -0.15470484 1.475345 1.2534709 -0.20457627 -1.9834495 1.2144712 0.70660865 1.1898074 -1.128994 0.29210612 -0.42277244 -2.0704963 -0.4806152 1.3075455 -0.21239105 -0.79149455 -1.3198256 -0.6980522 0.17296138 -0.7913507 -0.97601485 -1.0376558 0.5995919 -0.89487576 0.6340018 -1.5338295 0.7729099 -0.63861203 0.8797747 0.6357877 -2.116605 1.2997638 -1.5923587 0.08512091 -0.38456553 -2.5452225 1.9397548 -0.37862813 -1.5429611 0.44102132 -1.4196297 -0.6100855 0.55210125 -1.0157675 0.18295391 0.8665502 1.3389323 -3.0921795 -0.5263974 0.37091762 2.142727
RXOK 1.300576 1.312853 0.83911264 -1.4423716 -0.94141424 1.174129 1.3825785 -0.9273973 -0.5658729 0.6696271 -1.9649205 1.1407083 0.7825784 -2.044718 -0.86762774 -2.3967566 -0.31842417 0.18041416 0.5054643 2.8662252 0.8061124 -0.3376735 -0.108671136 1.2774285 0.27439642 -0.592559 -0.36728585 0.6477397 0.55961955 2.9522583 -0.26709074 -1.7184615 -1.1351733 -0.83762056 -0.578114 0.03467156 -1.2945622 1.5439445 0.5523217 -0.99535644 0.46206474 1.709635 -1.4463673 -0.19067779 -0.57879716 -0.73134404 -0.07915723 1.1096177 -0.5891366 -1.4381847 0.3621447 1.0029372 -0.63503695 0.13968676 1.3881667 -1.9719626 0.2711688 -1.4924694 1.9458005 -0.95557535 -0.7431234 -0.46942958 -0.64318115 0.716223 -0.65854716 1.4877393 -1.1958866 1.4819497 1.0442934 0.7077413 -0.6676536 2.1167166 1.0273225 0.820098 0.6731093 -1.7733498 0.056509323 0.25655016 1.6034359 -0.28793535 -0.8360167 -1.1694688 0.48349962 -0.8000656 -0.59974796 -1.9577456 2.6449344 -0.50535065 -1.0830193 0.9409177 -0.28261253 0.48923263 0.22682518 1.9526844 0.46116313 -2.1163392 -2.4390805 -0.71309423 -0.8131327 -1.6001576
