ESIN -1.8377266 2.1600983 1.2337279 -1.4131472 -3.6554449 1.6570013 0.560258 0.25342152 -0.29597083 -0.09209106 0.8006497 0.014773266 -1.2365162 -0.684268 -0.8468408 0.8191182 1.101065 0.58906823 -1.2326716 -0.873893 -0.12226912 2.816701 0.83245915 0.31188455 -0.8512091 1.7465328 1.1365852 -0.19460206 -0.67688113 -1.1944464 -1.6721567 0.5321474 -0.7318105 0.16166025 1.4709312 -1.5916778 0.23482592 -0.15925242 0.124754146 0.92749673 1.6112509 1.3894943 -0.45130944 1.1741917 -1.8170521 0.84747666 -1.1499485 -1.6121522 -1.3031482 1.2021236 -0.31134832 -1.096763 0.6751857 0.33701733 -0.3434498 -0.9982504 0.49689278 0.09550048 -1.9035892 0.64513636 0.7655171 1.1945194 -2.5069113 -0.2911693 0.60395074 -1.9609987 0.05865432 -1.4984907 0.417349 0.6668528 0.90990806 1.3291422 0.2358022 -1.313194 0.74500173 -1.6249857 -0.1260933 -0.85216534 -0.6577861 -2.4099882 -1.852246 -2.2034175 0.8597697 0.8968363 1.5463946 -1.9731425 0.54601187 -0.2878935 1.4070596 0.29377785 1.2205442 1.6682631 1.2781768 -0.4379073 -0.20028554 1.7022374 3.3435225 1.2389671 3.8509073 -1.2923306
SFUD -1.2006513 -1.1618305 1.5702938 0.23385791 -0.10006224 0.014435823 -0.70619714 0.31870022 -0.12711403 0.41639468 2.154491 -0.837345 0.34873313 1.3192675 -0.81348187 0.46088624 2.711118 1.834695 -0.20293733 -0.48895153 -0.64151794 0.18251048 -2.0948462 -1.0894165 1.6755452 2.443826 0.7482777 -1.2683115 -0.82760054 1.5840867 2.0192006 -0.0046430947 1.3510873 -2.9639447 -0.3490583 -0.04355446 0.6426509 -0.7222584 -0.17820168 1.1770812 -0.97401285 0.23186354 -0.42289507 0.8115766 1.9013207 0.45543995 1.9622887 1.542495 1.7225945 0.03977025 -1.4031568 -1.5454692 -0.34769168 -0.3876861 0.4628431 3.1748166 1.1101989 -1.6472365 -0.79060143 -0.47735164 -1.7679195 -0.47142392 -2.7505052 2.1269875 -0.3531827 -1.2735983 -0.33886138 -1.6986892 0.68539953 0.03808958 0.8299765 -0.85178864 -0.23987931 -0.5629274 1.8940428 -0.9296433 2.7251766 -0.7901185 0.15092024 -3.0153174 -0.7855194 -1.6234763 -1.3185596 -1.2187737 1.0274854 -1.3181859 1.0759574 -0.3383789 2.829007 -0.93973684 0.023156337 -0.12604162 -0.7167395 -0.21300073 2.008577 -1.9465907 0.6491612 -0.5039498 2.0701542 -1.1828349
IWMQ -0.0028840497 -0.34295833 0.15994814 -1.9755051 -0.52650964 -0.58564544 0.47813722 1.7351881 -0.8032027 -1.3500859 0.63345903 1.2943449 -0.42099598 -0.38785374 -2.4999404 0.047941275 2.2920299 -0.14683719 -1.2527347 -1.0984234 -1.3850507 3.1301277 -1.1892637 0.30499676 -2.0548015 1.7722604 2.2405279 0.35973647 0.81656563 -0.079234675 1.5828059 2.1105847 -0.5303967 0.8820094 -2.6290538 -0.035074573 -0.079683274 -1.0267243 0.25736532 1.7308658 0.8305965 2.077424 0.15706639 -0.5755567 -1.1260468 -1.6889542 0.391366 -0.4106156 1.4366636 0.715239 -1.3276867 0.5030979 0.4389853 1.0423506 -0.0005420796 2.0937483 -0.2343006 0.88321364 -0.20999551 -0.08883769 0.5246076 -1.7568578 0.5314016 0.9705287 0.7648982 0.8434298 1.2273792 -2.212196 1.3003298 -1.2239687 -0.35673335 -1.5806359 -1.7142256 0.29596004 1.3166773 -2.2085996 -0.19984005 -0.37793794 1.1845272 -0.25232148 -1.0375178 0.20619033 1.9005862 0.8337643 1.8459232 1.3279303 -0.5432723 -1.3114983 -0.13151477 -0.19755505 -0.3641037 0.50891125 0.95975274 0.7192934 -0.12112839 2.1813903 2.1363785 1.0957745 0.07044923 1.0996447
QKZR -1.6692251 -1.1525377 -0.50322664 1.1245222 0.44002685 -1.3391472 -0.38554066 1.6771318 -2.6359017 -1.2500069 0.11769378 0.33293015 -0.7300956 0.7647132 0.9973003 0.5209532 1.7647386 -1.4404725 -0.5060054 0.5905475 0.120485395 -2.3553112 -0.26191768 -1.0247813 -0.21246211 0.98157585 -0.01744343 -1.1070832 0.13060428 0.2372711 0.25134638 -0.54599065 -0.38171 -1.0605366 -0.32839105 0.81654614 -1.6555538 2.059574 -0.34561732 -0.4617452 1.782765 0.55608904 1.6221881 -1.7138245 -1.8378841 0.48964694 1.4244236 0.42855304 1.2832671 0.9847603 -2.3209314 0.13602237 2.9088929 -0.42009947 1.9776925 2.5661256 -0.56324905 0.725098 -0.26133648 -0.09608077 -1.3841807 1.4424622 -2.21116 0.24295549 -2.305971 0.25501388 -2.0607321 -0.4344983 1.0119361 0.08371404 0.78072095 0.80887324 -1.9523418 2.3111389 2.626843 -4.263293 0.09453733 -2.0679836 -1.8781732 -0.2248784 -0.46143672 1.2159163 0.1463697 0.1308193 -0.69254243 0.6458658 -0.9494571 0.67808753 2.9439507 -2.8856695 -1.2423078 1.7221556 -0.012916357 0.5520762 -0.55191785 1.8451208 -0.5627332 1.0460792 -0.547102 0.26514706
MULO 2.869704 0.1792684 0.03230684 -0.42655185 1.7766868 1.6761421 1.0343322 1.2372755 0.19964074 1.2947508 -1.0496894 -0.90995336 1.1278871 0.6185134 -1.4400058 0.46000522 0.0022047975 -1.9087319 -1.0607656 -0.96459204 2.2430308 1.041138 -1.4867922 -0.82273024 -0.008090234 -0.25597596 0.904781 -2.2168145 -0.5974513 0.97752166 -1.6426841 -1.2208622 -1.458214 0.82424295 -0.47775286 -0.80339146 0.0068965238 2.2507644 -0.035146426 -1.8592743 -1.076067 2.8588533 1.5499964 0.17226554 0.03380908 -1.1427791 0.39628753 1.8339646 -0.9035856 -1.1287813 -2.4218934 0.33228153 1.5242559 0.91418326 -0.038168635 0.09878686 0.27243125 -0.573785 -0.74623185 0.8569723 -0.8777735 0.8365635 2.6478932 0.37225387 1.81732 0.9996712 -0.407587 0.18153025 1.8460673 0.15791515 -2.3178613 -1.9755547 1.6376587 1.3759013 1.0668324 -3.001176 -1.1311148 0.65874594 2.000302 -0.39038047 -0.8151955 1.8368088 -0.33509478 -1.9542841 -0.14779039 3.0294988 -0.2935636 1.7254121 0.23810156 -1.7777044 -0.3498078 0.36541533 -0.075780615 1.9826385 1.093054 1.1528435 0.8737859 2.2535486 0.69715214 -0.9274684
YGTV -1.462394 -0.857582 -0.6698579 1.1750678 0.36294362 -0.79211986 -0.637123 1.5689973 -2.6576102 -1.5782896 0.25839534 0.39945984 -0.7826189 0.7886504 1.0798599 0.48162606 1.7072531 -1.1361449 -0.15408848 0.89717585 0.06275778 -2.1291683 -0.26078525 -0.7437316 -0.61795473 0.5812614 0.086238295 -1.079149 0.19463348 0.50181955 -0.032032438 -0.2198385 -0.08836697 -0.8869093 -0.48246923 0.5761546 -1.5734736 1.8926156 -0.43398297 -0.37136084 1.803956 0.43306714 1.6543422 -1.8980254 -1.8092695 0.57810074 1.8760523 0.3683964 1.3776091 1.1150604 -2.3563993 0.3883453 2.7383964 -0.46936196 2.1689272 2.5525634 -0.6064809 0.70737857 -0.048659425 -0.077126846 -1.4325752 1.3853402 -2.284517 0.22490318 -2.0173292 0.5158491 -2.116282 -0.41853192 1.0537202 0.23692189 0.57583404 0.92415255 -1.8313648 2.2688167 2.3752437 -4.1096826 -0.017504925 -1.6232202 -1.9921495 -0.05082788 -0.10215953 1.3177252 0.10538459 0.18101978 -0.72200227 0.853892 -0.7291866 0.5879529 2.8864732 -2.691272 -0.9743414 1.4703374 -0.26810846 0.32711703 -0.8489149 2.1223648 -0.24316344 1.2395501 -0.702334 0.25784558
EFLR 1.3064004 -1.5553865 0.0695427 -1.3180686 0.78526914 -1.5228957 -0.2874613 0.16110961 1.7101152 0.71473604 1.2618383 0.09209788 1.5972699 0.5318693 -0.9003856 -0.5217659 -0.6588185 0.43209735 0.5662167 1.0455834 0.8382115 0.95720613 -0.42461425 -1.5777087 -1.492349 0.8040748 -0.96090966 -1.6910778 -0.9529158 1.3946384 -0.30239677 1.2103567 0.714722 1.1900549 -2.5159824 0.38183814 -3.3618047 1.5582794 0.73936987 -1.1299769 -0.70931345 1.4559158 0.5711517 -2.0062954 -1.1536502 -1.7514479 2.7533977 0.13986747 -1.769348 1.7609583 -1.1866511 0.5166498 1.4003927 1.0496768 -2.180925 1.5734296 -1.3305857 -0.07845684 -0.6876805 1.7059948 -1.0307969 -1.0924712 0.21642262 -0.25617293 1.4830712 1.3150548 -1.7773485 0.005776079 -0.81628484 0.14918646 -1.3472766 0.23762462 1.7991811 0.45388335 -0.02389755 -0.6870574 0.98711234 -0.83620876 -1.8071526 -0.06608894 -1.5248783 1.2210956 1.3880908 -0.78564686 3.001443 1.5150471 -2.6874037 0.7341362 -1.0029755 -0.7622968 -1.6143737 1.9889313 1.3325797 0.79642075 2.3534725 1.3783792 1.9151282 0.16394043 0.98348325 -1.4953846
ELJV -0.08850227 -0.906849 0.19211137 -0.6242216 1.3298736 0.24708155 0.2751759 -0.22010404 -1.4474102 -1.2122307 -1.4534262 1.2636617 0.781763 1.0811211 -0.74793756 -0.6315285 0.8750761 -1.6687303 -0.67005366 -0.58467185 -0.9246928 -2.736111 0.008954327 -0.34264252 1.3420365 -1.4284676 -0.34848836 -2.401994 0.39600295 1.3287653 -2.178702 -1.408662 0.3411254 1.1474009 0.3556277 0.28619584 0.33737513 1.8219403 -1.0972263 0.09931223 1.2294679 0.11808485 0.09768578 -0.10865071 -1.125515 -2.6499448 1.7813734 2.3508096 -1.4933265 0.2676085 2.3271873 -0.5459364 2.007615 -0.38812464 -0.43274492 -1.2438426 -2.44701 -1.1611116 -0.16644338 0.16806418 -0.89390475 1.2434838 0.27419257 0.7150997 0.35425445 -1.9344797 0.33648294 0.5645073 0.30064404 0.6699552 1.4767643 -0.65994924 0.21370253 0.8833709 0.85312223 -1.8478321 0.39638934 -1.2618912 0.18859485 -0.3122296 -0.62770796 2.0654755 1.4147741 1.3702645 1.6952392 1.3238368 -1.3958596 1.8855731 0.3414602 0.0030573048 1.5553554 -0.80222374 0.69618976 -0.21755378 -1.0558344 0.5016857 -0.10716159 1.7804583 -1.0534335 0.30633277
PWVT 1.335496 -1.8345866 0.15367924 -1.3747201 0.8748546 -1.7971196 -0.1659828 -0.0085336445 1.7966981 0.80377465 1.0128472 0.21169059 1.6797276 0.60097593 -0.95012254 -0.48479205 -0.40482315 0.62725484 0.7552369 0.8540747 0.75096786 0.8113619 -0.77510256 -1.1467395 -1.3057742 0.89684325 -1.0382475 -1.7383921 -1.2630978 1.2867393 -0.4227077 1.2371248 0.7542851 1.2979587 -1.8612418 0.30842966 -3.4701347 1.6466852 0.7311203 -1.0570847 -0.91030383 1.2149719 0.4148741 -1.9560003 -0.94071585 -2.0486004 2.589875 0.39424026 -2.0000293 1.8733531 -1.0851908 0.66526365 1.470657 1.0185304 -2.243717 1.7457939 -1.4681201 0.0053948695 -0.703692 1.1823056 -1.2799461 -1.3609003 -0.03973172 -0.2630718 1.4064589 1.1299062 -2.1603189 0.18141814 -0.716812 0.32782537 -1.2084274 0.5279634 1.9513656 0.31117156 -0.06825638 -0.4374134 1.2137554 -0.8311825 -1.819925 0.10594546 -1.438823 1.0598121 1.6210043 -0.8839444 3.0394423 1.3786589 -2.8422863 0.6024528 -1.1063664 -0.6195458 -1.571619 2.0595443 1.430266 1.0091759 2.2478468 1.3955834 1.8852471 0.20496409 0.96908563 -1.7376338
PRWM -1.3928394 -2.0693994 0.13670519 -0.55548894 1.8226495 -0.4821856 -0.23328976 0.529336 -1.1014253 0.294556 -0.679183 0.58893466 -0.74757093 -0.607391 0.9866231 0.50363433 0.5092956 -1.1897062 1.1999549 -0.3690273 -0.086242236 0.16879311 0.15290952 -1.4052908 -1.338544 -0.3953906 -2.0232089 -1.2577356 -1.9306357 2.023981 -0.874111 0.26069376 -1.4725894 1.4668667 0.76650614 1.2355245 -0.5211882 1.6688406 0.8578312 -0.29876518 0.07130372 -0.6390527 0.8977247 -1.4193608 -1.6921529 -1.1051168 0.40095943 0.8856122 -0.3620978 0.52704287 -0.60331625 -0.8973577 0.897831 -2.1568432 -1.9073306 -1.5361066 -2.307729 1.1622308 -1.5220743 0.016756263 -1.3164518 0.029673997 -1.0859529 1.6081792 -0.08779371 -0.7722574 -1.2265306 -1.2048181 -0.23055297 0.9629421 0.3000853 1.4912667 -0.49006253 -0.42736456 -0.028837623 -2.0198796 -0.28196067 -0.888655 -0.4103043 0.48311028 -0.69689786 -0.4943736 -1.1200536 -0.45552886 -0.54166627 0.13474418 -1.87578 0.68675905 0.2398709 -0.5549704 1.1449722 -1.7418686 -0.35353714 -0.98663527 -0.6563878 0.375197 -0.7996595 -0.038557474 0.5931586 3.6036947
SGPU 0.8766484 -0.4540548 1.9239703 1.8930291 0.53642434 0.6343016 -1.1549149 -2.18922 1.6026301 0.7797982 -0.13630311 1.723685 -0.1795929 -0.54330486 -0.39974305 0.1257277 0.27066037 0.93995523 0.35620537 0.3828377 -0.6749003 1.5027248 -0.8011494 1.3250409 -1.0983002 -0.3825976 -0.91056806 0.3181345 -0.0060479287 0.0034142844 -0.37386099 0.77134913 -0.8026984 -0.10198065 0.62513554 1.5837442 0.54661244 -0.5159225 -0.33866233 -0.49476358 -1.127449 0.80044156 0.9945097 -0.2354221 -0.7518476 1.0723404 -0.46449545 -0.17154804 -1.7197576 0.72526956 1.0908091 1.1591896 0.04559952 -0.4182082 -1.516223 -1.8351606 0.18600425 0.072306074 0.085313514 0.42791423 0.48437923 0.6063118 -0.061098684 1.5615475 1.2262033 -0.27235138 0.30657706 0.27606532 0.8602826 2.5776978 -0.2277404 1.3662684 0.49890864 -0.11214812 -0.4449911 0.12616661 1.3150369 0.25973114 -0.881575 0.76111 -0.6331676 -1.2280674 -0.53261787 0.07992136 -0.054524526 0.47187394 -0.12919605 2.0112379 1.6080589 -0.13624799 -0.6229196 1.2663156 -2.071968 0.48899603 -0.56159866 1.5107937 -0.5260669 0.95827645 -1.1243544 -0.6470244
KMIY -1.2556448 -0.71761245 2.5178347 -0.54076463 -2.5863519 -0.99431384 0.08448522 1.0294352 -1.2557588 -1.313373 0.89647746 -0.15635967 1.6755422 2.9000964 -0.58582133 0.7370955 1.8892853 0.05457173 -1.1357194 -1.5854303 -0.44371253 -0.921689 -1.0146124 -1.1224059 0.96777946 2.1417143 -0.6521464 0.9038463 1.129474 -1.5018289 1.8367062 0.77448064 -0.13115032 -0.93763477 -0.46250492 -0.9044998 -0.7019458 -1.2659703 1.2390361 -0.5414536 0.23750137 -0.9087359 -0.41506845 -1.3632879 0.13142776 -0.3601931 -0.39492887 1.060774 0.88833016 -1.444288 1.5602977 0.7951628 0.82370764 -1.2311231 -0.60345626 -1.2464135 -2.24184 1.7535125 -0.80651563 0.4887245 -0.043432992 1.1327941 0.25918326 -0.07847806 -0.30325872 1.980404 1.7421807 0.4392453 -1.6262861 -1.9311585 1.548621 0.061884414 0.32358807 -1.1965473 -1.6047348 -0.05164658 -2.2824087 -1.1125357 1.5879422 -0.09445426 -1.3253914 0.8935221 0.23143964 -0.28921756 1.714297 -1.4496176 1.7630882 -0.660537 1.9972262 1.6994661 -0.3542525 2.4750288 1.722993 0.0046118186 -1.901435 -0.0060803313 1.0698892 1.6494586 -0.66186327 -0.3549877
QHUT -3.0966964 0.8240216 -0.27305815 -2.1421854 -1.1592847 -0.45720032 -0.113352545 -0.49617293 -1.1693572 -1.2077146 0.9202025 -1.262841 2.2990172 -0.5595228 -0.20777352 -0.33609658 1.2488197 -0.3711866 -2.1154401 -0.4907389 -0.62155026 1.5335474 1.039639 -0.65933603 -1.3595977 -0.0990339 -1.4024386 -0.73860425 1.6523459 -1.2271073 1.6600559 -1.1765517 -0.55133647 0.5320547 -0.5592495 -0.33814073 -0.8403515 -0.89379394 -0.4655789 -1.0703328 -0.50914013 1.8003159 1.3949591 0.69862133 0.24762236 -0.6808572 -0.29869553 -0.7147741 0.10265984 2.3446147 1.5288298 0.55823237 -0.4046653 1.7313777 2.9972813 -1.5598314 0.12445755 -1.5160568 -2.375549 -1.2611011 1.1758316 0.48815545 0.3413701 -0.03239631 -0.1280096 0.0022654424 0.5671001 0.78385603 -0.62321687 0.19875923 1.4314394 0.47634143 -1.2976489 -0.43278632 0.07349396 -0.6308198 0.08614195 -0.65488416 1.0503522 1.1018379 0.34722677 -0.3162443 0.5361516 -1.0074105 0.7267674 -0.3930674 -0.010373069 -1.8343662 -1.6873851 1.7457192 0.93278974 1.5753675 -1.086849 -0.5870837 -1.1386094 -1.4934809 -2.0337777 -0.81979007 -1.2086453 -0.3675525
HTNG -0.9483721 -1.1473242 1.0589502 -0.91030645 0.52485913 -1.48865 -0.40624422 -1.6417334 -1.2437798 1.4735047 1.1184962 0.11766384 0.2084709 0.6312405 0.9086373 -2.3261223 -0.2498769 0.6141262 -0.4141333 0.13610001 1.021515 0.31738326 0.28072113 -2.695028 -3.0409603 -0.92162883 -0.77700937 -0.8357966 0.3927394 0.2652239 -0.2853335 0.3279188 -1.0321676 -1.2746054 -1.4747957 -0.16736342 -0.70990473 -1.2364026 2.0919821 -0.5291634 -0.6245802 -0.26529002 0.6722777 0.1858485 -1.8585621 -0.38011175 0.107657485 -2.0030499 -0.72333515 0.79967296 1.1721154 -0.31293625 -2.7605624 -0.89937365 -0.4275126 -0.4316155 0.20837064 -2.131972 -2.2385123 -1.2728038 -1.3682611 -1.8709422 -0.48609394 -1.5567824 0.84080374 -0.8242967 -0.33305022 0.13989356 -0.60998833 -1.3986948 1.8740375 -0.48958477 -0.2424287 -1.4413512 0.4255341 1.0454127 -0.8922739 0.40003237 1.990303 -0.4518421 1.0155272 -0.111525014 2.3077722 1.4106107 1.2207072 0.3995022 2.7322783 0.17186065 0.7262118 -0.4996882 -0.58854127 0.028064957 -0.37764773 1.1177739 -2.4601302 -0.64725554 -0.21883208 -1.7493119 1.4673392 2.5281153
SZVX -2.9709113 0.25928324 0.4957379 1.2598336 -0.169038 1.5726593 2.0375202 -0.08091742 -0.9517539 0.5016762 -2.1385436 -3.5636935 2.5527413 -0.8571022 2.8915918 -1.0121462 2.4629533 -0.09121115 -0.23094763 -0.45899168 -0.94063246 1.8852376 0.5107719 -0.7282049 -0.3615197 -0.70859635 -0.5861703 0.14303051 1.3502434 -3.5625005 0.32958212 0.9602029 0.14833169 -0.41032922 2.9256167 -1.6421558 -0.8859205 -1.7792134 2.178735 0.4479248 0.07045143 -2.2718701 -1.4592695 -0.75853956 1.6286849 -1.5114975 0.0974526 -0.89291865 0.44571376 1.5776818 1.7275623 -0.79100543 0.9516782 0.31757927 -0.41280347 1.5632125 0.9825562 -0.0134452125 -0.8944856 -1.4546552 -0.4322415 0.094439894 -1.2452526 0.2638487 0.26254845 -0.22319557 -0.48714235 0.6978849 0.49689886 -1.0716087 0.7768182 0.21751776 2.383022 2.2367666 -1.7905656 0.06962883 0.89723533 2.165302 1.3265266 -0.13337734 1.5254868 -0.955592 0.1347751 -0.36954185 -0.27222532 -0.40589267 0.0040786634 -0.367788 -1.2748412 0.32626414 1.3123956 0.69085604 1.3257414 0.2329277 0.41366282 -1.8107246 -0.17566718 0.9831213 -0.076091245 -0.5329099
XDHN 2.601296 -0.79311824 -0.7822695 0.66511774 -2.6143577 0.20021926 1.1675546 1.4519325 -0.85172135 2.0831091 -1.6500173 0.8986036 1.8584778 0.45397767 0.4356563 -1.4920702 -0.1512158 -0.37211147 0.583076 3.10428 -1.5841566 1.5823735 1.5714909 -0.25550693 1.3102705 -1.3546185 -1.9817779 0.77890605 0.16664594 0.10375763 2.0801234 -1.0690567 0.46172476 1.1055865 -0.5229423 0.48819083 -1.2308176 -1.0464151 1.0932305 1.8211505 -1.0141774 -3.0239308 0.9133095 -1.3198779 -0.050127406 0.41352546 1.6153941 1.9800798 1.3682929 0.6266945 -0.7668636 0.29602218 -0.35931805 -1.0216676 1.3918641 -0.0022940862 1.9672397 -0.31376934 -0.49308324 -0.508835 -0.005592418 0.64852667 -3.4164853 -0.20369153 3.0930982 -1.165063 0.6648495 -0.024356445 1.1973453 -0.0637747 -2.2079034 -1.0992379 -0.2362095 0.21041602 -1.5928999 1.3831019 -0.04022842 0.29285875 0.91642 -0.44037592 -0.6845539 -1.2722595 0.36112976 -0.5005921 -2.1328151 -0.5305121 1.9772762 -0.31485936 0.34800783 -0.21805131 1.1713648 0.7379375 -0.693506 -1.2262421 -1.3393734 0.03592315 -0.009241509 -0.703436 1.1110575 1.5894651
SOWM -0.98775053 -1.2435778 1.0451857 -0.54028004 0.52520573 -1.3928031 -0.41489846 -1.4418803 -1.2382566 1.6374778 1.1228509 0.32245165 0.34154797 0.78186697 0.891906 -2.2231944 -0.29624242 0.23792015 -0.2832243 0.23097003 1.2336206 0.36953974 0.45882866 -2.564601 -2.9858952 -0.8016438 -0.761502 -1.0515983 0.3095016 0.08728137 -0.093836755 0.480761 -1.0937166 -1.199398 -1.150484 -0.24419963 -0.93189883 -1.4060327 1.9762428 -0.37954026 -0.765394 -0.12584388 0.39807302 0.15123287 -1.4572002 -0.40744743 0.051420826 -1.6768324 -0.5189059 0.7413992 1.0971136 -0.17973945 -2.7181964 -0.9685509 -0.3762444 0.014693617 0.16092569 -2.0749862 -2.4395561 -1.3523245 -1.0729425 -1.5481482 -0.50979716 -1.871758 0.84496206 -0.63056815 -0.2838142 0.039747972 -0.4902205 -1.374379 1.7947989 -0.41293713 -0.26038653 -1.3735161 0.3513539 1.0746076 -0.80862063 0.30336478 2.3490644 -0.44603512 0.5646748 -0.036031708 2.5835073 1.0235888 1.112795 0.58462566 2.583306 0.022846607 0.674995 -0.756526 -0.54995686 0.22529836 -0.32584786 1.0877521 -2.6642175 -0.60261 -0.20914228 -1.817034 1.452055 2.8260932
SGFU -0.08315137 -1.5672374 0.3106313 1.0202428 -2.010786 1.0066875 0.45005354 -1.279511 -0.6083771 0.2296771 -0.25987747 -0.78922904 -0.06437237 0.510241 1.1451343 0.10281812 -0.5657485 -2.2189336 0.5225159 1.4170866 -1.0829731 0.8367113 0.9774793 -0.70739496 -0.19114822 0.54873574 -1.907654 -0.15890613 -2.6748238 0.08192114 -0.74160606 1.9107982 0.053540055 -0.7717708 -2.3370984 0.662532 0.22175315 -0.7668242 0.035993543 -1.2983205 -0.61749727 -2.1833138 -1.1673818 1.44618 0.34118846 -1.3511323 1.8850346 -2.0925703 0.7061181 0.7424822 0.968487 -0.84975696 -0.43344507 0.017444769 -2.3457563 -1.5783511 -3.0521145 0.8266633 -0.6458351 1.512944 -1.9296412 -0.35285306 1.0343945 0.10230733 1.005328 1.4899904 0.3846131 0.7738099 -0.18566729 1.27696 -0.13422912 1.1356528 0.61451906 -0.2398981 -0.011016942 1.923511 0.59533393 0.08851165 -1.440345 0.23882669 0.66073376 1.129786 -0.010688675 -0.5513068 1.3145771 -0.08206634 -0.8632621 1.8152092 1.0072044 0.6028823 1.2327416 -0.90485615 -0.5477591 -0.5319137 1.2861505 0.101847135 -1.6626666 -0.033100534 1.2037381 1.0621293
HTRM -0.5702985 -0.09107359 0.09793329 -0.5173699 1.7524942 0.80745876 0.54078156 -2.6382873 -0.8814115 1.3767593 -1.7835923 -0.5051147 -0.7321702 -1.2498137 0.13964471 -0.89047116 -0.9850069 -2.3534098 -0.5465536 0.22613369 -0.5129764 0.42247453 -1.082064 0.555316 1.3960292 0.3687116 -1.1198443 -0.39269078 1.3497945 1.8301907 -3.1138453 -0.15400358 1.2904896 0.8710292 0.0863753 0.24654606 -0.46723202 0.5265297 0.56977624 -0.34660175 0.43181744 0.48009327 -1.0745033 0.23551656 -0.64797527 0.8075521 1.5996246 -0.30425426 0.6102658 -1.5929455 1.2776256 0.46410936 -0.79347587 -1.4017103 -0.67381877 1.8404071 -0.14837767 -0.93244076 -0.29286942 -0.13686942 0.31303194 -0.3097238 -0.92950654 -1.5902665 0.424084 0.3227997 -1.0592753 -1.0230727 0.44438246 -0.20090285 0.1323795 0.15406246 0.049633674 -2.2886183 -0.3702385 0.77593565 -2.3963542 0.14735666 -1.4598087 0.7678322 -2.5013514 -0.13315116 1.1594406 -1.4315966 -1.0360214 -0.9451622 -2.2001617 0.18715635 -0.6126751 2.3101337 -0.13316116 -0.48108718 2.1551101 0.41175902 -0.7970946 -1.5477233 -1.3862132 -2.0861745 -0.22795445 1.5486373
GXIH 0.3295779 0.7590596 -0.8382543 -0.29254726 2.5236464 0.89821714 1.4160892 -0.34812775 -0.36814553 0.71019083 -1.8807534 -1.5206579 -2.203155 -1.0291673 0.88861674 -1.6453776 0.06155013 0.117875315 -1.9480164 1.0634161 -0.8397275 -1.6938527 1.5525819 -0.50621104 1.1370859 -1.5610076 -1.1100973 0.58700925 0.7399756 1.7523503 -0.10706147 -3.0117245 0.10052822 -0.14618932 -3.034926 -0.69915235 -0.61584926 -0.58535665 -0.82771146 -0.23950931 -0.12526257 -0.789157 0.26213533 -0.014653612 0.23255815 -0.07511317 0.3927209 -0.78137827 -0.42376593 0.5808868 -1.6034142 -0.36183056 -1.7920376 0.43464386 0.84407276 -0.057975765 0.033457115 -1.0754051 -0.89825445 2.7196157 0.69323945 0.4021323 0.8448198 0.06917832 -1.2747232 1.5120108 0.14300872 0.54660416 -0.38037235 2.316671 -1.5427969 1.5138273 -0.899422 0.8949382 0.3030957 1.01154 -0.34339345 0.379368 1.2438083 -0.71167123 -1.8317147 -1.0359223 -0.39602455 1.2749597 -0.30190116 -2.142447 3.1334786 1.0777564 -1.7115474 -0.30941635 0.52237594 -0.76052374 2.1102448 -0.2228943 1.3252255 -0.07378762 -1.438052 0.56897813 2.8322155 -1.8534623
YPCK -0.8231346 0.9464078 0.11263785 0.2012748 0.2374955 1.9636534 -0.79827756 -0.71328557 2.0510464 1.027137 -0.54430413 0.941342 -0.28188846 -3.5400836 0.6447005 0.63463575 0.8465321 -1.9959472 0.9173058 -2.660624 1.0730073 1.7184387 -0.42997482 -1.1054256 0.88575727 -0.9856364 0.46728563 -0.23703979 -0.7049501 -0.15278216 -0.103326984 -0.36392498 1.359071 -0.70438224 1.4159863 -1.0697087 0.29321522 0.29073232 -0.68766356 1.1894065 1.2748302 -1.0895157 -0.4242208 0.93321204 0.48460045 -1.2558943 0.7483039 1.8194427 0.49050713 1.1487225 1.4575719 -2.129393 -1.0560116 0.15897325 -1.3774074 1.3041222 -0.5284485 -0.77674276 0.7735566 -0.55350953 -0.14270444 1.232636 0.1431998 -0.4649891 1.0745602 0.85317475 1.3747314 1.5791768 -0.43033567 -1.0336769 0.05839711 2.01489 0.2575225 -0.8331161 -0.48057386 -0.14820807 1.259691 2.689733 -0.94492245 0.434863 0.7382652 -0.8083621 1.3762786 -0.15644857 1.86473 -0.072662555 0.3993583 1.2678103 0.69533575 -1.7359146 -1.1745161 -0.057357855 0.71356875 -0.9598673 -0.18165381 -0.8518908 -0.57785857 0.28199884 -0.48388502 -0.7026312
GEJD -0.8779351 1.6717564 0.8628964 2.329633 0.90452677 0.012159404 0.04593804 0.394194 -0.5358145 0.48907527 -0.34627643 -1.9045627 -0.5833618 0.62569976 -1.144336 0.9309187 0.10198367 1.0928073 1.3488963 -1.6135595 0.79321176 0.9524022 -0.50004554 -1.221156 1.9702249 -0.32352737 0.5689662 -0.14465934 -3.7926319 -0.054392394 0.36463556 -1.0950519 0.5322101 -1.7476448 2.3897872 1.2413083 -0.6232382 -0.33978537 1.2897266 2.7888756 -0.37690336 -0.5609914 -2.3852592 0.7470906 1.0965785 -0.78340584 -0.5576254 -0.6850146 1.3099724 0.17783938 0.011078667 0.21045373 -0.23737694 1.9789197 -1.1816089 1.0833454 -1.9482515 -0.69882125 -0.019989265 -1.2011427 -1.4611026 -1.6411387 0.49605757 0.79591864 -0.23180084 0.57048774 0.72146255 -0.12463149 1.9292594 -0.059137233 0.2266081 -1.5191418 0.3779549 -3.5796475 -1.018168 0.44824934 -0.057993114 1.1262678 0.1783873 0.7636286 2.870965 -1.6314188 0.92507 1.4946125 1.4290404 0.3880489 0.9533106 0.47841525 0.36995015 -1.3662571 1.3200274 2.6778119 -0.28441414 2.9005816 -1.8117558 -1.3760377 -0.0400233 -1.5738862 0.05121132 -0.82443064
ZJHC -1.0306569 -0.10968893 -0.83079416 0.78366 0.9866705 2.105474 0.45285428 0.69651407 2.5900156 1.355095 -0.42399663 0.61885786 1.3517485 -1.5953647 1.2133446 0.4192896 -0.19706327 -0.8676628 1.6196067 -0.8138808 1.1401021 -0.6972494 0.2613264 -1.499142 2.1242347 -0.63870174 1.915164 -0.3750547 -1.7305247 -2.6349702 -1.3178436 1.5947696 0.29064807 -0.85955125 0.1811091 -0.93148935 0.00960442 -0.9429185 -0.701963 0.34530255 1.7795897 -0.50357145 -1.7431312 0.7944256 -0.73526525 0.64018303 0.9706249 -0.2846677 0.46271798 1.0273036 -0.7907567 -1.754904 0.8015828 0.7156623 -1.5889345 0.91390353 -0.6441668 -1.6506065 2.0303302 0.92381227 -0.26612216 1.4613159 0.8959855 0.20493102 0.94925797 -0.5534773 -0.5316085 1.0369463 -0.46302572 -1.0200055 1.350049 -1.0419363 1.2244537 -0.7411041 -0.7768841 0.9176354 1.1505399 2.3790693 -0.9622969 0.8252032 -0.033828173 -0.10402748 0.5653771 1.2420032 0.4136991 0.23683192 0.3398899 -0.009115896 1.0116934 0.026890615 0.70677406 -1.2656515 1.7238152 -0.5219558 -0.5471125 -2.279613 0.743092 -0.8979285 -1.0795832 0.0053109354
JITZ -1.5505449 0.46054712 2.3259528 1.00363 -1.4318588 0.39043126 -0.7728255 1.154631 0.45161456 0.24671681 1.455829 0.18470295 -0.06894998 0.51608485 0.068036035 1.8093297 0.3271935 0.19281782 1.0410702 -1.821857 0.7872884 2.104774 0.42380422 -1.591128 -0.1245911 -0.18897478 -1.0305899 -0.5492921 0.0952255 -1.6186719 0.892352 -0.021082826 0.34228453 -2.2421365 0.2504284 -0.5812971 -0.7755076 -2.0088236 1.1525592 -0.7087011 3.8725328 0.38365948 0.22047576 0.23487931 -1.0490097 -0.11238345 0.672733 -1.1329017 0.5341231 -0.6979873 0.69112754 0.3059562 -1.1701722 1.1217307 0.8255184 0.37701106 0.5390136 -1.9249272 -0.8613754 -0.47980002 1.0717772 -0.8131529 0.21361195 -0.6752605 1.1835366 0.6942448 0.0493346 0.31501243 0.8783022 -2.074136 2.0701284 0.270863 -1.4901594 0.63576674 -0.8445861 -0.31272343 0.49419773 0.4624387 0.5376325 0.28485572 1.7491248 -0.16086234 0.26796085 0.796175 0.17249905 2.877695 0.76217276 0.04284193 -1.3913945 -1.0069344 0.55516154 -0.30015898 0.62871414 -0.64155465 0.016529122 -1.5749952 -1.2600178 0.4003368 -0.7730966 0.62199926
WAEL -1.0904276 -0.6797239 2.490858 -0.15488486 -2.6925664 -1.194008 0.26987523 0.8049069 -1.6029257 -1.2659297 0.9775347 -0.23820941 1.7721877 3.1098514 -0.3888246 0.9383115 1.6923678 0.05392452 -0.91125935 -1.6111422 -0.18441133 -0.9989108 -0.9984938 -1.1086581 1.1369957 1.9858869 -0.7570322 0.53176534 1.2916412 -1.441991 1.7681683 0.6425027 0.08581742 -1.1511884 -0.11150522 -0.89176947 -0.83553547 -1.0475736 1.0257876 -0.66392547 0.05787886 -0.7708342 -0.25814143 -1.0241349 0.11940197 -0.4079605 -0.34293658 1.1144879 1.0016167 -1.286023 1.5971478 1.0031028 0.78119963 -1.2942928 -0.44125745 -0.9884821 -2.100175 1.656551 -0.67044926 0.55129975 0.06885044 0.9404474 0.6376462 -0.09337216 -0.21980391 1.9135202 1.7316935 0.3854855 -1.5465161 -1.8599597 1.7730141 0.13998057 0.264072 -0.99240893 -1.3274668 -0.28959572 -2.343703 -1.2838027 1.4863884 -0.13333108 -1.2738978 1.3400905 0.16297609 -0.28506535 1.6640079 -1.6040071 1.5542185 -0.46018234 1.9745483 1.5243827 -0.3172729 2.4657264 1.7463708 0.19798858 -1.8608356 -0.31444117 0.8956274 1.5348088 -0.49457657 -0.41036212
BLHF -2.3030992 0.466648 0.86851925 0.086167574 0.041298535 1.4205748 -0.43839884 1.4729912 -0.7223588 0.69213706 -0.24784805 0.66273594 1.1158382 -0.1329596 -1.6333387 0.3618896 -0.16670658 0.39989614 2.1488116 0.8053108 2.4675295 1.4070022 -1.830079 -1.4485648 0.4399596 -0.4879256 -0.21379305 1.8195395 1.8790138 1.1563395 1.2635096 0.8177308 0.3029973 -0.04081231 1.2627382 -1.6115054 -1.5004635 -1.1948419 -1.7814149 1.9919115 0.84342134 -0.5466807 -0.8039786 0.7719855 -0.41260868 1.3796161 0.2368789 -0.22792017 -0.4401633 0.1635291 -1.3778813 -0.3115174 -0.04556673 -1.0332298 -1.1512111 0.29848516 2.4905849 0.20097668 0.07742422 1.4542754 1.4992815 -0.34986833 0.72669965 0.6874586 -0.37738538 -0.03728008 2.006021 1.0632493 -0.33619207 2.404955 0.6879977 0.33053097 1.0884221 -0.8968402 -0.81005543 0.05119996 1.4250019 -0.02342837 0.8670004 0.9993023 -0.027093066 2.0302644 1.0693642 0.8121817 0.31629464 1.8613288 2.1003246 0.32608327 -0.99605024 0.55326694 1.3069277 1.01325 -0.97031885 0.8191066 -2.1442797 -1.1863939 -0.3442466 -0.17058146 -1.9586319 0.9440404
SHUX -1.2976812 1.2246275 -0.9058877 -2.118726 1.0912409 -1.698341 1.1465756 -0.3012433 1.1501461 -0.3081912 -0.48624277 -0.26338625 1.5240164 -1.1049471 -0.63601476 -0.070276186 0.4686237 0.5428972 -0.8121141 -0.54860246 -0.8718524 -0.5726719 -0.3260009 -0.2991925 0.8820057 0.3417036 1.8948327 -0.000569743 -1.2537237 1.9075913 -0.5762805 -0.27351597 -0.20755279 1.4929608 0.83722484 -0.99275595 -0.15396406 -0.72272116 -0.228164 -0.69914436 -1.1055038 -1.6997887 -0.6976229 -0.5550101 1.2451632 1.2901773 0.12785146 -1.7982447 -0.7426754 -0.29111233 -1.1306942 -0.22549012 0.6295935 -0.506857 1.0826658 0.8609996 -0.66359943 -1.1046889 0.4633849 -0.26486972 1.3890153 1.3205876 0.7112152 -1.9288051 0.45226267 -0.3421684 -1.0510211 -1.0904666 -0.99737066 2.2448986 0.22753243 -0.67276686 1.6919985 -1.2882501 -0.56311667 2.312905 0.47181687 1.5301564 -0.95542586 1.6170284 0.7781993 1.2627523 1.0390434 -1.5129671 -3.0189712 -1.0982037 0.69114095 0.9798362 -0.2784029 1.7708919 0.4010651 -1.2249031 -0.50336593 -0.9968832 -0.80417675 -0.3904405 0.6314168 -0.18588811 0.49614078 0.84494233
DZHO -0.95190626 1.2799523 0.6876854 -0.9745295 -0.95464164 0.13956884 0.19220023 -0.47189164 0.93823653 -0.8375687 0.2457776 0.009247145 -0.38584095 0.262988 0.6229099 -0.34668 -0.9559179 1.516002 0.36146528 1.2774756 1.12911 -0.9930009 -0.72600037 -1.2858353 0.74530876 -0.6341751 0.9278989 -1.2420036 0.70120925 0.56491965 -1.7740068 0.921003 3.1529415 1.6131688 1.1943235 -1.4125627 -0.022573102 -0.31221163 -2.0600488 0.6583698 -1.76082 0.08346487 -1.2343221 1.5767547 0.92182755 -0.15383686 -0.77456075 0.26896867 0.43606246 0.7170518 1.1330236 -0.37999752 1.7625798 -1.1952587 -0.7704766 1.5009773 1.0083026 -0.10205113 1.2568835 0.5226758 2.056139 0.7296314 -0.01161789 0.0159471 -1.2284205 -0.6990949 0.29656312 -1.579147 0.8012284 0.03500311 -0.058887757 -1.1003457 -0.89960796 -1.5811054 1.8885669 -0.18453147 1.1230774 0.65378964 -0.51582205 -0.2616298 -2.250345 0.68589485 0.079756096 -1.2756472 0.8675369 -1.1116055 1.0456593 0.63073635 -0.6964547 0.41811857 1.201803 -2.2764354 -0.16979228 -1.2278697 1.500258 -0.14278485 0.09253519 -0.05949078 1.2102898 0.04864478
FYXA 0.47045296 1.4023266 -0.6946328 0.4271941 -1.3062187 0.83226275 -0.5918 1.1985356 0.010377577 -0.64347744 0.2709747 1.3374736 -0.36755514 0.13849775 -1.0560021 -0.9766225 2.0189424 1.0333482 -0.74098754 -1.4625956 -0.21793175 0.62565774 0.7898424 2.1743028 0.31013116 2.3415384 2.4207733 1.3172674 1.3084857 2.1379218 -1.4562299 -1.3782876 0.27159578 0.83589464 -0.92960316 -1.1811687 1.5524474 -0.14707354 -0.5132473 -3.02079 0.0037730273 0.4503296 -1.6024112 1.3509057 1.0853348 0.22969411 -1.5960084 -0.83049935 -0.31806836 0.18677992 -1.4093722 -1.8587403 2.8249333 0.89056355 0.45101836 1.7100095 -0.0810449 0.7265234 -1.0588182 -0.5253126 1.2752911 -0.36135158 -1.688164 -1.1339414 0.56397253 -0.98688406 1.5819162 -2.429158 -0.965221 0.23585103 1.3034548 0.35638455 -0.68463373 -0.4851643 1.0668408 0.40665823 -0.34324783 -0.81861675 -1.2552986 -2.1036701 1.0529383 -1.4262617 1.3212726 2.2773876 -1.2640898 -1.0066588 2.0963058 0.06328867 -0.5834015 1.2980151 0.54550123 -0.27237242 1.7089695 -0.57870674 2.0131032 0.84259576 2.4456222 1.1271999 2.211039 0.1400991
HWUL 0.069626376 -0.037488 0.59776807 0.31670934 0.10067816 0.2031701 -0.77759373 0.8591503 0.13272646 0.5767241 2.32098 0.59721607 0.32882234 1.0604172 1.0657085 -0.33425805 0.4769956 2.3762167 -0.77282685 0.4176997 -1.820073 -0.4759775 1.767407 0.84336185 1.1282375 0.64304924 2.026981 -0.9212372 0.73714864 -2.1906598 -1.3419205 0.24394445 -0.37249124 0.44370785 1.5105648 -1.3811334 0.60939664 -1.4215697 0.7168802 -0.6041158 -0.4116122 -0.87827665 -2.3698127 1.1178708 2.1378279 -0.4605248 -2.0687315 -0.5774576 -1.2704355 -0.6573142 1.1529956 0.5327173 1.5963522 -0.94356084 -2.1649134 1.7069646 1.575209 -1.0297806 0.9846941 -1.5795132 -0.80503064 -0.47967458 -0.6050097 -1.1081834 -1.7763946 -0.971708 -1.0383589 -0.49823973 1.1571677 -1.5294861 -0.71934146 -0.4155338 -0.70119363 1.550078 0.7029315 -2.016187 1.1418836 -0.86154 0.35191184 -1.8164215 -0.6624806 1.072903 1.2695946 -1.2530283 -1.608858 0.79625744 0.13228871 -0.36545944 -1.9729295 -0.50233585 -0.32087255 -1.4538538 -0.25841182 -0.53919655 2.7871175 0.9368413 -1.7268054 -0.2556882 1.6579436 -0.026501907
VKEF 2.9692595 -0.70278275 -0.060998153 -0.4967975 1.123095 0.25992033 0.16299143 0.35906115 -0.46722957 0.6574487 -1.0867289 0.18791036 -0.22844471 0.7851106 0.073655955 -0.74544185 1.2467986 -1.2004696 -1.9833729 0.93439513 -0.9907017 -1.617726 0.54315543 -0.2777084 2.7512827 -0.9100238 -1.4802165 -2.0533864 1.5499673 0.5240772 -2.0336764 -2.7802725 -0.85414964 0.56817096 -1.2544858 -0.59663516 -1.0361869 0.35582247 -0.95527023 0.25475812 0.83099294 0.93284184 0.9603093 -1.0103788 -0.041744683 -1.1776732 0.792033 2.4899292 -2.7020428 -0.76768124 1.8627778 -0.61625296 -0.50121766 -0.14146537 0.90700644 -1.8748081 -1.1839668 -2.8644404 -1.0490783 0.10708122 -0.16224414 -0.056849405 1.3100773 -0.6613964 0.36531356 -1.7655966 0.2333044 1.6630719 0.26831302 2.5135517 0.06030331 -0.9937117 -0.94762516 2.0248287 1.0712714 0.6956177 -0.37414962 -1.3566065 1.3675708 -0.7051288 -1.5689311 2.368931 1.8211517 2.1289535 1.6133366 0.058025572 1.2820557 1.005292 -0.24319576 0.02284312 0.4794073 1.2315689 0.6379657 0.3126385 0.67024094 0.19556962 0.20002188 1.893267 -1.7756413 -0.7296538
IZOX 0.74507654 -2.7198327 1.7859937 -2.6300511 0.958583 -0.5341283 0.555484 -1.4174712 0.38600168 -0.4241248 1.4206998 0.0923306 0.36894253 -0.20347254 2.6245115 -0.52054816 0.30686882 -1.6232563 -1.1102935 -1.2282983 1.9069706 -0.14575738 -0.23567088 -0.0048077116 0.82945234 0.37039602 -0.049225304 -0.25115207 -0.9828893 0.8523377 0.4105567 1.2952734 0.41844735 -0.40895927 -0.13261063 -0.6961566 -2.1652563 0.03911231 0.44599244 -2.053548 -0.80453634 1.5348368 1.6156502 -0.07213749 -0.22469597 -2.2324169 0.76127523 2.227736 -1.7843884 1.9356284 0.49875128 1.2878469 0.6049539 2.027052 0.009778899 -2.2969458 -0.67180836 -0.8026906 0.33061486 -0.30731255 0.77245116 -0.72595304 -1.0117385 -0.66482544 0.4309259 1.1770245 -0.6357121 2.210739 0.5979553 0.005936438 2.4407063 -1.1436343 -2.118484 -0.3734905 -0.24742712 1.5869564 0.4547437 -3.437923 -0.69850606 -0.6850279 -0.68356246 0.16632034 0.7599474 -0.4810532 1.0907346 -0.3381656 0.64904505 -0.97636014 -1.7636495 0.94097227 -0.99700403 0.9405445 0.7789475 -1.3955023 -0.7723395 1.1352489 -1.6033095 -0.41128638 -1.5109373 0.64690995
PODA 0.7222488 1.3724536 0.1575487 -1.0752801 0.7856927 -1.8753414 0.0782315 0.17230679 0.38403818 -0.02973421 -2.6110396 1.488205 -1.2765249 -1.3178531 -0.027184144 0.42075914 -1.0525587 -0.8912047 -1.7721843 -1.4937413 -0.28019282 0.2724943 0.521307 0.5017897 0.5541329 0.4227235 -0.9594838 -0.5802678 2.9172475 0.6105826 1.987713 -0.5413559 -1.5448622 -0.908529 0.52977926 0.024342528 -1.2664567 0.041000783 -1.3096218 -1.2137722 0.08180157 -0.8946163 -0.73008394 -1.7249779 0.08686897 -1.730185 0.56128985 0.90636855 -0.87443465 -0.38708368 1.6492157 -0.7630479 -2.4831936 1.4834683 0.49904355 -0.4708717 0.2880557 -1.570709 0.32365504 -0.21460205 0.1610196 0.3809408 0.5531087 0.5958873 0.17985778 0.8966625 0.20259102 0.13411768 0.07811331 0.28696048 -1.1185135 1.6709421 -1.2706622 0.23293462 -0.23450616 1.2685857 -2.5287013 -1.5784816 -1.0982981 0.26190922 -1.0846667 2.1623664 -0.3737615 -0.009649434 1.1599464 -1.6818153 0.5347815 0.9415866 0.7361459 1.4362738 -1.4973285 0.22638671 0.6979687 -1.0136962 0.9127078 0.43802652 -2.0095952 -0.9487528 0.3635098 -0.6210609
QAIW 1.2032045 0.5486514 -1.1050906 0.93791103 0.3766642 0.6614492 1.0092831 -1.5555145 0.09693675 0.42510644 0.36001015 -1.4388945 -1.0845288 -0.21473755 -1.5611287 0.37077147 -1.2220074 -0.9124659 0.23216201 0.8275432 -0.53100765 -0.9367358 0.05051663 0.091723956 -0.6886321 -1.1966555 -1.5695188 0.9326405 1.7338904 -0.6677333 -0.06483356 -2.672089 1.0518824 0.0970931 -2.446836 -0.25020346 -1.5090197 -0.20817502 0.08167447 -0.8176338 -0.19954799 -2.6971552 -0.27020448 3.3204308 0.33545893 -1.6302403 0.1963612 -0.72482854 0.97985405 2.8554053 -2.9820647 1.8023896 0.48536503 -0.4834497 1.2345474 1.0293157 -1.5279734 -0.1176154 1.6365393 1.3807681 2.9650207 1.1899778 1.595145 1.1280305 -0.66820496 -0.69638175 -0.14063318 1.0604999 0.8893686 -1.0612737 -0.73876643 2.2450979 -1.1747816 -0.4192745 0.08200129 -0.7373502 -1.0028057 0.40740773 1.1219431 1.7541862 0.33836523 -0.77617556 0.63445663 -0.5759714 0.48416558 -1.614334 0.5217883 -2.1045105 -0.8134272 1.9673467 -1.103911 0.08178113 -2.794235 -1.5305307 -0.9063196 -0.4214093 -0.9081496 -1.5004333 1.6738273 0.35033622
OGKU 1.4418538 -0.15418495 -0.007491264 1.8351592 -0.033940434 -0.25749055 -0.44256282 -1.6566753 -0.15024753 -1.5632669 0.7873008 0.32467902 3.020475 1.153487 0.48514006 0.32609957 -0.86263025 -0.93696964 0.9225434 -1.9549311 -0.18053585 0.26889604 1.4394609 1.8347148 -0.74268526 -0.5452806 -1.5224371 0.2694722 -0.10834089 -0.7287409 -0.36870277 -0.07634903 -0.46566907 -0.34584755 0.9913029 0.57466096 -0.083275266 0.9092995 1.031685 -1.2543114 -0.72312355 1.1328049 -0.9018885 -0.6803015 0.83869857 0.0970176 -0.5651479 0.68433297 0.9160111 0.10432073 0.07427002 2.1826658 -0.042116325 -1.295594 0.87814194 -1.5344063 0.0041301274 0.3719889 -0.38812724 -0.09714394 0.92007786 0.19465244 1.2132089 -0.35531905 -0.7275886 0.29225892 -0.06985782 -1.9712278 -1.4359976 -0.61041373 -1.7164761 1.0752615 -3.2708125 1.179003 0.9839236 -0.25229824 0.9969888 0.031705312 0.9718367 -0.6093455 0.096582785 -1.3230466 -1.3897518 0.6945199 -1.5474715 1.4857409 -0.7078639 -0.40818748 0.39144483 -1.2073431 -0.29050237 0.607892 1.5798383 0.40680152 -0.2607807 -0.06798079 0.23628166 -2.2915123 -0.06460709 -0.1579632
HNZK 1.4676394 -1.8061785 -1.998926 -1.2658442 1.0803107 -2.65736 0.6942928 0.33263633 -1.320154 0.87739176 0.34753886 0.5219714 -1.0590894 2.0958066 -0.5817211 1.2096261 0.06791038 -0.4203505 1.8479934 0.8800276 -1.4268928 -0.19234361 -0.2827181 0.24877033 2.0597224 0.4913243 -0.3267516 1.4516726 1.4173261 -1.8707535 -0.6832092 0.07831695 -1.0252048 0.015666936 0.7136658 0.5599643 -1.1083026 4.1974416 1.0408835 -2.741969 0.5026652 0.21668659 1.2048486 -1.4843228 -1.7556802 -2.9075089 1.5030283 0.22342606 -0.02540033 1.8717579 0.098827444 0.13287997 -0.9375485 1.1162255 -0.022187682 -0.52371395 0.2045896 0.99247485 1.6413383 0.7580075 -0.32799262 -1.5706613 -1.0497297 1.552139 1.0997515 0.3710886 -1.7322682 -1.4965558 -1.4873643 -1.6934496 -2.0350208 1.1735477 -2.1597962 -0.8424402 0.36001217 -1.7901255 0.047948714 -0.70037884 -1.1593955 1.7486224 1.4072753 0.8853658 0.38665837 -0.93450975 -0.6335694 2.359621 -0.17077154 -0.6659101 -1.1124661 0.031828232 -1.7651963 -1.4369209 -0.35943606 0.56726605 1.9166895 0.3770719 0.39208046 -0.065002955 2.0789456 -0.95401925
YUCO 0.017901337 0.12578721 0.3347378 -1.4900347 -0.8593674 -0.35538602 0.49502194 1.776026 -0.67786556 -1.1320698 0.89780575 1.2018404 -0.58315253 -0.23423012 -2.7684064 0.24758416 2.447877 0.04037087 -0.9408163 -0.9219856 -1.3651183 2.934626 -1.0513642 0.065427504 -2.0878189 1.8205549 2.2821903 0.35877362 1.1007888 -0.4157485 1.646405 2.0320892 -0.32978204 0.7049193 -2.5949392 -0.23391902 -0.07860486 -0.89002204 0.035121843 1.8928668 0.97791773 2.0075989 0.0265875 -0.7253701 -1.2748154 -1.8938363 0.48428917 -0.37054718 1.3813819 0.7629699 -1.2287244 0.34815776 0.13012569 0.9227061 0.3261006 2.0004475 -0.5988996 0.90116197 -0.16213055 -0.056945108 0.66561675 -1.9695446 0.8088552 1.3099447 0.7232761 0.5368505 1.433771 -2.17903 1.1893185 -0.98987067 -0.049118847 -1.5815835 -1.6772451 0.5439232 1.3793632 -2.2267563 -0.2838088 -0.5220507 1.1841719 -0.48014888 -1.3046422 0.41915298 1.6123443 0.93244433 2.1932704 1.3870523 -0.52264905 -1.0805652 -0.24990454 0.19290784 -0.1596473 0.17752086 0.71431786 0.74631417 0.109989665 2.2182257 2.1855931 1.0800691 0.21191207 1.0799185
OZJX -1.7257333 -0.22137731 0.8547884 -1.010017 0.8647957 0.013384671 -0.62115735 0.3047115 -1.5999708 -0.50034773 0.6106645 1.0840442 0.6333717 0.27393857 -1.3408345 0.29619932 -0.88774145 -0.7263044 -1.3644572 -0.77916694 0.3903805 0.36572 0.29082352 -0.8069511 -0.09731248 0.0686201 0.12688962 0.6963488 0.5849245 -1.1748387 2.2517886 1.8360995 -0.96160865 0.005112767 -1.0710522 -0.19780867 -0.2845354 -1.5551112 -1.2454586 0.6123711 0.25925246 0.82308966 1.4881165 0.6005805 0.06952045 -0.0415375 -0.019665694 -0.27369222 0.611802 -0.239358 2.7060344 -0.21038447 0.6517632 0.94342643 -0.12029095 1.3533068 0.4939411 -0.98670155 -0.7148072 2.2425365 1.6182209 1.4158046 0.9667198 -0.10791498 0.46623144 0.27207246 1.3428137 0.5281529 -0.28350666 -0.7417627 1.6461818 -1.4019152 0.113528386 -0.65244997 0.15400612 -0.9022158 0.43401107 -0.76261455 1.1115645 -0.15290421 -1.0557446 0.502668 2.289595 0.89712834 0.8515267 0.58964986 -0.7549663 -0.65454787 -0.87300223 0.3151203 0.28681448 -0.6740033 0.96479714 0.24815606 -2.1546736 0.17544632 -0.8528615 -0.66126347 -0.3693718 0.3397497
TUEM 0.7212184 0.37134194 0.38990113 -2.128088 1.4188449 1.2480037 -0.48837972 -2.2267296 -0.5075928 0.7335563 -0.97857124 -1.5284506 -0.23461725 1.0934577 1.8226227 0.7227093 0.85893625 1.0949783 -0.4694155 1.768603 -0.59899825 1.0686758 -0.42647576 0.30183187 -0.026863657 -0.739046 0.3018767 -0.25505692 0.58952135 -1.2802932 -2.159861 -0.972765 1.7448409 0.6233183 -1.3366796 -1.4706657 1.0440507 0.79263157 -1.5282738 1.0740261 -0.9718816 1.5847456 -0.116851404 -0.60589075 1.563763 -0.58958125 -0.92239326 0.66365457 1.3328606 -1.0598798 -1.0850502 -0.8064713 -0.85534966 1.2975076 2.4460533 1.1638917 1.3843426 -1.32798 -1.0183046 -1.1559342 1.833668 -1.1818734 -1.9968004 0.831123 -0.018428665 1.6888908 0.43282133 0.23191032 -1.277292 0.91298115 -1.7941619 0.54212433 0.58799815 -0.3541985 2.0851653 -1.3482043 -1.5364696 0.2152067 -1.0043265 -0.03348785 -0.13465467 -0.19825347 -1.0291337 -0.46492296 0.025872111 -3.3969145 1.2669308 -0.411778 -0.13458763 0.031890124 2.3200521 -1.4736243 -1.1716517 0.26266256 0.95875823 -0.9369651 -1.3443075 -0.7243459 0.024353413 -1.2701099
YBAN 0.22685726 1.4060771 -0.8173922 1.6262671 0.6588355 -0.8964495 1.5853242 0.9399401 -0.13353401 -0.05728275 -0.35479462 -0.10431628 -0.32475704 -0.90144 -0.08831489 -1.1359792 -1.4527301 0.8946495 0.22497067 -1.6836597 -0.62310946 -0.3015985 1.4590473 0.45396754 0.5132358 0.94681764 -0.3188721 -1.1078157 -0.62252694 0.84694785 -0.095104836 -2.0676177 1.3037584 0.6486485 -0.2994551 -0.7799027 0.17999643 2.1519628 -1.874412 0.5417547 0.7177576 0.5104106 -1.1248763 -0.75590587 -0.42206445 0.7321003 -0.14197455 -0.20602953 1.672694 2.8003273 0.44172433 1.188692 1.9888668 0.40905526 1.0351689 1.6010159 2.093855 0.28646287 0.6172965 0.84926724 1.1898892 -1.8914853 -0.6841725 -0.91750747 -0.77258 1.4682084 0.672533 -0.53198683 -0.54234886 0.52130777 0.70546275 -1.2410576 -1.9138485 -0.61687464 1.9979657 -0.86683613 -0.4726451 -0.06529186 0.6111634 1.5147877 1.4141064 -1.4108721 -1.163833 0.8050407 0.1258016 0.6792505 -1.716541 0.034071933 0.94911265 -1.1636338 -1.1245122 -2.4383874 3.4494524 1.9273043 2.025185 1.4079034 -1.9607939 0.4444881 0.06855607 -0.44536784
IVQB -1.6133962 0.2070183 0.8421748 0.838188 1.7369705 1.6276357 0.42384282 -0.38761377 1.0654647 0.3504429 0.061414167 -0.42916346 -0.18300797 -0.37363467 1.2480458 0.7369789 0.11731078 -0.5768109 2.8724155 -0.47043136 1.0988448 1.0877856 0.14068276 -0.94936967 1.3925176 -1.3216472 0.7806321 2.0207505 -0.30757615 -1.183221 -1.6967738 -0.57992333 1.7945168 -0.6250509 0.5856583 -1.4302133 1.6415228 1.7916809 -1.561398 1.0602967 1.9088129 -0.09965103 -0.5832389 -2.0535371 -0.9247302 -1.2361966 1.9619985 0.5983478 0.76335377 0.25856358 0.58816814 -1.2402667 0.15377972 1.419849 0.5204234 2.3989975 0.3653945 -0.18683054 1.1673409 0.7833582 0.46842793 0.58187795 -0.36420918 -0.1693015 0.4348844 0.14540836 0.032702178 0.6810926 -0.31750992 -1.405403 0.7299252 0.7983119 0.74655074 -0.87285477 -0.7531995 -0.51930463 1.5852548 3.1333942 0.6022853 1.0473493 1.1569995 -0.34510013 1.2426457 0.48874062 0.78935325 0.85796016 0.8375357 -0.12624171 0.3876345 -0.51307994 0.13041058 -1.2068375 2.0584419 0.26873377 0.5064793 -0.45939216 0.09418277 -0.23568413 -0.7606165 -2.0156784
FGQI 0.092631355 1.2064117 -0.90808475 1.8275695 0.6360618 -0.7928311 1.3781701 0.8919068 -0.116001055 -0.08643667 -0.3982803 -0.06819992 -0.42516515 -0.87181664 0.14570983 -1.3064218 -1.1629771 0.7148903 0.38294557 -1.4135269 -0.38466567 -0.51276433 1.501436 0.5398715 0.54924136 0.7473379 -0.41298568 -0.8626696 -0.7711884 0.7748125 0.1466241 -1.7531592 1.3466356 0.25487593 -0.23152429 -0.85959375 -0.022871798 2.176844 -2.1251101 0.2784283 1.0771093 0.05759654 -1.1208228 -0.97142553 -0.7954648 0.85258293 -0.28963152 -0.3494391 1.5577859 2.6489205 0.27271304 0.9355313 1.9385391 0.17688678 0.9508005 1.5844755 2.0552187 0.34687588 0.41879788 0.8667389 1.0710149 -1.8016462 -0.5521642 -0.79302096 -0.7339725 1.3981006 0.6464301 -0.6453484 -0.85484064 0.9220099 1.0828762 -1.1204342 -1.6697325 -0.36138648 1.9374794 -0.38307363 -0.22979534 -0.15999426 0.37535596 1.3936656 1.2036477 -1.3289996 -1.1282294 0.92586935 0.08374857 0.86190677 -1.5721288 0.18061 1.1877817 -1.404491 -1.5454041 -2.2654521 3.4556868 1.7776637 1.9645135 1.4644485 -1.923768 0.40677923 0.24228355 -0.5099402
UMPW 0.497286 0.7619425 2.641017 1.3427497 -0.75171256 -0.11085094 1.7234769 2.7597165 1.6561015 0.63074267 -0.63575536 -1.1227068 0.3834995 -1.0980353 2.3603442 1.326928 1.0153297 -0.7216467 1.6587125 -0.82511026 1.9282529 1.8505799 -0.740006 -1.9106559 0.8824566 -0.8007106 1.5056303 1.8094605 -2.3500588 1.3663533 0.14061034 -1.3488691 -0.35081792 -0.9901086 0.96969944 2.5040486 1.0640286 -0.937492 0.4909425 0.6883983 0.8600689 0.029092599 -0.697507 0.23271951 -0.4351382 -0.55166924 -2.2507198 -1.0010071 0.14026105 -0.26632154 -0.1987159 0.04811081 -0.43766013 -0.8461738 0.6518309 0.9630085 0.85461396 -0.3594669 1.8978117 0.6127796 0.07307804 0.90342647 2.494778 -0.7644851 1.3758774 0.9273263 -0.40919992 -0.076858595 -0.27849922 -0.14437783 0.52347386 0.58647805 0.6666032 0.4506902 0.13314962 -1.8729295 -0.47078237 0.6129389 0.9091333 1.0337864 -0.0866139 0.229601 0.010099785 -0.35754985 -0.7053649 1.216834 0.7349281 0.04592694 -1.2143958 -2.895198 0.86815965 2.9840612 -0.22638938 2.4555724 -0.9685527 -2.907565 0.5909515 1.2132967 -1.522394 -1.3007634
IOQU -2.3967135 0.6903019 0.6130723 -0.24515401 0.2822443 1.3157326 -0.16268812 1.3485186 -0.7663878 0.6654108 -0.13770735 1.0943748 1.0906609 -0.3712735 -1.5969698 0.58899206 -0.2858684 0.34896937 2.02212 0.69820845 2.3768601 1.3814515 -1.3925364 -1.5094092 0.5307376 -0.51560205 -0.02912066 1.8294106 1.868819 0.933349 1.216302 1.0572125 0.20120136 0.10465651 1.4816813 -1.7006309 -1.5628588 -1.0041516 -1.560894 1.873226 0.905412 -0.7014392 -0.6504359 0.66496074 -0.29696772 1.4297384 0.17487477 -0.39357302 -0.60124665 -0.04086522 -1.2326503 0.050012447 -0.3837794 -0.9703033 -1.365696 0.15976827 2.3663712 0.060059097 0.17234795 1.4872502 1.5413759 -0.1241961 0.5384725 0.83884114 -0.25577125 0.36654633 2.081559 1.3618124 0.008593506 2.2756789 0.8712103 0.15963867 1.2876159 -0.5751271 -1.1636066 0.1584216 1.6860682 0.042116784 1.2222043 0.9618244 -0.07139126 2.0504487 1.0970695 0.8606803 0.2860748 1.9876838 1.9830871 0.3910203 -1.0009958 0.43568012 1.2561557 0.8492505 -0.8776827 0.9124685 -2.4279797 -1.1905837 -0.5392163 0.021340257 -1.9378269 0.807044
ALDQ -1.2374676 1.0559628 -0.77703786 -1.9262784 0.8709972 -1.584039 1.0457252 -0.3276871 1.31065 -0.35110462 -0.30039832 -0.024648376 1.5140435 -1.0092677 -0.45938757 -0.28634903 0.51834095 0.11334371 -0.98391455 -0.2927199 -0.9190508 -0.6269039 -0.3079747 -0.17573172 0.6739756 0.16678317 1.7164159 0.10559232 -1.0859113 1.8945045 -0.52649206 -0.24640404 -0.25585523 1.3961208 0.6679827 -0.7476196 0.0067489855 -0.66457134 -0.36504555 -0.71760446 -0.99230844 -1.9502865 -0.8110077 -0.6531605 1.3899499 1.1680896 0.26428106 -1.5250183 -0.7362134 -0.029959738 -1.1947379 -0.6129235 0.23194568 -0.8684671 1.2574495 0.6643823 -0.64407694 -1.2410694 0.6136172 -0.39115298 1.3299356 1.6870308 0.7083466 -1.8104327 0.41735324 -0.30439588 -1.0938511 -1.3842663 -1.0360717 2.052997 0.016406937 -0.485052 1.6693316 -1.1252465 -0.40973637 2.4160776 0.60793984 1.3184276 -0.8400748 1.8133056 0.3491603 1.3706766 0.89401037 -1.8625048 -3.2000322 -1.0305128 0.79480755 0.9015695 -0.029974699 1.5414212 0.6385946 -1.277301 -0.6890447 -1.2494785 -0.98298407 -0.5327756 0.6766379 -0.096480176 0.25648165 0.93099934
IBGH -0.11254139 -1.4129709 0.3258221 1.0610996 -1.7852902 0.98200023 0.50944513 -1.0838807 -0.38531548 0.13656253 -0.22358446 -0.8788606 0.035364117 0.4731626 1.1786039 0.23981017 -0.4040175 -2.2028606 0.6134568 1.608428 -1.3814837 0.9558365 0.9351422 -0.61407036 -0.37921306 0.6846012 -2.1076553 -0.11389894 -2.5906904 -0.03571043 -0.77484417 1.614425 -0.2997572 -0.75056726 -2.6309724 0.40809846 0.35231593 -0.52637744 0.06970324 -1.2788334 -0.43959183 -1.8310124 -1.2488561 1.2876276 0.4824494 -1.5399389 2.0864675 -1.9751598 0.7331189 0.66290426 0.9399072 -0.79559684 -0.5995531 -0.06410556 -2.1396997 -1.6065098 -3.0708475 0.9191171 -0.8059488 1.5120307 -1.9524721 -0.34440777 1.1853998 0.011721415 0.97006893 1.2952646 0.33442116 0.6266138 -0.20227778 1.4292916 -0.14067808 1.2544622 0.45615205 -0.13932386 -0.04357701 1.8121897 0.47388202 0.43387288 -1.2419568 0.10258534 0.60896486 0.8838404 0.15721835 -0.5831211 1.2360361 0.06322358 -0.5247793 1.7682776 1.0454466 0.55322516 1.0044718 -0.84678936 -0.6574247 -0.3931577 1.5091965 0.107219316 -1.4565047 -0.17739561 1.4247273 1.3504975
OZPN 0.0051169377 0.04474772 0.35935536 0.008930937 0.56437504 1.2382988 -1.0602795 -0.40944955 1.39881 -1.0053163 0.024393693 0.32040495 0.005876644 -1.7737746 0.47952756 1.939864 0.3961693 -0.28613985 -0.09816594 -0.2911048 1.3610271 -0.48461577 1.8759366 -0.047366504 -0.08558609 -1.5900258 -0.0063670147 -1.8758209 -1.1112616 2.0559716 0.17322777 0.7614502 -1.5407114 1.082558 0.6673062 2.2194228 0.44080496 -0.42413858 2.2166774 0.5438629 0.42093927 -1.0331829 1.6616318 -0.7605507 1.041877 0.044778958 -0.45006067 0.08273061 -1.116581 1.441055 0.6585649 1.3036339 -0.04084135 -1.2670683 0.37340882 -0.7986603 -0.5690473 -0.93380636 -0.20226367 -0.4301278 -0.59249973 1.0490193 -1.4156417 1.829993 -0.6495328 1.9627419 -1.5303946 0.74055433 0.61933464 1.97591 0.25042224 1.4026803 -1.4702356 -0.81170154 -1.0174673 0.120124094 -2.0695162 1.9239479 -0.50497705 1.117667 0.35033295 -0.6708297 -0.7103057 0.8020671 3.149343 0.2578098 -0.057521224 -0.54301596 -0.93003035 3.5466728 0.8758848 -0.20838228 -0.27648836 -0.22038645 0.8930198 -0.60771376 0.22163983 -2.558687 -0.9942434 0.5796877
PXTA -0.5517369 -1.3868986 1.1092776 0.6912742 1.749334 0.5824719 0.23653188 -0.08259625 1.7021344 1.3439811 -0.47403795 -0.8144197 -0.0043226904 -1.7772263 1.7070867 2.1385436 0.045284826 -1.4471909 1.9935526 -1.0040985 1.835584 1.4913867 -0.07024667 -2.4361634 -0.1575879 -0.2708736 -1.5141194 -0.04863299 -2.2894242 0.2010802 -0.3226948 -0.51599103 -0.52587664 -0.644556 1.5784516 -0.32525784 -0.18048786 -0.65087664 1.5893477 0.7762561 1.018583 -0.69804543 -0.6986802 -1.1332688 -0.5094575 0.14986522 0.059523124 0.04542304 -0.099072196 -0.2801662 -0.39727122 -0.31111518 -0.86175716 -1.7338744 -0.95282066 -0.0812042 -0.3003681 0.392759 -0.29268554 -0.83671653 0.1602662 -0.6517319 -0.34401223 0.65668523 0.8637332 -0.95862335 -0.44349444 0.25610927 0.50144285 -0.090598464 1.4511586 1.5098695 0.24079949 0.12493515 -1.4816587 0.91025406 0.24162987 1.7858818 1.0338235 -0.51621556 -0.32445556 -1.2438797 -0.14786974 1.0425651 1.4601094 0.3717581 0.030162353 0.4481332 -0.0015945554 0.2926819 0.019635646 -0.91320276 0.7161914 -1.1190463 0.3054149 -1.0809263 0.65454775 -1.101724 -0.43665588 1.9502983
QADT 1.169873 -0.34229842 1.9589723 1.8448763 0.67284036 1.0057662 -1.2982136 -2.1220129 1.6108221 0.9539471 0.016888993 1.4785318 -0.16723062 -0.54269826 -0.4956305 0.24501999 0.40996397 1.070768 0.40133247 0.38405424 -0.73591864 1.3678207 -0.9683314 1.1871687 -1.0804365 -0.28021163 -0.8092828 0.18995659 0.2181665 0.094622515 -0.42289147 0.9294805 -0.79680824 0.06581147 0.38205078 1.4765546 0.7457163 -0.3383103 -0.41135028 -0.32560244 -1.2461555 0.9405064 1.0225744 -0.38201603 -0.6479163 1.1267042 -0.5025629 -0.0477708 -1.6341604 0.523098 1.047345 1.1651242 0.10057821 -0.5718043 -1.4492623 -1.6213529 0.5313363 0.11073567 0.02827034 0.56765014 0.36675784 0.40518534 0.057569038 1.6685222 1.3410345 -0.16642313 0.37035474 0.35785842 1.0503392 2.613475 -0.43031383 1.3736198 0.6183587 -0.004221568 -0.43539584 0.24241021 1.14048 0.38562417 -0.7938286 0.6226427 -0.7336756 -1.2724864 -0.52189386 -0.057188034 0.16264565 0.5819442 -0.0021969522 1.6879873 1.6103367 -0.21596067 -0.62634856 0.95807785 -2.0213137 0.5113674 -0.30494466 1.6046823 -0.41934863 1.1903031 -1.0848913 -0.5164866
UJBV 1.6632422 0.43895674 -2.6467144 0.38924682 -1.012766 -0.10151651 -1.0795774 -0.54082644 -0.4869705 -0.51748633 -1.1390043 1.7480494 -1.2729986 -0.26834595 0.2418679 0.44857123 -0.2571832 0.8875896 1.8819981 -0.9736767 -0.008729487 1.9688814 0.6884759 2.1174476 0.5055786 -1.4379929 -2.1363637 -0.2313174 -2.480464 0.59104633 -1.3557615 -0.15580145 0.14625046 -0.6490838 -2.3078384 -1.153003 -0.5393382 -0.4134775 1.0987298 2.4851964 0.54198885 1.6621459 0.6257862 0.2835445 1.5297245 0.6802644 1.415913 -1.9266783 -0.6997194 -1.9573951 2.668626 -0.046951443 -1.3912711 -0.9594106 1.4155043 -1.5095271 -0.15061712 0.26836333 1.6545151 -0.5763466 -0.4233573 -1.2889508 0.65726554 -0.095579594 -1.0837245 0.59338117 -1.2702157 0.11067295 -1.7746129 -0.9898613 -1.3363442 0.8418041 0.46576464 3.0493815 0.36946297 -0.9629722 0.45230582 -1.6337994 -0.5428818 -2.3118234 0.73852205 0.1812246 -2.7012045 0.2604696 -1.3896172 0.41846237 0.41058475 -0.23261164 -0.6059098 0.37877116 -0.6262754 -0.94410676 -0.6012078 -0.5915708 -0.1426489 0.9332475 0.8624311 -0.54822046 -0.15777576 1.0915304
OMAL 1.2999556 -2.2470605 1.1239485 0.1785752 0.023053214 0.91795295 -1.3676852 -0.9171893 0.1679497 -0.35703045 0.24414606 0.05495761 -1.0879394 -0.59993166 0.72032624 0.7873231 -0.8737939 0.46380848 -0.21180253 -0.06178607 -1.1442871 -0.8836923 1.0426067 -0.79027367 -1.8390368 0.6438185 -2.5550463 -1.1113615 -0.7155646 0.49381077 -1.032963 -0.054177366 0.09728949 -1.1396197 1.434025 -0.13666211 1.0440784 -0.7582624 3.7274272 -0.8565252 0.2542987 1.2457861 -0.32157344 -0.7191134 0.5543407 0.37192637 0.648478 -0.5084273 -0.32270718 -0.6376985 1.1572456 0.34865427 -0.24909067 0.046998996 -1.3677571 -0.27164438 -0.87599736 -1.1683019 0.36104736 1.7029272 0.48774704 -1.8218226 -0.25603342 -1.5461314 -0.07617294 0.20519395 -0.6753383 -0.4260194 0.31759763 -0.4463732 -1.9956388 2.5618157 -2.4306345 0.0802274 -1.3951237 0.44221473 0.9248646 0.58450496 -0.4828679 0.25404492 0.36434987 0.07227025 -2.3724487 -0.5002646 -1.904956 1.1125802 -0.97845656 0.0033236572 -0.054767434 0.5326982 0.16319333 -0.24738112 1.0576149 -1.5072081 -1.0050794 -0.15687045 -0.20807698 -0.019888017 0.39855823 1.4619077
GKQO 1.4730691 0.48243302 -2.5712163 0.34683138 -0.8562413 -0.32541588 -1.0781323 -0.5984507 -0.13972406 -0.20113935 -1.0548625 1.6979195 -1.4532028 -0.474856 0.015436826 0.39644527 -0.34133455 1.163335 1.9362198 -1.1947049 0.10066945 1.839749 0.6539443 1.9978228 0.44956315 -1.2920086 -1.9559453 -0.3613857 -2.3809707 0.60139817 -1.4346572 -0.046191964 -0.050624188 -0.509689 -2.3407056 -1.4069977 -0.71657604 -0.5416682 0.93789417 2.4336576 0.6506722 1.6052219 0.7097305 0.28821805 1.2797424 0.67236453 1.5573591 -2.1440632 -0.89629173 -1.8195181 2.6075718 0.21994896 -1.3969455 -1.0876596 1.3772609 -1.5011884 -0.085499264 0.16852103 1.8932621 -0.372802 -0.529723 -0.9940946 0.85331625 0.05916685 -1.3313468 0.44593883 -1.2125483 0.080210455 -1.8099064 -0.96627736 -1.2049748 0.9456436 0.32303572 2.9217668 0.36747414 -1.0448403 0.46952292 -1.3229033 -0.5071404 -2.1684864 0.7392453 0.09756784 -2.7119863 0.013442227 -1.4194098 0.31331015 0.43074477 -0.16855232 -0.7846739 0.7343089 -0.80270714 -1.1600053 -0.22375838 -0.63566756 -0.13764101 0.7704952 0.7557886 -0.5309147 -0.21212475 1.0179809
LETO 0.72361964 0.19125396 -0.79550815 -0.3390805 -0.07865751 0.57794 0.78916967 2.130143 -0.3230576 -0.6031779 -0.21129394 -1.5274996 -0.8335455 -0.7557118 -0.13007036 -1.5024583 -0.7226504 1.6204426 -0.98590875 0.50353664 -1.6410458 -2.0192537 -1.0493132 0.82770383 -1.6678376 -0.7387356 -1.2794375 -0.5262535 1.2228925 2.40884 0.86198074 -2.177737 0.18437077 -2.316577 0.077285215 0.067767344 2.0683203 -1.4452802 1.3309989 0.74327725 -1.4215848 3.8770506 -0.52746385 -0.7846465 1.218008 2.1036518 2.0163097 0.6210537 1.5467867 0.64301807 -0.100664094 -1.6747108 -0.621053 3.0994997 -1.4826561 -1.1059513 2.0395966 0.29048553 1.2530963 0.97296673 0.89273155 0.17662096 0.34828335 -1.2509722 -1.0811318 0.53068334 -0.34366018 0.09982071 -0.3823788 0.13408637 -1.9249178 1.7382929 -1.1945033 0.73244685 -1.4324818 -1.2961069 1.3395766 0.6011018 -0.82066053 0.16719082 -0.40886784 -1.9826092 0.0070351507 1.0458274 -1.5669748 -1.2327375 0.54222834 1.9660953 0.3251737 1.1220708 1.30918 -2.2800786 1.7913299 -0.37941197 1.0998865 -0.013156092 -0.7012667 -0.31728566 -0.55257475 -0.3468917
IMOT 1.3137887 0.14728379 -0.16555965 -2.0168865 0.9301382 -0.83105165 -0.4453556 1.5347161 1.4174255 1.0434217 -1.9399147 -0.28383195 -1.2350097 -1.687722 0.846989 -0.6771769 -0.20992252 1.3146623 -0.0034078376 -0.12589979 -0.072682135 1.4869345 0.44907096 -1.487502 2.0230422 -1.5919082 -0.6941714 0.3911817 -0.48419923 1.0245228 0.07833334 -1.538009 0.031777713 0.84059715 -1.140686 1.412907 -2.3788652 -2.013291 -0.3037958 1.06644 -0.7304552 -0.2754875 1.1238961 -2.3913465 -0.75088304 1.1882309 -2.1568015 0.7628984 -0.2446742 -2.0159073 0.420021 0.71808255 -1.2004293 -0.9318877 0.8715931 0.27795038 -1.0273759 1.2597761 0.34138232 0.15837653 0.18197988 1.4717269 1.1086556 -0.079075694 1.495392 -0.9274414 -0.49482462 0.11603888 -0.27085504 3.0775478 -1.1901464 1.0153476 -0.5434882 -0.708797 0.8311888 -0.10795527 -0.0974194 0.17877129 1.474601 -0.9592328 -0.2101927 -0.071431436 0.2734529 1.471886 0.051822126 -1.0173815 1.1859868 -0.35682136 -0.5507713 -0.82595724 1.0128703 1.0155419 0.34841838 0.08240783 -0.099911004 -1.5115025 -0.94966835 0.64338833 -1.8781699 -1.0542551
TCBW 0.75333464 -0.9529468 -0.20099089 -0.08750649 1.2289503 -0.6226006 -0.31151697 0.42328942 1.7602115 -0.8347611 -0.85757846 1.3766696 0.12510188 0.6502954 -1.9021093 2.0116544 0.022301119 0.1285873 -0.035623506 0.52167296 -0.19566412 1.3793073 -0.87585324 -0.6484519 -0.93049866 -0.55096513 -0.86525553 0.21475248 -0.3638168 -1.2110324 2.3946726 1.2502846 -2.5046546 1.2949452 1.0063208 0.791616 0.905485 -1.0510268 0.264938 -0.0016098024 -1.1020052 0.8120067 1.0207785 -0.7743855 0.6435304 1.2080611 -1.3925567 0.76314795 -0.42135906 -1.6014358 0.0127811 0.6694307 -1.3150656 0.41705185 -0.37876204 0.59916174 0.31203675 1.2074527 -0.9807336 0.8634249 1.2135915 1.3396581 -0.2849499 1.6463845 -0.09435668 -1.2387726 0.6567426 0.30668533 0.03687089 0.5098095 -0.036589075 0.580007 0.6649932 1.5411614 0.64698815 -0.86741215 0.23571599 -1.7218248 1.0284355 0.80754036 -1.3915176 -1.0378473 0.26490232 1.740977 0.14225873 0.7496881 -0.5274035 0.7373613 0.85885715 1.0068569 -1.6945624 -0.4357941 -0.02140257 -1.2657684 -0.584988 0.9609469 -1.4417849 -1.4514229 -0.09646495 0.0073916656
MOED 0.8358387 -0.10261731 0.922421 0.27179018 0.7264373 -1.272379 -1.6306888 0.8659441 0.48853698 1.2810339 -0.27132243 0.025403602 -1.0247469 1.2814047 -1.1680658 1.2251552 -1.4319757 0.4797948 0.19979751 -1.0689676 -0.10739309 0.040440984 0.13880658 0.758617 -1.4644558 0.023064654 -1.1557398 1.5842993 -0.4562953 -0.04056158 1.5753508 0.27929354 -2.0034432 -0.44973955 0.05824479 0.7239205 -0.06193621 -1.9637389 -1.2471913 0.4916984 0.40179983 0.025726205 1.1732241 -0.30129227 -0.8744706 1.387666 -1.5289389 -0.07095055 -0.87239945 -0.7425681 1.8326218 1.2042363 0.5278994 0.37677297 -0.3130511 0.38706505 -0.797606 -0.27376577 -0.1310258 -0.3120359 0.4369084 -0.02347262 -0.25066105 1.7922039 1.4332409 0.48695847 0.3724165 -1.0924475 -0.7811647 -0.41376433 -0.7769213 -0.1554412 -0.7996238 1.884584 -1.340935 -1.8598005 0.365584 1.005891 0.2533305 -0.49767172 -1.2420869 -0.06309525 -0.9124435 -0.18953203 -0.81845206 0.19333354 -1.4131479 1.0805289 -0.033707734 1.0916321 -1.4377578 -0.2738017 -0.9978961 -2.0208015 0.2742863 1.4803411 -1.2120497 -0.39666817 -0.9023022 0.3495919
YLFA -1.5370954 -0.92539376 -0.012862999 -0.57527024 0.63374364 -1.9813508 -1.2693921 1.6896499 1.7879674 -0.21163915 0.6918022 -0.40638453 0.54332316 1.7908148 -2.8172243 -0.6742218 -2.4177728 -1.3333993 -1.7516611 0.8141246 -0.4644296 -0.11731399 -1.1625714 1.2342424 0.029042184 0.3982505 0.74061 -1.7977902 0.37337664 -1.098833 1.4226683 -0.36485967 -0.4284448 0.59235466 -1.7090006 0.5655901 1.1258159 -2.4037995 0.013140631 0.20065895 0.7181316 0.51073205 1.2476163 0.40437594 0.31904325 0.56375533 -1.1655122 1.2635125 1.5456342 -1.4509432 -1.3670049 0.11353512 -1.0566808 1.8717389 0.30686355 0.055131927 1.2266072 2.3142228 -0.7320769 0.015449927 0.47983477 2.3472528 -0.74036855 1.1222149 0.41294855 0.5133272 1.2466241 1.675906 -1.2651744 -1.0305207 0.5881383 -0.38213617 1.1205232 -0.07512203 0.2256973 -2.8501348 -0.3843304 -0.13592589 0.7438728 0.3578118 0.35751587 -1.1096842 0.4665481 0.59069675 -0.39624158 -1.0701271 0.124286674 0.47855356 0.12883216 0.8126614 -1.7299832 0.23190469 -1.0558691 -1.553731 -0.5421741 -0.65475917 -0.17041102 0.3023371 -1.6611714 1.2283927
FYBK 1.670628 -1.6001209 -2.0730727 0.83253384 -0.98669565 0.82746595 0.11084317 0.36971173 1.5424612 0.13857588 0.20249239 -1.2289418 -0.35374022 0.03777302 0.41953453 -0.68461585 0.43110797 -0.380498 -1.3278658 1.8235759 0.6795976 -1.6279552 -0.57460135 -0.5019371 0.9708915 -0.583403 1.9384546 -0.6796894 0.6033822 0.1243316 0.40323746 1.2938265 1.8594975 0.18505774 -0.7958448 -0.914711 1.1610535 0.7662634 0.18568751 -0.3280984 -0.038664684 0.35199842 0.93564785 2.089222 0.9381763 0.61172754 -2.5919936 0.54511786 -0.58095926 -0.63188535 -0.38161692 -1.4096035 2.4664242 0.89469105 -0.8864366 -0.5216036 0.26780683 -1.1280345 2.137486 -1.2698787 0.4280184 0.22300017 -1.0856712 1.4388921 -1.105772 -1.3202925 1.0082608 -3.1637106 -1.2575195 -1.5905448 -0.13490912 -3.5087519 -0.003640618 1.1320393 2.0201702 1.8635825 1.1733792 -1.5417435 -0.14565347 -0.21562251 -0.86600643 1.5373856 0.04007906 1.6520135 -0.79667836 2.0098581 0.19570561 0.08886651 1.0212739 0.9868449 -0.19353653 -0.4791281 -0.39926386 -1.3205582 1.2402064 1.4792331 0.9657397 0.6004525 -1.0124996 0.41539016
DFAW -2.2254183 -1.1076496 -1.3522053 0.5863054 0.3157017 -0.37028807 0.69685835 -1.0777086 1.7501193 -0.32263482 0.35978627 1.2434995 -0.51302457 -1.4231144 -0.50586814 1.0378383 -2.2750905 -1.1772299 0.8181486 1.9620949 0.4141565 -2.6918933 0.77780724 1.2309202 1.1376072 1.9736991 5.7874975e-05 -0.98714006 0.26346293 0.1700381 0.4373904 1.3124547 -0.052623235 1.4926122 0.17842014 0.80711764 1.1114645 0.1309174 0.66490203 1.6158723 -0.5181497 -0.5956696 -1.0323055 2.557524 2.0531178 -0.7016905 -1.4490033 0.6077647 -0.8519061 0.48533103 -0.07695334 -0.6912023 -1.5099094 0.9808364 -1.648375 1.6651073 -0.66926605 1.580606 -1.4695781 -0.21124461 0.8104417 0.8989124 -1.1542577 -0.81860614 -0.31296667 0.5536502 -2.1766484 0.49928588 0.7647319 0.8453871 1.4679394 -1.8996217 -0.19324742 -1.1479872 -1.0619012 0.5989966 -0.28161275 3.0975137 -1.0299994 -0.40771058 -0.51371497 1.6694422 -1.3466423 1.4092088 0.45405433 0.3220051 0.75226134 1.0784501 -2.384821 -0.1613886 -0.8495374 -0.020417009 -2.140445 0.2827385 0.24640478 -1.0712103 2.204331 0.8121995 -0.49520007 3.008713
QFCU 0.8494491 -2.473981 -3.316983 -0.99073595 0.42372283 -0.069039375 0.71876734 1.7307217 1.3535646 0.7096214 0.6387676 1.0606054 0.5038601 -0.15356474 0.49856248 1.3417475 -1.1694134 0.12055272 0.13323912 2.5255349 -0.24687234 -1.7819042 1.3139926 -0.17195368 0.23012924 0.010229898 0.23343652 0.039773412 0.27464578 -2.8440876 1.7148327 2.2085583 -2.527319 -0.40100837 -0.6018695 0.097005606 -0.24267364 -1.808902 0.6352657 -0.10493569 -0.25778776 0.2697207 0.32161763 1.1764934 -0.25704217 2.2303016 -1.9064131 -0.72893023 -0.28307655 0.5126138 -1.1871332 -0.039268296 0.7555237 0.6966483 -0.6537041 0.57352686 0.3942162 -1.6311285 1.5403434 -0.7020482 -0.40932348 0.91128564 -2.5076733 1.9483116 1.0990385 0.37510934 0.7586462 -2.032545 -1.6670084 -1.2256709 -0.7910848 -2.8067722 0.10994554 -0.24035594 0.74492556 -0.42551297 -0.6024866 -0.44364792 -1.597821 1.3638724 -0.8373459 1.6769729 1.1841539 0.9267858 -0.21451868 0.9860937 0.18067746 -0.40980363 1.9488566 1.0630709 -1.1948497 -1.4169399 0.21193388 0.27101383 -2.1184402 -0.6801026 0.20500037 -0.55732495 0.05392986 0.2808294
VFAP -0.87935585 0.2674029 -1.709646 0.49393305 -1.4419183 -0.9865889 1.2033598 0.26588047 0.030204214 1.4954795 0.90901697 0.6824976 -0.23858672 2.25037 0.7970083 -0.997942 -0.4018724 1.3867842 0.5403737 1.6228889 -1.066529 -2.2103615 3.3504515 1.3241763 0.08702276 0.9155265 1.9001386 -0.6731639 1.0432577 -0.6352885 -0.02085199 1.577938 -2.6622043 0.16182953 -2.4422488 -0.7767401 0.4773541 1.5740111 -0.47010508 -0.29362586 -0.04040006 -0.43647045 -0.84510547 -0.124283776 0.27900276 -0.32422104 -0.28983998 2.4480386 -2.112994 0.83427495 -1.6826892 1.4634885 -0.47685865 0.4256825 -1.5004004 1.4099088 0.6879551 0.3913574 0.9709414 -0.5984732 -0.96457285 0.5047697 -1.456041 -1.1374243 -0.7738826 -1.4872626 -0.8433421 -0.0248672 -1.1670604 0.59856397 -0.22775751 -1.1619068 -1.2538317 2.3250558 -0.11239858 -0.8455588 -0.5063273 1.7245715 1.2337285 -1.6388736 1.6196599 0.44828838 0.7837326 -0.16294701 -2.8162642 -0.535675 -0.73055094 -0.18177406 -0.19324172 -3.983909 -2.3484344 -0.02235339 -0.9856114 1.4806138 0.42960832 0.37551415 -0.36952454 -2.1647286 -1.2992827 2.3761458
GALQ 1.290798 -0.39328977 -3.658194 0.015013744 -2.5872135 -0.47978926 0.1678958 -0.63924545 -1.7455256 1.2767433 1.1482402 0.3213278 -1.5995053 0.35987243 -0.03965939 0.0005019833 -1.4476311 1.9798151 1.4382292 1.6438959 -0.79796684 -0.40073293 2.9465053 -0.6973764 -0.15634471 1.2102538 -0.96864456 -0.095449515 0.46303883 -1.5168414 -1.299534 -0.13250302 -1.0391619 -0.6446034 1.3292286 -1.0462675 -0.77266014 0.34484503 1.830621 -0.33828303 -2.1323862 -0.3720191 -0.060589872 -0.39195967 -0.27995554 1.1360615 0.34258714 -0.83279985 -1.4020934 -1.8027737 0.3702034 2.0528147 -1.3340015 0.43742314 3.3998222 -2.0739408 0.52681774 -1.0548081 0.36706337 -0.75824845 -1.4563284 -0.11490692 -1.3828161 1.4949741 0.21119905 -0.21548702 0.5927103 -0.45746216 0.16345507 -2.2879407 -1.965764 -0.68342924 -1.12236 2.4541323 0.19870956 0.21082494 -0.5698952 0.4562753 -1.5203164 -0.12558371 0.836944 -0.18873209 -1.3418437 -0.026075253 -1.432874 2.113268 -0.338664 -0.053859517 -2.0118165 -0.27928406 -1.3035504 -1.5711278 0.8772712 -0.677643 -1.4587253 -0.70027584 -0.04363475 2.850798 -0.5588862 -1.3634927
FWXY -2.2303808 2.210457 -1.9339415 -1.3442641 -1.7767087 -0.2341986 -2.7278483 0.22137447 -2.4968648 0.516597 -3.5082624 -2.1657789 0.372806 1.5257775 1.0637953 1.2108436 -0.6430833 0.6064877 -1.2754343 -0.7707302 -1.4458845 -0.74003744 1.4110191 0.845835 -1.5876013 -0.4654617 0.89583176 -0.3778969 -0.4780925 -2.2187154 -1.6142428 1.9373916 -0.70968467 -0.23674613 -0.18914416 -0.0625495 1.193268 2.088391 1.3450521 -1.2040067 -1.0362774 1.9819201 0.79703164 -0.107901424 -0.010113677 1.428716 -0.3494072 0.023487143 -0.69375867 2.7805767 -0.7012774 0.7472733 -1.2128963 0.251928 0.6319101 -0.20249972 0.21906628 0.47697815 -1.5878419 -2.2174604 0.87827563 -1.3388271 -0.1701021 -0.9987729 0.9045237 -0.8573941 0.1442399 -1.6547841 -0.2896966 0.69365764 6.0958348e-05 1.7181057 0.88987327 1.8774021 -1.3836162 2.4889798 0.06664384 -0.31857637 1.5203094 0.5391301 -0.20223472 0.3495063 -0.98287886 -2.4139354 -0.4607438 -0.5515521 -1.3712407 -0.7154892 -0.3308627 -2.0902166 -0.20338008 -0.81881523 -0.53019303 -0.6825317 -0.9155264 -1.7382601 1.520088 -0.9694037 0.40823054 -1.3190767
BHWK 2.5473733 0.30237463 -1.5464126 0.0025009247 -1.302581 0.74507374 -1.1379367 -0.39942643 -1.3925562 2.2265842 -2.4487977 1.3528415 -1.1638721 -0.4224963 1.0482388 -0.63248485 -1.1115593 1.5215681 -0.09496196 0.21325648 -3.056802 -0.7836892 0.8603698 0.09977751 0.23093002 -0.47959548 -2.4580731 1.9682574 2.5486898 -1.3047476 0.4102887 -1.4759479 0.16278867 0.11117545 1.227141 0.8162515 -1.0124829 -0.6222474 1.7939072 0.01643807 0.8076895 2.8481221 2.0890293 -0.944681 -0.43208486 1.2397724 1.32498 3.1473193 0.093481764 1.4366331 -1.8022029 1.0886517 -1.6902329 0.124991916 0.4110113 -1.5923141 -0.29938304 -1.6658548 2.1452544 1.1050112 0.14874499 -0.2654489 1.2269658 -2.0041971 -1.2342552 -0.8114264 -0.8893253 -0.37325516 -1.2623546 0.28034148 -2.4945216 1.0286149 -2.267197 1.830346 -0.08165921 1.4463836 1.0896081 0.014542326 1.7948892 0.26326424 0.041042924 -0.23166703 0.09572551 -0.11514251 -2.898507 -1.3044943 -0.8639874 -1.1334963 -0.38655314 -1.128594 0.551278 0.550441 -0.17021026 1.1721725 1.2212768 -1.6520506 0.5421 -1.8220501 0.6553579 0.19706117
QAHX 0.5387885 0.11340739 1.0436643 0.16708806 0.57078934 -0.93333423 -1.9611404 1.054821 0.32977477 1.2279575 -0.09598814 0.05201292 -1.1590828 0.99545234 -1.2636063 1.31431 -1.3349836 0.62902325 0.5090537 -1.3749118 0.18264954 0.14594309 0.11684096 0.8978287 -1.704959 -0.13467315 -1.4075911 1.322865 -0.5881183 -0.311392 1.6165313 0.4194096 -2.0142736 -0.46592948 -0.008486116 0.70627767 -0.36898166 -2.1327498 -1.3960485 0.48232302 0.5081831 0.20277952 1.3277783 -0.08617887 -0.8988837 1.4577609 -1.4529902 -0.10446821 -0.4764827 -0.7375623 1.6987135 1.0340483 0.60020715 0.5030747 -0.56690145 0.32154617 -0.32573164 0.04813361 -0.28759134 -0.48376548 0.12913229 0.021021718 -0.2946988 1.7106615 1.212301 0.31118923 0.3733361 -1.1047449 -0.80100405 -0.59936553 -0.48767346 -0.16654949 -0.9422271 1.7039322 -1.4565506 -2.054603 0.27236092 1.0100853 -0.11273402 -0.8353192 -1.1333857 -0.29978374 -1.2681041 -0.04855585 -0.88947797 0.10467453 -1.484904 0.90111005 -0.06619976 0.8675199 -1.5076904 -0.47822377 -0.8278458 -2.1055305 0.47594747 1.3420681 -1.3043859 -0.44512856 -0.86262053 -0.007184598
FIJA 0.64983296 -2.4478903 -3.6608906 -0.88880086 0.18537876 -0.17615949 0.98057026 2.0500844 1.0524137 0.79933035 0.40419748 0.8566386 0.6365683 -0.20860322 0.4635687 1.2192798 -1.2884773 0.11949661 0.39187872 2.4704154 -0.543684 -1.7501194 0.9830236 -0.15471983 0.34643093 0.18642046 0.35632133 0.7433228 0.34481168 -2.5776966 1.8376614 2.3633482 -2.379485 -0.17921568 -1.0324067 0.030337714 0.016788688 -1.6402273 0.6903685 -0.36346102 -0.368403 -0.1688685 0.33882812 1.4057678 -0.5724158 2.6153796 -1.6995347 -1.1058276 -0.41256928 0.54827404 -1.3053962 0.09263432 1.058728 0.6467025 -0.69863194 0.6257365 0.3401747 -1.2636318 1.6446241 -0.65903836 -0.53104687 0.869706 -2.4478638 2.0493977 1.1829516 0.3986246 0.7807456 -2.0137656 -1.3688169 -1.1818032 -0.79290193 -2.9929457 0.3213545 -0.10848143 0.45886347 0.050479382 -0.58683276 -0.3301989 -1.5620508 1.5328189 -0.55539215 2.1252723 1.0821807 1.0195916 -0.30454615 1.3150806 0.017431652 -0.15040061 2.1356235 0.97862166 -0.94759727 -1.4021581 0.24793477 0.18244927 -2.100498 -0.6603271 0.2949245 -0.3496712 -0.038341787 0.19518545
DLJG 2.171454 -0.19830723 -2.1670218 0.74614537 -2.7028997 -0.67141026 0.52981514 0.02001155 0.5122144 -0.22235164 1.7233647 0.7822642 2.054928 1.4864495 0.55633736 -1.4713838 0.3174415 -0.53273517 1.0489788 1.2300768 1.1364976 -1.1893804 3.2198915 1.0507853 0.44033465 -1.429754 -1.2960204 1.2423807 2.180571 -0.11933205 0.8242275 -0.32163993 0.9535162 -0.06492586 -0.07272208 1.2395177 0.31458396 0.42658466 1.8964691 -2.1135368 -0.965134 -1.8726072 1.2519656 -0.09781148 -0.21008265 0.45710066 -1.7296771 0.048311148 -0.17466049 -0.15083164 -0.24733573 -1.8400667 0.7002779 -1.4884415 0.17494582 0.5790616 2.1730514 0.36021957 -0.5810286 -2.1766226 0.0069087474 0.70878637 -2.6269903 0.4986341 1.7856244 -1.7400776 1.2770149 -3.665042 -0.7600102 -2.1120324 -1.7564038 -2.5896437 -1.9750366 0.5936979 0.5150026 0.75177723 0.99163795 0.2796773 -1.8754619 -1.3549625 0.67006326 0.045050938 -0.49878654 0.27301008 -1.7601128 2.0381365 1.2789063 0.67398536 -1.0902156 -1.400221 -0.2536932 -1.3741295 1.072776 0.5870042 -1.0400604 -0.7808332 0.6940789 -1.0789642 1.7928187 -0.053298037
EYRO -0.7161698 0.1611692 -1.7085268 0.23468646 -1.4585099 -1.040834 1.2498839 0.24152522 0.057971794 1.2935442 0.98392385 0.68376875 -0.4124835 2.3331857 0.9214974 -0.7733373 0.0072759925 1.4483523 0.36661813 1.4929256 -1.1486396 -2.40373 3.2250662 1.3601985 -0.050274655 0.98427016 2.0546525 -0.43993202 1.1834223 -0.8440701 0.13716918 1.6314816 -2.7169087 0.067520715 -2.269952 -1.1352589 0.58201766 1.7518309 -0.43062285 -0.16467777 0.24051401 -0.42059377 -0.7450077 0.143226 0.13447532 -0.3434218 -0.26038775 2.1877294 -2.3584216 0.6779185 -1.9103948 1.4479414 -0.7107614 0.50120205 -1.4619539 1.2021149 0.55234903 0.30727553 0.956326 -0.7474358 -0.96008754 0.30355278 -1.3276962 -0.9195449 -1.1315795 -1.7476217 -0.80006546 0.09647345 -0.9220798 0.4760304 -0.23710349 -1.2791336 -1.3393643 2.769242 -0.32884818 -0.7481128 -0.34951884 1.5860393 1.3428159 -1.8568809 1.6301888 0.4314972 0.6133728 -0.11580488 -2.5578105 -0.34908378 -0.6759886 -0.36383912 -0.152507 -3.633679 -2.335882 -0.10836285 -1.214885 1.043758 0.38554844 0.7352383 -0.47123986 -2.2065039 -1.0774128 2.524888
LGEH 1.4661714 -0.20494328 -3.6091745 0.13679963 -2.4997416 -0.3678207 0.049550682 -0.7236334 -1.8125595 1.2997483 1.0802335 0.14551134 -1.5341966 0.34158257 0.003993244 -0.27826366 -1.2628199 2.2210786 1.2014395 1.6127591 -0.923837 -0.3319545 2.6565936 -0.71087587 -0.4723446 1.1488916 -1.042628 -0.05965532 0.493702 -1.5840753 -1.3718909 -0.13283075 -0.98760563 -0.8695451 1.297582 -1.0396922 -0.864984 0.094814196 2.030224 -0.40830666 -2.001506 -0.2819887 -0.09445767 -0.26984364 -0.44943893 0.9773137 0.35719484 -0.9622701 -1.2891468 -1.1832551 0.32956684 2.0540316 -1.2190691 0.019847369 3.1636717 -2.0957818 0.72422564 -1.0261503 0.5191303 -0.66846853 -1.5441022 0.00054498843 -1.1027046 1.3914965 0.32802248 -0.22374515 0.40791214 -0.35098246 0.12133393 -2.445699 -1.6469766 -0.5899014 -0.9988196 2.5030568 0.31355673 -0.16104504 -0.69065726 0.60283816 -1.609249 -0.097837195 0.68602043 -0.28451902 -1.0188792 -0.039557155 -1.4963859 2.2024882 -0.42692748 0.29975596 -2.114745 -0.63961625 -1.5616882 -1.6819844 0.9139651 -0.2078644 -1.2680299 -0.907053 0.07126364 2.961303 -0.45850784 -1.3196986
HWQK -0.097769134 1.0356948 -0.4660732 0.054489203 0.526584 2.9767034 -1.2019105 0.73905224 1.3628855 0.77388376 0.35940313 -0.9558617 -0.7344889 -1.2486666 -0.68131226 -0.057924353 1.3100268 1.4375924 1.929094 -1.9672632 1.7668473 0.99715835 -0.943197 -1.108697 -0.3853533 -0.41704842 1.091281 1.5482333 0.6765261 -0.86403066 -1.3469199 -0.7752468 1.6015942 -1.1803083 0.7073818 -0.97436947 0.24712843 0.18119374 -0.24239646 2.219787 1.9396659 -2.460446 -1.7679193 -0.9833786 0.7304497 -0.57047933 -0.014461067 -0.19884098 1.3410679 0.44468775 -2.1556058 -0.34773737 -1.1226423 -0.66090745 -0.996027 1.4563416 1.0673404 1.5491619 0.24842304 0.1528131 -0.85275114 -1.3492581 0.79240304 0.3318585 -0.002334384 -0.06727183 1.886772 0.33677238 0.45390305 0.086446255 2.5572336 -0.3860443 -0.3213628 -0.58679914 0.083867095 -0.40357843 1.2222433 -0.40442047 0.42425874 0.8501289 0.72756016 0.7478617 -1.9624664 1.6477065 -0.860166 3.787541 0.94423884 0.43275905 0.90896493 0.06554886 0.045916863 2.315989 1.2571868 1.3175324 1.8836017 -1.5863817 0.91379124 -0.1107883 -2.4315434 -0.4048403
GUBY -0.40517235 0.24497406 1.0176868 1.9967713 -0.8004384 -0.10920658 -1.6251112 0.93526274 1.14789 -1.4246494 2.435318 -1.0360901 -0.57923305 0.41349998 -0.37921247 1.8777696 0.66402215 2.1511996 -0.48389465 0.24252564 1.1212701 0.21945389 0.28814662 1.038108 1.4511218 0.0483972 -0.7410767 0.4653065 -0.7574551 -0.18372181 -1.0333812 0.14199573 0.8783753 -0.07887633 0.52062684 0.30987927 0.73296505 1.4774452 -1.254769 1.7760298 0.27327874 -0.032639377 0.8685504 -0.32448554 0.7368098 -0.55301464 -0.64629763 -0.5174696 1.4498477 0.5393648 -0.07868507 -1.8226279 1.4407938 -0.39898595 1.4681419 1.5440711 0.7514895 0.3184459 0.9718579 0.99112475 -0.76747406 -0.9455377 1.4408951 -1.3683757 -0.56747997 -1.8427683 -0.20415959 -2.9158332 0.06474556 -1.4070637 -0.21769036 0.33687535 0.67027944 -0.37235734 -0.3506595 -1.3722832 0.41915467 -0.8625476 0.7462784 0.11559368 -0.016503833 0.6917637 -0.17894192 -0.52807367 -0.7512738 -1.0155249 0.63641185 -0.98704547 -0.1570932 0.6342621 -2.855036 -1.3947238 0.6202144 0.8313391 1.199879 0.92900634 -0.85120237 0.49948877 -0.029292963 -0.96250653
JUXF -1.0635902 -0.94046223 1.6252263 0.3895385 -0.4112537 0.31291613 -0.7608924 0.5932386 0.03684005 0.28569552 2.0825493 -0.69219023 0.25011706 1.3829921 -0.72083247 0.30183282 3.0710196 2.0545964 -0.123225056 -0.53891474 -0.5683714 0.23985708 -2.0709462 -1.2195419 1.7741233 2.4610124 0.7136724 -1.0108745 -0.7264777 1.5911169 2.1470196 -0.0651943 1.4004692 -2.776517 -0.17567785 0.13351883 0.94088936 -0.7150032 -0.22751004 1.0149778 -0.903093 0.36501965 -0.591373 0.89795214 1.7104793 0.21988331 1.5786302 1.6072829 1.545458 0.04205825 -1.3826278 -1.7004712 -0.10872543 -0.03056204 0.3892173 2.8952556 1.3842756 -1.7672452 -0.7711263 -0.1751021 -2.0618663 -0.5273904 -2.7174609 2.1111448 -0.28129435 -1.5089948 -0.37785575 -1.7682482 0.87045014 0.12759458 0.8503041 -1.0493165 -0.44431975 -0.56543505 1.4561299 -0.9526268 2.4328837 -0.8893028 -0.03594515 -2.9707139 -0.9692059 -1.6759268 -1.25622 -1.4871162 1.0148416 -0.9899429 0.92015284 -0.31755674 2.6764946 -0.6627691 -0.0055733626 -0.01509169 -0.92249364 -0.11721265 2.1648433 -1.8852946 0.36724102 -0.7064245 2.3207676 -1.106115
JBIN 0.3564278 1.4974805 -0.62413466 0.58514404 -1.4847922 0.8261592 -0.43735665 1.6264607 0.15788038 -0.49129385 0.36394858 0.87782514 -0.49433696 0.18359464 -0.7038443 -0.51051354 2.095441 1.518818 -0.94862586 -1.1211804 -0.18866171 0.7921163 0.5379542 2.0329273 0.40212852 2.2838385 2.2775204 1.3155292 0.98435503 2.0088515 -1.5878457 -1.0710787 0.26710576 0.72463274 -1.2888252 -1.1868623 1.4410539 0.025037909 -0.23966736 -2.9054673 0.14224409 0.22978717 -1.3844414 1.1391945 1.1368854 0.16304778 -1.4317151 -0.8985725 -0.11446204 -0.07753833 -1.442873 -1.8814975 3.0907476 1.1299256 0.5142092 1.8575914 0.029275691 0.6129306 -1.0963746 -0.5981971 1.1810585 -0.22448774 -1.7749196 -0.96710294 0.41685233 -0.98995036 1.0212246 -2.5163972 -0.8740714 0.26647425 1.3280667 0.2018135 -0.4731783 -0.26271108 1.114245 0.20406413 -0.3364089 -0.77660185 -1.3167486 -2.2238004 0.91058314 -1.5268312 1.0474225 2.0955582 -1.5537614 -0.8276457 2.2219644 0.23733744 -0.5708092 1.1093283 0.48663002 -0.39241537 1.7054325 -0.1866725 2.2632928 0.85352504 2.1408844 0.9856935 2.4550877 0.2401062
ADBX -0.10225548 3.443803 -0.09075567 1.2349371 -0.8454413 0.5762952 -0.8472505 -0.9437996 -0.8416713 -0.092239164 -0.3340927 -0.42958596 -0.8835014 0.844355 -0.12228291 -1.0573261 -1.3766068 2.173947 -0.5053829 -0.7296207 -0.48076785 -0.118707165 2.47635 -2.0288293 -1.5286398 0.4348058 0.5687501 1.0469471 2.2049642 -1.5725687 -0.52178043 -0.69520974 1.1493225 0.27928448 2.9250774 -0.065707274 0.34729436 -0.43570587 0.45441684 1.0146323 -1.3389477 0.70338756 -0.5407525 -0.46483412 -1.424639 -0.6023232 0.41429043 -1.8455946 0.21710895 1.2545723 -1.4937782 0.21639858 -1.0143887 0.3801851 2.9081903 -1.1919892 -0.42487782 -0.95507884 -0.5378474 -0.22883001 1.6985762 0.68171626 0.28323215 -0.7003517 0.65392935 0.15137596 0.28226474 1.1546721 -1.0423958 -2.312168 -0.40262446 -0.52928287 3.330563 -0.20274554 -1.4259918 0.81513023 -1.9815072 -0.48226795 0.10567057 -0.06591831 -1.1400328 -0.74739224 -1.0410659 0.25206712 0.5337734 -1.3787918 0.43471596 0.17148238 0.6866078 -0.014992619 0.535357 -1.1287266 -0.9690622 0.3128177 0.54380757 1.0389118 -1.282368 0.8552011 1.1752603 0.26349834
QXBG -0.25883538 3.389005 -0.18482327 1.2644838 -0.38445032 0.6078076 -0.7635203 -0.91172683 -0.7911607 -0.10928374 -0.13285634 -0.52072763 -0.7797587 0.5521657 -0.06739267 -1.2331661 -1.643113 2.0435972 -0.6048966 -0.5662426 -0.48381376 -0.34441116 2.361088 -2.09294 -1.4891602 0.5575291 0.59790486 0.6939749 2.405102 -1.1534592 -0.69018453 -0.9494633 1.1391034 -0.119069554 2.982935 0.14707513 0.39838645 -0.3289296 0.6524728 0.94901735 -1.3238088 0.871849 -0.406202 -0.3858442 -1.5079198 -0.38877553 0.7529605 -1.8722963 0.33022776 1.2145152 -1.4504839 0.01953225 -1.2543336 0.16451195 2.8243353 -1.0996598 -0.3428782 -0.97162557 -0.6002705 -0.03563616 1.4174254 0.5012342 0.33561352 -0.8288344 0.8493918 0.0940754 0.18072529 1.1477726 -1.0650154 -2.0871732 -0.31646857 -0.60461944 3.4094136 -0.5577215 -1.35305 0.6727752 -2.123229 -0.6462888 -0.12362452 0.022060324 -1.1695678 -0.7232372 -1.2136565 0.4376882 0.68165046 -1.3137139 0.39361477 0.22189502 0.96340984 0.022091517 0.24087125 -1.0659616 -0.8998439 0.4244606 0.55465037 0.97935104 -1.312281 0.76975703 1.2412301 0.40598467
QOYC -0.04790495 0.25377676 -0.18864793 -1.6280445 0.8126852 -0.1271893 -2.2297468 -0.4492582 -0.7850584 -1.7682347 -2.7784245 -0.21113235 0.6096623 -0.33158073 -0.3024611 -1.6427677 1.4069769 0.9132205 0.15394971 -0.6067425 0.41296273 -0.22596227 -0.23153172 -0.56938255 -0.39354104 0.72509503 -0.32068086 0.51476836 -1.1678689 0.15304464 0.81474346 -0.690162 -0.89587593 1.2749795 1.8998036 -0.13324445 -0.06042996 0.652448 -1.9217049 -0.13764155 -1.2963129 1.4458606 -0.85546535 0.5567764 -0.067630626 0.16221276 0.62008095 -0.2584351 0.78850615 0.82167 1.8400134 -0.12650853 -0.6973611 -0.5064116 0.49652556 0.060367987 0.91232204 -0.17821987 -0.88185245 0.0858775 -1.3465711 1.1447244 0.66800714 0.19324404 0.38296324 -2.7124898 0.1574075 -0.5648275 -0.6306266 0.47018227 0.27709064 -0.20203185 1.6723918 -0.22546561 -0.20119034 0.24849756 0.08246572 2.1452672 0.45463702 -1.24675 -0.7992564 -2.5762398 -1.5187646 -0.55803716 1.3881693 -0.15453397 -1.2839102 -1.5297025 -0.13201965 0.34355044 0.23811355 -0.6172169 -0.4676561 -2.596064 0.45117146 -1.7324864 -0.45573404 0.41235766 0.64546657 -1.5388485
WKQF 2.593623 0.41218314 -1.3715876 -0.28019974 -1.683042 0.6651172 -1.0613602 -0.44952828 -1.5123799 2.148636 -2.3915339 1.2706876 -1.2692226 -0.45801455 1.077331 -0.6511918 -0.74752766 1.3279482 -0.24528284 0.41751584 -2.8744133 -1.0312629 1.0927535 0.09051784 0.27502555 -0.3805925 -2.3173115 2.018365 2.5921297 -1.2980351 0.28045502 -1.7726952 0.30924022 0.17224175 1.2376354 0.72900945 -1.185996 -0.41978675 1.9134547 0.18556805 1.1895627 2.6589582 1.8452051 -1.508296 -0.33866066 1.0457562 1.4313365 3.303955 0.5912164 1.4307654 -1.9173931 1.1381656 -1.9491273 -0.073861666 0.43421626 -1.2562158 -0.56955725 -1.4494296 2.0368936 1.0635592 0.42637753 -0.31072074 1.1610807 -2.5168695 -0.9802521 -0.7642326 -0.6692852 -0.3355219 -1.213436 0.4427848 -2.3614397 1.0908163 -2.0583482 1.689839 -0.24673149 1.3740362 0.6280859 0.08356492 1.5737258 0.41401812 0.038621925 -0.1556392 0.30744678 -0.61524403 -2.7449594 -1.3634137 -0.9127297 -0.97329354 -0.4111716 -1.117156 0.5992538 0.60698694 -0.37257165 0.99731183 1.3197005 -1.6284306 0.64982617 -1.6787425 0.7669943 0.27547088
DJFA 1.5146533 -0.044756256 0.13746718 1.9389529 0.041786633 -0.14912237 -0.5254176 -1.7936041 -0.11719619 -1.5158082 1.0016204 0.33559152 2.807297 1.1132653 0.41101268 0.52538264 -0.7995255 -0.9429388 0.7445848 -1.8310335 -0.16470045 0.3706981 1.4485286 1.8389941 -0.7173879 -0.28982592 -1.7141982 0.41779783 -0.123080924 -0.86872846 -0.20480004 -0.06508722 -0.6282656 -0.408301 1.1665889 0.3946387 -0.28741503 1.0639203 0.86488426 -1.2415854 -0.61301553 1.328603 -1.0394212 -0.60542226 0.95107085 0.18028359 -0.35183206 0.82380205 0.9403346 0.31571478 0.065482624 1.988536 -0.2389209 -1.0684475 0.6642125 -1.5971657 0.049104244 0.2965481 -0.38676867 0.07128134 1.0847306 0.44047594 1.0306029 -0.3035254 -0.8258269 0.254508 -0.11664009 -1.6348386 -1.4747965 -0.47115004 -1.6938274 1.1922922 -3.3206275 1.218067 0.7872687 -0.31806973 1.0187826 0.05420317 0.6930972 -0.6998743 0.059353124 -1.4548541 -1.4203225 0.69492793 -1.6188401 1.5750669 -0.7568946 -0.27868226 0.27269372 -1.3224682 -0.37344578 0.4244807 1.3944868 0.45868364 -0.25881144 -0.19807723 0.031699464 -2.276275 -0.061566353 0.029362235
FJID 1.5952182 -1.8198245 -2.22902 -1.4454367 0.9416563 -2.3883266 0.7520534 0.6205349 -1.344657 0.9912227 0.6294463 0.5673658 -1.1671234 1.937289 -0.5959675 1.2880718 0.063855894 -0.21648876 2.042954 0.7539979 -1.3702135 0.53359747 -0.31194136 -0.13750476 1.8880892 0.46749163 -0.07634353 1.13308 1.1789204 -1.8650861 -0.98570997 0.21518657 -1.1522382 0.14112228 0.7387719 0.07226163 -1.0506167 4.152679 1.2311543 -2.910624 0.36339387 0.23160894 1.223316 -1.6129426 -1.6972767 -2.8087103 1.5638027 0.5169804 -0.2238072 1.8074332 -0.21657148 0.30178994 -1.0310531 1.2033979 0.15638678 -0.59388506 0.32747987 0.77962476 1.7605258 0.9937359 -0.3692891 -1.899664 -0.86842895 1.6101538 1.24422 0.17295107 -1.5111941 -1.4141983 -1.5327489 -1.1375585 -2.1111662 1.1066397 -2.2213564 -0.8917504 0.584502 -1.5837914 0.011334501 -0.7162381 -0.9354424 1.938099 1.9782345 1.035624 0.4747653 -1.1153452 -0.6785992 2.8108525 -0.2618856 -0.9014966 -1.0497233 0.24561526 -1.6515374 -1.7366105 -0.40206978 0.55865073 1.5184158 0.2846694 0.4684495 -0.19764917 2.3249247 -0.76278764
NPCQ -0.15853259 0.31902346 -0.12475277 -1.5504525 0.73661053 -0.35050502 -2.116854 -0.34237003 -0.99153334 -1.8139381 -2.7811537 -0.29482695 0.67808664 -0.3471453 -0.33749425 -1.5149729 1.5045419 1.0989784 -0.13187003 -0.8096146 0.7709778 -0.44844744 -0.074392535 -0.79037696 -0.8373751 0.59517807 -0.60001737 0.3670005 -1.0914646 0.11609913 0.6793439 -0.54019725 -0.70859224 1.1996126 1.8059789 -0.123615414 -0.55467826 0.40225008 -1.7266577 -0.072060905 -1.7350111 1.14221 -0.65040725 0.30195856 0.075007915 0.14447734 0.85659385 -0.44235364 0.8088184 1.3077219 1.7978239 0.077046774 -0.1625953 -0.7268696 0.4851081 0.4835321 0.8430817 -0.1277046 -0.9153551 -0.16666198 -1.2327381 1.168259 0.7801154 0.21899267 0.20074537 -2.6568873 0.25342628 -0.5433887 -0.35626823 0.55387115 0.4976283 -0.27139917 1.6866866 0.006537099 -0.2855975 0.3770597 0.47090015 2.224621 0.82553947 -1.4388412 -1.0078492 -2.4553223 -1.379286 -0.75949436 1.898418 -0.1429442 -1.3648288 -1.5720155 0.29185832 0.4529268 -0.013756571 -0.5388682 -0.19709678 -2.2597342 0.3482725 -1.5306699 -0.27662355 0.39716923 0.8420228 -1.7381076
UMIQ 0.06263115 -1.0168593 1.0952996 -0.72819656 -2.5378041 -2.7205951 1.487441 -0.7899666 -1.2902713 1.5679189 1.4036719 0.5518735 0.8879212 -1.1057599 -1.3100518 -1.0996367 1.015845 -0.44798294 -0.5151168 -0.9927397 1.7923987 -0.6020775 1.4356208 0.48271742 -1.7645144 -0.6752719 1.200321 1.5743735 0.34641322 -1.4401485 1.0099005 -1.2033365 -1.0582317 2.0474365 0.94961286 1.3061131 -0.14607765 1.587672 0.42172587 0.012259428 1.0557162 -0.9236256 1.2597696 -0.60202247 0.1384328 0.5606865 -0.020131284 -2.0816677 1.4844261 0.43961078 1.1319367 -0.015457868 -1.0709429 -1.0744493 0.35286623 0.80716753 0.6326083 -0.46457392 0.16361322 -0.14690973 2.4396012 0.16741532 2.0114694 -0.9057413 -1.3717542 -1.5034388 2.3037753 -1.3605247 -0.7959708 -0.7496379 -0.079180546 -1.9462231 -0.006682352 1.2116486 0.38529298 -0.7919017 0.70782214 -1.5059003 0.16968147 1.811267 1.4336461 -0.7831086 -2.0314088 -0.4979564 -0.90018845 0.27316156 -1.1923422 -0.42062375 -0.45002133 0.90570724 0.96242154 2.0731525 -2.693434 -1.4100406 0.8913104 -0.5936912 1.4828757 -1.4360242 0.5592765 -0.74597603
RVBW 1.1336875 0.31855354 1.3656164 -0.79327995 -1.7788652 -0.83662283 0.88117087 -0.15927424 1.2050679 2.0270743 1.4767818 1.1245611 0.6965284 1.9235785 0.70809746 0.13115595 1.8751873 3.0567608 -0.1674239 0.775651 -2.4396455 -2.169864 0.63345844 -1.1267027 -0.84564805 -0.3488435 0.3275453 0.2925864 2.2041965 -1.2526292 -0.2390593 0.09232325 -1.6095642 -0.19612789 -0.7181431 0.39334565 0.6980479 1.1115043 0.2299807 -0.4144986 -0.5868605 -1.0007813 0.7024028 0.7557464 -1.053392 0.27070093 -1.2103459 -1.7831069 -1.1098496 -0.9578106 1.4089224 1.4829625 -0.6935939 -2.4060183 -0.043838598 0.87530744 1.6029869 -0.15485016 0.65839654 -0.4392936 -1.7138306 -1.5982498 0.9265576 -0.81599647 -0.5427026 -0.83292127 -0.3240326 0.15475357 -0.8040388 -1.1072061 -0.6393077 0.6862732 -0.30513293 0.38114235 -1.8480343 0.5901968 -0.7938717 0.8395837 0.33241564 -1.5652773 1.4446241 -1.9302382 0.5967769 -0.26100886 -2.1218493 1.829728 1.3190147 -1.4382769 0.88332 -0.777143 -0.56049836 0.85632473 -1.057125 0.3667644 0.6653097 1.7864362 -2.32831 -0.7308242 -0.22719699 1.6731945
QAMU 0.5781673 0.011720751 0.45772862 -0.05935705 -0.63393617 -1.0366446 -0.73012054 1.2529912 -0.5053045 -0.12003832 0.5890458 0.20535648 -1.3997519 1.1786275 -0.53468335 1.1726642 0.05481551 0.26920384 1.7487419 -1.0144298 -0.061928373 2.098021 0.53406614 -0.8483702 -0.57015294 0.11228046 -1.8317517 0.7890592 -1.8366779 0.17762165 -0.42913502 0.47389913 -2.037209 0.85048854 0.77550715 0.40536422 -0.48325902 1.6722914 0.3142271 -1.9498175 -0.27164513 -0.9491004 1.1579213 -0.8301639 -1.3333807 0.40623668 -0.4256983 -0.243914 -1.6447837 -0.081815615 0.8475928 -0.38331887 -0.30396172 -1.1655797 -1.6050558 -1.8028436 -1.1842965 0.92038816 -1.0621855 -0.1740194 -0.41744316 -1.5710652 -0.2844816 0.9543447 0.44163424 -0.47662896 -2.2111762 -0.5585707 -0.7752568 0.2717831 -1.3532633 1.5653992 -1.3339304 -0.2859503 -0.20772853 -0.97061634 -0.15753794 0.36334476 0.009947444 0.77636546 -0.3996441 -0.68215835 -2.6850576 -0.24330835 -1.2431834 1.3695496 -1.6331928 -0.39952478 -0.5422181 -0.7495916 0.59642947 -1.7511991 -0.030699117 -1.6830953 1.6509874 1.1902493 -2.2343912 -0.5740205 0.26251316 0.39945582
ISEG 0.8087606 0.5974448 2.7688816 1.5200944 -0.72385275 0.14766335 1.6353431 2.5697331 1.3119309 0.998387 -0.6651801 -1.1209663 -0.11780477 -0.85470074 2.1362722 1.1309627 1.1444197 -0.4714444 1.7527927 -0.6884396 1.8680291 1.6439493 -1.1048872 -1.9648595 0.7963354 -0.86949694 1.7829812 1.6106074 -2.047275 1.3447729 0.13559614 -1.6211308 -0.29400674 -1.0117484 0.9671184 2.336028 1.3748744 -0.90395063 0.3483515 0.7984468 0.74422175 -0.14267312 -0.85005224 0.8029201 -0.27324817 -0.6487508 -2.266855 -0.86426663 0.12900059 -0.280797 -0.2971998 -0.2523123 -0.5140965 -0.856531 0.33268687 1.4239994 0.91131306 -0.57834744 1.9810932 0.72228277 0.19327213 0.88587517 2.557716 -0.7010222 1.1509511 0.8697062 -0.045083907 -0.015777608 -0.082481556 -0.50880635 0.364104 0.71989435 1.0150402 0.45823303 0.5736431 -2.1758256 -0.68080264 0.59293306 0.85886735 1.2298105 -0.10590023 0.4215491 0.18731381 -0.19374084 -0.74988115 0.78066057 1.0442764 0.26815864 -1.5221747 -2.9484222 1.2736771 2.7367947 -0.30279735 2.4639614 -1.2089161 -3.0832343 0.6937838 1.6966245 -1.2670026 -1.3091546
DZMQ -0.35814556 3.468738 1.4178672 -0.5358764 0.47606096 1.9729992 -0.80236495 -0.5753488 2.1929862 1.2201746 0.9187306 -1.2868726 2.932705 -0.9119794 0.03240885 0.9430399 0.61088574 1.4448267 2.3048222 -1.4124868 -0.28407484 -0.45163584 -1.6712048 -0.823365 1.5903753 -0.45133018 -0.04111356 1.9696645 2.5835814 -0.46347946 1.7461782 -0.89556915 1.246244 2.2402558 0.26164243 0.53395957 -0.125246 1.4822053 -1.0074703 0.20256576 -0.14677273 -0.45704237 1.6369362 0.56418335 -2.0657003 2.4283142 1.0079519 -2.359915 -0.41474247 -0.8135826 0.2556825 -0.14606647 -0.06410491 -2.7157052 -1.1712972 -0.69325465 1.6769886 2.481761 0.58697945 1.6671548 -1.7203996 -1.2025269 1.9419684 0.6718947 -1.2408055 -1.8673433 2.6620924 0.664421 1.3719448 0.29293516 0.4538982 0.17884356 -0.002939972 -0.8203877 -2.304228 -0.9738673 -0.2953255 -1.6402539 -0.6341389 -0.68545616 2.3377833 0.95102316 -0.6791835 -0.15736894 0.21177648 0.27877268 -0.25917655 -0.2381192 -0.6868387 -0.5503768 1.1780311 1.1801037 0.013147601 1.4949344 -1.7330565 -0.914942 2.0395424 0.5034981 -0.78760177 0.10363084
DKAP 0.23800714 -0.3731323 1.438005 -1.5483485 -0.7651769 -1.6774287 0.57494164 1.5322973 1.1437732 -0.087035105 -1.2905287 1.2100557 -0.8119076 -0.6205555 0.48636284 0.11774642 -0.7570269 0.8305164 0.020219937 -1.0210294 1.5394397 0.0694732 -0.29763234 -2.0370631 0.03682198 -1.173293 0.758167 1.8480737 -1.936773 1.1369936 -0.07276232 -0.8197414 0.6796729 0.9047211 0.7600081 2.2213578 0.642559 -0.71264035 -0.8598858 0.547542 -0.6587864 -1.6930809 0.26368338 -0.7067971 -0.44502696 0.18549913 -0.8174611 -0.2536522 -0.78593373 -0.9563235 1.8287369 0.107502714 -0.5344427 -1.0785692 -0.48549104 0.90130454 0.86513096 1.2998065 1.9528488 0.7117497 0.77963734 2.043171 1.7916332 -0.4684319 0.8174694 -0.9876169 0.22500503 1.3731389 -1.2935085 0.9639297 0.6401961 0.5647276 1.5966419 -0.72357774 0.3795394 -0.784 1.4775684 0.099437244 0.5686415 -0.101900406 -0.842769 -1.551367 -0.018585019 -0.06516222 0.10155156 0.54925543 -1.5011 -0.24188103 -0.47493076 -0.7435786 1.4100772 1.1061107 -0.045485333 0.6548013 -1.1889603 -1.0785253 -0.08529053 0.33483946 -1.0691125 -1.1272501
AUCJ -0.7383918 0.38723028 1.1756375 1.3605796 -0.8466616 -1.2202936 0.32600814 0.9419513 2.0931768 -0.42603192 0.4585522 -0.16857064 1.1653861 -3.4211173 0.44983292 1.5755311 1.2641028 1.6235777 0.06049288 -0.8999783 1.064662 0.56319237 -1.4192061 -0.47087187 2.1385913 -0.70241106 1.1758226 1.6921233 -0.80866605 2.071187 0.43441316 1.6960605 0.14147864 2.454686 -0.7630322 2.9566903 -0.029866384 -1.5926169 1.7527562 2.3656816 0.33507407 -0.7137665 0.47962564 0.4438056 0.49261165 0.10363147 -3.5245106 -0.6188096 0.58950627 2.1102273 0.5668984 0.13819912 -0.500977 0.3924956 -0.21889645 0.9785095 -0.4931577 0.064042 2.0098631 0.41690555 -0.011756932 1.4473051 0.17322189 -0.7702216 1.5017205 -0.23864529 -1.8879787 -1.047206 -0.8712926 0.916763 -0.16027556 0.7718314 -0.27757528 -1.5401833 -0.9141495 -1.3991773 -1.1019589 1.9925998 0.26709947 1.1945354 1.4321814 2.6422396 0.1225707 2.2778044 0.6270965 -0.41031712 1.4300113 1.586391 -0.33768672 -1.1067289 0.6120489 1.0365633 -0.587943 1.4709778 -1.5204417 -2.314076 -0.011399476 1.1627392 -2.5658934 -1.4119065
XTHN 0.150239 -0.9166375 -1.5602347 -3.6602132 -0.8584171 2.2040393 -0.40700936 -0.5879594 2.5980644 0.4023009 0.87411124 1.4863151 0.11885691 -2.5041356 -0.4230866 0.70163715 1.0845228 0.031710494 1.4128083 -0.4931179 2.1799362 -0.3311827 0.5013046 0.23914997 0.009770249 -1.3734199 0.8919509 -1.9566082 -0.5894049 -0.3647177 0.17808093 0.286124 -2.4735634 -0.48735934 1.8312479 1.1334904 -1.5347809 -0.38162905 -1.228235 0.14105493 -0.60248387 -2.726629 -0.80817926 0.4225928 0.73749036 1.0950816 -1.2034068 -0.60038507 0.7987686 0.8965385 -1.7094988 -0.5814128 -2.2902575 -0.74957985 -1.9215851 0.069289476 -1.7512923 0.01224238 -0.094646715 -0.7313032 -0.08825317 -0.17577405 1.517642 -1.2849257 0.9590665 0.11051725 1.5588992 -0.7505728 -1.4739908 2.0808773 -0.1988437 0.27920175 1.8572152 -0.47384763 0.57574135 0.03545919 0.6590735 0.5002154 -1.6823876 2.2258341 0.9024272 1.5968215 -1.1390095 -0.13855259 -0.3554891 -0.4261016 -0.5163672 0.9303899 2.4804535 1.0259405 -0.73855495 0.11808646 -0.46320483 -2.17065 0.24397495 0.03673463 -0.5779935 -0.18178944 -0.85480136 0.9622981
NCEO -0.2991208 1.1953702 -0.06773116 -0.4075866 -1.3960629 0.24106316 -0.103234775 -0.9970296 2.584649 0.41754335 0.10320205 0.42762265 1.1679007 -1.6457524 0.94670445 2.1345062 0.4846776 1.7696545 -1.3520532 -0.49535725 0.9136964 -2.8167155 -1.5438857 -0.759035 0.67942214 0.11489807 -0.8365351 2.3782744 2.8288224 0.24469241 0.0064621046 1.2537484 -0.004383114 2.8161075 -0.39948568 2.622218 -0.32062623 1.5886043 0.34546915 1.0374748 -1.2042513 -1.0222751 0.64983696 1.812929 0.8952603 0.7443797 -0.76482767 -1.2303019 0.46645337 2.6725874 0.91683674 -0.47839037 0.49927557 -1.3010876 0.85462946 -0.023559518 0.2412875 1.1864426 0.20359416 0.38486174 2.226109 1.4572843 0.5155456 0.0060253106 -0.477821 0.03771406 -1.053628 0.08523367 -0.3264356 0.3367856 -0.9440667 0.3001438 0.65977955 -0.6418384 -1.7055953 1.6282868 -1.0278201 1.1071901 -1.017136 0.46635014 0.33647048 0.014901205 -1.592 0.21528813 1.9855313 1.4077573 1.47268 0.62538713 0.27234343 0.2697396 1.0267086 -0.8263034 -2.426665 0.18550615 1.1667969 0.30822778 -0.052582312 0.90492135 -1.0345824 2.7053368
ZCTK 1.2975292 0.2553116 1.161775 -0.68468326 -2.0279543 -0.5608171 0.75231093 -0.40399048 1.1978517 2.066232 1.6706015 1.1190416 0.60693115 1.8655885 0.69045305 0.16659309 1.7617548 3.3119655 -0.4384564 0.4984165 -2.2704144 -1.8514931 0.6212352 -0.59940445 -0.75193983 -0.34088418 0.37059006 0.03779215 2.2206316 -1.1325183 -0.3027906 0.23707274 -1.9444507 -0.565273 -0.68096876 0.40141326 0.7344014 1.0749211 0.2862856 -0.2550998 -0.5701696 -0.8269905 0.8067618 1.0133095 -1.2182498 0.5844563 -0.96624446 -1.7997383 -1.250929 -0.88820404 1.401352 1.6935807 -0.7676491 -2.2380974 0.05471295 0.8555852 1.8269413 -0.54176766 0.54599166 -0.36383218 -1.7368431 -1.4772271 1.033901 -0.85631186 -0.4461412 -0.81056494 -0.38660863 0.26165745 -0.7578674 -1.0842524 -0.92613333 0.7135698 -0.067152284 0.48679966 -1.8388457 0.30372274 -1.0049814 1.0225099 -0.12450256 -1.5309 1.5061166 -2.239933 0.58563906 -0.47161812 -2.142537 1.8505583 0.94054496 -1.2527013 0.80795157 -0.8396538 -0.64481896 0.765496 -0.70343655 0.40560484 0.324769 1.9035012 -2.5438578 -0.732062 -0.21949215 1.8648144
RXOK 0.6328043 1.642405 0.39997923 -1.5081847 -0.89393455 1.4024521 1.6843984 -0.5436143 -0.43736917 1.2403032 -2.2578037 1.5807465 0.4069145 -2.097471 -1.290822 -2.6341844 -0.6458663 -0.19405004 0.41257343 2.5568304 0.9797502 -0.6473955 0.27832037 1.4226991 -0.23184484 -0.56479305 -0.6592032 0.39005524 1.297334 2.3189847 -0.882734 -0.86082935 -0.005466424 -0.50938034 -0.5154837 0.07267475 -0.70887834 1.6022354 -0.042906437 -1.3427976 -0.271889 1.5921959 -1.2020025 -0.40820873 -0.9461243 0.01954979 -0.36753726 0.6427703 -0.9264078 -2.2090883 0.13259259 0.86403775 -0.3114131 0.4668729 1.0600504 -1.7018213 0.5939168 -1.530342 1.8194919 -1.0473744 -1.0085645 -1.0798342 -0.16484646 1.3327847 -0.4376915 1.934184 -0.7449694 1.1357161 1.2318633 1.2573918 -0.2224494 1.2875162 0.32422525 1.3252332 0.81006384 -1.1842993 -0.24531223 0.2734743 1.1632262 -0.26619956 -1.2032142 -0.8521612 -0.19480944 -0.48082256 -1.0006582 -1.6196163 2.4765747 -0.5515275 -1.057137 0.8720853 -0.6448164 -0.047702245 0.09577777 2.4101558 -0.7911777 -2.1719446 -2.5438838 -0.38838062 -0.8341595 -1.6755731
