WGHM -0.41217694 -0.28418857 0.32516918 0.17325583 -0.32628912 0.6718509 -0.22986068 0.14662117 0.5624998 -0.6952455 0.31335804 -0.7169459 0.01871114 -0.30694193 -0.36206767 -1.0590227 -0.3334064 0.88343346 0.34816906 -0.23631763 -0.18237172 -0.043397512 -0.5247594 -0.43667492 -0.3622257 0.18656181 -0.55492806 -0.40514576 -0.429216 0.4285395 0.35495722 -0.16647848 -1.0787319 -0.029628133 0.38405472 -0.1435567 0.6522129 -0.09444316 0.57593256 0.9596084 -0.8635916 0.10061823 -0.62166077 -0.58648854 0.29528058 0.6625754 1.0381037 -0.46223563 0.17466389 0.2736349 0.8361146 -0.2902568 0.2581965 -0.039815523 -1.1110542 -0.6405061 -0.97119063 -0.42576364 -0.22936901 0.46770862 -0.5562468 -0.44891292 -0.43921265 -0.21545681 -0.5975217 0.9538956 -0.13984486 0.40766847 -0.4799785 -0.17683716 0.4921708 0.96929115 -0.97415155 0.19610542 -0.8543772 0.5274317 0.05356654 0.06942279 -0.85071045 -0.24555199 1.1989471 0.8261557 -0.47551122 0.9346334 -0.59542656 -0.3196925 -0.3578998 -0.15895806 0.26713914 -0.4384907 0.028038964 0.050144147 -0.16750698 -0.20135479 0.3541236 -0.2956708 2.0288682 0.3264466 -0.53993094 0.5308962
ATDU -0.3703776 0.07172342 -0.44927624 -0.24527048 0.47171348 0.3970037 0.6720946 0.26813993 -0.1450493 0.89863837 0.5825869 0.28228298 -0.2501959 -0.8536813 1.391991 -0.24238096 -0.36914405 -0.43160066 0.58718383 -0.49532062 0.25019634 -0.051802818 -0.4339531 -0.6934117 -0.9083229 -0.07202297 -0.090764835 -0.60800135 -0.42340305 1.1412665 -1.05202 -0.4626209 0.09049024 -0.020223401 0.32654002 -0.22215949 0.95956624 0.3070663 0.42199215 -0.09266952 -1.13741 0.15064795 0.34425655 -0.13325576 -0.4360786 1.3693643 -0.62548643 1.1480842 0.28199628 0.42753488 -0.41989663 0.4492866 -0.09599582 -0.23667414 -0.12463463 0.046923555 0.8448357 -0.8453367 -0.4718158 -0.74252796 1.6833166 0.20080929 -0.35946167 0.3806481 -0.3630414 -0.14002766 0.35004613 -0.2981409 -0.787511 0.1790928 0.15246394 -0.70049435 -0.055573292 0.10701943 0.32489702 0.6123223 -0.079093516 0.6061996 0.45375517 0.4910857 -0.36154526 0.3758867 -1.2683002 -0.6334042 -0.6053936 -0.8396664 1.1522224 -0.37388566 0.28197747 -0.5798254 -0.6655205 0.17206864 -0.09445226 0.35656598 -0.065526895 0.5768227 0.998769 0.7523085 0.9839133 -0.25038198
DLFR -0.7953182 -0.111464836 -0.73626935 -0.5374647 0.008296375 0.52267617 -0.1587104 0.1746591 -0.35380736 0.32998514 -0.76028395 -0.6474661 -0.42965147 -0.47645885 0.5786616 0.29087597 1.1408987 0.13491106 -0.006888208 -1.2558767 0.03465496 0.0030383342 -0.14085987 -0.99035573 -0.9552858 0.6961255 -0.029041244 -0.9362595 0.153529 0.3270904 -0.69293743 0.8481733 -0.558326 -0.4998882 -0.4675249 0.21023771 0.59137017 0.42978314 -0.030647349 0.6114525 -0.39290723 -0.107575685 0.49758914 0.25254652 -0.119670905 0.81120133 -0.6670251 0.6270454 -0.10923019 0.20441227 0.71001 -0.73206294 -0.015029414 0.05117105 -0.8378194 0.42931196 -0.30664665 1.295679 -0.29385638 -0.2517125 0.43856147 -0.29062778 0.35609 0.24497291 -0.8627787 -0.27816632 -0.1182893 -0.37912828 -0.107587844 -0.33346406 -0.3822269 -0.5035576 -0.21583688 1.3978406 -0.42467085 1.4627216 0.2975282 -0.68794245 0.6817269 -0.46309388 -0.3740995 0.058310505 -0.3561389 -0.39289835 0.5109735 -0.24455503 -0.40907583 -0.83638996 0.21929443 1.0606674 0.38032433 -0.41916585 -0.49405026 0.659189 0.020290738 0.38818944 -0.0611237 -0.65749735 0.07844429 -1.3531795
SJOD -0.5931549 -0.36001226 -0.29721713 -0.42079577 -0.75161415 0.048059512 0.36971912 -0.23299216 0.15827629 0.38832262 -0.10738699 -0.04959957 -0.9162104 0.9075447 -0.61124605 -0.6048087 0.9639772 0.97569406 0.30774054 0.17719318 1.6070431 1.3590281 -0.2800257 -0.48382038 -0.5324846 0.66058415 -0.7260347 0.30679417 0.1292942 -0.7701954 -0.078819595 -1.2712739 0.058499098 0.029979004 0.26910788 1.127481 0.47361675 0.6526212 0.11541282 -0.07711979 -0.22154379 -0.22748327 -1.1742954 0.36639762 0.79553705 0.14973846 0.07075003 -0.6120953 0.6598345 -0.25697583 -0.6642002 0.70281297 -0.56578934 -0.7952706 -0.4543273 0.5520514 -0.24349639 -0.358231 -0.6488442 -0.08794317 -0.4136786 -0.7019405 -0.481448 -0.12364409 -0.1572868 -0.7800787 -0.51381063 -0.39290187 -0.1995033 -0.10330043 0.65615517 0.76779276 0.1892922 -0.06482551 -0.41618136 -0.41389403 -0.22957207 0.41872093 0.005312033 -1.4435115 -0.10013756 -0.42654902 -0.74361086 0.46026057 -0.79651463 -0.7253455 0.59410983 0.9768711 0.033838194 0.44098338 0.0012260351 0.59838754 -0.12517715 -0.45267233 0.56859624 0.22210386 -0.45610857 0.7355502 -0.86163425 -0.4899393
EXLM -0.90358686 -0.17423527 -0.2959214 1.6138437 -0.7459917 0.11232495 -0.7796602 -0.8858942 0.006390231 0.59875524 0.38695166 -0.93771493 -1.6099252 -0.74360406 0.030609805 -0.25934356 0.2557138 0.5087943 0.760475 -0.13360597 -0.529856 -0.5298196 -0.19038276 0.8573452 0.3894906 0.2028463 0.5056411 0.038611628 0.096116245 0.6813325 -0.42055112 0.7594615 -1.147748 0.0784626 1.5996282 -1.0634748 -0.5209775 0.14684601 -0.6584814 -0.14500515 -0.05536666 -0.34669182 0.089078784 0.52488047 0.33463266 0.9799558 0.694472 -0.62995887 0.53153676 0.7663892 0.7474808 0.30378798 -0.83895266 -0.08153158 0.7188463 -0.27237746 -0.22600928 0.5877149 -0.48119867 0.24023795 0.5347602 -1.8214563 -0.22893436 1.3082343 0.3661669 0.5814633 -0.20472771 0.2283686 -0.8980163 1.0246582 -0.2863439 -0.7734066 -0.22866856 -0.30749765 0.14927272 0.1470974 -0.6578058 0.32534534 -0.7186858 0.101335496 -0.508371 0.2128349 -0.05181027 -0.5752312 0.94534576 -0.29569924 -0.6058872 -0.20619187 0.8340281 -0.03043279 -0.1059614 1.2427888 0.10823425 -0.407846 0.9165891 0.397881 0.023741297 -0.22162032 0.05450531 -1.0624386
LQVR 0.42323902 -0.14207014 -0.32623357 -0.31638536 -0.39123267 -0.18220906 -0.2973264 -0.82827324 0.1819793 0.5824497 -0.5520449 0.18381259 -0.66396564 1.1774173 0.5125757 0.27273473 -0.48721784 0.36362505 -0.8781454 0.04116437 -0.2862575 0.70047694 -0.3951769 -0.23891489 0.8907747 0.03050378 -0.7162588 -0.56978565 0.5685082 -0.39176634 0.90681744 0.26227894 0.6820405 0.7878019 0.4209112 -0.48087555 -0.17725463 0.16242327 0.60700816 0.079547875 -0.29230472 0.34771147 0.30496854 -0.7736503 0.6661471 -0.07065414 -0.4293005 0.42541376 -0.9843179 0.19519301 0.35476968 0.157856 0.29001358 0.69419384 1.2621208 -0.04844101 -0.3653416 -0.14229478 0.4447935 -0.18475156 1.2855512 1.5240752 0.29673994 -0.32479712 0.46791866 -0.41370887 -0.43196085 -0.6685749 -0.3802523 0.009884964 -0.38442528 0.16676176 0.40507787 0.37842107 0.7605881 -0.24563956 0.05338103 0.28222302 0.56365824 0.9963613 -1.0469748 -2.0033517 -0.02900279 0.48429632 0.24497041 -0.1247798 0.24329579 -0.24820346 -0.28822133 0.12921071 1.215483 0.15843534 -0.5910665 -0.9541712 -0.09536884 -0.46097413 -0.31255084 0.6571294 -0.62349856 -0.13196279
EDTC 0.94467014 0.32591954 -0.071866095 0.6041697 0.09386314 -0.34863493 0.55058646 -0.24860863 -0.21614563 0.2778205 -0.24952076 -0.026816268 0.38293272 0.14362983 -0.114020325 1.0503867 0.38013333 0.6697592 0.60557014 -1.0102971 0.9737114 -0.70627666 0.39640102 0.8171824 -0.4495032 -0.5702091 0.8475397 1.038139 -1.2953392 0.16782823 0.46820703 -0.5025254 -0.1613848 -0.14126788 0.11243852 -0.67519325 0.7407311 0.11996298 0.05469569 -1.0037383 -0.060961463 -0.5676893 0.24066496 0.6943388 -0.4931197 0.6644725 0.1589363 0.26227096 0.3807627 -0.21144757 -0.38648877 -0.36510736 0.13552845 -1.2420815 -0.42480922 -0.529958 -0.26987904 0.385374 0.49565372 -0.1502718 -0.5257174 0.5652459 -0.42826197 0.19545673 0.037316654 0.2834541 0.081764586 0.22997943 1.0368043 -0.20579875 0.75492036 -0.36366597 -0.4813358 0.1375189 0.05729385 0.3554711 0.16394709 0.8664422 -0.6958408 0.19357038 -0.66035587 0.42218176 -0.089501254 -0.29586217 -1.1753432 0.30220994 -0.46895033 -0.46587875 -0.6751754 0.8725494 -0.051472563 -0.48309916 0.8889996 0.1517105 0.30839306 0.01507133 -0.22326237 0.60165197 0.28412876 -0.052836545
KFGO 0.4658781 0.13282163 -0.37363586 0.55664927 0.79118395 0.33890986 -0.116156824 -0.5310506 -0.16901569 -0.47039682 0.40436092 0.60276794 -0.6829384 0.62111765 0.0021591715 -0.2741955 -0.37828183 0.231081 1.3234943 -0.6487479 -0.21489476 1.4853289 -1.3886832 -0.4141103 0.45800516 0.24224529 0.054464 -1.1136341 0.6623912 0.017076444 0.3552027 0.48920527 0.025425069 -0.80898553 -0.039079823 0.020971494 0.36069044 0.60485476 -0.2972125 -0.49842837 -1.4409671 0.28736725 0.41958475 0.12241709 -0.83054835 -0.9872983 0.3116544 0.21963489 -0.7183061 -0.9944083 0.2137586 -0.14419995 -0.07938064 0.20070393 0.45515966 0.22492498 0.011283133 0.19941954 0.06352445 -1.5746584 -0.7372456 -0.33936614 0.20828053 0.4725462 0.020814938 -1.6128013 0.09218225 0.15152721 -1.4882528 0.46019173 -0.19350548 -0.25187218 0.15157634 -0.0036196013 0.69954586 -0.9472216 0.20859404 0.7529829 0.57656324 -1.1457177 0.6101561 -0.42127725 0.865836 0.74637073 0.35348904 -0.22277442 0.2618159 1.215971 -0.22717002 0.53103995 -0.9842628 1.0966399 1.0124111 0.2830525 -0.8200744 0.47860518 -0.34687513 0.45961392 -0.45699647 -0.37895378
MNVQ 1.2558459 0.8766734 0.15755048 0.077254094 0.41839066 -0.7554662 0.7893971 -0.13524805 0.35872543 0.55630296 0.9687836 -0.47261736 0.67744595 -0.48354214 1.550863 0.9384432 0.79066795 0.7422222 -0.3071839 0.2186087 0.75975454 0.45815635 0.6631771 0.75051033 0.026202245 0.8755719 0.21584332 0.719057 0.16600192 0.1829798 0.77873844 0.40502343 -1.0643913 0.21648404 0.34381053 -1.4251846 -0.1471534 0.6208444 0.54958737 -0.8261134 -1.1153817 -0.19530705 -0.5450042 -0.034369748 -0.39139318 1.1888621 0.6279853 0.12890242 -0.6702254 0.03734187 0.39485428 -0.4187145 -0.5918451 0.010809227 -0.28872454 -0.052595623 -0.8333358 0.48467994 0.26667768 0.79329693 -0.5693375 0.16862033 0.41161636 0.04820333 -0.18153097 0.9662714 0.8299966 -0.31538364 -0.76865035 -0.0034952217 -0.23494211 0.106775366 -0.5524577 0.049187113 -0.48414463 0.10275244 -0.05159791 0.5245737 -1.017022 -0.9099502 -0.7198305 -0.04127635 0.2393754 -0.38915408 -0.4774147 -0.31162825 0.47709376 -0.9064361 0.95143926 0.091476664 0.82024854 -1.0038902 0.19450933 0.253136 -0.55888635 -0.82787067 0.38555497 0.7489928 -0.62326175 0.09544863
TLOY -0.031628437 0.10109823 -0.46250132 0.41867766 0.6827131 0.6903806 0.74944144 -0.016372578 -1.0045811 -0.47698075 0.20183967 -0.9434115 -0.59349626 0.9087326 0.7637999 -0.01658276 -0.2366118 0.006239158 -1.4428196 0.24446654 0.6697393 -0.6419931 0.020349098 -1.0153409 0.5105018 -0.7121854 -0.18024968 0.08923935 0.24875982 -0.24900712 0.79124904 -0.11518247 -0.41872004 -0.336418 0.6404803 -0.5981753 0.28977066 -1.7266287 0.6927064 0.36027935 -0.7172468 0.4914592 -0.8058295 0.7859474 1.2329829 -0.47159743 0.6761279 0.24165842 0.14144626 0.091547035 -0.50694805 -0.2226989 0.12769903 0.8220942 0.09500473 0.57320076 0.04681695 -1.2136791 -0.5270641 -1.3933532 -0.35650766 0.6108669 0.37470183 -0.64590585 -0.66355765 -0.034761257 -0.18326904 -0.33505505 1.3075899 0.83023274 -0.85665053 -0.21737486 0.9595939 0.32054538 -0.2567724 -0.9097008 -0.9844116 0.35459027 -0.16245249 0.0538212 -0.36287293 -0.1291594 0.43327865 0.14487489 0.28023076 0.27890307 0.9317449 0.013405632 0.085735366 -0.5477892 1.2543118 -1.286127 -0.68869907 0.22725137 0.003647954 -0.43376806 -0.73856515 -0.52633446 -0.14621973 0.6089898
CZQP 0.6760484 -0.55508614 0.64207995 0.42166397 1.1780323 0.67414904 -0.3321979 -0.3578525 -1.0854932 -0.34871954 0.5595455 -0.86938846 0.22132242 0.7941653 -0.3672567 -0.2746663 -0.2814826 0.47905537 -0.81897074 -0.5849422 -0.43510777 0.70027167 0.6085139 -0.17788492 -0.41763052 -1.4645336 0.8745526 -0.73531604 0.54362434 0.4522274 0.32284012 -0.20001157 -0.45434442 0.2614498 -0.13876003 0.6322298 -0.0030102236 0.4229599 0.39233318 0.13276778 -0.39919144 -0.92125237 -0.792169 -0.626129 0.3408842 0.327951 0.65578836 -0.07526983 -0.37642214 0.2307737 0.7104197 0.54996955 0.20297158 -0.46454796 0.7978982 0.5312898 -0.14629531 0.13499622 0.75443435 0.5658097 0.45298314 0.035075516 0.47743732 0.08639872 -0.5167681 -0.8580188 0.9791905 0.8062451 0.051195815 -0.62629503 0.3722033 0.797353 -0.6671134 -0.19653773 0.24754094 0.16945097 0.12682042 -0.046097405 -0.28076226 0.56985426 0.2790679 -0.16932537 -0.28498825 1.10846 0.27939993 -1.1660058 -0.21192716 0.7534011 0.17554675 -0.20973848 0.25607854 -0.74837226 0.22227557 0.29610464 -0.47295478 -0.4811981 -0.52550834 -0.993858 -1.3165369 -0.44369105
LKXZ -0.2733723 -1.1015913 -0.08699508 0.41992864 0.62541103 -0.8095762 0.03605099 -0.0817624 0.2682344 -0.029970799 0.38117805 0.6626808 -0.39544114 -0.055341743 -0.9012826 0.33896032 -0.4941827 0.53028166 0.1661191 -0.13085246 0.52037376 0.022772603 0.047187295 0.035436675 0.90227586 -1.0335944 0.27511245 0.404728 -0.19255923 0.3252228 -0.7958423 0.4923505 1.0134013 -0.20053148 -0.70407873 0.5484286 -0.09249085 0.13233595 -0.051326714 -0.43074563 0.29672128 -0.9213277 1.0037239 -0.14293733 -0.47377387 -0.17896476 0.06943009 0.015617297 0.3365358 -0.10085599 0.121163584 1.7290865 0.42109016 0.4850428 -0.14733748 0.07444604 -0.06853487 -0.6177938 -1.166108 -0.014687268 -1.1306301 0.10515243 -0.3986793 0.98113656 0.23604988 -1.0996095 0.32887834 0.04883528 -0.08559454 -0.36256656 -0.22191666 0.93886256 0.38521713 0.45714417 1.175805 -0.75870717 0.74624306 -0.7722242 -0.04532625 0.7691713 -0.8324517 -0.69462943 1.5068115 0.82398707 0.5283155 0.24239938 0.058926716 -0.033541534 -0.28466302 -0.084766634 0.7748946 -0.14452413 -0.045103475 0.08911463 0.033368513 -1.4366622 1.0470688 -0.29185542 0.08571623 -1.3275865
LSKW 0.4387754 -0.23865917 -0.6347915 0.3189132 -0.8465353 -0.703597 0.50657856 0.34478784 0.3815808 -0.038876947 0.06940691 -0.45635268 -0.65792245 -0.101897635 0.6458703 -0.54631054 0.48876533 -0.13136418 0.3502482 1.4072506 -0.24669442 -1.0082546 0.18748601 -0.71913236 0.12182972 -0.30511555 0.28022125 0.7320389 -0.64366764 -0.994678 0.053900547 -0.7515289 1.5420526 -0.5375424 1.9570296 -0.78583354 0.18728024 -0.79548085 -0.2737939 0.16555874 0.6207303 -0.9166084 1.0466913 -0.32391515 -0.48361036 0.25603205 -0.17702793 -0.0058597396 1.139859 -0.3546637 0.28455126 1.5279056 -0.53966284 0.70794415 1.0893667 -0.3201923 0.6376312 -0.60581666 -0.24872936 -0.63708085 -0.8365983 -0.12940447 -0.43361214 -0.5308047 -0.42716533 0.41423357 -0.3991754 -0.091503106 0.18418337 -0.63362354 -1.1901817 -0.33469397 0.76774174 0.12432732 0.1935873 0.10749925 -0.52964383 0.0037239722 0.055295117 -1.8288573 -0.2037203 -0.28005725 0.69153595 -0.23246437 0.7479111 0.32824528 0.064312726 -0.6236672 -0.36298648 -0.18797433 0.488623 0.06959587 0.48367608 0.9143944 -1.1843185 -1.2771301 -0.6771519 0.7320069 1.7113497 0.7485194
CHNQ 0.2459257 0.110575594 -0.39264536 1.3834249 -0.43166444 -0.7071354 0.09968278 0.38525677 1.329191 0.45416698 0.7157516 -0.1449866 0.15104428 0.44826946 -0.084369645 -0.61582476 -0.6410056 -0.21505615 0.57477075 -0.28471845 -0.014889277 -0.33984196 0.074825116 1.2519636 -0.8050134 -0.05077997 -0.2555509 0.06416784 0.8257333 -0.6886207 0.03897292 0.18940815 -0.2709691 0.3181017 -0.29572368 1.2181495 -0.5150508 0.75005746 -0.1888382 0.083453774 0.8235484 1.0983955 0.29097345 -0.27910572 -0.6578521 -0.36360446 -0.223844 0.16291091 -0.0065183323 -0.3737712 0.45852742 -0.060933225 -0.3923393 -0.3029801 0.9166749 -1.2110499 0.60897243 0.25831586 -0.025403982 -0.21044792 -1.0823554 0.26316586 1.0349538 0.62145287 -1.0434799 -0.14048687 0.79539806 0.8087699 -0.16568942 -0.10987976 0.33448362 -0.5003341 -0.14586939 -1.0518411 -0.022605104 0.055785008 -0.66470027 -1.5252802 -0.15478304 -0.1620744 -0.095687844 -0.23826514 -0.0073282793 -0.0154816415 0.13850962 -0.53159624 1.248875 0.18220158 -0.26503444 -0.7936905 -0.8137695 -0.4470282 -0.2505894 -0.01012322 0.12798747 -0.58709663 -0.35749897 0.94918585 -0.7569694 0.0095191905
AKZJ -0.63644713 0.5253556 0.17883462 0.11463167 -0.9369902 0.54806554 -0.09825934 0.963558 -0.045704775 -0.64660764 0.536841 -0.7931179 -0.18306772 -0.5701086 -0.42053705 -0.64451826 0.54639673 -0.32191515 0.22402374 0.86652136 1.1682546 0.15088847 -0.20377672 -0.29992378 0.06840059 1.0763968 0.31231514 -0.6274607 -0.15541849 0.42089933 0.14148244 -0.16040853 0.70678645 -0.58371335 -0.022133648 -0.46668363 0.027198374 -0.51127607 0.053823583 -0.5884864 -0.36835927 1.2823997 -0.011651887 0.21477738 -0.2714284 -0.07185258 -0.08285794 -0.08634279 0.55922127 0.9602762 -0.11148546 -0.1738753 0.027269838 -0.62366605 -0.66482383 0.6792723 0.13430312 -0.06380305 -0.037684754 0.56190777 -0.14089261 -0.7755383 -0.49242198 -0.9135199 -0.1942996 0.31603935 0.06394976 0.49436936 -0.67712957 -0.30232936 -0.47734424 -0.0388287 -1.0432798 -0.30165493 -0.5999989 -0.56712943 -0.00093963067 -1.1651578 -0.9864039 -0.50353926 1.0385177 0.4543737 -0.62172765 -0.46929088 -0.13518195 0.6112945 0.013352389 1.0956384 0.42749164 0.6158878 -0.6490335 0.7023192 0.39136028 0.021376828 0.1931526 0.16095386 -0.692486 -0.14615205 -0.025861608 -0.097502664
ELPS -1.4144559 -0.2902592 -1.4774324 -0.08415422 0.36294284 -0.10870544 0.41407007 0.2555183 0.5720276 -0.43082726 0.8386006 -0.100043066 -0.73906505 1.1549318 -0.90183324 0.16911852 -0.18846545 -0.023455834 0.18224122 1.1282325 0.8781107 0.027759079 -0.6871738 0.607103 0.12122829 -0.69593847 -0.7732165 0.4158017 -0.057090476 -0.338521 0.3038275 1.241847 -0.6555965 0.76743233 -0.9137653 -0.05467504 0.036926728 0.56795657 -0.30828026 -0.26659536 0.96821254 0.18024749 0.0032704675 0.27938995 -0.44791403 -0.5525246 -0.21537845 0.021857446 0.8232146 1.0427938 -0.4222711 -0.02495191 -0.3764428 0.23698455 -0.4041839 -0.22996992 -0.091050394 0.09152196 1.2165782 -0.6432816 0.40227205 -0.16025358 1.0340377 -0.089972734 0.31657857 -1.3151351 -0.5310915 -0.049728874 0.8188542 -1.4626789 0.44588903 -0.55639637 -0.028688215 0.60721064 0.2810059 -0.07719829 -0.12969439 -0.7247245 -0.4775956 0.89088017 -1.4513686 0.53545 0.32345203 0.49435285 1.271253 -0.7819053 0.79848534 0.55667025 -0.023012986 0.2259023 0.6469104 0.03706725 -0.43740442 0.31602442 -0.6040915 -1.5215681 -0.771469 -0.5136259 0.5601588 -0.4512019
PKUN 0.3258676 0.4423186 -0.67988116 0.55137825 0.21841495 -0.2810699 -0.9088302 0.7342163 -0.4408162 -0.6718996 -0.6524742 -0.57068676 0.5024237 0.12318972 -0.54287654 -0.06519685 0.74563515 -1.0049661 -0.33356005 0.6641769 0.20234595 0.20363596 -0.103743196 -1.4539447 -0.909504 -0.18333451 0.011090222 0.6525898 0.25381464 0.13385996 -0.88254976 -0.3096768 0.24995665 0.095133185 0.70978016 -0.6900361 0.30498257 -0.94558704 0.32331538 -0.6642563 0.307645 0.34967777 0.149807 -0.30987954 -0.15811288 -0.18082951 -0.10346298 0.19039582 1.2490596 -0.17317472 -0.77049434 -0.2612224 0.4250256 0.35552233 0.0826024 -0.17323975 -0.36609697 -0.69312245 0.5443586 0.7780776 0.32467392 -0.41384768 0.092632934 -0.8580999 -0.5500041 -0.43553552 -0.4700655 -0.04958162 -0.7602794 -0.29698956 -0.5220253 0.5635905 -0.9285935 0.13214356 1.5632807 0.529644 -0.27596623 0.117640674 -0.33154753 -0.04809367 -0.40828666 -0.04065475 -0.6849597 0.33954334 0.56032324 0.30001014 -0.07281224 -0.2525608 0.30797976 0.22567748 -0.14922951 0.103216685 0.012136648 0.22607134 -0.52499104 -0.4638269 -0.27961907 1.804546 -0.83048487 0.35460347
LJHY 0.582311 1.3543216 -0.121510856 0.079229265 0.9019479 0.1841389 0.5134381 0.25588486 0.6659791 0.14741951 -0.17936283 -0.088825025 -0.25048718 -0.3042491 -0.19579035 -0.56587136 0.46356884 -0.8140404 -0.81337506 -0.21514902 0.41050866 -0.2175959 -0.43922424 -1.2592707 -0.49147618 -0.16150765 -0.3166933 0.12641124 -0.34929356 0.25003785 -1.3551409 -0.14305498 0.16084543 -0.30479586 0.27762675 -0.1344331 -0.76122165 0.68916607 -0.3173536 0.20395425 0.32103515 -1.0899959 0.24731956 -1.5029505 -0.1747671 0.16129667 0.23841429 -0.21008024 0.06901199 -0.5934443 0.80417603 -0.11669607 -0.017586537 -0.16765198 0.19348818 0.25757802 -0.20945859 0.5336119 -0.009065448 0.3045952 -0.35570693 0.4394154 -0.40896672 -0.38759154 0.12156912 0.7039966 -0.46395925 -0.33737087 0.24256288 -1.3329331 0.056953285 -0.5931105 0.18604374 0.14806177 -0.7617469 0.99784523 0.23065722 0.10869004 -0.09311812 -0.8811819 0.75872463 0.11112404 0.9808006 0.35485065 -0.6071356 0.2311935 -0.037320178 -0.03830142 0.49381566 0.8289863 -0.9403186 -0.3323365 -0.37239173 -0.39158437 -0.7638719 -0.85714084 -0.24733974 -0.45001543 -0.6882355 0.9700324
XSDJ 0.7927967 -0.49788836 0.67090464 0.64943373 0.078288004 0.7430059 0.007958976 1.0427086 0.5577297 0.01273345 -0.6394232 -0.58118594 -0.9758462 0.53576386 0.10861183 -0.03752773 -0.50971407 -0.7153074 -0.8412419 0.11337962 0.9734828 0.9455957 -0.11256188 -0.17630978 -0.11047892 -0.22890125 0.37541115 0.26690054 -0.16000636 0.55498964 -0.3297798 -0.3124871 0.004236667 0.036100823 0.42955583 0.3241909 -0.015073718 0.05623831 0.65480584 0.19891632 -0.41987842 -0.17393439 0.41047943 -0.49557182 -0.4576249 -0.8952244 -0.018539868 -0.007137936 0.313831 -0.36273456 -0.71214336 -0.04614213 -0.057475504 -0.5867271 0.058616575 -0.9596615 -1.3197548 -0.05005647 -0.36034486 0.5695292 0.5406078 -0.061876494 0.05554867 0.42810318 0.62948215 -0.40750155 0.13462947 0.13589273 -0.26479498 -0.47359574 -0.16812627 0.20967655 0.959869 -0.30268845 -1.1275375 -0.6812102 0.54710615 0.80789644 -0.028112836 -0.94426996 -0.33149475 0.4757523 0.3033736 -0.5505529 -0.09217148 0.45821288 -0.5576014 0.3029315 -0.14874706 -0.0714208 -0.96682566 -0.51676273 0.038623713 0.5040516 0.41225627 -0.7266764 -0.18757729 -0.41784236 -0.1244345 0.40431863
TMIK 0.011833509 -0.19116294 -0.051841304 0.031600803 0.51974106 -0.13020906 0.81425583 0.29276282 0.4362708 -0.1333264 0.5085173 -0.20647326 0.37939653 -0.80449575 -0.22652644 -0.79148823 0.32168338 -0.028215187 -0.632235 0.22457236 0.03928511 -1.1181577 0.25623918 -1.367216 -1.4016064 -0.52217776 -0.30878606 0.49163157 0.22770484 -0.10810473 0.4913147 0.3312215 0.4165683 0.09653001 -0.6185391 0.9360787 -0.08417848 -1.0577704 -0.05950719 -0.7542688 -0.63724107 -0.7032023 0.55736154 -0.47423124 0.046173807 -0.15343684 0.13976477 0.18548946 0.44250625 0.9063507 0.59972304 0.6102216 -0.74088633 -0.4726131 -0.4326952 -0.94790846 -0.28253585 -0.40931112 0.26405245 -0.3377806 0.6855613 0.15829033 -0.38159373 0.8093197 -0.055881307 -0.16185217 -0.005671351 0.17251056 1.286949 -0.78380066 0.11867842 0.44662833 0.3674559 0.26425493 0.46044648 0.79400605 0.35968754 -0.38230056 0.50642705 1.1380824 0.9789938 0.58860916 -0.22607948 0.9861313 1.0277557 -0.5804371 -0.46905062 -0.043358557 -0.02317786 -0.47601065 0.8732798 0.61886615 0.6043102 -0.29835257 -1.0407088 0.16319814 0.694764 -1.0304803 0.0004884516 0.24207014
RNEI -0.33292425 0.22683026 -0.05054772 -1.1225265 -0.5394925 0.31596056 -0.4991275 0.07507394 0.19987537 -0.14525416 -0.402301 -1.2248609 0.54894435 0.35460708 -0.6992933 0.2457182 -0.47781324 0.6291375 -1.0955104 -0.73783505 -0.21625786 0.25165716 0.73774916 -0.9460788 -0.961583 -0.10869423 -0.52580947 -0.22342806 0.39553466 -0.74824023 0.26961866 1.5775675 -0.003020328 0.9249056 -0.13413273 -0.48494044 -0.034435056 -1.1692057 -0.258006 0.88660914 0.4926702 0.80166495 0.55563945 -0.7377119 0.6964235 -1.3246559 -0.12519343 0.5292817 -0.74945074 -0.64872706 0.19818464 -0.14134046 -0.28046897 -0.61752003 0.3580838 -0.35953143 0.035096075 -0.15435418 0.35774833 -0.27318892 1.1628524 -0.2982252 0.038400277 1.1933184 0.33363584 -0.34777686 -0.1398715 0.0811245 -0.21682513 0.20828226 -0.91060454 0.5652781 0.38186473 -0.8978749 0.7993349 -0.25247616 1.2011315 0.40001455 0.545013 0.37641543 0.20794664 -0.05019369 0.39261645 0.06089897 -0.1820323 -0.4612624 -0.90829134 -0.22859423 0.0053892354 -0.16452464 1.1121266 1.0197021 0.17684856 0.30004984 -0.16940662 0.30750924 0.17094168 0.048264414 0.8086189 0.00509745
DECR -0.2614845 -0.044044804 -0.13556561 -0.8909192 0.14528884 -0.07597248 0.032586537 0.64384925 -0.22007217 -0.45155096 0.008576308 -1.5421293 0.5766398 -1.0194987 0.5368487 -0.24462442 0.78183836 0.3005339 -0.26846823 0.49369353 -1.5356388 -0.5256513 -0.5901396 -0.47784618 -0.3866632 0.116196096 0.53282213 -1.2130495 0.689595 0.2759642 0.75983983 1.1508869 -0.38755408 0.044929944 -0.33192378 -0.061986994 0.49959633 -0.37099284 -0.89286715 0.43839282 -0.18752594 -0.9153127 1.0437409 0.12662546 0.45506734 0.78699255 0.9868634 0.2550973 -0.24457362 -0.11638826 0.54528093 -0.21582519 -0.10572797 -0.46919438 -0.10695259 0.6983518 -0.3481041 0.60487133 0.20316763 -0.19279166 -0.8023547 0.53018713 -0.4810306 0.1575253 -0.0044287913 -1.3346335 0.24981445 0.10916197 -0.54844254 -0.912144 -0.24056354 -0.0512944 -0.62171 0.4541941 -0.21385977 0.64574087 0.13500294 -0.62063813 -0.117352016 -0.9122215 0.6741505 -0.005871825 0.6264922 0.32381937 -0.19196337 -0.0051643797 -0.9460016 1.5423466 0.17134346 1.331999 -0.13641389 0.048421957 0.19641797 0.5332726 0.3920557 0.7384652 -0.90519726 -0.28760007 -0.45539004 0.10678561
MRPN 0.42209733 0.32457557 -0.67430454 0.47853428 0.06280956 -0.3405659 -0.7733148 0.86362755 -0.45301595 -0.7311612 -0.7929192 -0.5217284 0.6998629 -0.03315152 -0.43543708 -0.22221439 0.6420881 -0.8924349 -0.36802608 0.6372979 0.15856907 0.030742574 -0.15024757 -1.2955657 -1.0844891 -0.2406204 0.04487131 0.6560075 0.3215594 0.11194381 -0.64921665 -0.33740914 0.048285946 0.18310583 0.7710511 -0.7035963 0.19330072 -1.0525198 0.37642634 -0.5788436 0.5362153 0.07241332 0.08421193 -0.031762816 -0.10632746 -0.1304628 -0.27453056 0.37692845 1.1988844 -0.124762155 -0.8018912 -0.18523315 0.48382872 0.50302094 0.055211507 -0.2805863 -0.09930691 -0.60145897 0.41981152 0.89779216 0.4416085 -0.5260978 0.16653489 -0.7890264 -0.57919735 -0.48524797 -0.43026325 -0.16922852 -0.9430051 -0.25322202 -0.5592275 0.5409157 -0.73616004 0.08920057 1.5391469 0.5716167 -0.29774812 0.26258063 -0.23724093 -0.14366983 -0.66729 -0.07065408 -0.80585766 0.31927124 0.70850205 0.25327867 -0.057036787 -0.43373594 0.3466081 -0.044813596 -0.18398891 0.103118315 -0.2078569 0.29582503 -0.5611113 -0.56746435 -0.10001744 1.9166485 -0.9316643 0.30764124
HQSD 0.99883497 0.10574587 0.83207786 0.49608722 -0.041818034 -0.5838223 0.91180766 0.80283624 0.052308947 -0.04244273 -0.2709368 0.951901 -0.47851384 0.9545635 0.90251607 -0.7905255 -0.42588863 -0.8777144 -0.9372476 -0.40922886 -0.38145867 0.83676076 -0.08373985 1.6875843 0.31600705 -0.17045978 0.17602527 -1.114325 -0.22447594 -0.151301 0.6074038 -0.33652374 0.08305797 0.44086954 -0.72784185 -0.11978417 0.078890726 -0.07914251 -0.6076179 -0.67086446 -0.3705193 -0.033329397 0.769124 -0.31636173 0.124007784 0.26725933 0.26871344 -0.4858239 -0.6833177 -0.04629194 1.1633095 0.6677986 0.13005114 0.78375024 -0.18874396 -0.2911467 -0.63056105 -0.09856667 -0.6534085 1.0267168 1.0973458 -0.0509703 -0.40053535 -0.32633293 -1.0151114 -0.61174464 -0.031025268 0.7076523 0.90260726 -0.6539706 0.7329698 0.17493576 -0.25658178 -0.21842246 0.0009988373 -0.51037014 0.15504958 0.11153834 0.28023568 0.3462526 0.2971688 0.23181821 -0.41127062 0.0050634225 0.1754463 0.16660528 -0.12555414 0.43624073 -0.3139424 -0.22358428 -0.2847562 -0.75993836 0.29982457 -0.36227354 -0.4213341 0.39083982 -0.0679893 -0.2599593 0.2615051 -0.24209245
OYIW -0.6849854 0.8354004 -1.0789913 1.2570782 0.4201343 0.9596276 -0.011327905 1.1686503 -0.33585432 -0.008670548 -0.14346497 -0.6996913 -0.15837467 -0.7510143 0.5372402 -0.93158174 -0.5788832 0.54502374 -0.025661943 -0.40605208 0.60876274 -0.47718042 -0.31344223 -0.30891868 0.66919833 0.13164894 1.2333959 0.2471597 -0.20467955 0.057506446 -0.07354736 0.9363632 -0.2401714 0.8449569 -0.51050514 -0.65131456 -0.20070149 0.07811945 0.44291085 -0.32817036 -0.2042685 0.836649 0.1257721 0.05416016 0.9669049 0.52453136 -0.64320743 0.35671937 -0.7006273 0.77371764 -0.52721125 -0.29398108 -0.029237939 0.36013064 0.04597824 0.85967445 1.1163055 1.3168429 -0.539187 -0.7136692 0.51541483 -1.2635528 -1.3773584 -0.5432591 -0.8138005 -0.8423181 -0.7854597 -0.5249083 0.2674671 0.49095196 -0.52172685 -0.34807816 0.46165887 0.74943274 -0.4675616 1.0909827 0.48702258 -0.21964811 0.17387722 -0.6393001 -0.38158962 -1.0206347 0.06438765 -1.0549519 1.122982 -0.87635326 -0.56029236 0.30158773 -0.4002017 -0.7786373 -0.4941916 -0.40314153 -0.0010404652 0.19769031 0.04817418 -1.2048782 -0.35379615 -0.8122234 1.4990821 1.0578684
CMQR -0.10541058 -0.03675041 -0.069326736 0.306276 -0.58221 0.88123125 -0.65030015 -0.3099178 -0.70388526 -0.1927049 0.9862601 -0.39504188 0.058786076 -0.11708437 -0.6462939 -0.109071866 -0.7746113 -1.096703 0.50804335 0.29736894 -0.804321 -0.20161034 0.14710985 -0.16403607 -0.70203996 -0.43146652 -0.11749067 0.58024895 0.35942423 0.38402295 0.3615677 -0.5993015 0.69195205 0.19837014 -0.32163975 -0.021931035 -0.67168677 -0.71832484 -0.21291068 0.7636313 0.77337855 -0.056172684 0.1977579 0.07987559 0.069842435 -0.1518778 -0.75329787 -0.9468883 -0.0078080148 0.16727829 -0.5495149 -0.3574616 0.26130867 0.35867825 -0.43049204 0.11300313 0.34599558 0.5568086 0.53539044 0.27898955 -0.20957655 -0.046720855 0.22046617 -0.008373165 0.32764328 0.48024073 -0.26601604 0.3276036 -0.8487819 0.47407156 -0.19246803 -0.69923633 -0.8156653 -0.5306792 0.053370934 0.5362378 -0.45890802 0.39333433 -0.24600348 -0.33787745 -0.2310294 0.3063529 -0.7787943 0.11115723 -0.82766896 0.39331764 1.5507576 -0.9647805 0.10953269 -0.33265728 -0.51779264 0.5972756 0.8594413 1.0413848 -0.5550039 -0.6458804 -0.3528374 -0.3494751 -0.9316938 0.66157633
VWZF 0.4234103 -1.0382323 0.17032523 -0.6412125 -0.34237573 -0.22122295 0.6578222 -0.11624581 0.24555078 0.10434917 -0.27335855 -0.7045926 0.29254088 0.022777596 -1.2661364 -0.016682273 -0.52066547 -0.49111095 0.03018274 -0.31934342 -0.4300245 0.17234625 -0.23753469 0.59383154 -0.13468376 -0.6530266 -0.19890663 -0.15976648 -0.07344323 0.7757756 0.29977456 -0.30749604 0.06518693 0.2906951 0.029364487 1.5664288 0.32057405 0.08833052 -0.64622265 -0.99999577 -0.3329569 -0.5824589 -0.18379411 0.36177233 0.13921611 -0.5581912 -0.4080953 1.0685941 0.13230272 -0.06958256 1.5574325 0.05759772 0.38027486 0.003802305 0.26825586 -0.62819433 0.8695195 0.017360378 -0.16815752 -0.32990927 -0.5911528 0.4306942 -0.48212206 -0.74636096 0.46377245 -0.63884246 -0.8219923 -0.5205517 0.526015 -0.2769285 0.09758922 -0.4694619 -0.23555183 0.108613566 -1.4855233 -0.064571336 0.09900771 0.2877463 0.16883466 0.066417836 -0.06617708 -0.1494559 -0.31585675 0.5436998 -0.5473169 -0.34570825 -0.11495448 -0.71882117 -0.05987176 -0.49791518 -0.37267664 -0.15675013 -0.9796282 -0.65287226 0.07312984 -0.020575617 0.3016826 0.0031548413 0.66670644 1.0782384
QYPU 1.0830871 -0.08999069 0.36899304 0.4213035 0.5599111 0.09161964 -1.0074456 -0.12660958 -0.82300097 -0.13737774 -0.8055643 -0.05162118 -0.055436775 0.2494631 0.03436697 0.7236382 -0.066058904 0.6173252 0.15580773 0.07904421 0.3132254 0.5077316 -0.7426685 0.53967273 -0.29678705 -0.34869918 -0.3629278 -0.060745977 0.38551325 -0.44363767 0.1418445 0.39284036 -0.017923087 -0.15968059 0.88964206 0.39944208 -0.6132914 0.7796076 0.07248801 0.12415479 0.69237334 -0.43485382 -0.17335899 -0.580435 -0.11083066 0.8214588 -0.56757176 0.49955106 0.16416885 0.7594779 0.3686253 0.24502698 0.09430037 0.99157625 1.0076786 -0.9913446 -0.47654077 -0.60529906 -0.30200028 -0.22768661 0.3385333 -0.49901983 -0.20803644 0.4548858 -0.20766374 -0.1880943 -0.7782417 -0.75958437 0.40622094 0.5594761 -0.08492582 0.2354162 -1.6551017 0.93305284 0.37422356 0.92732286 -0.5510442 0.94082916 -0.07809884 0.3253518 0.05592259 -0.57176775 0.9834033 0.23654212 0.25023034 -0.25827804 -0.49437717 0.740065 0.09491478 0.9840436 0.3147177 -0.5604272 0.51744074 -0.21072452 0.051299427 0.06883479 -1.0463359 -0.033887856 -0.8527374 0.0072216834
XRIA -0.32352212 -0.3458478 0.5919517 0.00635889 0.81518745 0.5969632 0.12617037 0.65569216 -0.54382956 -0.5171969 0.37232214 -0.7287855 0.5235642 0.21019338 0.56240916 0.5940126 0.24969293 -0.37148786 -0.3418315 -0.009893581 -0.22165875 0.4401553 0.13425265 -0.1521239 0.098736756 -0.19826087 0.38302726 -0.9688359 -0.17001882 -0.041766804 0.068221614 -0.5471265 0.61170524 0.16699126 -0.54164165 -0.060536183 -0.13231868 0.18759882 -0.3014984 -0.21715577 0.20578948 -1.5218179 0.9849518 0.2536416 0.7250051 -0.9242765 -0.8625643 1.4524242 0.43106318 1.2357894 0.8009966 0.381654 0.025487784 -1.3029823 0.008265868 0.84268105 0.50216043 -0.5681785 0.15185358 0.98839134 0.39817637 0.38874385 0.44478515 -0.15110867 -0.7644074 0.5716731 0.4699367 -0.41049263 0.55674785 0.25541988 0.33383903 -0.6213543 0.516157 -0.16445877 -0.34404957 0.016421452 -0.31243107 0.982938 0.54551375 0.12226402 -0.16234763 -0.07562822 -0.08290365 -0.75383025 -0.24090073 -0.24397618 -0.48195451 -0.64521354 0.4655414 -0.2646968 0.3487808 1.4033744 0.64386505 0.22262432 0.23362213 0.1605128 -0.24001655 -0.029994171 0.950434 0.15469272
VOYB -0.57135046 -0.12600675 -0.18754013 -0.5250797 0.74987346 0.35849756 -0.9313525 0.59221995 0.557391 0.27719843 0.5345893 -0.5247849 0.024492193 -0.028238356 0.09406958 0.734907 0.34351864 0.2853753 0.6858703 -0.18964009 -0.016272023 0.6090311 -0.44426283 0.1762731 0.39997053 -0.7728578 -0.12935804 -0.01664805 -0.22820763 -0.07159999 -1.21032 -0.07664605 0.5125374 -0.3310241 -0.46415883 0.7999843 0.15922539 -0.544974 -0.3719805 -0.3206179 -0.26249415 -0.11318058 0.2221174 -0.010815492 -0.19747134 -0.079399146 -0.7149772 -0.98588175 0.30400264 -0.29644185 -0.3678893 -0.71485615 0.21244718 0.11622993 -0.31275934 -0.014616425 -0.50967485 -0.10894787 0.5268304 -0.5760183 -0.52490574 0.5271845 -0.22128497 0.3339746 0.6928538 -0.008615494 -0.3814715 0.1761163 -1.4441603 0.41255134 0.08876742 0.7294533 0.43056366 0.28519908 -0.58620954 -0.5061544 0.8152044 -0.46809706 0.54955155 -0.81222993 -0.18554685 -0.21936843 0.95376533 -1.0260351 0.73738575 -0.8834329 -0.08884694 -0.2306609 -0.14428455 -0.7564134 -0.4195581 -0.56302994 -0.5481364 0.27591088 -0.6245457 0.21581337 1.0700077 -0.78698426 0.43893677 -1.2370368
TLBF -0.15950166 0.94450533 0.15579742 0.29288206 -0.7089552 0.66510683 1.3925409 0.12713599 0.03232518 -0.45268506 0.8338971 -0.53492945 0.5187201 -0.34377563 -0.46921957 -0.829577 -0.031913456 0.2705685 -0.31401953 -0.115737826 -0.52840436 -0.058321193 -0.8914945 0.041383527 0.7084417 -0.07397544 -0.30773294 -0.17147964 0.30733714 -0.8875623 0.7223281 -0.3066977 0.8033558 0.8275956 -0.4332829 -0.4240347 -0.092959315 -1.0494273 -0.0020019433 0.7766669 1.442914 0.29642108 -0.004404908 0.5698376 0.8121982 -0.7071863 0.44842765 -0.044767074 -0.52284944 -0.47095656 0.022319783 -0.17670833 -0.35124105 0.23827997 0.4745604 0.8999449 -0.16684479 0.5868065 -0.6837351 -0.08842303 0.6824275 -0.95746815 0.4787206 0.7551788 -1.1296655 0.6378591 -0.8991568 -0.8720961 -0.011364509 0.095243156 -0.47144625 -0.03533753 -1.1730354 -0.92840695 0.093085654 -0.16148372 0.6846327 -0.025351007 -0.39929554 -0.46203446 0.0093542235 -1.0407319 0.19454078 -0.8230455 0.95701474 0.3664521 -0.9548055 -0.92644626 -0.54808706 -0.35693288 -0.27185795 0.15033025 0.6509307 0.8010775 -0.3730341 0.7436027 0.74473226 0.24110623 -1.3783832 -0.9284658
JHTP 1.0761666 0.0074325046 -0.28048638 1.1692127 -0.4598953 -0.3083488 0.7710173 -0.89748627 -0.057313982 0.121425934 0.8967836 0.24152914 0.3907781 -0.28525403 0.79984295 -0.57737744 0.967914 -0.14784966 1.1733625 -0.40567905 -0.11865475 -0.34603822 1.1808543 -0.05786899 0.21504599 0.6261461 0.085549794 -0.6456055 -1.0018232 0.76387095 0.55111533 0.42548764 0.6896604 -0.82169765 -0.10313278 -0.26176682 0.55791956 0.62112 -0.78519875 -0.53054196 -0.678513 1.1760116 -0.023318281 -0.03047965 0.7498114 -0.54646814 -0.16033131 -1.053077 0.509831 0.35826018 0.08125602 0.071064234 0.031109534 0.24365018 0.5962306 -0.46031615 0.5387874 1.0593591 0.29277772 -0.2979067 0.89692485 0.3661956 0.4732502 -0.17466107 -0.37403554 0.2595631 0.77615255 0.13845189 -0.7997285 0.43995762 -1.9965504 -0.6853805 -0.3954831 0.24451165 0.8038778 -0.22608219 0.0046516676 -0.11039607 0.38156518 0.2337751 -0.37562013 -0.2988826 -0.13677809 -0.60071164 1.0329579 1.6111939 -0.14598557 -0.23539948 0.53984725 0.18361886 -0.44781727 1.153807 0.04979309 -0.95950943 0.15817922 0.3147644 -0.05255144 0.45426068 0.23080802 -0.2796534
YMLR 0.28676495 0.33289596 0.48900294 -0.5591872 -0.50400853 -0.5828453 0.4076295 -0.08820753 -0.730782 0.013320824 1.017245 -0.6635551 -1.5356995 0.7644293 0.7999053 -0.98079926 -0.3101473 -0.008839229 0.49110293 -1.0492038 -0.55974305 0.2154468 -0.56410235 0.463806 -0.29211345 0.53973114 -0.57765263 -0.004234474 0.42734745 1.0911682 0.3641446 -0.18997338 1.2253944 -0.32702538 0.0886196 0.7784665 0.12244034 -0.06205623 0.61820096 0.88735753 -0.12286229 -0.31639197 -0.23126782 0.20553567 0.5923635 -0.6509263 -0.5134201 -0.190462 0.76168174 0.5017112 -0.38630357 0.5353583 -0.8194585 0.27435133 0.29542607 0.89520645 0.002109004 -0.5410589 -0.90384394 0.2355661 0.20135473 0.099459276 -0.20305274 0.43319702 -0.35826164 -0.03078426 1.2928447 -0.24246421 -0.44313762 -0.70044106 0.35036853 0.03610121 -0.19865066 0.80802155 -0.07186414 -0.43152463 -0.8384384 1.2986581 -1.3784378 0.6384952 -0.83443725 -1.1716752 -0.6360636 0.0983786 -1.1010231 0.472637 -0.050547287 -0.28126052 -1.68362 0.049207013 1.047215 -0.389788 -1.0927198 1.0693699 0.21169077 0.10100485 -0.025897518 -0.53977364 1.2177769 -0.19334319
DLMP -0.5889268 0.81404436 0.10179468 0.22403759 0.47781628 -0.62648094 0.95070004 -0.456422 0.15040763 0.72722495 1.0305532 0.65279555 -0.31002668 -0.57843983 -0.028567526 -0.99987113 0.48612937 -0.067692764 0.9726452 0.1317455 0.12852857 0.6734211 0.32091546 0.72353214 -0.3555003 0.20804021 0.089466006 0.004759173 -0.32526255 0.6002749 0.0005233653 -0.7107505 -0.0015718316 0.2745856 0.88141 1.0102077 -0.54587406 -0.7239551 -0.022011641 -0.10524459 0.37523276 0.24479982 -0.048316203 0.021160189 1.0046743 -0.27141756 -0.17996168 0.28061917 0.5803604 0.04354376 -0.44024578 -0.33772793 -0.51703095 0.019614007 -0.94833714 -0.6976193 -0.44989198 0.34124196 -0.6051101 -0.5596039 -0.13193157 0.48653546 0.9011356 0.020214802 -0.017318886 0.18133916 -0.124107696 -0.72238916 0.44511104 1.114101 -0.78657776 0.124753416 0.12565567 -0.43950486 0.57603663 0.9293141 -0.5955505 -0.052372202 0.3635631 -0.07474649 0.6776882 0.109880656 1.0907333 1.092802 0.7211486 0.08633471 0.7082681 -0.38744995 0.85947365 0.28828508 -0.30746567 -0.81746113 -0.14629006 0.38463786 0.473455 0.24737284 -0.75465 0.24901222 -0.65673774 0.020521805
LBJH 0.4680784 0.32981405 -0.34576285 -0.6011201 0.094095975 -0.46011665 -0.86378604 -0.14714873 0.49814245 -0.20657942 -0.013051126 -0.01801546 -1.2085643 -0.06852402 0.8901453 0.0008404792 -0.14746077 -0.38975686 -0.056833584 -0.34595618 0.11775503 1.3619998 0.35614517 0.07985694 0.7736189 1.3670058 0.42667028 -0.30616075 0.4742481 -0.6020514 -0.5215486 0.5313944 -1.3810438 1.2514431 1.2265298 0.30107954 0.5986479 0.1350866 0.9450175 0.90340614 1.1482372 -0.1957762 0.24778368 -0.040748194 1.5280466 -0.57307136 -0.9116769 0.17307743 -0.24482149 -0.07232734 0.8124235 0.05007272 -0.6899985 0.06844058 -0.07575051 0.4717168 -0.52159894 -0.6001416 -0.15917332 0.24719092 -0.35304204 -0.74306816 -0.28995076 -0.19960608 -0.1271277 0.23907237 0.04922163 -0.79270947 0.062238008 -0.1676993 0.7080297 -1.0512704 -0.030723214 -0.49277514 -0.30438516 0.65935814 0.67529356 0.5888613 0.21403457 -0.0022484341 -0.3942532 -0.8180641 0.18383662 -0.4275248 -0.23645183 -0.25691414 -0.7034725 0.10880696 0.6389486 -0.09274039 0.31639937 0.5835671 0.5467756 0.03548955 -0.49920523 -0.20295104 -0.27695376 0.4532988 1.4588519 0.7501838
SYLK 0.12396293 -0.22087413 0.053337276 -0.6239922 -0.37280312 -0.19812897 0.36382592 0.5707248 0.43957877 0.11328396 0.073121734 0.46261203 -0.45429736 -0.17165719 0.45451534 0.21592385 -0.30900404 -0.7582231 -0.20070131 -0.09699993 0.58586216 -0.4240017 0.6030878 0.7312319 -0.11268447 -0.7932813 0.22655866 -0.73898965 0.06689004 1.0491395 0.60507995 -0.07093714 0.38600978 0.5399295 -1.1119972 0.0896029 -0.21830007 -0.47348616 0.70325303 0.17527814 0.17472145 0.53522944 -0.10565473 -0.5577648 -1.4734544 0.73771846 0.7425745 -0.12575717 -0.82901305 -0.50611985 0.5215729 -0.22530426 -0.277072 0.066520065 -0.5168587 0.58014846 -0.088808075 -0.053347263 0.07679038 0.8288431 -1.5061781 0.1488276 0.946646 -0.46966252 -0.5679862 0.049899034 -0.015446563 0.24725862 -0.040848527 -0.54772335 0.6496577 -1.2542508 -0.21858585 -1.0178878 0.757295 -0.65802026 -0.58549917 -0.7045039 0.08881118 -0.98164564 0.61829007 -0.9824861 1.0107433 0.8929902 -0.78887844 -0.4910195 0.49187243 -0.24158262 -0.54582316 -0.11563463 -0.91392255 -0.88584536 -0.40886557 -0.43811876 -0.5644631 1.2310708 0.5039646 -0.22610335 1.3053674 -0.79615396
HFOI -0.055235494 0.219119 -0.3885137 0.08553814 0.0046362076 0.7300955 -0.18537337 0.9365844 0.15875433 -0.06356759 0.2517816 -0.2527738 -0.8810799 0.25208703 0.2913854 1.0971578 0.23870292 -0.04121523 -0.2776371 -0.52843887 -0.22082804 0.459457 -0.12862036 0.4976955 -0.66141474 1.1573907 -0.025012722 -0.04912734 -0.39296713 0.6954298 -0.42133963 1.0789046 -0.10062461 -0.20150173 0.45188978 -0.7656574 0.1042508 -1.4612688 -0.63463056 0.51799214 0.54822874 0.9068195 1.6733613 -0.058820564 0.067508966 -0.24846885 -0.70944166 -0.049580034 -0.15783596 -0.7389393 -0.04423681 -0.54562384 -0.14712453 0.33876875 -0.44200256 0.8278279 -0.46960253 1.2287418 0.7702368 -0.6351456 0.38172296 -0.46728355 -0.39882234 -0.43899393 0.1701276 0.20191613 0.8623053 0.29172614 0.002602361 0.21173513 0.07698187 0.17588376 -0.16089551 -0.8618963 0.31458193 -0.22827394 0.27018234 -0.4464286 -0.32477173 -0.47632384 0.31664643 -0.7846132 1.3932723 0.38814202 -0.77514285 0.6650645 -0.343277 -0.23211469 0.1634497 -0.32565692 0.2920151 -0.3443841 0.9570183 -0.47900665 0.18948978 0.988563 0.034968805 -0.81239897 0.51810604 -0.5005877
EBPR 0.018968636 -0.5163434 -0.104972966 -0.63406914 -0.8607771 0.28228682 -0.26772076 0.21876417 -0.20810215 -0.78347796 0.107166834 1.0737542 0.12301869 -0.36536193 -0.32057193 0.39137915 -0.0779915 1.6277288 -0.43556502 0.1357117 -0.9716892 -1.3203506 0.61933947 0.23221934 -0.04610314 -0.3760848 0.018619042 0.18318802 -0.45795026 0.6860423 0.39351228 -1.3467607 -0.17745428 0.13488773 1.2566711 0.100467704 0.45109877 -0.5259698 0.15655787 -0.4611033 -0.4022319 -0.24610318 0.57097447 -0.116345026 0.3376943 0.30456138 -0.092605986 -0.6274763 0.11418988 0.19441256 0.84621257 0.23849705 0.60209787 0.6497013 -0.63296616 -0.18784192 0.13649406 -0.18603113 0.48161256 -0.46458662 -0.3484489 0.44761708 0.8266215 -0.88471127 0.31485486 0.37613648 0.2705028 -0.04366349 -0.4983786 0.18902256 -0.59184384 0.032910928 0.6104849 -0.7174974 -0.0057097366 0.5246412 0.17802155 0.13867465 0.6155233 0.15033923 0.80809575 1.3311934 0.11117055 -1.0027559 1.0841848 -0.20371392 0.11486414 0.23117666 -0.48409003 0.64389145 -0.33441347 -0.119093135 -0.24375418 0.16568384 -0.25403523 1.0055499 -0.36548918 -0.084198765 0.65075564 0.37008873
VTYH -0.62853056 -1.4385254 -0.32194892 -0.30548388 0.48131078 -0.13630201 -1.1195263 -0.05799318 0.51461416 0.99432486 0.30622768 0.06726916 0.21314703 0.40443575 -0.03041256 1.500667 0.50584906 0.26446912 -0.9368578 0.33514845 0.5819323 0.75773007 0.514857 0.531891 -0.095497034 -0.57303023 -0.20583482 0.8764436 0.4617936 0.14714801 0.51162946 0.676074 0.089130424 -0.6010407 -0.28853056 0.2930741 0.05169265 -0.5207772 -0.710593 -0.45507994 -1.1025473 0.145064 0.93656915 -0.37636966 0.15570697 0.12550668 0.7180492 -0.13043757 -0.7034246 0.245143 -0.4673879 0.49156663 0.45722115 0.18492816 -0.40047437 0.02930097 -1.0260501 0.49708274 0.9367612 0.23726912 0.94253606 -0.3423372 -0.5098334 0.36705932 -0.038683705 -0.03307598 -0.852127 0.4014096 0.12704384 0.08208758 -0.30592388 1.218269 0.573994 0.29018772 -0.24311368 -0.40163076 0.2835415 0.24162492 0.31624028 -0.86895233 -0.7334144 -0.69034 -0.9054625 -0.19695126 -0.46419057 -0.37054065 -0.16091989 1.3319474 0.2930281 0.18436925 0.07864229 -1.5381634 0.33980632 -0.2674029 1.143408 -1.0783482 0.80422837 0.95411944 -0.6848839 0.2534549
SWUB 0.37198663 1.0410918 -0.15122947 -0.91535527 0.1814029 -0.99007565 0.5817672 0.71040064 0.59192175 -0.026886065 -0.96105444 -0.14160278 1.3139974 0.2447715 0.5204387 0.043200172 -0.5066691 0.29579803 -0.68138254 -1.1450515 0.7030923 1.0181015 0.071317226 0.8081352 0.0640818 -0.68359965 -0.3193796 -0.42690635 -0.42052415 -0.19543827 0.8558374 0.9817522 -0.8127276 1.4255987 0.5954679 -0.50051373 -1.1168581 -0.2357324 -0.83322436 -0.8387073 -0.22761126 0.673669 -0.5341306 0.38334918 -0.04941429 0.14645547 0.1236662 -0.13831477 -0.48332796 -0.7084634 -0.23985133 -0.6237877 -0.3592344 0.36118492 -0.29908785 -0.031044781 0.36414108 0.9351797 0.18562415 -0.74759096 -0.40301245 -0.5732086 -0.32280776 0.09529421 0.79016936 -0.091606036 -0.70293057 -0.6022249 -0.44672173 -0.19301994 0.68655723 -0.5700763 -0.13664702 -0.22989455 -0.03259473 0.06847494 -0.51299065 -0.38044047 0.2647665 -0.0033196902 -0.9496015 0.2732823 -0.23696686 -0.18131976 -0.5638942 0.7668527 0.7486794 0.022462893 -0.71374696 0.52012956 0.021211695 -0.66044515 -0.7190947 -0.00860462 0.25898612 -0.08791921 -0.57541955 -0.3058223 -0.4114118 -0.15176183
DQKB -0.29231772 0.24634318 -0.18150598 -1.0425389 -0.058596298 0.34677404 -0.64557916 -0.40299645 -0.43345737 0.6326466 0.38747042 -0.10554091 -0.7798115 -0.7577347 0.09411526 -0.33140153 0.38287732 0.28474134 -0.29966348 0.5109193 -0.029730268 -0.7534714 0.08324492 -0.89785874 0.49871886 0.3676643 -0.82227165 0.09007181 0.1662262 -0.45365244 0.24460912 -0.39042172 -0.0050980127 -0.32346445 0.9632476 0.021376085 0.8750464 -0.8104001 -0.19835894 1.0818925 -0.0072514713 0.28847474 0.5800139 0.24130613 -0.42444012 0.23473392 -0.10496477 0.5018968 0.22980638 -0.51274306 0.053315967 -0.41091543 0.8598921 -0.3681677 -1.2040055 0.3865575 0.82712424 0.78733605 0.06486899 -0.49435887 -0.26444292 1.4571722 0.027300576 -1.1161524 -0.14390841 0.6495334 0.26813275 -0.11434763 -0.116060354 -0.73934865 -0.30492914 0.31287304 -0.77097464 0.09790208 -0.09992553 -0.5787268 0.15419556 -0.5424091 0.5241371 0.8014642 -0.2753671 0.6374044 -0.7689788 -0.59342945 -0.47142747 -1.4191042 -0.3426428 -0.10660792 -0.26961932 0.60309637 -0.76284504 -1.3296057 -1.022437 -1.2303021 -0.48330674 -0.23058262 -0.45202842 0.2578329 0.2875073 -0.8900451
AMYF 0.122371204 -0.90979624 -0.30251825 -0.30769318 -0.38993886 -0.17566249 0.94873196 -0.47964206 0.37413108 1.2077175 0.69437015 -0.09766482 0.062355053 0.9860833 -0.74077314 -0.6153052 -0.57707095 0.3351831 0.10069778 -0.044837672 -0.2671203 -0.51704735 0.19406186 1.2858039 0.3951594 0.4586254 1.0103004 -0.7648881 0.45833385 -0.98860633 -0.3577298 0.32671714 -0.050888576 0.97449666 -0.8822504 0.3268264 0.3383617 0.16648556 -0.1745966 -0.7058986 -0.37570077 0.25980586 0.40978125 0.5113118 0.6697637 1.0993315 0.21946049 0.11740492 -0.40372515 -0.44085065 -0.17930733 -0.026373744 -0.27780432 -0.29549143 0.023625646 0.7280656 -0.035311673 -0.093402475 0.44151554 -0.22431359 -0.040874615 -0.7673487 0.636963 0.13947508 0.12617038 -0.9526124 -0.4221708 -0.1771126 0.84962916 0.19598618 0.09429686 -0.72035366 0.7780577 -0.19072331 0.04478515 0.6222112 1.4298602 -0.46207148 -0.5882773 -1.0523171 -0.43536782 -0.4509722 0.2502681 -0.43510625 -0.7011541 -0.32168904 0.21140902 -0.058040697 -0.4635538 0.7695514 0.23535979 -0.24868956 -0.107822455 0.28555515 0.27004692 0.0800009 -0.36732453 -0.03743049 0.96291655 0.23342831
ITJV 0.37947175 -0.47968304 0.78479874 0.13950042 -0.46357638 -0.611265 0.9048733 0.50784606 -1.1723458 -0.6711454 -0.265282 0.43622324 1.2657324 0.013053899 -0.12592618 0.18543714 -0.07288873 0.45275167 0.77341324 0.35576624 -0.31211722 0.1750398 -0.28188795 -0.105737165 -0.014484376 -0.85425174 -0.5844258 0.5700428 -0.7612994 -0.89449924 0.4963493 -0.2174171 -0.4790453 0.98394525 -0.25844017 -0.027038742 0.23179598 -0.0049765785 0.84415674 0.20300877 0.7267783 -0.15998195 -1.1704866 -1.1165619 0.3058278 0.07227643 -0.07703928 -0.5038728 0.34756005 0.5344288 -0.5994745 0.25503728 1.1132207 -0.0054637836 -0.16265899 -0.09867916 0.2244353 0.68952876 0.63117373 0.21075389 -0.091685355 0.36968634 0.7409984 0.04028465 0.4316076 -0.04678152 -0.59821 0.098979816 -0.37132755 0.71734685 -0.08477388 0.6745782 0.09265324 -0.6295172 0.09109397 -0.11158259 0.5995079 0.61555314 -0.56881255 0.07130599 -1.629489 -0.3817758 0.1416188 -0.43927208 -0.58582246 0.26692453 0.23378766 0.58371484 -0.025712388 -0.24176537 0.37428832 -0.08581516 -0.5443986 -0.075236455 0.12352681 0.7975148 -0.2194404 -0.692686 -0.048167903 -0.2934603
ANLQ 1.011953 -0.31255928 0.39347118 0.39617547 0.568981 0.26901045 -1.2329202 -0.12978213 -0.90360504 -0.14706403 -0.50449145 -0.22219084 -0.2529493 0.32027298 -0.34876356 0.8644076 -0.14894618 0.53507227 0.19181108 0.25857446 0.09943071 0.52163136 -0.6672511 0.5550475 -0.41103154 -0.46941787 -0.4609276 0.13125788 0.48585564 -0.30933338 0.09267078 0.22022574 -0.016852502 -0.09681001 0.52891845 0.65407103 -0.3152534 0.7312214 -0.09462947 -0.0643168 0.7443223 -0.43168238 -0.15174948 -0.6019291 0.044188455 0.6801533 -0.7370972 0.59824663 0.29367194 0.7451755 0.32203892 0.31320977 0.09656101 1.0223017 1.1572856 -1.1771363 -0.32231417 -0.5976588 -0.48456356 0.04855091 0.36223924 -0.49772003 -0.03407458 0.6178199 -0.20528576 -0.06902583 -0.5707665 -0.89386797 0.35630706 0.67412615 -0.017265426 0.34909996 -1.7132959 0.8123579 0.3164797 0.7475587 -0.5513272 0.78799427 -0.24390596 0.32217842 0.092420936 -0.5461444 0.8859329 0.20715697 0.4194212 -0.28503186 -0.6316979 0.5929979 -0.024810068 0.6742867 0.17072883 -0.33850625 0.6952377 -0.23380226 0.09521492 0.26450104 -0.73510545 0.05576843 -0.95131093 0.0054253056
HVTI -0.28943738 0.2212267 -0.054629993 -1.2227906 -0.75678635 0.26767355 -0.48398617 0.12298295 0.28583497 -0.1389311 -0.49821702 -1.1132709 0.69424474 0.70472604 -0.7531873 0.108832255 -0.5051506 0.5674746 -1.1479393 -0.74108166 -0.14807716 0.12721428 0.6730841 -0.8019407 -0.81707525 -0.11935463 -0.51302296 -0.31078014 0.32775828 -0.7251095 0.37906224 1.4656554 -0.24085608 0.96593875 -0.37469277 -1.0194067 -0.0073108124 -1.1370649 -0.19598359 0.70984584 0.5105732 0.45386505 0.5948382 -0.5208327 0.7451951 -1.2239816 0.011657546 0.23882738 -0.71005297 -0.6849446 0.22262307 -0.2303484 -0.16731893 -0.44850925 0.24898556 -0.3498316 -0.111089975 -0.4159075 0.3702061 -0.3140975 1.1425811 -0.40194476 0.11645427 1.1441433 0.20883654 -0.27694336 -0.40892082 0.17455335 -0.4026726 0.15763292 -0.91055816 0.5631967 0.4365371 -1.0127014 0.81899005 -0.30447364 1.2755245 0.47720712 0.47112164 0.3257547 0.20818025 0.26188895 0.43256044 -0.116186745 0.025633628 -0.34498024 -0.834867 -0.5804375 -0.037689377 -0.17803721 1.141308 1.2016537 0.17752932 0.36548787 -0.36431265 0.07675564 0.28499705 0.051007386 0.97290957 0.03890943
VRDS 0.48110786 0.015344323 -0.115875125 0.9780206 -0.13163589 -0.19458218 0.5977 -0.013505863 0.33457208 0.6399163 -0.72161955 0.6780595 0.6812826 -0.057657897 0.080653176 -0.1394889 0.70371336 0.6010714 0.09603535 -0.3443822 0.43521693 -0.40346375 -0.29120466 -0.70464796 -0.43124172 0.23542422 -0.13490544 -0.15779619 -0.42782474 0.68813306 0.2375075 -0.10577 -0.5244428 -0.6171781 0.30282754 0.6765393 -0.6155645 -0.37159833 -0.83837306 -1.2652031 0.31245428 0.105566315 0.73197997 0.26720384 -0.45171013 0.24164255 0.72496694 0.39029524 -0.42631337 0.40376413 -0.3472747 -0.7677257 -0.2081903 -0.0800577 0.022642845 0.84965557 0.4585006 1.5660642 0.42550883 -0.37585434 -0.28795445 -1.069885 1.3635789 -0.5919081 -0.27681714 -0.76720196 0.3063685 0.5200023 -0.17622028 -0.01361066 -1.2578675 0.011552408 -0.9989425 -0.010440113 0.3405666 0.13598683 -0.09936277 0.48042607 -0.82395816 -1.4325646 -0.16811709 -0.50072664 0.624747 0.5019247 0.5858349 0.49765 -1.6788348 -0.79107857 -0.56082356 -0.3764584 -0.27017763 -0.40398255 0.2798066 -0.10408213 0.8187025 0.24785317 1.0334021 0.5740692 0.6619775 0.992036
KTHB 0.004841333 -0.7479833 -0.4450503 -0.09578598 -0.43555075 -0.40711993 -0.7419593 0.4381187 -0.9285208 -0.5163068 -0.5857175 -0.61091834 0.20565854 -0.18656023 -0.55583835 0.14427486 -0.0011952276 0.25828668 -0.42889705 0.39723217 0.33140668 -0.80737275 -0.7681323 -0.04375699 -0.16330777 0.033538703 0.3358038 -0.06741863 0.2510317 1.5337188 0.4144947 0.015277085 -0.052944154 0.7097936 -1.5550586 0.1820097 0.9855513 0.024423538 -0.2664286 -0.59980524 0.018562298 0.6314023 0.5731814 -0.16516834 -0.3169255 1.0162424 -0.33296597 0.051077083 1.2224684 0.6805821 0.03432255 -0.5320325 0.6354867 -0.7729953 -0.44913468 0.106793664 -0.514752 -0.8905123 -0.7318495 0.65775543 0.12613073 0.6762579 -0.13537751 0.09183136 -0.11365692 0.13485338 -0.62766427 -0.33427796 -0.7791451 0.13930582 0.81663764 0.9767599 -0.16032735 0.3055372 -0.46963492 1.3068376 0.6520078 0.47236475 -0.16859977 0.11054611 0.049332283 -0.9481936 0.7409745 0.80821085 -0.055870865 0.43361714 -0.8089509 -0.93460953 -0.098492555 -0.2645927 -0.026081674 -0.17424408 0.08899379 0.13993885 -1.1254424 -0.554511 -0.36485186 -0.034550745 0.2494708 -0.22311644
WFRB 0.5998213 -0.98143244 0.05256747 -0.5531815 -0.268906 -0.0784789 0.9251303 -0.16979513 0.22585179 0.13235162 -0.33641988 -0.807135 0.438494 0.10471655 -1.0698456 -0.25869206 -0.44454148 -0.3631573 0.023647029 -0.4533255 -0.5123418 -0.110754214 -0.1791347 0.37791598 -0.20564382 -0.730892 -0.14061336 -0.15256132 -0.1260086 0.81989974 0.26302052 -0.30528933 -0.0155389905 0.31212968 -0.027318535 1.5167127 0.31306973 0.072670504 -0.64136237 -0.878378 -0.42627797 -0.61978763 -0.18910751 0.42175022 0.38625225 -0.5600212 -0.33146673 0.91078025 0.38621286 -0.12933041 1.4654922 -0.04797215 0.37167898 0.06929108 0.19899274 -0.81491506 0.8565746 -0.27817738 -0.14692385 -0.6957176 -0.63836235 0.5120833 -0.2985397 -0.7105423 0.4869625 -0.660837 -0.69950145 -0.3826949 0.7008194 -0.28185943 -0.0035892706 -0.4439327 -0.25978777 0.19363041 -1.4436423 -0.07863227 -0.013236414 0.27843043 0.29234728 0.016553516 0.033126786 -0.059167102 -0.30348074 0.6502959 -0.4166999 -0.5023955 -0.15054688 -0.8790934 -0.00412056 -0.53601235 -0.42162585 -0.20987669 -1.0902882 -0.49831933 0.037800554 -0.23092887 0.43746594 -0.2034569 0.47663748 1.1079359
LNZD -1.0957029 0.22204119 -0.0028670228 0.7695303 0.8416502 0.18294062 0.16195124 -0.14127232 0.62715364 -1.2362337 0.74618673 -0.34759465 -0.49912322 -0.15845361 -1.0027126 -0.10092016 0.32832137 -0.06989081 -0.5729226 -0.16926786 0.30003497 -0.5476079 -0.025013663 -0.56833375 -0.53033507 -0.45370513 0.11373312 0.058281753 0.586344 0.5267508 0.24063404 -0.48445415 -0.14624739 0.030029107 -0.037140395 0.4229941 0.015776185 0.3376278 -0.53590614 -0.1475287 -0.1254823 0.42668292 -0.9213533 0.09655377 0.5634008 -0.52119416 -0.0041686106 -1.1208614 0.07721039 0.6488915 -0.12726739 -0.71665454 -0.0194371 0.78338253 -0.78920656 0.7116124 0.18514362 0.038633026 0.13405904 0.9141828 -0.1579642 1.1269943 -0.71078634 -0.17998098 0.2884758 0.25749817 0.5717511 -0.24067579 -0.105190136 1.3475133 0.36368048 0.018470582 0.10901308 0.49024412 -0.34864116 -0.48735803 -0.89813864 -0.015021167 0.76825684 0.48736897 0.037503734 -0.14143616 0.20837095 -0.34211925 -0.10195702 0.047004174 0.375811 0.06772342 -0.0499372 -1.1358835 0.106500685 1.3950331 -0.3312707 -1.3725507 -0.23236336 0.17541578 -0.23304299 0.47939187 -0.09144866 -0.0022827177
OTKW -0.01594276 -1.0278125 -0.17127341 -0.43627498 -0.24454111 -0.25251994 0.7872779 -0.2875843 0.2700781 1.2270752 0.6449093 0.015209117 0.13472883 0.96925104 -0.93583894 -0.41461405 -0.5647222 0.3212958 0.2738071 -0.0054732524 -0.16034377 -0.61253214 0.1020195 1.1373471 0.3011336 0.5696753 1.0921539 -0.711293 0.481152 -0.9859168 -0.39146137 -0.025563426 -0.11954989 0.79111224 -0.8278375 0.32411337 0.16151212 0.30656332 0.045384757 -0.8240581 -0.17643681 0.1145157 0.10088698 0.48700193 0.56542957 1.1881199 0.022989979 0.30528766 -0.5535117 -0.23100343 -0.02283106 0.063800156 -0.1976989 -0.3822935 -0.23093785 0.91059214 -0.061988685 0.06693069 0.44925812 0.018956522 -0.20575985 -1.0956265 0.5573325 0.15565664 -0.07170994 -0.5904011 -0.19771013 -0.19634844 0.7847337 0.122935094 0.19903658 -0.58144665 0.8811366 -0.07010781 0.1346772 0.75101453 1.4244859 -0.35234287 -0.71706086 -1.068888 -0.1511624 -0.46902186 0.28864783 -0.43465894 -0.9254023 -0.19992304 0.33274692 -0.39720586 -0.38862836 0.7152334 0.3471556 -0.106639646 -0.009752306 0.24905774 0.011551926 -0.1369702 -0.37749988 -0.13540527 1.1261103 0.14791231
FDLW 0.24304269 -0.5191651 -0.19953887 -0.008623031 -0.50832444 -0.11779364 0.33223236 -0.06791201 1.2620687 -0.9261332 0.5421072 0.06564261 -0.26501885 -0.71843445 -0.021132741 0.7607256 -1.1067239 1.0356491 -1.8211936 1.0373689 -0.17185524 0.24185365 0.67569596 -0.7848419 0.54761505 -0.3412925 0.41336113 0.2577152 0.59510654 -0.036885604 0.15542856 0.76670015 0.20135309 0.2094137 1.056694 1.1541626 0.21200763 0.7155602 0.1976734 0.31670982 0.7529257 -0.2051777 -0.7142197 0.4790801 0.5981304 1.0401326 -0.30236083 1.1356422 -0.25082675 0.64144415 -0.4797513 0.094613165 -0.32111064 0.2381975 -0.13023767 -0.4290441 0.5997076 0.38475 -0.68932414 0.830316 -0.07363228 -0.2277206 1.5671265 -0.22860418 0.8289936 0.084828965 0.50392216 -0.665516 0.17943542 0.37577602 0.1887544 -1.2136731 -0.34920755 0.59462076 -1.0250554 0.593082 -0.06836009 1.0764227 -0.32600218 0.5776565 -0.4884866 0.12638526 -0.2289494 -0.23268037 0.64016914 -0.10358861 0.42470175 0.45093486 0.58842707 0.69214135 0.47299045 0.2705568 0.5111308 1.1423111 -0.14059797 0.36766386 1.1948094 -0.2536849 -0.32566887 -0.26521298
FRWT -0.37661272 -0.09849339 0.08183304 -0.84104997 0.6810837 0.36368164 -1.1706632 0.55090857 0.6339851 0.16180536 0.36617187 -0.6903948 0.018568913 -0.17784564 0.16109568 0.6900908 0.27191186 0.22635669 0.8665327 -0.2772842 -0.044313837 0.3423515 -0.41323644 0.32214254 0.2776569 -0.65182614 -0.12286185 -0.18253301 -0.29507452 -0.34965292 -1.0120155 0.19080889 0.104758784 -0.31134838 -0.47988936 0.7806422 0.26952586 -0.63411826 -0.25553003 -0.2639872 -0.26148883 -0.41075593 0.14667006 0.34311146 0.020186685 -0.1463512 -0.7320969 -0.9194398 0.210453 -0.22887528 -0.18217424 -0.7541136 0.4135257 -0.023194663 -0.24917538 0.034483645 -0.60523015 -0.15870805 0.47633994 -0.44797534 -0.7728202 0.72275347 -0.14511196 0.17851874 0.6254175 -0.047055468 -0.43463358 0.40042198 -1.6673076 0.019984728 0.024319317 1.0355904 0.43151644 -0.014106969 -0.88548434 -0.6705718 0.9502661 -0.7626194 0.41267744 -0.901583 -0.21150994 -0.18107246 0.8957954 -1.1802114 0.53088146 -0.6172849 -0.19456941 -0.23063244 -0.18574895 -0.8081129 -0.22880322 -0.58436596 -0.8069921 0.08006089 -0.5599693 0.25076464 1.0112627 -0.6128853 0.1597548 -1.2140036
SAVQ 1.1165105 0.43834758 -0.1949892 0.49363604 0.22268902 -0.44853964 0.5717622 -0.30706933 -0.27928257 0.18594365 -0.039728466 -0.08289522 0.45614856 0.07249263 -0.041200567 0.8664711 0.34973368 0.9654825 0.58017766 -1.0729125 1.0802599 -0.7664443 0.5838387 0.93984896 -0.43018135 -0.58686596 0.56808645 1.0043449 -1.5066097 0.15547806 0.3712494 -0.4377 -0.11036909 0.055895045 0.19487466 -0.81861633 0.6162002 -0.03488813 -0.0071286554 -0.82240146 0.16995232 -0.6718588 0.29502025 0.53908414 -0.30813432 0.5943356 0.13065296 0.29323864 0.5767124 -0.19306324 -0.4830714 -0.30100486 0.2562439 -1.1933025 -0.6879501 -0.5250287 -0.10919746 0.45242083 0.3978029 -0.16185787 -0.62762094 0.3269401 -0.24611513 0.32495344 -0.07927699 0.35137823 0.16446328 0.09392918 0.9601432 -0.17705455 0.8548201 -0.4049125 -0.5739847 0.017859217 0.25576136 0.43061578 0.34725657 0.9070958 -0.88732845 0.15145387 -0.6830724 0.4291183 0.20355745 -0.1428758 -1.1579295 0.16875136 -0.4185623 -0.5301711 -0.66621065 0.8080712 -0.2598981 -0.4599465 0.7405648 0.22622985 0.27873746 -0.030047685 -0.23246077 0.68962234 0.16871397 0.050356273
PFQA -0.86006975 -1.409289 -0.48807782 -0.13897789 0.56254065 -0.071462065 -1.0111669 -0.13382177 0.5132753 1.1091417 0.3632053 -0.17879471 0.1618156 0.22956707 -0.23754242 1.4997534 0.40536216 0.18476652 -0.7947958 0.5048765 0.49366784 0.82463855 0.44467184 0.54881555 0.20903905 -0.56448483 -0.010304255 0.7452666 0.57118434 0.26450175 0.562426 0.64651686 0.043001518 -0.5436535 -0.3148169 0.30469444 0.061445702 -0.37921655 -0.7876393 -0.49798694 -1.2570522 0.30611888 0.6924308 -0.24110925 0.15221481 0.23859292 0.8029554 0.02602533 -0.6815304 0.13394624 -0.4784234 0.35533053 0.3701083 0.0101072285 -0.2868458 -0.004522449 -1.0110316 0.58492124 0.9337217 0.34346518 0.8928823 -0.089132525 -0.41272262 0.34338957 0.20072949 -0.19126023 -0.96033674 0.34850365 -0.14778276 0.22331312 -0.45204085 1.0886791 0.67351806 0.3870294 -0.41142222 -0.34430557 0.3104101 0.4009102 0.4270517 -0.8568323 -0.7582872 -0.6140817 -0.74943966 -0.17120537 -0.40844417 -0.45930713 -0.122954085 1.2517669 0.4635696 0.3225888 0.16514802 -1.6156583 0.24811544 -0.06899563 1.2739491 -1.1248702 0.6527235 1.0337139 -0.78426945 0.51595235
GOLQ 0.30706653 1.2496775 -0.3608495 -0.9962834 0.27651373 -1.2146647 0.6747038 0.7432685 0.3384195 0.26836184 -0.9494851 -0.1668086 1.3742418 0.5066365 0.54378897 0.19338888 -0.28774494 0.3080014 -0.715962 -1.3490148 0.593005 1.0648757 0.14992464 0.57737976 -0.03372973 -0.74903303 -0.13328332 -0.31322813 -0.21326257 -0.51133925 0.6398686 0.6563296 -0.96371967 1.2148916 0.42089593 -0.30517563 -1.020462 -0.3000796 -0.589623 -0.8867054 0.17438804 0.28168893 -0.70249546 0.5175702 -0.034370337 0.4314485 0.098357126 -0.14174843 -0.63138145 -0.6552736 -0.110304825 -0.94801366 -0.46607488 0.423962 -0.30947995 -0.2476646 0.2041159 0.8674639 0.18068543 -0.49601433 -0.42335242 -0.48076493 -0.17154056 0.25304112 0.73602164 -0.16060653 -0.60557383 -0.5947712 -0.3195622 -0.279031 0.71901536 -0.7737121 -0.11121078 0.042303283 0.14529695 -0.075374335 -0.2998689 -0.43455684 0.24051294 0.13339953 -0.9948316 0.380648 -0.18860884 -0.17858429 -0.46292368 0.54997236 0.83879286 -0.1166601 -0.6137339 0.68937993 0.090053 -0.80876255 -0.87895364 0.08420616 0.14224596 0.21193366 -0.642988 -0.14405556 -0.416574 -0.2099748
PNMC -0.30013376 -0.8466315 0.5027793 0.44512117 1.1217141 0.20542663 0.53045106 0.29972473 0.80943817 0.13443854 0.06286122 0.42549703 0.6425542 0.29382625 -0.31532714 -0.67696655 0.41438058 0.18417469 1.1737418 0.43402103 0.009767725 0.36042392 -0.5864097 -0.5253487 -0.3419272 -0.74528205 0.16552688 -0.4374254 -1.0238919 -0.78287786 0.012116533 -0.5741618 0.2736416 -0.10505726 -0.19856113 -0.35643423 0.23457594 -0.9865896 0.6930364 -0.29077977 -0.9686085 -0.050693065 -0.3633505 -0.90289414 -0.8201674 -0.43642947 0.37123573 0.12688172 -0.11735982 -0.33344415 -0.8018285 0.030619532 -0.7170762 0.40486747 0.0022182385 0.5690216 -0.24301308 -1.440575 1.195831 0.7932954 0.46600422 0.09044545 -0.8058216 -0.631066 1.395364 0.11121951 0.33727896 0.038479272 -0.2173304 0.46833414 0.7588618 -0.78996927 -0.35525793 -0.18346941 0.6005701 0.44839418 -0.33517936 -0.7685332 0.14481917 -0.37916982 -0.12516563 -0.08420333 -1.2875917 -0.106692135 -0.1036267 -0.22498454 -0.9327604 0.24025339 -0.10157473 0.19004487 -0.056694757 0.91226447 -0.024157526 -0.2591105 0.5942555 1.3885975 1.0904869 1.300687 0.16826841 -0.50806093
ZUDN 0.92020494 -0.620501 -0.64013237 -0.17748854 -0.29260185 0.48832288 -0.9736935 -0.031566646 -0.93428785 0.16977812 -0.7851398 0.6885767 -0.9646104 -0.4251136 0.32312745 -0.4019172 -0.041486535 1.2100756 -0.15059927 0.47601607 -0.0051651434 -0.9012751 -0.6378349 0.34234345 -0.2884293 0.09768301 -0.5302339 0.27129424 -0.20495252 0.4840475 0.50351983 -0.52172196 -0.92356455 0.017067533 -0.6581326 0.6377328 -0.2705643 0.09243511 -1.5097632 -0.55428153 0.61577284 1.0387493 0.050820448 0.10337497 1.0064216 -0.4135122 0.32690808 0.38330382 0.75178844 -0.04837114 -0.16498154 -0.06805137 0.48786896 -0.025909582 0.6880229 0.33097193 0.46579278 -0.30634257 -0.19429469 -0.08831861 0.11888475 -0.7346631 0.393351 -0.33957794 0.12542655 -0.48558673 -0.13305546 0.033080194 -0.37322676 -0.37472132 -0.5315504 -0.23081581 -0.042135675 -0.12588178 -0.0064682337 0.47826385 -1.1885278 0.069719255 0.15874349 0.5065646 -0.12694767 -0.2696767 -0.6080208 0.73735553 -0.067798615 -0.37241185 -1.1638147 1.1259644 0.25251082 0.7503561 -0.9819058 -0.4987661 0.18275037 -1.5419945 0.40556318 -0.34358194 0.021743415 -0.9586415 0.37736124 0.24644858
GDRK -0.1284012 -0.2311683 -0.083393484 -0.063861616 -0.33177665 -0.4336039 1.200009 0.012665032 -1.136909 0.2429992 -0.044847023 0.94134647 -0.40646723 -0.44572902 -0.39045957 0.21351273 -0.35531682 -0.04543936 0.10186873 0.9005847 0.16621244 0.74271774 0.6203119 0.10751613 0.22468312 0.8707008 -0.86857176 -0.7187112 0.87679034 -0.1636556 -0.60503864 -0.107926324 0.5889834 -0.4960012 -0.6397219 0.069975294 -0.2840762 -0.75552756 0.6646806 0.06497215 -1.1846353 0.37718824 -0.17949569 -0.12200824 0.28771245 0.35679507 0.05179865 -1.0864357 0.4406125 -0.11711707 0.9395995 0.29941243 -0.64060813 -1.3193327 -0.25539604 -0.38266885 0.72560745 -0.33885518 -0.72438085 0.43668354 -0.53714174 -0.37622458 0.7897043 -1.2333399 1.0671777 0.7480839 0.09391157 -0.21736299 0.19476435 0.6929956 -0.9560435 -0.47384635 0.10903756 0.50713795 -0.38730484 -0.44882137 -0.28998303 0.20802553 0.3815712 0.59278625 -0.048029814 0.42283592 -0.33780792 -0.30491966 -0.07351035 1.0537608 0.64031875 -1.0799267 0.13456036 0.61583215 0.32055438 -0.5515001 0.63474375 -1.2405089 -0.34983584 0.7333759 0.6747534 -0.77999765 0.16740124 -1.1132714
THOI 0.16422997 0.00711328 -0.36475307 0.04713457 0.45639497 0.03876165 0.33784583 0.906529 1.4062144 1.1221288 0.7565214 0.44323277 0.25731915 0.327617 -0.5427252 -0.37143797 -0.30243185 0.87545127 0.8510159 -0.5131416 -0.19832079 1.6182578 -1.1207402 0.100628 -0.23739797 0.6544725 -0.7971368 -1.2830758 1.1365746 -0.32857004 0.3867992 -1.452318 -0.1528635 -0.41043276 0.19466022 -0.5900653 -0.72970414 0.773555 -1.0634265 0.15370569 0.30190468 0.46645072 -0.0685635 0.20987998 0.3603163 -0.8238716 -0.29957733 0.5003685 -0.3351258 -0.38021046 -0.273343 -0.25485376 1.1394646 -0.54095244 0.8804307 -0.22476178 -0.25092474 0.27820125 0.021995135 -0.6927825 -0.08354676 0.25075376 -0.14551148 1.0975645 -0.27553317 0.18292403 1.121153 -0.5061461 -1.6617362 0.7212875 -0.7274824 0.37297928 0.45726246 0.08459704 -0.31790575 0.24147256 0.98844326 -0.51980853 0.70643747 -0.31705683 -0.24859458 1.0389026 0.67788506 -0.4414209 -0.25677624 1.2223874 -0.6736389 -0.9930656 -0.35780752 0.085932516 0.38943467 1.2262878 0.10627905 0.20806174 -0.38019934 -0.6905775 0.054289527 0.76498646 -0.8143087 0.5292803
ERAJ 0.9022481 0.04388723 -0.25088814 1.0404975 -0.17037764 -0.07483936 0.77243364 -0.9761191 -0.07309983 0.28415442 0.7671148 0.6308014 0.11528968 -0.23605962 0.708428 -0.34426886 1.100994 -0.09893168 1.20861 -0.26760638 0.11369886 -0.30512112 0.9653115 -0.4319642 0.04994335 0.4824129 0.033674426 -0.7306603 -1.1593854 0.8320117 0.3962622 0.16950929 0.7891188 -1.079628 -0.0004373473 -0.36666805 0.7247888 0.63808316 -0.91098887 -0.61112267 -0.82251596 1.1519451 0.032078426 -0.03399679 0.620826 -0.43943948 -0.066222705 -0.8060359 0.3109039 0.27957708 -0.02988892 0.2041986 0.061580602 0.16186121 0.34390113 -0.3235966 0.47698483 1.065492 0.50693727 -0.11524082 1.1643836 0.40953732 0.5214593 -0.06276318 -0.23023194 0.19044982 0.85335094 0.16369846 -0.60996354 0.4561979 -2.0409174 -0.5821045 -0.47587773 0.40081736 0.99790686 -0.39031106 0.118946 0.14803247 0.6125275 0.15711847 -0.15818964 -0.21427153 -0.084912956 -0.52019185 0.9091025 1.499985 -0.39777118 -0.07923571 0.49071726 0.3928806 -0.41406462 1.2551028 0.11761335 -1.0188953 0.1991762 0.59177476 0.150413 0.58127815 0.27975252 -0.3151408
ZARM -0.29309225 -0.32642773 -0.11948002 0.47839704 -0.12125851 0.28710204 -0.7292225 -0.81268483 0.41708753 0.035550363 -0.32394126 -0.12673494 1.0860188 -0.050581004 0.66680056 -0.44898316 0.11731889 0.3576174 0.7858025 -1.0793818 -0.1167291 -0.6365589 -0.16968562 0.3695176 0.28091946 -0.06139604 1.500144 0.22228028 -0.12819988 -0.73289025 -0.12170202 0.36969796 1.1446952 0.51925373 -0.1912025 0.72102726 0.23755683 0.22517991 -0.8370342 -0.03853774 0.0012185767 -0.17224638 -0.30010054 0.19057909 -0.26170695 0.22198892 -0.041008174 0.4501623 -0.21231604 -0.6444625 -0.52695847 -0.18022563 -0.4978024 0.5611644 0.31582215 0.20051596 -0.50117326 0.15490992 -0.119075835 0.4164949 0.433044 -0.18461071 -0.009989731 0.28096643 -0.9901477 -0.28744686 -0.17306675 -0.15898786 -0.1087046 0.26999253 0.5564728 -0.4015634 -0.23779967 1.5459011 0.49178377 0.46388662 -0.8407523 1.1466842 0.31330395 -0.7475469 -0.58857894 0.6939722 0.55236155 0.48925185 -0.11771786 -0.28060994 -0.44849557 -0.44787192 -0.35704058 0.10038432 -0.317624 -0.54009765 -0.35839084 -0.11325096 0.1463755 0.7762564 0.7799423 -0.3487513 -0.07089337 -0.92044616
JMWV -1.3255512 1.0354689 -0.22373968 0.880427 0.59616476 0.033385657 0.7175797 0.27238017 -0.27312985 0.04808096 0.5871694 0.7634761 0.88987863 -0.4323936 -0.5870869 0.045221407 0.052541744 -0.9244475 -0.5946788 0.21959612 0.13279386 -0.022923002 -0.9459907 -0.6998192 -0.28361088 0.1283703 0.45654196 0.19318627 0.28717795 -0.36626232 -0.70045924 -0.979288 -0.12532033 0.17551614 -0.4586274 0.6651439 -0.35790902 -0.9695528 0.2934899 -0.025221169 0.17492191 0.32737657 0.7786319 -0.082763925 0.026594218 -0.16445035 0.64603096 0.8646898 -0.0054863147 0.554991 -0.81595546 -0.6816016 0.18678275 0.0822602 0.17988783 0.9333104 0.13236718 0.4756964 1.1321971 0.7195315 0.23975603 0.6872804 1.0920495 0.30859935 -0.33052048 0.092347324 -0.16928266 -0.8412261 -0.70146155 -0.32871753 -0.8632916 -0.4691037 0.87080646 -0.31607842 0.7480002 -0.78811646 0.28229704 -0.43280888 0.3947091 -0.15318501 0.05315268 0.35411218 0.90422225 -0.26470852 -0.7016494 -0.12919225 -0.040498547 0.33208156 -0.039829616 0.07600242 0.34733146 -0.40100855 -0.70456356 -0.7652927 1.0983306 0.3334672 -0.41609263 0.27262118 0.38096517 0.93986756
VTQA 0.7408653 -0.50788987 0.7367707 0.3417275 -0.3129851 0.8560758 -0.17955382 0.802518 0.65051484 0.27939212 -0.54592043 -0.8151509 -0.9392711 0.57981515 0.31499684 -0.44006276 -0.42003444 -0.6899334 -0.89678746 0.0046924846 0.96235377 0.8771359 -0.24755327 0.04845981 -0.38490212 -0.22348619 0.2952959 0.10591493 -0.14358298 0.49066386 -0.512628 -0.30704352 0.053367622 0.26195633 0.35806462 0.41145134 -0.082206815 -0.13508295 0.85284656 0.2034405 -0.47987723 -0.15690528 0.666179 -0.36254784 -0.33622754 -0.48454136 -0.00083730725 0.036455356 0.11678803 -0.31539536 -0.60019565 0.02586366 -0.22139694 -0.7252308 0.1693181 -0.77483463 -1.3247507 -0.27844155 -0.17334518 0.68654585 0.7568304 -0.19214238 -0.014699367 0.56931335 0.5616816 -0.41886437 0.17180538 0.0782363 -0.23184659 -0.37265083 0.0019852722 0.2444024 0.99201816 -0.030921195 -1.0358932 -0.6095061 0.47785217 0.54569095 -0.27293438 -0.76696384 -0.47609857 0.33970296 0.2603579 -0.31901768 -0.07039955 0.31777924 -0.43835264 0.32355642 -0.1264263 -0.11917424 -0.7868732 -0.49819493 -0.010713971 0.64381605 0.5682903 -0.84262663 -0.124742866 -0.4441962 -0.32002035 0.42202213
NPBL 1.4755807 0.52269244 0.14108957 -1.1372366 -0.12392053 0.5919147 -1.3690852 -0.55282295 0.7241372 0.15314093 -0.34294918 -0.7249961 -0.22308263 -0.16674232 1.572274 -0.37590566 0.30313772 0.0019350831 -0.76749617 -0.8472193 1.0480993 0.34368816 0.084257886 -0.41335225 0.12479378 0.17074595 -0.020905728 0.36882576 -0.10171562 -0.99386245 -0.4629788 0.69049597 -0.6309394 0.37281662 1.1348088 0.625894 -0.19699441 -0.26469138 0.91890913 0.098796956 0.5524155 -0.21702012 0.84292525 0.45633414 0.4245018 -0.025468139 -0.26380667 0.39416012 -0.6862969 -0.22331001 -0.14325817 -0.63291544 -0.18870412 0.6689865 0.36495495 -0.14274883 -0.73810595 -0.8501551 0.3943267 -0.20640393 0.11539732 -0.31646198 -0.9017545 0.20639549 -0.04364943 -0.46717247 -0.4646741 -0.07583889 -0.44797724 0.5705955 0.028050696 -0.41150925 0.061007436 0.823329 -0.15658146 -0.77948624 -0.3661409 0.15431282 0.062246487 0.24832006 -0.605615 -0.33621198 0.33730125 0.47371045 -0.02468362 -0.675964 0.06718467 0.96884674 1.1498345 0.29458657 -0.66754407 0.5953575 0.558958 -0.7496312 0.2890572 -0.24701536 0.16816854 0.0941058 -0.3574749 0.50986856
LVCI -0.23871794 -0.28864625 0.77232736 0.9565603 -0.6983706 0.8433295 0.2785397 -0.30860728 -0.7316848 0.4629357 0.098073095 0.087530345 -0.24065347 -0.06127104 -0.27833974 0.3539924 0.19898772 -1.3957571 -0.1565346 0.6283081 -0.58589643 -0.3588563 0.86989635 -0.2545569 1.3882585 0.456489 0.8026568 0.5334833 0.3682979 -0.4073953 0.74857175 -0.44603205 -0.5130633 0.21622382 -0.296098 -0.04016097 0.21106228 -0.6435535 -0.040664587 0.4549319 0.42134008 0.3224746 0.18840785 -0.02866607 -0.4932395 0.4720662 -0.74598926 0.29086226 0.04042061 0.2249853 -1.0918828 0.23700851 -0.049075335 1.3485491 0.16330792 -0.81336784 0.25631437 0.029341392 -0.45844907 -0.07910441 0.022722699 0.3772174 0.13426389 0.72715497 -0.4420295 0.32955506 0.7892928 -0.069956824 0.19935545 0.4350476 -0.5270865 -0.47392428 -0.4358101 -0.09272118 0.82051563 -0.62414205 -0.1964711 0.19512841 -0.5134661 -0.55639535 0.28314123 1.374011 0.04939614 -0.5973929 -0.025672399 -0.19371794 -0.37773386 0.027463138 0.2454641 0.6381792 0.59539825 1.0787839 1.0718204 0.9432079 0.53811824 -0.01822167 -0.6606788 -1.4362334 -0.41707057 -0.61567307
JWHX -0.072793916 -0.9465755 -0.12243285 -0.64317936 -0.62902516 0.40531644 -0.1714723 0.45231006 -0.14258993 -0.7059511 0.32020468 1.0474347 0.05908588 -0.4264939 -0.39375558 0.42190152 0.003578651 1.6174345 -0.31706914 0.49180722 -0.96399826 -0.9773603 0.6294767 0.29317817 -0.196829 -0.42975703 -0.2120156 -0.017230457 -0.25035024 0.8156364 0.41414177 -1.4267691 -0.2744775 0.11206879 1.1985555 0.045803614 0.54079497 -0.68988645 0.17271407 -0.2802586 -0.7013302 0.04982096 0.56500417 -0.22066651 0.3470211 0.23687582 0.016677119 -0.44128543 0.5324506 0.03782852 0.87136257 0.44435823 0.629189 0.39359346 -0.27424234 -0.32832634 0.12530354 -0.4007436 0.3307177 -0.796363 -0.41540477 0.41684222 0.83852494 -1.0104681 0.3385823 0.43112487 0.38202325 -0.13597852 -0.538263 0.08224376 -0.8142008 0.17574033 0.7729223 -0.9395129 -0.11126567 0.5535492 0.2902229 -0.0960965 0.7894879 -0.016905745 0.85201657 1.5811456 0.21697111 -0.91881967 1.3272045 -0.24148019 -0.022531595 0.25035784 -0.4009322 0.56584036 -0.23677745 -0.25523776 -0.38590372 0.23095776 -0.23471567 1.1691326 -0.5180176 -0.20917869 0.66947883 0.3492125
QWKZ 0.26364315 -0.46945155 -0.43358028 0.120316856 -0.8257685 -0.17298284 0.3875851 0.062090956 1.3216863 -0.7476969 0.5958473 0.103121854 -0.3743444 -0.9050227 -0.06643026 1.0989212 -0.90600425 0.564947 -1.5579929 1.0114658 -0.11902806 0.16125795 0.6021391 -0.35370368 0.3512973 -0.3909336 0.44618484 0.28986323 0.73439556 -0.11209894 0.31970337 0.9371475 0.081799395 0.28674924 0.85906774 1.0043694 0.15955988 0.77947056 0.15356885 0.11345349 0.993827 -0.59776664 -0.77696735 0.6454046 0.591531 1.0283712 -0.45290324 0.9855576 -0.28007436 0.7560176 -0.45594233 -0.07142436 -0.14290832 0.20450972 0.08800564 -0.32349974 0.6384293 0.88139904 -0.4983095 0.775791 0.09863463 -0.110169284 1.5910916 -0.30710503 0.595755 -0.0147802485 0.2265397 -0.5498341 0.18022305 0.1365193 0.3198213 -1.4749672 -0.3119947 0.37335992 -0.9110349 0.8258006 -0.0059435326 0.91561705 -0.38480702 0.3158632 -0.83935905 0.096211 -0.3917977 -0.5477716 0.6337184 -0.15029351 0.39588717 0.20406616 0.75621593 0.7532557 0.44664568 0.38301656 0.5368146 1.1034104 -0.2837234 0.39099765 0.9836778 -0.12394124 -0.3621683 -0.4443898
EMQK 0.064118 -0.35350254 0.13325633 -0.41088712 -0.12525113 0.48576608 -0.43143147 -0.32868427 -0.42605457 -0.2916073 -0.9132948 -0.02127083 -0.47660148 -0.30119187 0.29940203 -0.11686289 0.022988478 -0.6776012 0.48337767 -0.22184712 0.56998867 0.4472922 0.33445174 -0.44082025 -0.008516894 -0.13728933 0.22689322 0.120049864 -0.485076 -0.4808951 0.11155212 0.43037245 -0.827909 -0.22900437 0.6900127 0.13623372 0.33822858 0.1766836 -0.19783355 0.30808765 0.03178023 0.69667226 -0.5901616 -0.24807686 -0.5473981 -0.5729548 0.007373441 -0.427325 -0.19562878 -0.26320505 -0.48129123 0.35534582 0.37178835 -0.50055003 -0.13353513 -0.6809336 -0.64632493 -0.5890793 -0.030307699 -0.28335238 -0.08666841 0.09498698 0.2613801 1.0245081 0.3184582 -0.51947534 0.07502381 1.0749629 -1.1551062 -1.0747348 -0.07138995 -0.058955584 0.047245685 0.46444955 -0.4851302 -0.7176663 -0.910482 0.6444621 0.77511567 -0.48610225 -0.50727594 0.9018911 -0.38714066 0.3679851 -0.67121774 0.28576887 -0.095638946 0.17111005 0.7194367 -0.13603544 0.02517656 -0.10928505 0.17160033 0.00085328665 -0.9444485 -0.58558875 0.041961692 0.33847544 -0.35677946 -0.40582526
KTVI 0.23500788 0.19915003 -0.44470212 0.57872456 0.7495536 0.7813884 0.5537337 -0.07045153 -1.0031257 -0.58939743 -0.025291013 -0.82550406 -0.42234725 0.9748367 0.8540603 0.010308685 -0.11727611 0.42195335 -1.6197984 0.1414535 0.69395304 -0.39035106 0.011136597 -1.2241379 0.40919006 -0.5105282 -0.13749489 -0.13061163 0.31320298 -0.262881 0.72527766 -0.111279815 -0.39524505 -0.34946138 0.8199149 -0.4114075 0.083704986 -1.7166754 0.44856733 0.22620939 -0.9358376 0.5314756 -0.87883544 0.70096755 1.3189759 -0.435347 0.5193647 0.10964498 0.033173546 0.179354 -0.3001611 -0.32208556 0.16442826 0.7434332 0.07360963 0.8674504 0.120308995 -1.3063989 -0.50161517 -1.6716024 -0.43353608 0.39056972 0.57685786 -0.8061805 -0.5068283 0.18496764 -0.13065484 -0.19882894 1.3822187 1.0022379 -0.9118776 -0.058300924 0.90242875 0.118725285 -0.20292644 -0.62570137 -0.84689444 0.3010569 -0.17715585 0.1872433 -0.29778197 -0.5086704 0.38922668 0.17901668 0.121047996 0.30321813 0.87729377 0.03545409 0.048406858 -0.48694786 1.3908645 -1.282862 -0.5890991 0.029392743 -0.20429745 -0.35636577 -0.5778906 -0.5682079 -0.30977407 0.41053888
OVNW -0.55769026 -0.409715 -0.49150392 0.12073997 0.44422862 0.13866706 0.57505023 -0.3301229 -0.13278694 -0.26037627 0.18793873 0.6222146 -0.45659825 0.60253626 -0.031701945 0.27511436 -0.5344915 -0.29110646 0.06610946 -0.47168985 -0.16495007 -0.67271394 0.12979676 -0.041745674 -0.41769448 -0.8008339 -0.42902455 -0.08784474 -0.83116704 0.2896417 -0.17072622 0.26065683 0.1257774 -0.37368503 -1.3239511 -0.62927973 0.12608369 -0.22167897 0.43733296 -1.0058986 0.14356092 1.0062122 0.56648684 0.014916574 0.28772855 -0.33906612 -0.48102915 -0.1583173 -0.67896736 -0.28578952 0.84077173 0.17824559 -0.21219857 -0.6338812 -0.5864772 -0.79944855 -0.47575507 0.5336292 -0.077986844 0.8439241 0.7509315 -0.1534084 0.042551287 1.087873 0.61516273 0.7479411 0.40883544 -0.053906485 0.28454715 -0.2326603 0.48561195 -0.8658616 0.7336812 0.18902996 0.352924 -0.7753621 0.3520448 0.067042366 0.4932003 1.1518687 0.56566143 -0.3303783 -0.039650407 0.508791 0.18146822 0.8384695 1.158002 -0.37498295 0.24896711 -0.27371478 0.21000293 0.24246936 -0.32067853 0.043183487 -0.24998109 -0.44864452 -0.19751307 -0.2872879 -0.2247972 -0.38905594
QRDB -0.17247291 0.5978718 -0.06722719 -0.45909974 -0.0054011606 0.2743632 -0.48166245 0.02394525 0.27271655 0.56495917 -0.025883855 0.43209946 -0.53242886 1.2376702 0.71930754 -0.2068385 0.16105528 -0.6302118 0.612725 0.82642084 -0.14128816 -0.084365726 -0.0627892 -0.61357623 0.28554472 -0.022425923 -0.69652414 0.8027566 0.81603885 -0.7408907 0.48830843 -0.085996866 0.2760517 -0.3850285 -0.08389945 -0.13227017 -0.22719069 -0.37642455 -0.21150102 -1.1952734 1.2106854 -0.042853978 -0.5264457 0.8059414 0.64888656 0.88943344 -0.996043 -0.41725424 0.4766142 0.40736035 -0.67316425 -0.38028175 -0.49324444 0.7245737 0.84367007 -0.073036514 0.16997299 0.038387563 -0.79213136 -0.20220643 -0.1390833 -0.049090963 0.5785627 -1.0212384 0.32411802 0.40868893 -0.64042825 0.7368488 -0.38311014 -0.16965446 0.26218745 0.16412394 -1.0079155 -0.29101235 -0.77614796 -1.3376689 -1.1131549 0.43511447 -0.8640359 -0.36151522 0.09794005 -0.46554023 -0.30857426 0.19014527 0.1948553 -0.034371056 0.66825485 -0.14726788 -0.8536654 -0.64439416 0.45169714 -0.8102116 -1.148712 -0.46695733 -0.015157685 0.7871434 -0.66832614 -0.67273325 -0.7350217 0.54613596
MKYH -0.23392089 -0.05696009 0.29851782 1.3534683 -0.18479721 -0.6136105 0.4727171 0.38514444 -0.1525414 0.8707528 -0.44691217 -0.546595 -0.25559062 0.70605487 -0.8002383 -0.9208777 0.2297496 0.4829425 0.5577738 0.12985192 0.0176233 0.055091094 -0.45456746 0.16792259 0.24726704 0.002428144 0.8531929 0.070423245 -0.55892694 0.033692915 0.19554213 -0.6683372 0.51499563 0.8338121 0.4962056 -0.7691885 0.7315353 -0.40330473 -1.4181805 -0.81576747 0.5510655 -0.89560366 0.07990413 -0.39602327 -1.0218502 -0.6492682 -0.11767605 0.13898623 -0.41165826 -0.08227988 0.9969171 1.0207324 0.31908378 -0.581304 -0.6783681 -0.686031 0.33736613 -0.07851103 -0.28204578 0.66308534 0.21953249 -0.1852297 -0.10231418 0.897758 0.90383446 0.17244548 0.36071882 -0.30527088 1.013693 0.50217456 0.16742802 0.21022682 -0.35412702 -0.43522185 0.07982635 -0.5452304 0.58250755 0.65839833 -0.15812525 0.22760086 -0.16164389 0.3815622 0.61096025 -0.41873407 0.44554698 0.1589728 -0.16944356 0.37483558 -0.2200444 -0.7348613 0.237741 0.06189232 0.044682764 -0.024827158 0.26884836 -0.5171919 -1.0770864 1.1674895 -0.67184424 0.5376079
ILPB 0.38668758 -0.33313048 0.80656767 0.1464078 -0.39041767 -0.4657185 0.73827124 0.22074105 -0.9347776 -0.52727306 -0.2992943 0.44998118 1.0421524 0.079393156 -0.07351736 0.1972355 -0.24826033 0.34251237 0.75974303 0.3632619 -0.32734802 0.21169482 -0.34490755 -0.21456039 0.06051594 -0.8436446 -0.69061935 0.478171 -0.998646 -1.0460188 0.24022837 -0.082443476 -0.4776653 0.9156779 0.074296586 0.12004363 0.16758098 0.034280904 0.9754879 0.4331301 0.9630244 -0.121857405 -1.250296 -1.0987196 0.3363213 0.331941 -0.056053706 -0.3399385 0.31678995 0.32133186 -0.77528936 0.32694203 0.99094284 -0.12472784 -0.15790334 -0.1712573 0.06261096 0.79622513 0.80334175 0.31179145 0.0855322 0.3337383 1.0090111 0.07243526 0.47128546 0.083437115 -0.63271135 0.048776727 -0.504915 0.62398374 -0.08478191 0.6435764 0.22212164 -0.753926 0.059683412 -0.07795329 0.5665393 0.76502746 -0.7724917 0.05624738 -1.5477637 -0.35978317 0.2494803 -0.33909962 -0.49001658 0.29571155 0.45191476 0.3666902 0.0814841 -0.10031981 0.36442655 -0.17807108 -0.50821346 0.06368574 0.12393982 0.75452393 0.049521115 -0.8011478 -0.13212092 -0.29304013
DILG -0.40947995 -0.76993155 0.35304555 0.59276193 1.086655 0.18374829 0.6773583 0.24444664 0.98110145 0.12817992 0.15961246 0.51225215 0.6325435 0.15294586 -0.15295106 -0.69796365 0.340052 0.2647447 1.1770744 0.54924715 -0.0039400044 0.3563625 -0.6314008 -0.5676116 -0.62865657 -0.69362545 0.10095023 -0.39479294 -0.9225632 -0.6800226 -0.010278094 -0.4127471 0.4869332 -0.20940036 -0.2523377 -0.43860033 -0.008596257 -0.9921317 0.57206506 -0.3825652 -0.83983845 -0.13835901 -0.20128755 -0.84728044 -0.7065811 -0.28435618 0.36970708 0.12410645 0.06392794 -0.074366964 -1.0456098 -0.22687088 -0.7169732 0.40222403 0.065556474 0.41089264 -0.24260175 -1.2410595 0.92598546 0.5246942 0.7134917 0.3119249 -0.8498825 -0.6189724 1.430837 -0.06051456 0.33624434 0.10700047 -0.4241689 0.42560467 0.6019642 -0.7426862 -0.31869754 -0.15028968 0.6314595 0.43281934 -0.36570328 -0.7956124 0.1629416 -0.39074764 -0.16823004 -0.120527305 -1.239462 0.06883832 -0.10491677 -0.3971231 -0.73399305 0.0561385 -0.07931502 -0.022429578 -0.054694183 0.9359964 -0.11682706 -0.5267185 0.5137904 1.1844155 1.150705 1.165387 0.14391431 -0.6625084
ZTXY 0.26398024 0.4424709 -0.31220424 -0.5539304 0.28282908 -0.23950748 -0.9081904 -0.32791114 0.57166755 -0.14621618 0.09839921 0.050856624 -1.2236266 0.046444513 0.57305765 -0.113156244 -0.24824831 -0.44759452 -0.14646399 -0.43210235 0.1202954 1.2344666 0.25379747 0.11502763 0.66748285 1.3216661 0.46620226 -0.49483156 0.53541994 -0.72366124 -0.54134494 0.4678181 -1.5071285 1.0468204 1.2566134 0.33714476 0.5611397 -0.05316497 0.5673553 0.92173666 1.0079699 -0.0016157835 0.44539264 -0.21498327 1.3822591 -0.4785689 -0.89215505 0.3157804 -0.21333289 -0.09166234 0.74944097 0.06387505 -0.76786274 0.24810158 0.09799834 0.58080715 -0.34604764 -0.52712953 -0.0034013442 0.35707644 -0.14692432 -0.7332718 0.08037515 -0.2683247 0.050734762 0.36068588 -0.046869323 -0.62608457 0.035371684 0.05456278 0.5634652 -1.0807412 0.16395764 -0.5834887 -0.43072048 0.610638 0.5843715 0.32903236 0.099987976 -0.21846299 -0.16098706 -0.56823725 0.36250946 -0.2893452 -0.2342455 -0.25664687 -0.80088776 -0.161974 0.6368348 -0.26805577 0.14769328 0.4423459 0.60722333 -0.22866276 -0.3880768 -0.05741142 -0.13802262 0.46730655 1.5512784 0.93677473
NLKF -0.5955067 -0.9243088 0.28475744 0.54570806 -0.1593947 0.5064067 0.4701249 0.6770876 0.43639112 0.56964475 -0.9680781 -0.7292806 -0.8427768 0.12721136 -0.8990833 0.60098356 0.55499804 -0.14356466 0.10271631 0.18074776 -0.39172468 0.5967189 0.23741369 -1.2702177 0.7628983 -0.2964067 0.040109854 0.6066414 -0.30864674 0.43698123 -0.7034662 -0.357162 0.08126667 0.08389271 -0.6090668 -1.3321784 -0.07509657 0.69556004 0.69325656 0.007119302 -0.5784517 0.74670315 -0.68496686 -1.2601827 -0.17730692 -0.866502 1.0388405 0.35692674 -0.48724115 -0.9878638 -0.39600426 -0.07768845 1.1062307 -0.63285726 -0.10830796 0.38424653 -0.75595045 0.62742764 0.037095964 -0.9564666 -0.61743915 -0.4058068 -0.12207931 0.45787725 0.6230658 -0.43488938 -0.12868373 0.06776093 -0.84972364 0.34675315 -0.80237985 -0.32225806 -0.23535594 -0.2677124 0.078616455 -0.27949154 -0.8434475 0.29022065 0.60422796 -0.1484827 0.4847335 -0.13887459 -0.6948988 -1.2429801 -0.4922296 -0.52870625 0.01586871 -0.23099063 0.49796003 0.8279733 0.25873137 0.912025 0.29669616 0.0064027067 1.5095105 -0.4068208 -0.40153253 -0.58743834 0.5993094 -0.7767854
FQLC -0.27481526 0.621231 -0.9781718 0.5255168 1.3114958 -0.6808096 -0.62905747 -0.0155260945 0.3307532 -0.042073455 -0.77784383 -0.15847956 -0.11096112 -0.38434073 0.66219354 0.88156956 0.17275713 -0.0064776875 0.69389313 -0.33062646 -0.35152015 0.08940013 -0.68435407 -0.5759272 0.9550445 0.23986462 0.45770112 -0.30082166 0.16553102 0.0021548017 0.51664805 -0.02966688 0.16194248 0.32255706 1.2081631 0.4107345 0.21158238 0.8554349 -0.049097616 0.14315034 -0.55777746 0.16583845 0.37471256 0.39683142 -0.13873547 -0.22779801 -0.45023432 0.11278993 -0.04954486 -0.08599719 0.52227265 1.4361178 -0.5193291 -0.2298646 -0.61993974 1.0689636 -0.15940394 0.07701948 0.35768694 -0.13552704 -1.2398531 -0.5303626 -0.7303012 -0.19500513 -0.6893672 -0.26241958 -0.9234666 -0.12637676 0.5624103 0.335017 -0.09372332 0.40860036 0.23750009 -0.19510782 -0.16331564 1.4433821 -0.67467594 1.3560358 0.33150226 -0.78266907 0.15754724 -0.7033604 -0.5190974 0.27220276 -0.051933024 0.25899708 0.8437666 0.23009473 -0.22862493 0.78260005 -0.1649336 0.2655905 1.2743462 1.4353335 -0.1465977 -0.22044623 -0.46330103 0.3674298 0.32243913 0.22773212
LCGQ 0.116615765 1.1904331 -0.14339717 0.4890621 0.3442781 0.01967086 -0.111109816 -0.8327809 -0.1853479 -0.48378915 -0.56596106 0.62549305 0.49175924 -0.27593303 1.0874865 0.27223346 0.041179042 0.5688617 -0.9665866 0.6680434 -0.4188451 0.19924606 0.80677074 0.32207775 0.11588395 0.56877005 0.17025504 0.4589227 -0.18474643 0.23341176 -0.7020427 -0.33173782 0.32539725 0.1507776 0.4300189 0.08559524 -0.68887955 -0.5295605 1.0058122 0.09908022 -0.21459824 1.2483224 0.5696806 0.056727365 0.8389327 -0.03399057 -0.45547336 -0.5933429 -0.600626 1.2863265 -0.13545892 -0.05658658 0.1395024 -1.4802312 -0.5835748 0.2775532 -0.31007472 -0.9639193 -0.09260269 -0.12203181 -0.34386882 0.08434612 -0.17144318 -0.5902786 -0.07246241 0.36074647 0.76015586 -0.057302974 0.3716179 -0.92749286 -0.29061225 0.4012808 -0.24436875 0.45124707 -0.3952195 0.0014632365 0.49106425 0.52241415 -0.48352054 0.59043944 0.0886196 -1.0212394 -0.45697483 -0.6844918 -0.41860434 0.6203281 -0.6011829 0.24549736 -0.7079157 -0.25435254 -0.8004573 -0.816473 -0.039706632 0.0083366 -0.7732603 -0.37721986 -0.36298844 -0.13137674 -0.23791502 -0.20119332
VKWM 0.002482366 -0.2340476 0.111419626 0.01503532 0.83290756 -1.0322365 0.5001909 0.67280775 -0.23915058 0.09629707 0.021086775 -0.561296 0.81701535 0.99942863 0.22189711 -0.11922871 -0.4736406 -0.48674986 -0.47226384 -0.014916298 -0.39040384 -1.2089474 0.42789805 0.6461719 0.24752906 0.39681312 -0.06804946 -0.6156474 0.54660755 0.36005276 -0.56323045 0.08000065 -0.7130451 -0.6799658 0.21509954 -0.70279586 -1.2416475 -0.118419535 -0.06985476 0.43702862 -0.09279705 -0.024288774 -0.30126664 -0.025901616 0.6698108 0.3524288 0.5033823 -0.091757014 -0.4638066 0.534039 0.061568465 -0.37040216 0.21729505 0.24817155 0.3240262 0.165572 0.18108366 0.0175719 0.8991496 -0.63594437 1.0546572 -0.46651694 -0.5571942 -0.06243482 -1.1774478 -0.32652098 0.3963196 -0.25946796 -0.82689285 -0.5940008 -0.39920223 0.58480024 0.19398639 0.2925683 0.3379598 0.2609343 -0.023024319 1.2800183 -0.3320423 -0.51324403 0.29663345 0.045139637 0.3529744 -0.7685756 -0.18259002 1.6511083 0.92758656 0.053614415 -0.22068101 -1.1314982 -0.3781763 0.73778844 -0.311326 -0.96889067 -0.57122165 -0.01866511 -0.02520476 -0.006568652 0.38710636 0.11284608
OWZC -0.15212658 -1.1872869 -0.29785195 -0.5821075 -0.056771703 0.97682154 0.50808376 -0.12494764 1.6120698 -0.48151737 0.066119544 1.2507697 -0.6274494 -0.94033134 -0.3923198 -0.17287585 0.26249677 0.45962363 0.2203486 0.22119756 0.11282952 -0.44079998 0.68122065 0.3394211 0.29558572 0.22111979 -0.23125345 0.69822687 0.3022568 -0.30913243 0.06853992 0.27782217 1.0046324 -0.24946171 -0.39518258 -0.35492033 0.34682876 0.9565193 0.4641286 -0.56787175 -0.26124743 0.09930317 0.20248446 -0.40277258 0.41502512 -0.7055738 -1.4648842 0.77428454 -0.37776777 -0.40144488 -0.19453286 1.5548415 1.1151618 0.24443819 0.14786184 0.71201354 0.44416234 -0.287532 -0.4977043 -0.44495156 0.15979573 0.029713625 0.491255 -1.0135629 0.11998392 -0.32742268 -0.06864342 -0.41572613 0.21758787 -0.03136866 0.5682631 -0.14560224 0.37652102 0.62639475 -0.4051822 -0.044351038 -0.34592563 0.061202917 0.9513632 0.24270168 0.003904368 -0.3628877 0.09803306 -0.5638671 0.10084137 -0.06768883 -0.61562425 0.24746758 -0.2465599 0.0063760383 0.011317923 -0.27264655 0.41546562 0.21249707 -0.10199533 -1.1714438 -0.0705856 1.0506872 -0.67419237 0.23512912
SDWQ -0.26724768 -0.22248025 0.14230935 0.41399115 -0.024507383 -0.4802855 -0.19412607 -1.1746176 0.820394 -0.23845422 -0.04656832 1.1968819 -0.25848043 -0.48260328 -0.4477617 1.0572906 -0.777749 0.3956337 0.27772793 0.96792287 0.31219658 -0.70136285 -0.47096258 0.046434198 -0.36360985 -0.7521952 -0.53244376 -0.026843961 0.32300916 -1.6449713 0.91532457 0.50669414 0.3820893 -0.064424254 0.86152256 -1.0475588 -0.1525938 -0.64055204 -0.082306355 0.55022365 -1.066728 -0.007069879 0.4584667 0.3397345 0.111023255 0.71676624 0.59496695 -0.7233019 0.017927092 0.5667399 0.034800265 0.29345593 -0.60707927 0.8862295 0.1514197 -0.047824427 0.061621208 -0.01985046 0.061711702 0.99108 0.24777387 0.20874286 -1.1750991 -0.69746107 0.7657629 0.5993336 -1.2174282 0.548789 0.6048234 1.1865014 -0.80893165 0.17030527 -0.4864964 0.31446832 -0.2512663 0.64067817 0.39823002 0.35727483 0.61644304 -0.41764647 -0.43442944 1.220293 -0.81869334 -0.3060455 -0.2559452 0.46654063 -0.53208613 -0.3595401 -0.055453938 1.0594629 1.2708219 0.91733336 0.47818157 -0.114500016 0.23202175 0.6242683 -0.130298 -0.427786 0.39713308 -0.31459472
OZSN -0.9106619 0.1857053 -0.08614485 1.2440552 0.38593382 -0.74921095 0.27234417 -0.38769567 -0.15954018 -0.02868296 -0.5984767 -0.36347634 0.575848 0.23211904 0.13176848 -0.20315106 0.30857626 0.043173794 -0.6696252 0.2682459 0.14238809 -0.5804014 1.1596047 -0.06415639 0.1438699 -0.45502773 0.2635303 -0.1854797 -1.2643597 0.5340444 -0.2565927 -0.43643743 -0.21403669 -0.8626805 -0.49780416 0.04398932 -0.04527229 0.59520847 -0.15897457 0.74358463 0.17639236 0.40614507 -0.3174246 -0.12183603 0.03285964 1.1554946 0.07561555 0.3703019 0.68130416 0.44909588 0.09301645 0.295949 0.27164268 0.34300324 -0.57283527 -0.66862357 0.6522753 -0.57472026 -1.2836989 -0.23056781 0.6725708 0.9298399 -0.31811932 0.9788666 -0.1628813 0.620805 -0.011840913 -0.23442638 -1.0367637 -0.57174295 0.91347283 -0.21657985 -0.7124598 0.22060943 -0.15861063 0.25134623 -0.38570434 -0.020896142 0.4159075 0.73970973 0.008032034 -0.1851219 -0.19433402 -0.75999427 0.008457211 0.73757267 0.54947865 1.0432228 -0.19819388 -0.7559262 -1.3168098 -0.12693612 -0.05187001 0.1298591 1.1173768 0.64647424 0.5032756 0.5343085 -0.80367273 -0.20211878
LKZT 0.2876445 -0.81118506 -0.099052764 -0.009931035 1.0378847 0.35603872 0.39026976 1.1529839 -1.0331701 -0.35063195 -0.30527595 -0.7910328 -0.18681562 -0.08653195 -0.021711191 0.50040233 0.03999689 -0.44327664 -0.52570266 -0.42709377 -0.9655404 -0.6878978 -0.30507985 -0.4550717 -0.14073364 -0.8208239 0.5033931 0.5515658 -0.24866778 0.2140587 -0.8986056 0.64338267 -0.7122316 0.46364394 -0.47561646 0.33715478 1.1897873 -0.82499886 -0.44979152 0.511068 0.26265046 0.39346495 0.32212538 -1.1175464 0.03276327 -0.33862057 -0.10265347 -0.6717485 0.9689533 -0.42626515 -0.059364997 0.06528996 -0.21367078 0.6614757 1.0655588 0.597246 0.21261278 -0.24195862 0.22159162 0.9357333 1.1087408 -0.45133388 -0.768194 -0.9105262 0.48352227 0.30898926 0.1939115 0.7309907 0.5629968 0.05173587 -0.27910483 0.9955912 0.48315457 -0.60196096 -1.3722979 -0.4325595 -0.11724769 0.40789527 -0.11605676 -0.81458527 -0.56140983 -0.014607657 0.28426608 0.5131431 -0.18052283 0.76454514 -0.51971215 0.3074771 0.119173236 -0.729873 -0.27235842 -1.2419053 -0.21544467 0.082954966 -0.6037519 0.34174928 -0.6592248 -0.95323384 0.33322942 -0.10228237
IAXP 0.02458116 -1.1077478 0.19675572 -0.030620348 -0.16426063 -0.63865525 -0.81563085 0.31337482 0.018165803 -0.25887057 -0.5685804 0.4988072 0.47161826 0.07487732 0.17249182 0.35225484 0.5518166 -0.01709902 0.5003639 0.2798995 -0.42683387 0.33507672 -0.18247716 0.20122607 -1.3494585 -0.18022335 0.8597828 0.4547863 -0.11982893 0.58891016 0.2870777 -0.36876136 -0.20393711 -0.6422705 -0.75672257 0.6823925 0.18147337 -0.7940889 -0.6049485 0.09601202 0.3588137 0.037887584 0.6845112 0.0035147604 0.20245992 -0.30728385 -1.1118535 0.60398763 -0.09997992 -0.64768386 0.5461963 -0.1920637 0.32216182 1.0392386 -0.65344405 -0.46382654 -0.2055145 -0.30582008 -0.1910602 0.6264731 -1.0419858 0.10134829 0.12456518 -0.75126064 0.74564725 0.042987328 0.3739251 0.48047793 0.06400608 0.44632947 -0.33063117 0.13190082 -0.5264713 0.060534395 -0.09428219 0.6278607 0.25823274 -0.9111702 0.7212853 -0.79601765 0.44182214 -0.73096275 0.55312204 0.8928704 -0.56527865 0.44986 0.09111919 0.30972546 1.1031575 0.1765824 -0.35028806 -0.7525028 -0.20626824 1.3188175 0.30807906 -0.27558288 -0.42088506 -0.015624105 -0.24144174 -0.16704252
GZEF 0.50978243 0.20237462 -0.27904427 0.48740715 0.8061539 0.03316481 0.0013013533 -0.747718 0.06221986 -0.306728 0.115516074 0.64764893 -0.98912853 0.5363497 -0.1537118 -0.27038807 -0.3268987 0.26010773 1.1358885 -0.806483 -0.09730217 1.7422788 -1.2266088 -0.20216408 0.22637334 0.22614884 0.16434608 -1.2497032 0.51737565 0.04165513 0.13212217 0.6475466 0.01089733 -0.8237636 -0.19495697 -0.05736818 0.6211151 0.58065397 -0.013511156 -0.23933204 -1.3365756 0.014840977 0.46590984 0.13622624 -0.73123664 -0.79242396 0.42248908 0.4204802 -0.72019035 -1.0936656 0.20656395 -0.060169943 0.068066284 0.14465329 0.5376574 0.26853532 0.24692313 0.19750553 -0.17428386 -1.3641895 -0.50014657 -0.49499306 0.29168695 0.70037794 0.19647628 -1.3595523 0.106314234 -0.013750523 -1.5384077 0.40097588 -0.02691078 -0.3447747 0.03272163 -0.043498237 0.45708427 -1.0829926 0.14276727 0.8237348 0.7157441 -0.91822 0.74486864 -0.4050558 0.97286236 0.8124745 0.406337 -0.058055777 0.119441874 1.2960209 -0.37749273 0.579472 -0.69407815 0.9877674 1.093804 0.439943 -0.6308291 0.56197613 -0.52656436 0.5337091 -0.4367862 -0.5827801
LQZA 0.47218215 0.11619537 -0.1461828 -0.22495492 0.031547714 -0.7335714 1.0283024 -0.2183729 0.35809702 0.7930177 -1.2159392 -1.1536497 -0.68154734 -0.9424142 0.32811263 -0.18096673 0.038080208 0.77449954 -0.35761178 1.0671976 -0.3589368 -0.8586277 0.08566134 0.3579544 -0.34518656 -0.5045304 -0.3822789 -0.78596056 -0.69772625 -0.56185263 -0.5877871 -0.53960204 0.379309 0.72091573 0.76388747 -0.42894414 -0.7344351 -0.35311565 0.6074108 1.0864853 0.5851373 -0.18393429 1.0695518 0.025956025 -0.1777169 1.0289625 0.66777664 -0.042241003 0.43778375 0.32413247 0.48188663 0.08350328 1.4560103 -0.19494279 -0.6350568 0.34056896 0.11152673 -0.7576752 0.1612783 0.45544553 0.35250235 -0.4503268 0.58446544 0.7751472 0.89668316 -0.11408738 -0.40441525 1.1767519 -0.32870358 0.5158705 -0.49832666 0.49836075 -1.4692593 0.16864124 -1.2647202 -0.25839707 -0.11710886 -1.212352 -0.008688967 1.1014136 -0.65457803 0.29608613 0.015138342 0.12762135 -0.5254069 1.0667528 -0.07122255 -1.1524707 -0.35843354 -0.10719698 -0.7814191 -0.049319804 0.6899153 1.041122 -0.06849956 -0.13489719 -0.40193468 0.106243186 -0.16911665 -0.69723433
USFY -0.6707818 -0.35194448 -0.5015095 -0.50176543 -0.58254564 0.27660075 0.065930165 1.3019406 -0.7655853 0.8889099 0.018902117 -0.13417047 0.0051736142 0.25431448 -1.0268631 -0.70574486 -0.10675179 0.9460678 0.84592247 0.31909218 -0.44347566 0.042029083 -0.04719976 -0.021211665 -0.55195457 0.24164376 -0.30405957 -0.9249089 0.6573326 0.08231632 1.059466 -0.25520283 -0.5605818 -0.21007831 1.2834929 -0.04827262 -0.38612968 0.045551136 0.13948096 0.04213884 1.3641508 0.22107886 -0.9243666 1.2600051 -0.19344667 0.74860114 0.37944588 0.30217424 0.56355524 -0.13502607 0.88980985 -1.1980315 0.81471986 -0.16232057 0.6358411 -0.6174277 1.1157068 0.4973063 0.17726591 -0.70525706 -0.11277012 -0.5593483 0.3985841 -0.056825176 -1.0599067 1.1231707 -0.14890207 -0.56900436 -0.64249873 -0.28694418 -0.3010852 0.14981619 0.44488552 -0.5541269 0.25757894 -0.1319633 -0.49400324 -0.41021335 0.43877125 0.23532583 -0.089287795 0.07887993 -0.16516316 1.2078754 0.50760293 0.1013859 0.16113439 0.774639 -0.28020993 0.6830431 0.387196 0.24605665 -0.6551998 -0.98017323 -0.415175 0.89818764 0.09881085 0.6235257 -1.1545373 -0.5372241
LATM -0.04230322 -0.268415 0.9269471 -0.1649761 0.8420716 0.31894696 -0.658401 -0.110053055 0.11710176 0.60360855 0.59291226 0.583728 0.07267941 0.14472672 -0.04572874 -0.9943226 -0.3398474 -0.81561345 0.2185343 -0.69082594 0.8871348 -0.115721814 -0.10646526 -0.44221458 -0.30638188 -0.42913994 0.44045934 -0.45738772 0.3569544 0.06512859 0.6928804 0.7722421 -0.96382695 0.52233356 0.1901098 0.6574476 0.18165825 -0.06814442 -0.03012478 -0.11993968 0.5369768 -0.06932583 0.81372094 -0.35176966 -0.2576723 -0.44408327 0.71713555 -0.038637877 -0.037977867 0.40458357 -0.4838152 -0.6265164 0.25665045 0.10553724 -0.5156207 -0.3828079 -1.3246015 -0.49136806 -0.33437723 0.13627738 0.14201385 0.86701834 0.03234503 0.76615214 -0.34845126 -0.2138707 -0.60760623 0.25939155 0.5547637 1.162907 -0.22786246 -0.58716244 0.7968993 -1.2368593 0.17269239 0.52553296 0.005176481 -0.85774744 0.23932709 -0.10262554 -0.18256395 1.182622 -0.0450803 0.809364 0.4649283 0.4154893 0.02428192 -0.7124696 0.6824283 0.57499826 -0.8530747 0.3943979 -0.31783816 -1.1403725 -0.6300176 0.013376783 -0.50781447 0.07695599 0.10356193 -0.10271107
