WGHM -0.49550074 -0.5936597 0.1722057 0.6421308 0.12550926 0.6337168 -0.6157148 0.11077608 -0.061725795 -1.0663208 -0.044341158 -0.37939385 0.29910654 -0.41904366 -0.40005496 -0.681892 -1.2116325 0.3949113 0.44809687 -0.15227202 -0.3024055 -0.20615748 -0.6368149 -0.29624733 -0.060836382 0.13147676 -0.09700138 -1.0226177 -0.46146035 0.71109706 0.60560685 0.14021139 -0.46408704 -0.8221764 0.8741321 -0.9899717 0.3567739 -0.33607233 1.277609 0.622083 -0.60082644 0.5039464 -0.5944594 -0.39138293 0.58802956 0.10350792 0.7087614 -0.018478498 0.41336063 -0.26462322 0.73442733 -0.19697738 0.15380158 -0.12817055 -1.0127589 0.15861982 -0.6219029 -0.6810076 -1.1491196 0.4822214 -0.56055033 0.36352828 -0.59143186 -0.1925329 -0.31726548 0.55912113 -0.13308989 0.8708039 -0.76556385 -1.1163602 0.23593292 0.86644083 -0.9522523 0.07919598 -0.50731057 1.1041507 0.29544282 -0.23318833 0.26341942 -0.2043196 0.92329025 0.97073007 -0.5120175 0.70284295 -0.1866431 -0.17349426 -0.6991114 -0.8548978 -0.023408247 -0.28623778 -0.18693843 0.016231509 0.21060774 0.43725893 -0.12496232 -0.616625 0.96617913 -0.06325219 -0.25949615 -0.26997176
ATDU 0.0064134644 0.9865586 -0.84570324 0.27481207 -0.03416076 -0.03258847 -0.1398677 0.087433524 -1.0727973 0.6369736 0.820714 -0.32344013 0.33159143 0.059562247 1.9969255 -0.13657323 -0.25684616 -0.76117975 0.59702504 -0.986835 -0.34456587 -0.41154754 -0.41562438 -0.89558166 -0.7778088 -0.026499009 0.19092275 -0.7352709 -0.065540195 0.4246425 -0.19826865 -1.0626813 0.46387804 -0.33692828 0.14071324 -0.3807613 0.07820272 0.50194764 0.93418723 -0.4553777 -0.6965489 0.015900139 0.43364045 -0.48432392 -0.25718683 0.65221876 -0.73110086 0.5195741 1.2328271 0.40756035 -0.2301885 0.18676104 0.25412938 0.04608504 0.32654026 0.21077225 0.025785305 -0.42728257 -0.09944811 -0.7019467 0.3300903 0.079257704 0.8673347 -0.4760803 -0.08634068 -0.24155127 0.5035952 -0.29571277 -0.82887286 -0.2673642 -0.21855673 -0.8253403 0.115154095 0.1339254 0.083482414 0.095389776 -0.28946567 0.43635696 0.26220003 0.26468432 -0.03277266 0.25267637 -1.5776842 -0.5534294 0.31813747 -1.2995241 1.1923275 -0.58961135 0.006970589 -0.81109184 0.15512241 -0.38839415 -0.12372098 0.15628687 -0.2882472 0.563208 0.82512754 0.8151948 0.51092416 -1.0843437
DLFR -0.6808057 0.48510876 -0.524239 -0.71726424 0.0324243 0.5518593 0.19090316 0.038828712 -0.25528914 0.39369145 -0.94695103 -0.80691504 -0.25999475 -0.19375639 0.35734966 0.053531576 1.3421482 0.16204922 -0.09701231 -0.84062505 0.15614714 0.46925408 -0.1187214 -1.0705352 -1.0501182 0.67459446 0.3133716 -0.7572782 0.26538017 0.48323086 0.052136514 0.24936312 -0.6991876 -0.2726374 -0.438582 0.33199924 -0.12704001 -0.64259744 0.14744422 0.012142962 0.07618852 -0.13282502 0.9703411 -0.25683975 -0.12577698 0.8985577 -1.3402053 0.22972023 -0.5803064 -0.08852981 1.1418958 -0.619907 0.3075704 0.23744446 -0.46961558 0.89459026 -0.14408542 0.9194185 -0.35714924 -0.5625556 0.30751285 -0.23062067 0.4107327 -0.2196648 -0.55045176 7.6859134e-05 -0.18399072 -0.14789194 0.74605834 -0.2537857 -0.65490204 -0.32856265 0.16396767 1.234623 0.14911355 1.3357091 -0.29684964 -0.8808885 0.4975048 -0.016558958 -0.26418737 -0.03893886 -0.20133822 0.22306246 0.6055919 0.11736347 0.51763904 -0.79240113 0.06348505 0.107882924 0.13847795 -0.10604167 -0.21528462 0.8705078 0.017805733 0.20348603 -0.50498885 -0.009072473 0.059477825 -0.8573025
SJOD -0.80527866 -0.47902465 -0.3725221 -0.51304615 -0.18524094 0.42697337 0.21746683 -0.39718094 -0.06176895 -0.036074217 0.5096247 0.07188529 -0.30732194 0.2705572 -0.26601234 -0.7063135 0.38897002 0.92490834 0.4466625 -0.046858557 1.4164482 0.7849757 -1.0433897 -0.5018439 -0.13708319 0.6421043 -0.7493827 0.43008882 -0.16504103 -0.09100086 0.40920588 -0.4391888 0.19678526 0.22284143 0.17150009 0.7345416 0.6119299 0.43005893 0.17656472 -0.15325777 -0.32926846 -0.5367374 -1.3142495 -0.696057 0.86342376 0.22803535 0.055461384 -0.70947635 0.66327107 -0.17108648 -0.45682096 0.26160398 -1.0802032 -1.3425008 -0.67935455 0.20183031 -0.102929346 -0.4059095 -0.75482696 0.016628224 -0.78215116 -0.8016511 -0.29158267 -0.31533122 0.15440862 -0.097372554 -0.72021115 -0.49180704 -0.66102433 -0.3375242 0.09208156 0.32717493 -0.03955556 0.032964043 -0.6154579 -0.32546094 -0.5593438 0.4417626 0.5336375 -1.0836074 -0.28431 -0.6366699 -0.555039 0.5186134 -0.061746385 -0.27216578 0.46564028 1.4119998 -0.027951052 0.5881079 0.5216634 -0.062250227 0.05867178 0.25285 0.14197099 -0.08713069 -0.7040456 1.3331256 -0.73580134 0.13083713
EXLM -0.6094213 0.09798255 0.16268283 1.1912103 -0.098849595 -0.07137882 0.048786096 -0.7663187 -0.7809403 0.8830849 0.40403324 -0.44118586 -1.223836 -0.8122824 -0.20389117 -1.0232539 -0.023396786 0.30558476 0.4104093 0.21452999 0.048985217 -0.2044353 -0.3329616 0.42830744 -0.035866156 -0.119256854 -0.044428833 -0.09440612 1.1006417 0.21393412 0.080138296 1.042819 -1.0288111 0.62756455 1.8232812 -1.0760903 -0.7065966 -1.1584458 -0.23817278 0.054712508 -0.2183676 0.6524432 0.6936368 -0.00013140353 1.238545 1.0960014 -0.8775823 -0.6173028 0.49826998 0.19378382 0.7892252 0.63872933 -0.2884167 -0.16150567 0.37549818 0.21171914 0.17299719 0.14921458 -0.8662004 1.08648 0.1902465 -1.4486337 0.3106328 0.9052467 0.61145115 0.34430754 0.54165864 0.73547834 -0.23268111 0.47382942 -0.4143455 -0.45948568 -0.34344763 -0.37419522 1.0232106 -0.25112972 -0.046049565 -0.6682238 -0.52526987 0.6441981 -0.78653604 -0.32528684 -0.56281686 0.3895031 0.6717217 -0.13879183 -0.39248985 -0.7553449 0.6257372 -0.5119751 0.2272635 1.1545115 -0.67973185 0.10835805 1.556738 0.79352534 0.09510025 0.29267484 -0.05527816 0.26071113
LQVR 0.24706425 -0.24825284 -0.31375858 -0.119265474 -0.3409797 -0.5563806 -0.37282655 0.036460284 0.10019603 0.4128885 -0.815925 -0.11094854 -0.87662715 0.9077947 0.75429195 0.57845 -0.32618502 0.22761351 -0.9788522 0.34990415 -0.4719684 1.122625 -0.26059696 -0.044785917 1.0112458 0.58092 -0.87614506 -0.63529444 0.76147634 -0.6429366 0.6048446 1.037038 0.39243212 0.80857766 0.6136762 -0.5104218 0.18055153 0.6793414 0.11635493 0.36499715 0.518837 -0.4392262 0.15814492 -0.29581988 0.7091713 -0.19131629 -0.11749096 -0.21296012 -1.2023526 -0.21818297 -0.14411382 -0.124100156 0.13867056 0.6433834 1.6101832 -0.033619873 -0.337387 -0.61639154 0.7075319 -0.6785085 0.8192215 1.5785369 0.26478368 -0.19754758 0.13193755 0.017517377 -0.09939951 -0.89711624 -0.5651245 -0.004878343 -0.94868386 -0.48616415 0.36476594 0.48008832 0.8898863 0.029460283 0.38335013 0.87310684 0.6113113 0.6645601 -1.1463462 -1.2153739 -0.12430207 -0.114156984 0.033275902 -0.2659251 0.0826338 0.25358763 0.032834355 0.5510124 0.8704576 0.1019779 -0.24127094 -0.94947183 -0.869449 -0.978336 -0.26791054 0.7131442 -0.34147266 -0.35664216
EDTC 1.1663145 0.8535337 -0.15197086 0.8982242 0.2642153 -0.27807862 0.44859055 -0.15438974 -0.19289789 0.27397257 -0.4560565 0.17707647 0.6281007 -0.18326236 0.037615277 0.32244498 0.5400129 0.844889 0.6106158 -0.5332875 0.79661167 -0.7486462 0.6244994 0.77346677 -0.10530872 -0.517414 0.8790102 0.7362681 -1.3686922 -0.2416838 0.3781342 -0.5965948 0.0052565406 0.41757324 0.06297498 -0.5725418 0.6071243 -0.06632313 0.30806208 -1.0458518 -0.059701316 0.14063525 0.17232598 0.07677161 -0.10562249 0.50885236 -0.5410577 0.67018217 0.27153397 0.1326773 -0.60494244 0.28807068 -0.28866643 -1.1603686 -0.81527984 0.07526933 -0.12090568 0.49227133 0.24612364 0.26002657 -0.7157722 -0.12363096 -0.34010434 0.21692103 0.033702552 0.18994726 0.07003128 0.3663116 0.90347123 -0.8196368 0.7783288 -0.35802674 -0.6131455 0.66781914 0.21506315 0.3893125 0.10712242 1.0514573 -0.44911897 -0.24419375 -0.3319295 0.025732985 -0.0021705208 0.1196223 -0.35147965 0.12279143 -0.52856946 -0.38129422 -0.46516812 0.18782894 -0.1268705 -0.7198201 0.14822981 0.41926986 0.89461017 -0.40364784 0.11260693 1.0844253 0.43253815 0.2534893
KFGO 0.35329187 -0.02299335 0.37173885 0.040501285 -0.23451267 0.5863543 -0.25915802 -0.65578747 -0.27524617 0.035187755 0.35572183 0.2954633 -1.0015776 0.5079708 0.23053128 0.14026782 -0.2925877 -0.29610714 1.5500636 -0.75739855 -0.013613393 1.3038032 -0.2368899 -0.5871103 0.44820896 0.8878015 0.13835728 -0.71991545 0.28592342 0.4628189 -0.02490762 -0.032122992 0.16470182 0.11473713 0.75489694 0.6519772 0.6510475 0.10460621 -0.41409472 -1.1904575 -1.1828942 0.45272836 0.1710253 -0.27544492 -0.6517945 -0.43256086 0.3784335 0.36782616 -0.50789785 -0.49333715 0.39826426 -0.2492801 0.8016854 0.39706704 -0.019548384 -0.43423626 -0.2022458 0.75969046 0.5951673 -1.3181825 -0.7580583 -0.7334739 0.34772074 0.45890707 -0.6143197 -1.000566 0.0067212847 0.35535753 -0.9908419 0.71519315 -0.89306843 0.034152392 -0.62451 -0.39363262 0.8165764 -1.4630088 0.65283525 0.59708387 -0.49195173 -1.212361 0.27348065 -0.97882956 0.6551303 1.4803642 -0.64997154 -0.7651754 -0.35601243 0.9411933 0.31698704 0.673461 -0.6946048 1.1845412 0.9385246 0.28475225 -0.27673092 0.7827197 0.01099285 0.13124959 -0.88640535 0.25987685
MNVQ 1.0806253 0.7523664 0.14955267 0.55488443 0.12980708 -0.13118997 1.068099 -0.035823178 -0.3225186 -0.22578648 0.6765351 -0.26949176 0.85688436 -0.7511194 0.92501223 0.7933988 0.14587562 0.13814346 -0.81995517 0.19317144 0.86921215 0.39338684 1.1624081 0.324052 -0.072776206 0.6416839 0.79451394 0.04119735 0.015295751 -0.17951329 1.9070048 0.5785915 -0.51332414 -0.021722741 0.79432625 -0.41372916 0.19071886 0.3702336 1.8445057 -0.6946291 -0.48674813 0.7731919 -0.002981905 0.25370234 0.19217514 0.9223503 0.3096669 0.46569672 -0.6502934 0.1941635 0.3988904 0.42090967 -0.87461776 -0.14342104 -0.45306653 0.25283703 -0.5424407 0.24172035 -0.53330624 -0.019805524 -0.8195683 -0.44061142 0.23833242 0.14328752 -0.36859176 1.361499 0.44358295 -0.37428203 -0.51667637 -0.18356057 -0.07084155 0.0012437826 -0.11739312 0.3161023 0.05378315 0.37752607 -0.51337886 -0.45837516 -0.8776276 -0.33307496 -0.6479116 -0.20802814 0.17395717 -0.36056957 -0.48468933 0.37558523 0.43934953 -1.2157563 1.2301129 0.20492671 0.24424206 -0.95505905 0.004605467 0.28885037 -0.5466783 -1.1379861 0.9609776 0.5725457 -0.32581997 0.74101394
TLOY 0.30007416 0.0063941665 -0.44579902 -0.078392774 0.38700163 0.62369925 0.22034027 0.060292717 -0.7920368 -1.0189598 -0.5090676 -0.8240817 -0.21835172 0.35919645 0.46591315 0.03484399 -0.45814407 0.094430506 -1.0352832 0.41947433 0.1144119 -0.85905796 -0.89941484 0.22322755 1.3235278 -0.70281386 0.058885884 -0.4009244 0.6356762 -0.43882105 0.078851216 0.06911962 -0.1656107 -0.08337606 0.15742835 -0.26860136 0.58133876 -1.1073171 0.5902028 0.85233665 -0.12516525 -0.37938243 -0.80861866 1.2266885 0.7001254 -0.9465802 0.5514785 0.9726321 -0.41426983 -0.008902887 -0.12945586 0.07945927 -0.5824863 0.7446746 0.7459499 0.18016684 0.33255082 -1.0683181 -0.6613164 -1.4272137 -0.6361936 0.34722424 -0.6066695 -0.50115407 -0.71254814 -0.16709633 0.12718813 0.16595319 0.60766333 0.22098656 -0.76019734 -1.1362383 0.14509398 0.6626928 -0.26240954 -1.2376727 -1.1578726 0.97457266 0.2275054 0.047769744 -0.11367182 0.112341575 0.8850247 -0.056710336 0.7436787 0.5187029 0.64809406 0.68050516 0.036805257 0.463152 -0.046818398 -1.4330891 -0.7393101 -0.2276605 0.027797716 -0.94377995 -0.7894225 -1.0391119 -0.020870348 -0.19961816
CZQP 0.76380974 -0.5223339 0.829269 0.029596176 0.9759163 0.5148694 -0.4932887 -0.27557433 -0.74677134 -0.3534421 -0.37208626 -0.40300983 0.18416929 0.0052795173 -0.14952694 -0.31013232 -0.33766344 -0.26012763 -1.2270895 0.019245505 0.063893154 0.2675726 0.6107041 0.47177354 -0.4692516 -0.45869514 0.79744285 -0.4392918 0.5230657 0.6253097 0.4414008 -0.17428191 0.04798114 0.039675564 -0.31384927 0.7008375 0.51387024 0.36762732 0.4931978 -0.02009057 0.24788585 0.067731895 -0.2670667 -1.2487133 1.0545734 0.5155313 0.8510794 0.12277702 -0.4618875 -0.12511894 1.1096957 0.9043947 0.718149 -0.49979293 1.2191166 0.81735015 0.020339532 -0.24333037 0.5469029 0.46143106 -0.12411651 0.020631077 0.5412099 -0.17316811 -0.859853 -0.3081741 0.5684639 0.8544079 -0.09816412 -0.28506202 -0.26585016 1.3161588 -0.62848455 -0.20125788 -0.669633 -0.17507583 -0.79316634 0.3382603 0.28306943 0.95510435 0.36681634 -0.62035924 0.49535796 1.4190147 0.20423597 -0.5255126 -0.17003128 0.7801189 -0.3101322 0.056046132 0.47847262 -0.28522506 0.26598343 0.6332278 -0.2534321 -0.38396493 -0.8309361 -0.95373625 -0.5849465 0.596593
LKXZ 0.27133837 -0.71913046 0.17200463 -0.440277 -0.21493469 -1.0171381 -0.7128959 -0.70131564 0.27709457 0.62050587 0.16908975 0.8087553 -0.016174542 -0.17781143 -1.1626213 0.44997478 -0.59501857 0.010055926 0.17232646 -0.02120604 1.0645517 0.14306915 0.63235766 -0.099662624 1.167142 -0.1462333 -0.09181424 0.2901164 0.43292046 0.45633188 -1.2336954 -0.2635515 0.83267105 -0.22613046 -0.8924154 0.6917625 0.3114848 0.024993364 -0.23566166 -0.7744491 0.7886899 0.24146953 1.1312824 -0.26973325 -0.53828114 -0.16595949 -0.5198701 0.17261262 0.061288305 -0.20296098 0.31127268 2.0827372 0.5458933 0.84974325 -0.15220372 0.84346837 0.553507 -0.99873185 -0.8293122 0.37025845 -0.49920577 0.29770267 -0.3042293 0.08978836 0.022770964 -0.9560451 0.6708299 -0.34354994 -0.11910026 -0.39396986 -0.2719023 0.87812936 0.27727753 0.041085277 1.1020548 -0.913119 0.5687148 -0.20299992 0.05330344 0.65552866 -0.48349795 -0.08425965 0.7035328 0.71769685 0.26878884 0.26642787 -0.169547 -0.29513702 -0.10975761 0.8699329 0.43722355 0.86014706 0.0049534678 0.058083624 0.10794626 -1.4223387 0.58135754 -0.1998429 0.12931156 -0.6541781
LSKW 0.33913067 -0.27616516 -0.22802094 0.90196127 0.14729778 -1.0286716 0.927998 0.4505573 0.83623606 0.5761009 0.7427598 -0.46052054 -0.64259845 0.5508515 0.064768806 -0.49140128 0.6553076 0.08220324 0.75757915 1.4645811 -0.10222523 -0.9586072 0.16597496 -0.30647737 0.24962571 -0.571358 -0.38150972 0.9034542 -0.40032464 -1.4660178 -1.041273 -0.37942746 1.1142529 -0.47690228 1.3579423 0.1474745 0.65522057 -0.9685145 0.34939286 0.23884201 0.6126873 -0.92383987 1.1587272 0.56012464 -0.43337578 -0.010859576 -0.25119752 0.31999758 0.26456985 -0.10800802 -0.0140190795 1.3146074 -0.8420399 0.69821316 0.6513966 -1.1672906 1.1169261 -0.58054465 -0.43419024 -1.0263134 -1.1968448 -0.5439639 0.2022385 0.2042847 0.36397597 -0.78929037 -0.7212449 0.19957866 0.48540583 -0.10415188 -1.0269684 -0.44826514 0.50557214 0.19855037 0.015324271 -0.17042048 0.219852 -0.36071154 -0.6587076 -0.7548139 0.40305683 -0.06668115 0.8483056 -0.52278084 0.3119493 0.69967306 0.5060003 -0.09454537 -0.47543123 -1.0164319 0.34215018 0.2236297 -0.2706912 0.96003574 -0.95475084 -1.1460104 -0.18161827 1.0204672 1.2638289 1.3458534
CHNQ -0.050133348 0.038247824 -0.27318877 0.9117394 -0.1604086 -0.5574785 0.0033295325 0.23494598 1.2508512 0.7268922 1.0247021 0.528684 0.04065242 0.631188 -0.7020301 0.123075135 -0.80989885 -0.009906509 1.0964669 -0.48037398 -0.036781143 -0.13454552 -0.03687675 1.096589 -0.21706516 0.2047844 0.106223844 0.28112802 0.6499693 0.09660533 -0.52765125 0.11302801 -0.20495515 0.6515105 -0.52087164 1.3193126 -0.56599385 0.51495105 -0.27543706 -0.5935337 0.30772674 0.99816644 -0.22614954 0.20670849 -0.5437028 -0.13157564 0.3188017 0.024549885 -0.10723531 0.14735693 0.7803768 -0.065068275 -0.8637241 -0.7873635 0.38995397 -1.2557555 0.13109846 0.645454 0.07341654 0.04725401 -0.67161584 0.29543814 0.93940884 0.71020657 -0.83456117 -0.035574947 0.18213093 1.2386856 -0.59875196 -0.28146967 0.28966492 -0.2007256 0.18092896 -1.3024051 -0.4894043 -0.042134713 0.03524637 -0.9067796 -0.2765238 0.27083582 -0.7083175 -0.43560365 0.070118494 0.4755678 -0.540856 -0.43086842 0.8600237 -0.06758779 -0.69852126 -0.8836089 -0.7404133 -0.29659426 -0.63084143 -0.42123163 0.05432767 -0.98589236 -0.25047728 0.46730074 -0.7527657 -0.098902166
AKZJ -1.0353458 0.28751093 -0.28416193 0.48442605 -0.7234314 0.8558425 0.48084316 1.1220932 0.13534814 0.28232437 0.7575716 -0.773002 -0.2228157 0.0020480428 -0.5438814 -0.95499694 -0.24582393 -0.17653419 -0.56203026 0.38299972 0.674811 0.2574358 -0.590672 -1.00224 -0.24866976 0.4123337 0.06144732 -0.787644 -0.70920795 0.8170258 0.038281217 0.28384694 0.3828967 -0.7016248 -0.2203718 -0.47641477 0.5530245 -0.47922292 -0.15111455 -0.770955 -0.6496668 0.8291825 -0.13314822 0.3876251 -0.038338568 -0.13104299 0.14355937 0.09868606 0.6142303 0.34023106 -0.43052295 -0.65934235 -0.33459052 -0.6542215 -0.408273 0.3863961 0.5808277 0.40718856 0.037944753 0.92859036 0.6751237 -0.5785406 -0.5707185 -0.33996078 0.42473856 0.32375744 -0.5972181 0.42799795 -0.36939713 -0.046064828 0.17615093 0.21788217 -0.22220159 -0.6181661 -1.3064728 -0.8618173 -0.053531155 -1.1655141 -1.2628516 -0.44523266 1.0111336 0.08167174 -0.88620573 -0.23471479 -0.23738128 1.0129521 -0.08304385 0.60745835 0.36095566 0.15439574 -0.35074183 0.3712893 0.20328046 -0.36723256 -0.16256385 0.5831812 -0.11560064 -0.394225 0.44850487 0.23627897
ELPS -0.30666652 -0.6720626 -0.43053526 -1.3910136 0.07154045 -0.13819002 0.27175623 -0.25478947 0.28003883 -0.20964839 0.3735855 0.14507492 -0.6381447 0.25314817 -0.8981629 0.08711809 -0.67614615 -0.20920677 0.32762873 1.3410488 0.8057664 -0.33436862 -0.6044713 0.8301338 0.68146145 0.0033489042 -0.623875 0.20352297 0.6292989 0.2681739 -0.3690793 1.3469176 -0.9936607 0.82827514 -0.90335256 -0.05159572 0.67718667 -0.0965623 -0.33606035 -0.8620523 0.6508092 0.1659251 0.30049813 0.29867893 -0.33911467 0.28680184 -0.24930254 -0.018071892 -0.18351103 0.82571 -0.25821504 0.14703704 0.1413934 -0.07260817 -0.4053888 0.12604423 -0.3653352 -0.03562893 1.0148262 -0.3183736 0.9077575 -1.1610757 0.611676 -0.2828239 -0.24977733 -1.6911492 -0.5284373 0.17175993 0.630255 -1.0637558 0.32915178 -0.14393102 -0.7188704 1.4102434 0.012041325 -0.29945976 0.0559505 0.25324288 -0.99381346 1.1197052 -0.98323894 0.98689806 -0.13727751 0.36008692 0.76211226 -0.10932243 1.0822408 0.20715123 -0.2102858 0.5474455 0.34627104 0.03676484 -0.30435193 -0.016575228 -0.7045038 -1.6506084 -0.5459401 -0.1713953 0.3001315 -0.59542495
PKUN -0.26877353 0.678429 -0.75914425 0.14284606 0.65979093 0.11428543 -0.47298136 1.1773295 0.67321515 -0.35607287 -0.30967203 -0.48651582 0.58136815 0.7644751 -0.4536431 -0.010582559 1.2465237 -0.83136 -0.50828844 0.74411494 -0.013972174 -0.37686256 -0.5465567 -1.1570768 -0.69692725 0.53938633 0.31480724 0.49042475 0.09587065 -0.12970205 -0.6341693 -0.11921111 -0.27875412 -0.4759505 0.644721 -1.196273 -0.08130503 -0.39260927 0.28047925 -0.3447098 0.645521 0.009343055 -0.1773106 -0.12994656 -0.25561473 -0.23863131 0.21458031 0.14930056 1.4486539 -0.39964753 -1.3613648 -0.017120162 0.22009204 0.67737037 1.128745 0.4624412 0.12532279 -0.12122668 0.5781878 0.31239623 -0.056273382 -0.86853504 0.10645984 -0.63771707 -0.39979774 -0.19443974 -0.40214235 0.15414022 -0.66793317 -0.2936097 -0.8576246 0.3206347 -0.31682512 -0.9397882 0.89307725 0.15552676 -0.5788106 0.6829481 -1.3505838 -0.7303257 0.12647915 0.1093495 -0.15667418 -0.14847882 0.25231472 0.20515586 -0.26509565 -0.2274161 0.5975853 0.11164723 -0.13018519 -0.20789577 0.3163198 0.34092572 -0.79609513 -0.7800721 -0.29252544 0.46314684 -0.33765778 -0.080233485
LJHY 0.68109727 0.994043 -0.24942508 -0.27208796 1.1572835 -0.15344246 0.54201025 0.0562693 0.048683435 0.06514027 -0.39464524 -0.57051104 -0.2300841 0.027349457 -0.38100284 -0.080907956 0.6461033 -0.8259435 -0.56955415 0.28889167 0.7286719 -0.1948469 0.03963327 -1.3417205 -0.1788115 0.06824741 -0.15903153 -0.33544943 -0.7529742 -0.14882754 -0.8541348 -0.51817673 -0.11604012 0.24027908 0.42744935 0.4917282 -0.61703134 -0.43564734 0.20734546 -0.10723078 0.06379443 -0.7713201 0.455626 -1.8924154 0.26786044 0.15706402 0.78724056 -0.07937219 -0.072889276 0.94897854 0.88839275 0.03287481 0.30199262 -0.14538567 -0.5429592 -0.49523914 -0.4159012 0.07114308 0.2019573 0.32917643 -0.17021932 0.37456593 0.18961531 -0.5664695 -0.18325393 -0.13741428 -0.51484585 -0.17031547 0.6042995 -0.9451943 0.2255458 -0.42042568 0.18546383 0.20240942 -0.46397597 1.2440481 0.59106064 -0.43877828 0.22942096 -0.759165 0.46697316 0.066268414 0.9661675 0.44770688 -0.12553841 0.12865576 0.43316743 0.2957064 0.6125726 -0.21238871 -0.65222764 0.35606444 -0.5445175 -0.08809867 -1.0284742 -0.56774896 0.45874038 -0.44254655 -0.91848296 1.3036298
XSDJ 0.8951717 -0.32649732 0.5097308 0.57063824 0.088525735 0.25981066 0.08661651 0.7231419 0.21004868 -0.3660187 -0.4340632 -0.46444523 -0.703452 -0.15655904 0.38771433 -0.062047273 -0.15914953 -0.6004207 -0.50995827 -0.25632098 0.78418845 0.82131696 -0.39264753 -0.13889913 0.09843852 0.16953054 0.38751137 0.2270644 0.5134736 0.044713132 -0.9917357 0.101055406 -0.25610805 0.3157917 0.22942108 0.44284046 0.15877713 -0.7772095 1.106619 -0.26612106 -0.62306553 -0.90505064 0.3056878 -0.6428549 0.03284607 -0.723542 -0.5371155 0.1565518 0.14718974 0.03334732 -0.15396856 -0.12391074 -0.3594669 -0.7756542 -0.38538978 -1.3613081 -1.2149408 -0.61114794 0.25090712 0.92945296 0.37919816 -0.18224934 -0.15081961 0.074756674 0.13479714 -0.29957432 0.35900727 -0.1480995 -0.31681433 0.09003238 -0.024614273 0.66506517 1.0632502 -0.05784259 -0.26841512 -0.50835407 0.8814299 0.3645204 -0.32839727 -1.0481501 -0.36741805 0.52682126 0.2196615 -0.38175878 0.2004619 0.5906345 -0.55138445 0.5780306 -0.11019228 -0.1033523 -0.7076869 -0.52975076 -0.06064829 0.46962267 0.89934564 -0.7052881 0.02019393 -0.19644174 -0.6501125 0.28246185
TMIK -0.16687134 -0.61294633 -0.06684386 0.3832146 0.24794339 -1.1671735 -0.093405664 0.17066327 0.060519468 -0.45730686 0.2566319 -0.058248237 0.4956418 -1.3823953 -0.055965517 -0.29228228 0.21836571 -0.42207706 -0.19911906 0.23729219 -0.20553146 -1.1713419 -0.28119642 -0.37604666 -0.8243119 -0.24300028 -0.24442434 0.06705323 -0.34316108 -0.14832108 -0.52956253 -0.013123452 0.23042664 -0.940082 -0.9195368 0.24346785 0.12526499 -0.91944385 -0.5739657 -0.39006683 -0.27079096 -0.9869408 -0.061092217 0.07638968 0.03476065 0.18036413 0.19680882 -0.22171591 0.2731623 0.034850698 0.6190617 0.7788712 -0.87493926 -0.44932207 0.07293557 -0.386964 -0.3945356 -0.5453566 0.3290759 -0.03895322 0.3499945 0.5024999 -0.16835174 0.5219385 -0.24813956 -0.17249641 -0.05890344 0.16160412 -0.18694364 -1.375725 0.038078018 0.29867026 0.018621085 0.32198802 0.09979664 0.2743754 -0.035438213 0.5352044 0.20942736 0.77296746 1.1299529 1.3050871 0.90523916 0.9332898 1.4483259 -1.0633267 -0.34578797 -0.2396084 0.3984163 0.35706514 1.5177672 0.25712273 0.6996168 -0.34645376 -0.8343702 -0.11466287 -0.14491856 -0.8938518 -0.1851846 -1.3446239
RNEI -0.07273053 0.1851965 -0.14296976 -0.63714194 -0.42685857 0.28333187 -0.5003224 -0.06680052 0.38864395 -0.24180841 -0.4432222 -1.653564 0.021033654 0.289243 -0.5805102 0.77217966 -0.6963919 0.7427128 -0.7843715 -0.926896 -0.034958128 0.3459827 0.010207744 -0.6475436 -1.2119046 -0.6577502 -0.79137516 -0.28246108 0.06700292 -0.33518037 0.21981597 0.8347748 -0.2122786 0.5861102 -0.069539346 -1.0001354 0.18521367 -0.35861468 -0.6298537 1.2135218 0.6195244 -0.7223916 -0.0440735 -0.26960412 -0.002047318 -1.1677992 0.1794545 0.11950863 -0.6253024 -0.9963013 0.13295853 -0.19208859 -0.16057123 -0.1877798 0.4608454 -0.57465935 0.10569139 -0.13378628 0.6614342 -0.40843704 0.6584974 0.41090426 0.011890375 1.175501 0.053192273 0.27536836 0.5159743 -0.16699043 -0.5914608 0.45465755 -0.8555941 0.038114704 0.9561961 -0.87612695 0.5202094 -0.31943923 0.71072483 0.8451771 -0.1383221 0.33440566 0.027603097 0.26249495 1.1460232 -0.43566504 0.49928904 -0.58777654 -0.6076196 -0.41015515 -0.4166233 0.53665304 1.0954086 0.5783283 0.79860455 0.64267564 -0.360968 -0.14269312 -0.009069922 -0.66810405 1.0077145 -1.1063238
DECR -0.101481184 -0.25155178 0.4238668 -0.5213771 -0.043852273 -0.2903384 -0.25775537 0.33453217 -0.12510885 0.32933116 -0.697306 -2.1886258 0.27852947 -0.2045232 0.073887885 0.02182495 0.12478523 0.35154495 -0.4442433 0.28049916 -1.352609 -0.35797602 -0.18622857 -1.1044668 -0.84101796 0.18566942 0.3140531 -0.9182798 0.6554718 0.74527854 0.49765566 0.333853 -0.56250995 0.3270097 -0.6217011 0.6902435 0.69197005 -0.8661956 -0.641169 -0.38079056 0.3893481 0.06518794 1.2583516 0.2905078 0.3925232 1.3741543 0.48917723 0.29776752 -0.78132963 -0.2222987 0.559447 -0.29629844 0.22228919 -0.2512792 -0.44268283 0.62750727 0.317488 0.66935116 -0.1625926 -0.41181386 -0.5359382 -0.12716694 -0.5202258 0.545055 0.17351569 -0.5859395 0.28517985 0.06690459 -0.03163461 -0.19930798 0.38111615 0.19567437 -0.9473093 0.28208238 0.07698863 0.8427571 0.41506204 -1.3616148 -0.5474193 -0.37775284 1.1457738 -0.17688674 0.43318447 0.047968872 -0.35631892 -0.2990485 -1.013456 1.1207292 0.54813373 0.74693197 -0.4319411 -0.2613679 0.6295476 0.89488226 0.29537758 0.7703829 -0.20336255 -0.08418974 0.16317526 1.0677179
MRPN -0.2674954 0.4725602 -0.76456887 0.24444422 0.7725057 0.029327067 -0.5241455 1.4278107 0.49981368 -0.4442573 -0.38515574 -0.54276353 0.79860395 0.8894369 -0.3937116 0.01302593 1.3076597 -0.5705064 -0.59962285 0.83252245 -0.07941213 -0.33261856 -0.5800446 -1.0994064 -0.5706618 0.5556231 0.29698095 0.3006406 0.17557065 -0.198171 -0.47516912 -0.2726359 -0.13359542 -0.6754083 0.496101 -1.0895839 -0.2702013 -0.56813645 0.4286759 -0.4807604 0.7686935 -0.34918842 -0.36066473 0.03660865 -0.15151313 -0.19818589 0.12532505 0.38548288 1.3999622 -0.57230884 -1.2060225 -0.1414737 0.22697735 0.8109972 1.318618 0.48878977 0.23701431 -0.21786158 0.48312208 0.2527896 -0.03605151 -0.7933382 0.11751868 -0.84998125 -0.55806446 -0.07580815 -0.42153257 0.11625392 -0.8172294 -0.33668092 -0.9665144 0.42610878 -0.1927901 -1.0446979 1.1428334 0.11570316 -0.63891274 0.6828636 -1.2356845 -0.65822446 -0.14061034 0.012732724 -0.16714738 -0.059603754 0.32576728 0.15835008 -0.16715612 -0.3174703 0.47989437 -0.0066655255 0.017376758 -0.26090246 0.19058944 0.28156704 -0.8226528 -0.8410348 -0.34790415 0.6685751 -0.42857844 -0.16964619
HQSD 1.2141618 -0.42374396 0.86818737 0.21280539 -0.3915126 -1.0646788 0.5102733 0.38927522 0.26109838 -0.2772239 -0.21136789 0.3725868 -0.6269979 0.7937125 0.76739967 -0.7928411 0.007785924 -0.5979723 -0.7899995 -0.57667506 -0.7926804 1.1585313 0.3903543 1.3513105 -0.5435671 0.39515662 0.30727208 -0.7469159 0.36499563 0.25870368 0.6861829 -0.63071436 0.7229284 -0.31325334 -0.2650512 -0.3891769 -0.24504782 0.17521957 -0.3067155 -0.33903095 -0.55028814 -0.050251376 0.9295526 0.48717955 0.16435836 -0.09719549 0.57372826 -0.19652905 0.041605905 -0.3550101 0.70813 0.6527718 -0.09192632 0.0842074 -0.13345726 0.040218577 -0.9982502 -0.08521906 -0.36255047 0.67764634 0.95714027 -0.22032145 -0.67334837 0.04009919 -1.3159969 -0.47635347 -0.0016712282 0.43815643 -0.077977 -0.54701746 0.75097024 0.90909725 -0.34690395 0.04778868 -0.210772 -0.53089976 -0.046914537 0.37392032 0.18109114 -0.27851513 0.18873778 0.09863344 0.14401653 -0.6752431 -0.6123728 0.019400505 -0.049253665 0.7398116 0.31284454 -0.1180693 -0.15739739 -0.94777477 0.5701045 -0.7845731 -0.34775126 0.1361723 -0.5515664 -0.09106529 0.23916446 -0.4518158
OYIW -0.45575827 0.9535189 -0.28823337 0.7557632 -0.07431288 0.64597756 0.046451434 0.44216666 -0.26259446 -0.002215472 0.18888257 -0.84515285 -0.3102807 -0.09422841 0.17850696 -1.0796696 -0.7954789 0.15530576 0.2352048 -0.32612514 -0.32717776 0.2814686 -0.5709317 -0.38151243 1.2558607 -0.2543095 1.3404367 -0.47573602 0.7491933 -0.52670836 -0.10236113 -0.028408166 -0.3303482 1.2585355 -0.46071106 -0.6611771 -0.11361259 -0.47593203 0.07567394 -0.85885036 -0.35096416 0.0076956945 0.40123737 -0.04868134 0.8356687 -0.010954362 -0.46388716 -0.12401517 -0.8509252 0.54008776 0.5762374 0.26912946 0.015358972 0.78017557 -0.0076140976 0.9906572 0.74546844 1.2401772 -0.3765671 -0.99567556 0.9941506 -1.5317131 -1.4779779 -0.6540644 -0.7414466 -0.61531097 -1.0775124 -0.46285474 0.54331356 0.9502284 0.020536354 -0.20950872 0.9854117 0.32434875 -0.0074152825 0.7982898 0.9042168 0.0145623805 0.103774995 -0.37553924 -0.03744868 -0.40462926 0.12361752 -0.64105606 1.5838144 -0.9507894 0.2609893 -0.31680757 -0.30122006 -1.4825336 0.24666964 -0.57326794 -0.048559714 -0.12134773 0.030580396 -0.8930101 -0.5183717 -1.230049 1.3249037 -0.6565467
CMQR -0.42364895 0.192903 0.14867571 0.6239069 0.2882549 1.0751415 -0.03655242 0.75607187 -0.27476925 -0.20490661 0.82302 0.11101173 -0.015936552 0.33617654 -0.45639038 0.067665525 -0.27602825 -0.63780975 0.47138852 -0.065091535 -0.6213423 -0.9189757 0.1135819 0.30648088 0.028630763 -0.0935647 -0.102766685 0.5456457 -0.20290338 0.36299905 -0.09400989 -0.16614677 0.7689909 0.12710816 -0.78025275 -0.46500245 -0.98062116 -0.5278284 0.095034905 0.3665648 0.5957831 -0.72004807 -0.30616274 -0.34544906 0.35734922 -0.3322347 -0.4677126 -0.7430875 0.3759095 0.31516123 -0.73606604 -0.6693824 0.3206352 0.40130362 0.14199014 -0.16721842 0.22625135 0.2817808 0.47309977 0.6524303 -0.511616 0.48835194 -0.24902447 -0.32551143 0.5270317 0.40433776 -0.1369608 0.93924594 -0.39088255 0.5091099 -0.22612084 -0.802217 -0.7448169 -0.61532027 -0.41920117 0.27114728 -0.4348658 0.20350279 -0.48862332 0.2001229 -0.7224007 -0.024363214 -0.31459266 -0.5053611 -0.48781824 0.7338395 0.92181164 -0.70257354 -0.6276035 -0.659984 -0.10752449 0.8643292 0.7737366 1.1189768 -0.71230274 -0.017051604 0.2102282 -0.8208666 -0.7316379 0.99218506
VWZF -0.1666266 -1.5014095 -0.53792524 0.24801154 -0.32442242 -0.9251875 0.343542 0.42638823 0.1220144 -0.2703847 -0.6083552 -0.5925116 0.4292012 0.491059 -0.6871219 -0.1904994 -0.17771086 -0.5131784 0.25499293 -0.5039224 -0.6760779 -0.15342951 1.0286528 -0.046310805 0.09822403 -0.3419513 0.0757464 -0.12555371 -0.12277419 0.4893768 -0.2847694 -0.02596308 -0.17363583 0.15208334 -0.4210498 0.6546382 -0.49327967 0.31158346 -0.58862627 -0.47971135 -0.103730656 -0.5477883 -0.46344355 0.66972566 0.8288274 -0.85209167 -0.39176452 0.79050773 0.8479357 -0.28304127 1.213024 -0.5370656 0.12329185 0.113859475 -0.3585027 -0.65613025 -0.5779965 -0.28705487 0.2059216 -0.15889527 -0.5277988 0.814597 -0.12343866 -0.44523427 1.5677221 -0.5380285 -0.687799 -0.4861736 0.8339897 -0.093676984 0.17754118 -0.24208334 -0.42026627 0.30389106 -0.93623763 0.14432004 0.7293859 0.8437238 0.8630277 0.16532634 -0.0050668344 -0.17924842 0.33663455 0.59278834 -0.48053452 -0.741295 0.18071796 -0.6527699 0.24086347 -0.6559868 0.78074837 -0.14865093 -0.64816207 -0.73361826 0.3201174 -0.16196692 0.023710158 0.3784964 -0.041306805 -0.057646822
QYPU 0.7739196 -0.387073 0.09544351 1.4471595 0.4847044 0.21320236 -0.6588256 0.49382436 -0.39351505 0.38312608 -0.81129926 -0.15563773 0.03130287 0.5060553 -0.43098062 0.6802798 -0.07278266 0.24731557 -0.131953 0.0027339256 0.35465774 0.5902272 -0.42206377 0.43217936 -0.49583384 -0.09000191 -0.2705788 0.27628362 0.094757095 -0.4515312 0.09314814 0.38601154 -0.06178179 0.17275307 0.8447901 0.35218996 -0.5032016 0.643086 -0.20317747 -0.32585728 0.62249506 0.37835017 0.3614199 -0.6659211 -0.09035701 1.0402652 0.029269094 0.33200344 -0.20829086 0.12946986 -0.3331461 -0.07449779 0.62891465 1.2656683 1.2728199 -0.7420402 -0.41404104 -0.31922764 -0.25815392 0.12730172 0.58248496 -0.7112913 -0.08578796 0.6234262 -0.56657714 0.11190091 -0.757679 -0.6323135 0.93525356 0.69242966 -0.93196034 0.45912212 -1.1110815 0.6097325 -0.09704335 1.334615 -1.0396837 0.6540855 -0.17320102 0.20372802 -0.021078736 -0.75768536 0.07654363 0.5893703 0.03458505 -0.20630942 -0.16722618 0.6768897 0.09695476 0.63033426 0.064589135 -0.04147458 0.68938524 -0.44703844 0.35535178 -0.005181404 -0.39742693 0.5765599 -0.59915465 0.39984697
XRIA -0.2090213 -0.45636463 0.40213737 -0.05535675 1.5741731 0.0691808 0.4233044 1.2396655 -0.23400794 -0.2010793 0.32451716 -0.48513773 0.4859503 0.3770739 0.3641811 0.5737695 -0.34869885 -0.14614588 -0.4127363 0.05887873 -0.26976916 0.32539093 0.2839643 -0.04802877 -0.889064 -0.8299141 0.16641165 -0.9507031 0.22095679 -0.2711852 0.82482016 -0.36053857 0.5441546 0.21700291 -0.43425122 0.05034265 0.52574724 0.28631645 -0.72715384 0.3722342 -0.08933029 -0.7912363 0.8288755 0.25722763 0.65217406 -0.6453472 -1.0551183 1.6196642 0.80732733 0.8252869 0.024262354 0.54150236 0.29359227 -0.42332897 0.1107346 0.9583506 0.09358501 -0.29638994 0.3587156 0.59538496 0.25991964 0.0043628956 0.6660981 0.5190174 -0.070375904 0.3273172 0.5802868 -0.036039535 0.93644255 0.033942256 0.055721864 -0.66307914 0.60029536 0.3960917 -0.47935468 -1.0433458 0.08821168 0.56660986 0.3619576 0.5587414 0.21496546 0.07527727 -0.07238669 -1.0051037 0.6396052 -0.22590652 -0.9419017 -0.42956805 0.6329355 -0.23988229 0.07144017 1.1104301 0.2564727 0.19575717 0.23437913 0.86268115 -0.29981723 0.19109678 1.1179632 0.6306724
VOYB -0.23108621 -0.25613537 0.13035901 -1.1051627 -0.27081865 0.6368186 -0.92434055 -0.6182911 0.28804842 -0.13813922 0.2341123 -0.028520986 0.2674116 -0.3078333 -0.52267617 1.224475 0.16734882 0.17577991 0.6930838 -0.0972339 0.6425629 0.7618908 -0.2994657 0.4398494 0.34891453 -0.38288555 0.15668981 0.112217106 -0.037011888 -0.2875334 -0.8643522 -0.45432782 -0.39412993 0.06156464 0.09498838 1.0291101 0.6495785 -0.94138026 0.6165495 -0.5733414 -0.19575737 0.3081265 0.24623103 -0.32427475 -0.029748838 0.42150766 -1.2834016 -0.7214449 0.21995749 -0.064968444 0.6791477 -0.60093343 0.72970945 0.4999332 -0.6603454 0.2260569 -0.87938684 -0.40454105 0.6024766 -0.41345662 -0.5848585 0.27612633 0.31564212 -0.30144042 0.7487556 -0.08003621 -0.36041823 0.07788298 -0.8498726 0.49566594 -0.28923213 1.1735896 0.2008668 0.20063266 -0.09442754 -0.45562252 0.7291787 -1.0497619 -0.12671594 -0.9429139 -0.40467376 -0.00050839945 0.8025093 -0.39609575 0.6428316 0.015075151 -0.16526408 -0.6651183 -0.33270922 -0.41385362 -0.32280633 0.27811283 -0.5360478 -0.055530667 -0.42461675 0.69422406 1.0203848 -0.15910639 0.05739251 -0.953782
TLBF -0.8326995 0.15348943 0.34656534 0.42656305 -0.8750202 0.6137559 1.2470263 0.8642942 0.38347957 0.1481846 1.5067141 -1.3145256 0.28523585 -0.20207287 -0.7293532 -0.9624725 -0.15092927 0.04864961 -0.39396375 -0.0008424869 -0.08156284 -0.41608936 -1.3102561 0.563904 0.5961224 0.20091799 0.2006074 -0.69913805 0.17296909 -0.80827355 0.6253541 0.04425814 0.9300753 0.64127296 -0.60119116 -0.73787075 -0.54242355 -0.2558808 -0.5955901 1.1996918 1.1892031 -0.58262044 -0.25850648 0.053047154 0.39552122 -0.30659 0.39038202 0.37965438 -0.124034785 -1.0414094 0.17285934 0.05366627 0.045280717 -0.20225723 0.7008797 0.8347522 -0.061307367 0.68660265 -0.11212043 -0.23220329 0.7392053 -0.4806177 0.040008977 1.2694594 -1.5823753 0.69663906 -0.28236505 -0.86540574 0.06826729 -0.17409475 -0.33159631 0.34547585 -0.67209613 -0.8549723 -0.050614208 -0.4387326 0.7265871 -0.25348595 -0.42001885 -0.6617694 -0.6827894 -1.52581 0.71551484 -0.617675 0.89629686 0.4104938 -0.39153215 -0.6808039 -0.36500388 0.16824311 -0.053742208 0.1750429 0.2704932 0.8174998 -0.3475758 0.68860114 0.68074834 -0.07825397 -1.5386271 -0.87987894
JHTP 0.8041031 0.76224023 -0.12637696 1.5459974 -0.3261064 -0.2603819 1.2164688 -0.8774252 0.14477953 0.77313554 1.0443316 0.245615 0.19806415 -0.060363527 1.3460464 -0.87375116 1.4286915 -0.20115998 0.95476806 -0.48190752 -0.2445714 -0.19275136 0.80915445 -0.7705137 0.43824676 0.4758888 -0.25820833 -0.454222 -1.0146084 0.8967862 0.79335755 0.6650139 -0.13804407 -0.60180676 -0.32462937 -0.17684974 0.5014002 0.70139563 -0.24007995 -0.9477384 -0.74691373 0.8602853 0.14596172 0.7428879 0.75568295 -1.0239661 -0.02056307 -1.1742013 0.38561434 -0.07011001 0.21183915 -0.2537763 -0.29161495 0.9225493 0.8923759 0.089429826 0.62264955 0.9845244 0.14336325 -0.3900206 0.42521337 0.29900813 0.7242363 -0.111399375 -0.09365629 -0.073048 0.1264466 1.0748563 -0.8320838 0.59208417 -1.5930189 -0.5000554 0.018329283 0.21207719 1.2022725 -0.79285777 0.30600816 -0.2892899 0.049248952 0.26735744 -0.18480463 -0.42562398 -0.025463918 -0.5237762 0.8161999 1.4363722 -0.68602735 -0.25073695 0.26156193 0.091949895 -0.025343532 0.8971455 -0.53843063 -0.97389275 -0.11635029 0.434083 -0.37713858 0.07597703 0.98548174 -0.009663536
YMLR 0.45812583 -0.09663286 -0.03149935 0.038625147 -0.21263634 -0.8166321 0.48693317 0.97378653 -0.926778 -0.18422653 0.17415133 -0.6979881 -1.1977226 0.16561663 0.69586694 -0.92038035 -0.3651659 0.33528018 0.657971 -0.7181697 -0.61161226 0.49958748 -0.8807098 0.13470317 0.22594188 1.1240498 -1.0985123 -0.30431378 0.4777528 1.1683662 0.16512801 0.12627359 0.59590304 -0.12984471 0.055746187 1.3800509 0.2317449 -0.1275425 0.53829485 0.26131135 0.6210257 -0.406585 -0.8794801 0.25561842 0.3152022 -0.13914344 -0.82707536 0.22643656 0.12508066 -0.15480018 -0.5645079 0.23498686 -0.51986367 0.38733205 -0.17807561 0.36728862 -0.08899861 -1.390598 -0.20835955 0.30713046 -0.36069986 0.45423383 -0.32747453 0.06700442 -0.09404379 0.08036834 0.9663465 -0.69173986 0.11307524 0.11147565 0.22277671 -0.3127657 -0.21318638 1.2217181 -0.5179428 -0.059727367 -0.34304634 0.9073427 -1.0338004 1.1118085 -0.6400215 -1.5453908 -0.16406111 0.4117019 -0.72446173 0.8831508 -0.37748978 0.012641888 -1.7920722 -0.36280993 0.1672996 -0.23177153 -0.97584385 1.2639799 -0.14843312 0.53865165 0.5392864 -0.30497837 1.4564945 0.10815483
DLMP -0.59630144 -0.08440988 -0.2637755 0.1368753 0.15324704 -0.20230189 0.6882633 -0.61516875 0.07157722 0.7557465 1.3307577 0.9864299 0.14420179 -0.4898166 -0.20390795 -0.8230561 0.13578886 -0.8657761 1.2451396 0.53971106 0.03318399 0.51180947 -0.47066 0.03762622 -0.07359036 -0.20738769 0.07403856 -0.17812715 -0.54013723 0.9845228 0.24549249 -0.97897816 -0.19522385 -0.078564174 0.39927813 0.74900144 -0.684183 -0.3562853 -0.18860802 -0.1479331 0.64745736 -0.0032172436 0.2647858 0.71155614 0.82832205 0.027767729 0.40769076 0.22951429 0.10883195 0.27927005 -0.8447809 -0.7550672 -0.46969527 -0.376243 -0.41098756 -0.3109986 -0.61253625 0.019115236 -0.55229604 -0.5887148 0.098719075 0.45446262 0.6894933 -0.15355967 -0.6606029 0.56236446 -0.031092744 -0.66661286 -0.040313337 0.3923991 -0.94151455 -0.10547152 0.08763528 -0.5871855 0.51405936 0.7766716 -0.6256456 0.16450109 0.41108993 0.26325637 0.17350839 0.57280105 1.2199737 0.88637805 0.9968959 0.31360584 0.48102632 0.2315118 0.5682777 0.9442731 -0.5483173 -0.6673059 -0.36003697 -0.09024886 0.38666767 -0.30270842 -0.65120447 -0.0040874393 0.005826497 0.3362127
LBJH 0.43460795 0.64836425 -0.18045533 -0.75031364 0.720819 -0.020720163 -0.1397313 0.13891785 0.51242864 -0.22722746 0.56845146 0.54628295 -1.056869 0.14595623 -0.04801572 -0.11266831 -0.6178583 -0.12679018 0.3194035 -0.49087465 0.18546303 1.5677551 -0.27921888 -0.021064565 -0.8851877 0.27326944 0.44003624 0.20205611 0.51442957 -0.5365737 0.5433356 0.71530193 -0.97463864 0.5969794 1.500295 0.41644695 0.43847677 0.71010834 0.64201665 1.346226 1.4085808 -0.2533089 0.12454939 0.21929443 0.53130686 -0.26678002 -0.75971985 0.4957006 -0.12834197 0.031104157 0.074398495 -0.1764378 -0.52096754 0.63349736 -0.12637903 0.093370385 -0.12505926 0.007585514 -0.33250004 0.1996078 0.19873092 -0.6717883 -0.50095147 0.22429802 0.3638681 0.46398172 0.13370912 -0.7390012 0.3771765 -0.2667287 -0.055961695 -1.18018 -0.09978742 -0.75571424 -0.32294902 0.7206045 1.187044 0.1140682 0.0055222395 -0.13626312 0.009653025 -1.0493636 -0.34768972 -0.70038056 -0.24882501 -0.5706893 -0.8219593 -0.23646635 0.5402854 -0.061259743 -0.21435405 0.12016448 0.2788671 -0.10294547 -0.8085843 -0.33643776 -0.83737403 -0.24054232 1.3649334 -0.033631507
SYLK -0.065420724 -0.9643806 -0.5049084 0.009742231 -1.1079786 -0.03989781 0.09042906 0.26350683 0.109393194 0.47545126 0.30265844 -0.14930646 -0.31270778 0.49703342 0.5878239 -0.13140133 -0.41024613 -0.6268202 -0.3620493 0.086324744 0.3690802 -0.36080727 1.0439694 0.36386365 0.16487387 -0.6401597 -0.33544627 -0.73814267 -0.024106357 0.9702635 0.33230495 -0.421038 0.5523144 0.44200155 -0.904669 -0.14131974 -0.040561628 -0.69896334 1.2454171 0.28918153 0.23894751 0.6727888 -0.08390118 -0.2691084 -1.2149118 0.643706 0.95086265 -0.6251204 -0.5648507 -0.46301806 0.2633404 0.20878318 -0.07020797 -0.124627054 -1.116277 -0.06990314 -0.5554924 0.32701787 0.39897215 0.9675992 -0.62326103 0.35150093 1.1753478 -0.35794088 -0.55179596 0.09118808 -0.40828788 -0.37714878 0.2657413 -0.5686642 1.2724605 -0.65691656 -0.42064872 -1.0701609 0.8691774 -0.5818169 -0.34311572 -0.8094239 0.3810581 -0.6744958 0.8365635 -0.42649364 0.8304362 0.6471924 -0.8769159 -0.17890583 0.35637835 -0.6094742 -0.5972892 -0.07050786 -0.7257493 -0.87589186 -0.5075766 -0.96790725 -1.0894356 0.50338775 0.60773575 0.018234987 0.9315493 -0.6208255
HFOI 0.3273833 -0.097472675 -0.92719424 -0.18630442 -0.37144518 0.9222615 0.3002721 -0.009503744 -0.1695829 0.06842792 0.5401758 -0.21370655 -1.0287185 0.3141986 0.1519092 0.7336995 -0.46544755 0.6772089 -0.09976001 -1.0493444 -0.56262094 0.18114407 0.3272327 -0.17606306 -0.73951995 0.60094464 -0.609183 -0.06753493 -0.86115456 0.52680606 -0.25195935 0.23430677 -0.6717355 0.4725802 0.9644513 -0.5364753 0.9856552 -1.4143897 -0.45741704 0.5808321 0.95272493 0.15333158 1.0849836 -0.33527747 -0.36601144 -0.41257522 -0.72738403 0.009232819 -0.25869754 -0.7029583 -0.08938143 -0.34100768 0.17054798 0.20179796 -0.7613002 0.2592342 -0.10206933 1.0773047 0.7563447 -0.5207174 0.8582437 -0.40719628 -0.16098733 -0.4417889 -0.46390042 0.33762482 1.1884487 0.16749956 0.23942064 0.04505707 0.81285477 0.052436378 0.5313909 -1.126575 0.29308364 0.041740138 0.1025572 -0.66618204 -0.37928107 -0.4444226 -0.26738095 -0.55250454 0.78220785 0.08221647 0.08302976 1.2464083 0.46096474 0.34359926 0.020257859 0.117373616 0.20427142 -0.6700233 1.0661297 -0.2909531 -0.1437578 0.60371196 0.6271119 -1.0475565 0.7847485 0.13568603
EBPR -0.07319928 -0.57356316 -0.08972502 -0.31447563 -1.4254777 0.16392836 0.27452642 0.4076023 -0.16602926 -0.36943418 -0.5869485 1.0305722 0.02229742 -0.34324002 -0.31072235 0.096661985 -0.17661509 1.0592531 -0.6800814 0.60223377 -1.3009385 -1.4225348 0.22973114 0.6554047 -0.8818059 -0.5053344 -0.52392566 0.4265661 -0.20135413 0.8885655 0.540979 -1.1875249 0.15405908 -0.5749479 0.73764795 0.061058883 0.54678625 -0.42635807 0.42565525 0.22911115 -0.56404173 0.36821276 0.31220955 0.39086476 0.36879426 0.6507773 -0.30411 -0.4621513 0.14387673 0.3148323 1.06034 -0.16658235 0.7652824 0.57689077 0.29889852 -0.78224957 0.24153006 0.06809844 -0.23482062 -0.72891384 -0.54406375 -0.14259644 0.61506754 -0.5115888 0.32694495 0.08340146 0.096287444 -0.35350272 -0.6197616 -0.041750073 -0.9386204 -0.27270356 -0.07178257 -0.4295319 -0.39085814 0.14961 0.31778252 0.34715793 0.5906774 0.15131864 1.0210085 0.9524939 0.0947543 -0.9136092 0.71768075 -0.3059841 -0.325618 -0.29714367 -0.19801556 0.0782307 -0.20188539 0.16533497 -0.6197987 -0.03603733 -0.5021784 0.67018294 -0.61028206 0.0051884977 0.27372274 0.9793129
VTYH -0.33369163 -0.84402776 -1.0963144 -0.6457764 -0.022669025 0.290077 -1.48576 -0.78424925 0.3761993 -0.3977167 0.3025608 0.08258402 0.3034689 -0.48108923 0.108723395 1.613933 0.12163183 0.5855392 -0.7456905 0.4193444 0.23834638 0.21849826 1.0157418 -0.014949202 -0.03001924 -0.5011308 -0.15638517 0.56358606 0.27377468 -0.09826419 0.40772235 1.0070077 -0.7763717 -0.44143707 0.37180093 -0.31413782 -0.4308429 -0.73364794 -0.15167226 -0.94089013 -1.4055622 -0.3609624 0.63411725 -0.40605864 0.8021681 0.36287525 0.16020267 -0.58285636 -0.035931222 0.19065347 -0.1497499 0.4779726 0.045569513 0.25950447 0.057731293 0.7524 -0.8364384 -0.0057383436 0.5923775 -0.17550078 0.18731406 0.6384115 -0.07308811 -0.40305638 -0.59463537 0.13415956 -0.8706107 0.5835383 -0.07638262 0.16097802 -0.16024563 0.94817585 1.1240934 0.17638275 -0.08854545 -0.118495815 0.08513711 0.25237593 0.20197773 -0.74329454 -0.81854355 0.027501496 -0.072857544 -0.76153105 -0.23848096 -0.41037312 0.051335488 1.6386642 -0.29276523 0.7330989 0.33053035 -1.7299782 0.7367849 0.35381705 1.138171 -1.1028255 0.8089621 0.47331628 -0.09107306 0.35630754
SWUB 1.4496733 0.9601481 0.3660814 -0.9616152 -1.0929948 -0.3559277 -0.25284505 0.14258744 1.218343 0.035585996 -0.45351562 -0.16302346 1.2452356 0.51510656 -0.20514628 -0.25578442 -0.057011627 -0.55934054 -0.53012544 -1.0001677 0.04942356 0.81233096 0.4162068 0.03574687 0.52339774 -0.81905913 -0.35255638 -0.41283444 -0.15858845 0.51505256 0.4408049 0.08130686 -1.3028493 1.2357647 0.6113197 -0.096446306 -1.130412 -0.69174004 -0.5167437 -1.050493 0.19011034 0.5833186 -0.6135045 0.90279007 -0.29156536 -0.1296838 0.8036694 -0.42953953 -0.3711574 -0.016574997 0.3826105 -0.24755463 -0.29457873 -0.028819777 -0.33400103 -0.013470459 -0.034483302 1.1123686 0.57406545 -0.90595347 -0.43729916 -0.78880894 -0.4882804 -0.08130461 0.060424466 0.15650024 -0.39834014 -0.9686046 -0.03823726 0.027628273 1.1360002 -0.77333164 -0.68438935 -0.33100295 -0.13888681 0.31440485 -0.38462445 0.3894741 0.23948406 0.30528128 -0.71222246 0.77172637 0.15555122 -0.12910903 -0.8257643 0.6432575 0.30273244 -0.28969848 -0.3234561 0.41534764 0.029207643 -0.6121691 -0.5440748 0.22961429 0.35588214 -0.22411036 -0.13214646 0.009059236 -0.50665396 -0.5765508
DQKB -0.7084613 0.46029657 -0.2828799 -0.7686877 -0.38193744 0.9716759 -1.0284209 -0.47490236 -0.29514056 0.91615 0.008655735 -0.8020956 -0.6796744 -0.3335072 0.21751717 -0.49150494 0.48283216 -0.0052923094 -0.5958448 0.7029574 0.009495094 -0.9620576 0.57813275 -1.4994293 0.15678096 0.19858761 -0.8494851 0.4182135 -0.32970384 -0.3286745 0.4945482 -0.37506992 0.51838917 -0.22361088 0.39197025 0.29094455 0.6864901 -0.7621398 -0.31961563 0.61482435 0.2594432 0.6239218 0.57989913 -0.16333161 -0.84953254 0.0991686 -0.3745281 0.014514642 0.8547567 -0.4146588 0.4713847 -0.5245014 1.153624 -0.7453217 -0.4833807 -0.16640408 0.6935612 0.3363394 0.21395527 -1.0044261 -0.017587092 0.9709008 -0.10437117 -1.3818046 -0.26421052 1.1051558 -0.05306817 -0.19463354 0.060616806 -0.35923997 -0.30944413 0.7932198 -0.5399665 0.39551982 -0.82043207 -0.18232092 0.24840342 -0.68689847 0.36139396 0.8709883 -0.23649809 -0.0804038 -0.99410635 -0.5728284 -0.5268685 -0.97697616 0.16023088 -0.80891937 -0.27400777 -0.024604801 -0.5192633 -1.0383619 -1.3525686 -0.5704567 -0.6507927 -0.15994224 -0.52503324 0.5227213 0.1181083 0.057167575
AMYF 0.5790551 -0.71520454 -0.017331876 -1.5702649 -0.7312323 -0.30372614 0.76031524 -1.1392618 0.3987722 0.89876616 0.23944795 0.20016228 -0.1918837 0.41066632 -0.5373894 -0.8060686 -0.47622243 1.0059782 0.22618748 -0.34679684 0.22199275 -0.34359735 0.28614876 0.8318206 -0.6760311 -0.064183034 1.1584766 -0.1867514 0.3113453 -0.42539755 -0.19189462 0.42984107 0.5638377 0.9632769 -0.7981791 -0.28675342 -0.2836931 0.48029962 0.05398299 -0.4097236 -0.58052623 -0.3087725 0.17893137 0.508125 1.1882151 0.82827216 -0.047279384 0.25614047 -0.94179994 -0.7207474 -0.06036807 -0.2287148 -0.30657837 -0.56774276 -0.405396 0.7399556 0.13105538 -0.278102 -0.5085492 -0.5462872 0.16160332 -0.44809535 0.47311473 0.014379737 0.4976543 0.18671687 -0.43782347 -0.28924504 0.40502086 0.16892415 0.42408967 -1.0849432 0.2542022 0.034302052 -0.07227985 0.5103444 1.0400645 0.24281466 -0.58221394 -0.87939066 -0.2585129 -0.72236997 0.34413776 -0.70405036 -0.6356278 -0.5199208 0.55489737 0.30532005 -0.64768684 0.02103313 0.0877845 -0.53257865 -0.044239804 -0.055627123 0.3509272 -0.32234344 -0.49598703 -0.35642713 0.53601164 0.05855889
ITJV 0.8385547 -0.36499065 1.2270344 0.5127336 -0.12645751 -0.14493015 0.8742036 0.44810966 -0.52436036 -0.20866963 -0.5029311 0.5645782 1.7737753 0.21236186 -0.42999944 0.24403541 -0.069636896 0.42173252 -0.06617266 0.3578284 -0.30024686 -0.08605805 -0.97126806 0.40286878 0.22232471 -0.8205741 -0.6867884 0.2544097 -0.31369627 -0.7435493 0.19948205 -0.11137734 -0.5213007 0.7960852 -0.9371021 -0.03464113 0.3927951 0.47666296 1.3697199 0.5061881 0.47126698 0.00045699833 -0.9334129 -0.21025702 0.7307013 -0.34820554 0.24779475 -0.65586984 -0.393145 0.0029985579 -0.5513924 0.49792412 1.5139452 -0.37484828 -0.18853687 0.56264204 0.4170193 0.3255055 0.22456576 -0.22880524 -0.27587482 -0.038631767 0.94448924 0.15531865 -0.06354312 -0.06330753 -1.0034082 -0.6628287 -0.063864686 0.6112074 0.07589336 0.8744838 0.0931119 -0.43754253 -0.04692633 0.3983879 -0.20171793 0.96998197 -0.24125302 0.08966033 -1.0707798 0.36109355 -0.450402 -0.58565074 -0.551213 0.71458405 0.23843977 -0.077283 -0.34767655 0.6031519 0.41763386 -0.0993211 -0.07007586 0.16228624 0.40827015 0.7047821 0.05116131 -0.06290342 0.1510671 -0.21455601
ANLQ 0.71251804 -0.38925183 0.08450759 1.3290564 0.625303 0.12536988 -0.61317587 0.30868495 -0.3416028 0.2293831 -0.5486156 -0.024901686 -0.010832438 0.18669848 -0.4230242 0.72405726 -0.013855022 0.1469457 -0.100838736 0.32765839 0.5059626 0.5433436 -0.4818038 0.39296538 -0.40338805 -0.043934323 -0.26067236 0.3749464 0.16883461 -0.40762094 -0.1065476 0.30072653 -0.09461135 0.2608363 0.79187876 0.7110511 -0.29088292 0.7910699 -0.24285695 -0.28029808 0.6250402 0.35154995 0.29734385 -0.545667 0.22296302 1.2087845 -0.025168754 0.24927197 -0.016759915 0.31106108 -0.2532963 0.2017083 0.55258757 1.3323519 1.1744728 -0.62727284 -0.6005513 -0.57785475 -0.4273247 0.24201901 0.69713926 -0.5990544 0.08931974 0.62034315 -0.7111559 0.055434592 -0.72937995 -0.8777252 0.9463221 0.6734915 -0.9186158 0.59187084 -1.1819453 0.5680255 -0.032477714 1.1157035 -0.8347838 0.57421196 -0.276855 0.20950185 0.022261001 -0.84321433 0.26942495 0.66051835 0.36806643 -0.25552526 -0.38002926 0.8774075 0.10457815 0.7219353 -0.013035657 -0.041210726 0.67500687 -0.35395294 0.312578 -0.14861959 -0.32534757 0.5646583 -0.72844726 0.35545248
HVTI -0.024324076 0.39380237 -0.010263075 -1.0047053 -0.3503398 0.026790284 -0.5103898 0.06639336 0.40740812 -0.2538415 -0.51494426 -1.4759101 0.032079224 0.11519134 -0.56821 0.71035314 -0.84284496 0.85771674 -0.70673627 -0.9825692 0.26497498 0.23730154 -0.20287453 -0.5960116 -1.0158006 -0.5305818 -0.721077 -0.23122355 0.12862788 -0.32912645 0.12312599 1.1418496 -0.46142185 0.6967722 -0.055152386 -1.2437891 -0.22076584 -0.08678374 -0.6698873 1.1830895 0.800472 -0.7059315 0.031794034 -0.3730109 -0.2783703 -0.8943752 0.14865255 0.079949796 -0.6074308 -0.9834826 0.067375496 -0.28110766 -0.18571293 -0.10594779 0.50022244 -0.47566906 0.18422137 -0.20421322 0.36876658 -0.17553721 0.6942167 0.17246595 -0.11541627 1.0602798 0.18861577 0.30508575 0.56188786 -0.26511526 -1.0701064 0.20175403 -0.67711973 -0.04362096 0.56980187 -0.956454 0.47549823 -0.29294524 0.8619237 0.9066007 -0.11537007 0.30042422 0.067286484 0.46737528 1.0092493 -0.6900641 0.3735899 -0.28375638 -0.7033987 -0.5164478 -0.54529124 0.49199206 1.0069308 0.661109 0.8071777 0.7190887 -0.33137995 -0.39029354 0.07678885 -0.6580817 0.89850706 -1.0629408
VRDS -0.6865724 -0.73455703 -0.6097825 0.9405586 -0.14415325 0.12040855 1.0577731 0.43832028 0.2624418 0.86985296 -0.4183472 0.37792566 0.23190048 0.10378212 1.065978 -0.33097124 0.52224416 0.7081766 -0.071689695 -0.227132 0.34145582 -0.7369062 0.531077 -1.0437297 -0.045014795 0.21207677 -0.2936135 -0.010832372 -0.94188464 -0.21673909 0.28043345 -0.09987899 -1.140098 -0.56627184 0.049549352 0.13678677 -0.93970716 -0.98060614 -0.7354123 -1.0954106 0.43340367 -0.11988276 -0.09678428 0.5569826 0.14982983 -0.49374706 0.7661299 0.6327338 -1.1725521 -0.3557489 -0.0979813 -0.5813834 -0.5681831 0.061412536 -0.27014264 0.79831547 -0.5199451 1.167373 0.035993326 -0.5890242 0.09695286 -0.77767974 1.0447214 -0.2784377 -0.27851355 -0.7594779 0.2838669 0.07623761 0.2840115 0.12615226 -0.41481188 0.79722387 0.103012666 -0.35479185 0.3980236 -0.3950741 0.46801978 0.504945 -0.5617278 -1.3892771 0.36249977 -0.31264102 0.68988025 0.5522061 0.2659689 -0.15611906 -0.8858454 -1.192062 0.03387227 -0.9254383 0.51320785 -0.45637283 0.46571583 0.054422244 1.0815995 -0.1473359 0.5688128 -0.17378555 0.2978599 0.26935613
KTHB -0.45449182 -1.3975033 -0.28379053 1.3437665 0.024088398 -0.7911217 -0.5357475 0.6617651 -1.4059534 -1.028746 -0.98815495 -0.20591934 0.35684165 -0.0008729477 -0.17357883 0.4819172 0.003298222 0.45601127 0.02053019 0.28022867 -0.37011188 -0.2835941 0.061996292 -0.6358395 -0.3098812 0.13906856 1.1677847 -0.19584394 0.23467575 0.44589803 -0.12016074 -0.32908663 0.09300418 0.4728918 -0.700237 -0.71129256 0.5410635 0.3104365 -0.801349 -0.23799504 -0.009255522 0.17831834 1.0259033 -0.48773906 -0.5351509 1.0684742 -0.8069932 -0.31212842 0.8322049 0.40316874 -0.8572637 -0.52324516 0.61485606 0.07332527 -0.71916336 0.96397376 -0.24137999 -0.70903945 -0.6059259 0.33225447 -0.4788342 0.3507117 -0.19548313 0.03976159 1.066939 0.4875106 -0.40445733 -0.4252051 -0.45527893 -0.14424632 0.35191092 0.44363844 -0.18161878 0.61922 -0.41703793 1.2536579 0.8724756 0.59368616 -0.8646117 -0.72111523 -0.30515185 -0.5514212 0.9337197 0.72015816 0.22851837 0.43525445 -0.82866585 -0.468779 -0.3061667 -0.2468614 -0.0066428143 -0.79741025 -0.09409656 -0.1704957 -1.0088328 -0.18609703 -0.5342401 0.40533513 0.10552733 -0.5785462
WFRB -0.012005975 -1.4223889 -0.4940195 0.2722023 -0.32065666 -0.80749637 0.344393 0.44028428 0.21550316 -0.04704326 -0.6699323 -0.48285964 0.28696832 0.33292082 -0.6932281 -0.28708404 -0.18960084 -0.5069423 0.33659527 -0.41090807 -0.8049006 -0.3734826 0.9852691 0.0783942 0.061327532 -0.29476085 0.30240247 -0.1342287 -0.29636437 0.38464668 -0.3673043 -0.26931375 -0.15971081 0.2543766 -0.27586567 0.85186565 -0.21157768 0.4210319 -0.38653815 -0.40453172 -0.2698531 -0.6147885 -0.51202315 0.60367364 0.9060379 -0.8686048 -0.35692558 0.6506863 0.83039033 -0.35722628 1.4131004 -0.3749662 0.12490144 0.19995569 -0.3843534 -0.6191339 -0.50904274 -0.41763595 0.15143564 -0.34263867 -0.653975 0.8343504 -0.12272763 -0.4944332 1.3075969 -0.5046544 -0.78789854 -0.33556312 1.0736398 -0.107966766 0.16487516 -0.12975214 -0.41514522 0.15462469 -1.0486705 0.34151158 0.5794212 0.72417533 0.99324524 -0.06358309 0.18758553 -0.09237304 0.30820355 0.69793254 -0.36727858 -1.0189948 0.15624613 -0.35959598 0.21632126 -0.68937445 0.59153205 -0.24719536 -0.49628302 -0.45779172 0.31533584 -0.21902196 -0.0989275 0.36760366 -0.3024883 -0.0077523184
LNZD -0.9093174 -0.078452684 -0.3055632 0.64220315 0.4682631 0.099932835 -0.038349725 -0.33037025 0.09815723 -1.4276143 0.7340944 -0.11168157 -0.4253337 -0.7979916 -0.78588194 0.5320078 -0.26670527 -0.03952046 0.40084633 0.10313587 0.29656377 -0.7517307 -0.57688713 -0.6537977 0.32752275 -0.09152284 -0.19589873 -0.246737 0.57123154 0.2716306 0.17097546 -0.6636346 0.038617082 0.26870483 0.5669672 0.089457296 0.32478455 -0.057382513 -0.24604431 -0.066097245 -0.036473695 0.5579746 -1.0624775 0.29232344 0.43706518 -0.58392346 0.6785643 -0.58113414 0.40108863 1.4294301 -0.1683066 -0.34322816 -0.3037064 0.32686824 -0.6812653 0.7792023 0.09186074 0.018075189 0.39364794 1.1924663 -0.35025868 1.0772264 -0.57519376 -0.839572 0.071150966 0.0076823295 0.62549835 -0.11733553 -0.5878435 0.9255739 0.60761094 -0.5272905 -0.3872081 0.2256366 -0.38998455 -0.5600059 -0.62028384 -0.024996176 0.82247245 -0.091665424 0.013633379 0.5051959 0.45622084 -0.40388593 0.032312375 0.028563239 -0.01569216 -0.009303029 0.1690038 -0.24685228 0.39508638 0.91583055 -0.04121879 -1.0725719 -0.15081647 0.4421041 -0.6077474 0.13057894 -0.32714465 -0.049499188
OTKW 0.5590618 -1.3069966 -0.19044788 -1.5773838 -0.41052708 -0.41446975 0.686373 -1.2623008 0.31519887 0.98379886 0.5423128 0.45358226 -0.16526225 0.49430752 -0.580367 -0.7871643 -0.37100884 1.0001924 0.34873462 -0.3858228 0.32190582 -0.2956131 0.2964073 0.88473743 -0.78785986 -0.06535997 0.9801772 -0.10693845 0.30352068 -0.27148065 -0.18999174 0.43181837 0.42421633 0.6997492 -0.8386718 -0.12947008 -0.55500984 0.47333464 0.17041746 -0.4482243 -0.6357241 -0.28699672 0.06817094 0.090271875 1.1579195 0.954075 -0.1183396 0.28938264 -0.7749345 -0.69540906 -0.29116446 -0.2369485 0.036801793 -0.41533926 -0.3307979 0.87035245 0.09368306 -0.2926897 -0.35237688 -0.32874727 0.2586 -0.7413031 0.6917443 0.09266775 0.4371631 0.4461941 -0.28869092 -0.26976612 0.44032156 0.053026382 0.59485006 -0.91805446 0.2831592 0.222039 -0.16808905 0.5981474 0.89215964 0.27570012 -0.60035044 -0.8449673 -0.27729735 -0.710076 0.10279062 -0.67483306 -0.89051485 -0.39518523 0.72344804 0.06537182 -0.76951826 -0.05321849 0.20091407 -0.50727534 0.015133099 0.035870608 0.43308988 -0.34220633 -0.6088444 -0.2613164 0.7694879 0.06725282
FDLW -0.0012133986 -0.57504135 -0.005795307 0.80781525 -1.0603408 -0.013278953 0.4005574 0.25927633 0.6350293 -0.29577088 0.47587103 -0.34719566 -0.16623895 -0.8685399 0.024738068 0.45884264 -0.6630032 0.1027724 -0.98437923 0.9750575 -0.12017281 -0.6101033 0.77949053 -0.4303576 0.48553544 0.34308457 0.47338983 0.4254692 0.9664463 -0.10395018 0.17274697 0.49233145 -0.06160126 -0.31843168 0.9483821 1.3294607 -0.62802726 1.1529632 0.43960223 0.91096306 0.7064764 -0.29180375 -0.94172174 0.12858574 0.66343164 0.655169 -1.0171604 0.8237989 -0.4038742 0.80378133 -0.21132356 0.105529785 -0.13026954 0.46857128 -0.006515588 -0.7255739 0.7376438 0.7941263 -0.5015569 0.59517515 0.2697164 -0.56247056 1.6503129 -0.37776625 0.31217426 -0.27276826 0.3474284 -0.5422722 0.74400985 0.028914327 0.18975885 -1.2375067 -0.4183109 0.32637277 -0.22553994 0.62007564 -0.25976795 0.58926076 -0.01003749 0.05133646 -0.16831575 0.73624295 -1.1699144 -0.79813904 0.8288646 -0.67364705 -0.4365668 0.024777548 0.7417295 1.0300233 0.4094631 -0.24854825 0.37446886 0.96881473 0.3557133 -0.19878623 0.32356766 -0.91903764 -0.588091 -0.8996114
FRWT 0.04756084 -0.16620722 0.106444314 -1.3399577 -0.0863183 0.748989 -0.9638436 -0.50779164 0.1624922 -0.1580615 0.22437558 -0.38936418 0.44113773 -0.4110902 -0.5727142 1.2684302 -0.16560453 0.3028719 0.5244456 -0.28104228 0.6279461 0.6853681 -0.24213992 0.46786773 0.43376267 -0.56800497 -0.09961048 -0.13133354 0.118822835 -0.014994195 -0.7629001 -0.6060691 -0.46126217 0.245593 -0.016066894 0.8640197 0.5822724 -1.1047035 0.71669996 -0.5748729 -0.07147315 0.2920512 0.15126461 -0.10796958 -0.030642236 0.24394678 -1.5773301 -0.6200612 0.43053517 -0.13948794 0.72245294 -0.6144091 0.96123683 0.35264835 -0.63012564 0.23999238 -0.7194486 -0.40654704 0.46390697 -0.40492964 -0.77344596 0.3502579 0.18989068 -0.58978266 0.8781723 0.12552379 -0.4661995 0.056801666 -0.6163509 0.35326514 -0.18131298 1.3906213 0.024029208 0.10008895 -0.122837484 -0.67291987 0.6811621 -1.1776805 -0.19985569 -0.7301522 -0.53826153 0.15236774 0.89656746 -0.6365713 0.63524 -0.050339516 -0.2816076 -0.6069212 -0.27325502 -0.44805226 -0.346468 -0.0084644975 -0.7828957 -0.11882723 -0.47811234 0.8105332 1.073305 -0.26841813 0.1414193 -0.7213492
SAVQ 1.1910625 0.4549392 -0.14475799 0.8144747 0.049348045 -0.2127274 0.25628617 -0.10274364 -0.18552487 0.3501304 -0.4924462 0.096407354 0.68900627 -0.15928118 -0.113914385 0.3078888 0.5190289 1.1190379 0.610578 -0.532122 0.8007368 -0.8193244 0.54877955 0.85853267 -0.11357717 -0.5548532 0.56998587 0.6650162 -1.6144053 -0.13747247 0.46817052 -0.5235913 0.17927895 0.36614835 0.14103223 -0.7110619 0.6796427 -0.21323988 0.508649 -1.000073 0.20409553 -0.07311098 0.12148195 -0.05442643 -0.1773651 0.34441647 -0.45338827 0.5974726 0.20742768 -0.020681249 -0.48797438 0.4733794 0.07906476 -1.0329113 -0.790134 0.15991634 -0.1844161 0.44700986 0.40660778 0.12199449 -0.60011935 -0.30720356 -0.2933769 0.1995666 0.028638545 0.24733983 0.07654366 0.2456933 0.9241953 -0.5980189 0.83469456 -0.22028345 -0.6927784 0.6557322 0.21446373 0.33121642 -0.16299513 1.2049758 -0.21715328 0.080188565 -0.25731573 0.16975887 0.09266255 0.2510742 -0.18759206 0.2942827 -0.32372978 -0.5289907 -0.47577772 0.22039731 0.080338135 -0.70313305 0.19102263 0.3036629 0.8034189 -0.44926158 0.27527636 1.1310776 0.26690185 0.20551376
PFQA -0.5329327 -0.79296905 -1.0026058 -0.49076805 -0.3791194 0.32338035 -1.4676986 -0.7970511 0.13563834 -0.22890304 0.21638621 -0.045636836 0.1579711 -0.4607705 0.19192323 1.4902661 0.2258056 0.52459335 -0.74283695 0.4826163 0.25869426 0.4509864 0.9187254 -0.077348694 0.2577012 -0.27650633 0.14972498 0.38757303 0.16209206 -0.06281118 0.6093834 1.098934 -0.6223233 -0.35017 0.21173555 -0.4042143 -0.34095496 -0.39218223 -0.21881832 -0.8708924 -1.2920961 -0.27150047 0.7111224 -0.47728515 1.0307292 0.30733204 0.2061267 -0.46893528 -0.09534062 0.0427673 -0.17092693 0.30884427 0.16692881 0.104836285 -0.14334728 0.7182225 -0.8663169 -0.048201136 0.45358378 -0.23446171 0.17429931 0.9737322 -0.19893947 -0.24121228 -0.38911048 0.1371519 -0.7541907 0.6654143 -0.4482757 0.31635633 -0.2945014 0.74828184 1.0734707 0.3523593 0.09402751 -0.014368951 0.28077662 0.28567958 0.3647155 -0.6942388 -0.8633273 0.038141653 -0.31945485 -0.82377017 -0.19249664 -0.40162456 0.1405041 1.4188596 0.121805914 0.98359543 0.2723707 -1.6801754 0.8065433 0.35660157 1.2497525 -1.4060304 0.89290816 0.56012607 -0.24490973 0.3690379
GOLQ 0.9986092 1.0522296 0.29859596 -1.2581491 -0.96528304 -0.54351544 -0.1231385 -0.14936377 1.0381756 0.18467161 -0.60535395 -0.38674325 1.2428997 0.63615197 -0.2319858 -0.14032999 0.35343555 -0.36145532 -0.7353933 -1.101396 0.28607267 1.0331591 0.5162585 0.089119054 0.3499203 -0.58728135 -0.1750495 -0.53043675 -0.16074167 0.32441837 0.5919849 0.17650399 -1.2073028 1.251625 0.42438847 -0.03773009 -1.1957979 -0.4120291 -0.5195384 -0.6350927 0.25294873 0.3213904 -0.5018276 0.51207364 -0.43972808 0.0043868907 0.73394245 -0.4018828 -0.56933504 0.055353597 0.5147405 -0.3966748 -0.3542197 -0.0973436 -0.21402122 0.06845691 -0.014375461 0.8290196 0.58723336 -0.8634825 -0.46382287 -0.75019574 -0.36168522 -0.016318886 0.03971199 0.22610305 -0.32912976 -0.9864092 0.0698277 -0.053993903 1.0188566 -0.6964141 -0.71608835 -0.09351947 -0.22333832 0.21463113 -0.23830579 0.38983262 -0.011567774 0.10470907 -0.8059486 0.649854 0.28534323 -0.15419033 -0.8639327 0.652306 0.47328025 -0.26005042 -0.48474893 0.30760574 -0.031764064 -0.5526927 -0.23318996 0.546543 0.3843768 -0.16095579 -0.11391061 -0.048187125 -0.7640173 -0.63900745
PNMC -0.10179257 -0.22199067 -0.055324197 -0.11251227 0.4188711 0.12689522 -0.14207923 -0.5296968 1.1092006 -0.12009512 0.64842075 0.57528794 0.47465542 0.5834123 0.081278995 -0.37798575 0.8115718 0.06809781 0.7979678 1.1843195 -0.69222486 -0.29629004 -0.82706815 0.0059871376 -0.43086743 -0.58075917 0.029097993 -0.87633705 -1.0364723 -0.9043088 0.19030525 -0.28116602 0.81683326 -0.46204323 -0.099656954 -0.41200748 0.6480689 -1.0760378 0.76307184 -0.5319634 -1.131871 0.33083645 -0.6279724 -0.5991803 -0.4968864 -0.568718 1.0843045 0.032371838 -0.28428385 0.19692072 -0.44729164 0.6511873 -0.30978927 -0.09844657 0.11844888 1.1072152 -0.19226643 -1.2603701 1.6147768 0.36078238 0.6144277 0.14193636 0.25894603 -0.81407017 0.47799194 -0.7112109 0.7506153 -0.2530319 -0.55932254 0.33883998 0.4355202 -0.7559929 -0.10696319 -0.6812324 0.4290786 0.35292855 -0.52428365 -0.43511596 0.44759214 -0.55005056 0.25097325 0.46461946 -0.78323555 -0.0071591963 -0.6469991 -0.8556072 -0.4580664 0.0029186462 0.1404321 0.23546743 0.67489284 0.83924514 0.33497632 -0.103371 0.5318594 0.8866686 0.6960944 0.8246237 0.027026873 -1.0068789
ZUDN 0.40685138 -0.46080494 -0.40532252 0.75630665 0.1180848 0.60340333 -0.6290422 0.46618798 -0.6291865 0.11360514 -0.83299875 0.025388435 -1.2612287 -0.07031201 0.7663802 -1.0277408 -0.09989483 1.0477747 -0.0036741265 0.16688259 -0.4706422 -0.8650284 0.116734676 -0.02541053 -0.34456336 -0.30062613 -0.52833253 0.7885769 -0.12824611 0.11200291 0.5429996 0.04946094 -0.8694326 0.45600823 -0.7570745 0.36666983 -0.3318185 -0.33792034 -1.8712052 -0.18010014 0.059205066 -0.059210457 0.11566675 -0.19804622 0.45064732 -0.6456607 0.3670176 -0.5324343 1.0277325 -0.3788647 -0.33739027 -0.50877905 0.40808943 0.29539174 0.10829969 -0.0028675904 -0.27147198 0.14959143 -0.19147012 -0.055604916 0.25865138 -1.4986815 0.26796 0.223674 0.60697144 -0.38422817 -0.35168964 -0.14783545 -0.032119576 -0.24934092 -0.19131367 0.29419824 -0.24980326 0.3799142 -0.05594655 0.44065955 -0.5979757 0.071376085 0.29625782 0.34813416 -0.14094289 -0.6320729 -0.6667871 1.2618091 -0.11679089 -0.50416225 -1.5093532 0.6900325 0.45973447 0.10255056 -1.0545679 -1.2891545 -0.33760008 -1.599939 -0.41307196 -0.3904228 0.039011605 -0.4085166 0.17743137 0.059842244
GDRK -0.24536675 -0.45655388 -0.5634832 -0.31310987 -0.8411674 -0.44663712 0.51557285 0.105636425 -0.81684226 0.54378086 -0.26651043 1.1725504 0.26870131 -0.062473524 -0.17976932 -0.20742828 0.57325774 -0.17513981 0.4765718 0.72479844 0.51400334 0.97355026 0.63053215 -0.20452164 0.1010355 1.1030886 -0.3669555 -0.87390596 0.41401505 -0.08539236 0.41283724 -0.11411071 0.9397541 -0.5887689 -0.8988536 0.1760629 -0.029028136 -0.6800248 -0.031093495 0.90368515 -0.42107528 0.26654318 -0.27723172 -0.21111046 -0.13029137 -0.40335035 -0.5094897 -0.2521561 0.70620173 -0.15546262 0.49266055 0.3960672 -0.3443292 -1.0660198 -0.35430387 -0.49534196 0.6537885 -0.5900262 -0.78771347 -0.25106904 -0.33692476 -0.09296972 0.3683224 -1.4120332 0.45989046 0.82299393 0.072315305 -0.15176441 0.44403127 0.7048386 -0.8760072 -0.5167453 -0.5675226 0.3099834 -0.042263594 -0.24404001 -0.37293845 0.089546 0.5856594 0.47982177 -0.11667773 0.35898098 0.14657472 -0.14634635 -0.42201528 1.687985 -0.25088465 -0.7271365 -0.08405337 0.36894506 0.060064387 -0.50006634 0.7095604 -0.93101776 0.52453357 0.52252096 0.3836408 -1.2672527 0.17427449 -0.39328223
THOI 0.57708937 0.23889136 -0.3837513 -0.07023333 0.3070845 0.43744 0.3006342 0.03254522 0.747743 1.1124371 1.1291593 0.1748141 -0.26743773 0.21739966 -0.45550352 0.16063377 -0.104664974 0.7867214 1.2690532 -1.2662129 0.054319914 1.2585298 -1.386161 0.04714828 -0.28304452 0.55281264 -0.46525723 -0.8388309 0.989253 -0.22344273 0.19124259 -0.8446991 -0.2470342 -0.34488955 -0.10107601 0.08661529 -0.05443697 1.0395453 -1.023239 -0.49476445 -0.17162298 -0.109417245 -0.3204032 -0.11718646 0.11834359 -0.6271552 0.05880517 0.6796907 -0.36871573 0.18596287 0.04847898 -0.736317 0.79946977 -0.32658836 0.75368637 -0.10045273 -0.20963578 0.28994986 0.4998363 -0.73537874 -0.29819006 0.039105043 -0.15540248 1.2305895 -0.39356214 0.23843342 1.5465709 -0.88537955 -1.7522019 0.6545744 -0.94901454 -0.26538974 0.44762367 0.77304566 -0.96179205 0.17961332 1.1991564 -0.5399776 0.17414075 -0.8449163 -0.63884336 0.7869465 0.22415277 -0.5413081 -0.23684542 0.8262786 -1.0155553 -1.0941008 -0.032587245 -0.13225883 0.025895162 0.43270615 -0.07994897 0.04076112 -0.049621824 -0.896822 0.37633988 0.545907 -1.0390196 0.81361294
ERAJ 0.8124462 0.44720384 0.028236771 1.3527175 -0.44647545 -0.012980994 1.1289579 -0.94515103 0.016125645 0.87637526 1.0406396 0.094131425 0.2748664 -0.08663372 1.3586397 -0.65990573 1.3166763 -0.18761332 0.95334166 -0.5025365 -0.189639 -0.14958064 0.53778905 -0.6957906 0.38670275 0.44676897 -0.1830399 -0.4207391 -0.94943833 0.89069706 0.62769866 0.32786825 0.09302775 -0.50966084 -0.2616524 -0.056921493 0.4508511 0.5549378 -0.3519728 -0.9444867 -0.73394734 1.021016 -0.025519447 0.56201035 0.6214273 -0.7848913 -0.13478497 -0.88816327 0.17013505 -0.14777867 0.077940874 -0.35747892 0.014800526 0.61225224 0.84031945 0.20290983 0.3795876 0.9508746 0.7121923 -0.19912992 0.60283595 0.22320889 0.981576 -0.10581614 -0.19819129 -0.06968431 0.32188207 0.58728474 -0.83108693 0.76477915 -1.4430704 -0.29101825 -0.09636394 0.4362074 1.2272962 -0.6823659 0.16304933 0.02549617 0.2695535 0.025208188 0.043464214 -0.22931626 -0.027000649 -0.37219363 0.7159852 1.1873759 -0.7258733 -0.48539346 0.38812637 0.21727414 0.20528698 0.79893273 -0.35104483 -0.8189383 -0.06515395 0.65399665 -0.20881613 0.08720096 0.8786664 -0.03206397
ZARM -0.81075555 -0.13817896 -0.017993808 0.22037484 -0.27331328 0.43313068 -0.9141174 -0.60087293 0.32664913 0.100228675 -0.27066407 -0.34235156 0.66770935 -0.19685794 0.49275866 -0.5712319 0.5218879 0.2684 0.7268235 -0.85973406 -0.01382157 -0.30805576 -0.08232313 0.108590744 0.07068179 -0.27472723 1.3715316 0.49228197 0.05810773 -0.6428191 0.4111392 0.74124247 0.6115313 0.039526153 0.87397045 1.3599666 -0.5332472 0.222265 -0.22008418 -0.299026 0.062973395 0.08538569 0.5412059 -0.44109365 -0.111929424 0.42531085 -0.40798673 0.24901482 -0.16139594 -0.16619183 0.05023402 0.10105762 -0.2295651 0.5493547 0.7263084 0.5631388 -0.7144631 0.09867625 0.04063334 0.6387771 0.0069160317 -0.41433254 0.4238155 0.24714583 -1.006196 -0.16215195 -0.3099089 0.5717721 -0.030153936 0.27585602 0.71734595 -0.28034893 0.2664651 1.2394332 0.80516833 0.66050726 -1.0961791 0.57257026 0.20489377 -0.9951129 -0.23419864 0.5400933 0.30116066 0.4775996 -0.095385686 0.041973837 -0.21746394 -0.6371617 -0.36281142 -0.39596277 -0.38945597 -0.026430577 -0.3908103 0.43306446 0.12757745 1.0497458 0.72686607 0.48211187 0.0024354686 -0.11027331
JMWV -1.1000305 0.8507335 -0.3207594 -0.5334601 0.19363685 0.17095526 0.4090327 0.21314545 -0.28594887 -0.1722159 0.5064635 0.49378362 0.40239912 0.03938929 0.24686393 0.1927364 -0.094343185 -0.35866454 -0.55184734 0.219983 0.20209906 -0.54892105 -1.2619998 -0.8802687 -0.24676998 -0.050367013 -0.31904233 -0.10062529 0.30443528 -0.5524741 -0.78767246 -0.24768853 -0.28179193 0.6397598 -0.99700147 0.87731165 -0.3953161 -0.7266114 -0.16497515 -0.033229858 0.22450037 0.1688063 0.38172463 0.387166 0.43041003 -0.11237558 0.8918189 1.0074824 0.36020824 0.83019745 -0.53914475 -1.0469157 0.0055667846 0.11960011 0.3986478 0.9157935 0.31447005 0.5210059 0.96726394 0.36329842 0.39035058 0.85531676 1.0617305 -0.4076325 -0.94970715 -0.12537855 -0.44185185 -1.3440764 -0.76365757 -0.31580132 0.0065455064 -0.5633622 0.98208255 -0.59407 0.4641112 -1.027045 0.47974384 -0.057467368 -0.18706892 -0.4005918 0.42150068 0.43820667 0.4305934 0.10268181 -0.71112114 -0.42496595 0.2632792 0.04560469 -0.25447878 0.4763901 0.5029076 -0.75218284 -0.089450456 -0.9279982 0.45006937 0.2133987 -0.2551866 -0.4883337 0.52280647 0.8270961
VTQA 0.8231656 -0.3497765 0.42349532 0.3943455 -0.120087415 0.47448334 -0.19385862 0.635181 0.20344456 -0.33581045 -0.45096502 -0.30833006 -0.63296205 -0.054986015 0.3335041 -0.02365593 -0.2987096 -0.43346447 -0.6569517 -0.35047486 0.7057025 0.74158305 -0.38224757 0.14594637 -0.21438792 0.16827127 0.36072272 0.18344684 0.30029562 0.30686948 -0.82246625 -0.024319556 -0.33594283 0.4560528 0.16726457 0.53676397 0.1855826 -0.6391046 1.1844627 -0.27493218 -0.538539 -0.74112064 0.36245486 -0.6823781 0.13438731 -0.75903183 -0.41772985 0.09498064 0.04732134 -0.00065344555 -0.041074205 -0.26132545 -0.3520636 -0.93873185 -0.5299971 -1.2666178 -1.2082701 -0.73557174 0.38825423 1.0174961 0.12438071 -0.24789663 -0.12753087 0.15349312 -0.008919283 -0.24206388 0.2487459 -0.2408132 -0.14545068 -0.06657945 0.030544147 0.5643823 1.0543262 -0.15186484 -0.33180055 -0.32626116 0.9982879 0.36840478 -0.4833353 -1.0278679 -0.36345136 0.58618677 0.13420106 -0.21801446 0.014907694 0.13588718 -0.5390851 0.6923471 -0.13718443 -0.062153853 -0.9106157 -0.64774996 0.12741956 0.6531395 0.8072009 -0.76909626 -0.14262429 -0.22736396 -0.6497728 0.60265285
NPBL 0.5399421 0.54489297 0.27596825 -0.4482508 0.21118109 0.6621727 -1.4377124 -0.68377596 0.70876974 0.15847646 -0.08300234 -0.75912076 0.40483314 -0.14642867 1.3877344 -0.110217646 -0.11261282 0.16664784 -1.0907488 -1.2494812 0.7597065 0.12378726 -0.15843971 -0.59354365 0.23942271 -0.14412385 0.11504642 0.42226014 -0.28745428 -0.7637505 -0.049704403 0.73378664 -0.6999353 1.0233579 1.1969556 0.8741566 0.023548672 0.12344375 0.737036 0.32654095 1.029316 -0.7830215 0.8279362 0.20047283 0.16239904 -0.15190956 0.0347664 0.23843892 -0.29840422 -0.27561474 -0.014537958 -0.7000867 -0.56188846 0.5557166 0.1599649 -0.40506113 -0.3265872 -0.5086849 0.06329423 0.28288615 0.04077298 -0.5272634 -1.0710756 0.3280779 0.08382871 0.18148449 -0.69153625 0.30155516 -0.22528304 0.30503806 0.25693783 -0.68323374 -0.15793991 -0.18983302 -0.099338554 -0.26725888 0.23435834 0.15119597 -0.118545935 0.30092165 -0.36382982 0.017307665 -0.5914808 0.17410968 -0.01043731 -0.92347354 -0.109023355 0.3130581 1.4735484 0.3032097 -0.96488494 0.64391214 1.0014442 -0.62723714 -0.30216968 -0.48811626 0.06679835 -0.12941483 -0.21911073 -0.36262348
LVCI -0.7263567 -0.0852965 0.7694801 0.96519417 -0.046880126 0.83062726 0.9715147 0.01933759 -0.29274362 0.9327897 0.48327082 0.30537912 -0.65374136 0.48965314 -0.32753807 -0.64729637 0.30324677 -0.7921037 -0.6954775 0.1183467 -0.18366712 -0.45359686 0.08416796 0.56395245 -0.026384076 -0.68411475 0.41753766 1.0412371 0.18894817 -0.6426907 0.51804554 -0.02087108 0.14464262 0.23454118 -0.7736895 0.19775257 0.40735617 0.21110503 -0.120718464 0.51312274 -0.07073369 0.2735214 0.7297043 -0.10120714 -0.045536134 -0.05166929 -0.5435396 0.051505476 0.1151628 0.059705503 -1.0680302 0.028798366 -0.009911737 1.1091576 0.70887536 -0.94629586 0.15141785 0.025385922 -0.8452413 -0.01211686 0.24014425 0.29769793 -0.08358971 1.3373835 -0.0621852 0.28470263 0.88001794 0.225732 0.63914704 0.10182401 0.09382885 -0.23075832 -0.008701642 0.2737652 -0.008203528 -0.6473189 -0.72415316 -0.49388742 -1.2845765 -0.5832844 0.28480026 0.6477832 -0.2452939 -0.72925055 0.031295773 0.045486655 0.3438095 -0.08725422 -0.23277205 0.6125022 0.69128424 0.54836315 0.38172835 0.85025406 1.0840794 0.34800357 -0.7538376 -0.8300023 -0.25414425 -0.021486532
JWHX 0.03457912 -0.7527627 -0.22696458 -0.35118333 -1.3243082 0.2583532 0.1269969 0.34448066 -0.082432605 -0.30820015 -0.39235827 1.1732886 0.046399508 -0.3096347 -0.5118454 -0.12922579 -0.44122058 1.0434339 -0.44976297 0.7473467 -1.1077718 -1.3686846 0.27492836 0.7419966 -0.95916784 -1.0205303 -0.37201825 0.36215734 -0.34163806 0.80674094 0.42682916 -1.3086379 0.16243108 -0.63316935 0.55926234 0.12325439 0.69290423 -0.51300037 0.3515394 0.079461925 -0.7631447 0.5923655 0.47115177 0.58282983 0.28716028 0.47480237 -0.2672723 -0.13080746 0.32312518 0.36527786 0.84741473 -0.1756 0.94869566 0.5061235 0.41005242 -1.1380574 0.30421767 0.08717453 -0.13656096 -0.98171717 -0.25351137 -0.40515962 0.60801 -0.4872068 0.49380898 0.0042076884 0.06942909 -0.6046372 -0.447906 0.02698984 -0.9099114 -0.28356212 0.17157297 -0.48578283 -0.34603012 0.16832289 0.5708056 0.13543984 0.4295679 0.2243995 1.1986315 1.2170157 0.20760052 -0.70922834 0.9109888 -0.2217734 -0.6311272 -0.13393186 -0.34476626 0.2779006 -0.28450033 -0.13168126 -0.7145972 -0.18395875 -0.48606023 0.60745543 -0.63237494 -0.13771743 0.4154807 0.8774155
QWKZ 0.10253747 -0.7246637 0.0569378 0.957924 -0.7743901 -0.12846196 0.7144582 0.42804888 0.45807835 -0.12523164 0.6272244 -0.4462102 -0.07831723 -0.743634 -0.073715106 0.6260688 -0.5209957 0.15734491 -0.93216836 0.78814006 -0.05099325 -0.5136846 0.908097 -0.31824762 0.3377114 0.3178456 0.49433732 0.23584183 1.0314702 -0.22798504 0.2855034 0.45147237 -0.12850101 -0.17960812 0.55203 1.2005361 -0.686951 1.2297119 0.29668736 0.82684183 0.9751728 -0.51621616 -0.92148876 0.13128507 0.47196108 0.6365018 -1.3273339 0.7356143 -0.31378877 0.85751766 -0.3027263 -0.021772621 -0.063995145 0.39463145 0.011369374 -0.41678563 0.6828711 0.87880653 -0.38551077 0.719171 0.4009467 -0.50339496 1.7222749 -0.29172808 0.31467712 -0.20828131 0.29986787 -0.23574111 0.8004042 -0.14254767 0.4464192 -1.200701 -0.3917509 0.27433807 -0.097474374 0.6222775 -0.14408813 0.34483394 -0.22623317 0.028435182 -0.6282656 0.67986214 -0.9906494 -0.8905888 0.860289 -0.60899615 -0.43806228 -0.14725463 0.9979834 0.88456184 0.5414236 -0.23092641 0.38907376 0.8568323 0.06293366 -0.019121515 0.25051165 -0.6647719 -0.62394214 -0.8210885
EMQK 0.40099764 0.17413205 0.33528596 -0.02667008 0.29846486 0.5590148 -0.8566317 -0.07922092 -0.29764485 -0.36907667 -0.5907885 -0.015273143 -0.38623747 -0.2908834 0.46521294 -0.2963835 -0.07117077 -0.59344286 0.38270023 -0.5812586 0.7388043 0.28836972 0.094861634 -0.46708816 -0.34832644 -1.0185105 -0.0045105047 0.5537749 0.090697154 -0.5887294 -0.007017978 0.7283755 -0.87895733 -0.15641348 0.33890545 0.55168855 0.14594534 -0.25348392 0.3737587 0.5232589 -0.04277946 0.4121901 0.1714362 0.14873421 -0.4822788 -1.0045406 -0.33865082 -0.4868607 0.098499015 0.23876461 -0.49784487 -0.057081897 0.240386 -0.3309956 0.095323436 -1.0221518 -0.11776777 -0.052389495 -0.02382324 0.19716614 -0.5358915 -0.3041594 0.35785896 0.53716457 1.0038288 -0.6394012 -0.05347031 0.7361696 -0.8402887 -0.51104534 -0.51606834 0.20679934 -0.096649386 0.43364212 -0.20725097 -0.5050924 -0.6025386 -0.12424202 0.13350868 -0.49908817 -0.37866718 0.62578213 -0.6006372 0.19448534 -0.83212054 0.64026123 -0.41289434 0.19996041 0.2040278 -0.11862112 -0.19161968 -0.013392602 0.33135018 0.8610281 -0.4668725 -0.3070623 -0.30713317 0.721137 -0.38986406 -0.34156707
KTVI 0.45389482 -0.13304138 -0.23706207 0.15176305 0.078174554 0.68158776 0.39742318 -0.11981003 -1.0159484 -0.96976733 -0.30343467 -0.86354977 -0.19508779 0.14672494 0.40079314 0.28995177 -0.60569286 0.26753068 -1.2332635 0.35673884 0.2211724 -0.85604006 -0.69692844 0.023647794 1.1264515 -0.6155783 -0.017368475 -0.3982733 0.5618986 -0.09365229 0.037207402 -0.13078462 -0.09287444 -0.1122414 0.35104606 -0.25577986 0.6630317 -1.1926991 0.5014654 0.8401289 -0.4018546 -0.479501 -0.8265148 1.1395091 0.5069538 -0.63156146 0.47156006 0.7113759 -0.50921464 -0.01100464 0.06418495 -0.02182396 -0.5705602 0.7345396 0.6204718 0.59347457 0.5368976 -1.1991428 -0.81564724 -1.842997 -0.5807368 0.30999735 -0.41301078 -0.48570037 -0.5993844 0.09568675 0.15607691 -0.05405364 0.7462612 0.03200118 -0.9036422 -1.0198469 0.01187696 0.49003565 -0.49735513 -1.0865092 -0.9505161 0.9825062 0.19514166 0.17101926 -0.17267458 0.019047631 0.98409355 0.104032926 0.8027408 0.35767215 0.8085211 0.8441667 0.15375106 0.5286985 0.059012443 -1.397575 -0.6382432 -0.47834352 0.051265564 -0.6999638 -0.8048081 -1.1526995 -0.120017454 -0.22099629
OVNW 0.2776761 -0.033712514 -0.18491092 -0.17176938 0.45870128 -0.36430198 -0.237419 -0.4137827 -0.5123489 -0.68503094 0.23216835 1.0136328 -0.094835766 0.16372132 0.19579743 0.33350137 0.16510026 -0.21760374 0.5578046 -0.050541673 -0.1713042 -0.23924042 -0.051562272 0.17877023 -0.13691409 -0.08097701 -0.024798544 -0.37286133 -0.78679097 0.49509478 -0.61383307 0.10457503 0.15179658 -0.4705261 -1.2395171 -0.96968836 -0.7832945 0.13501987 -0.09178136 -0.41730258 -0.13066548 0.8687402 0.48487675 0.09555136 0.27981332 -0.7182541 -0.5308872 0.05764573 -0.0040147398 0.22541381 0.8344525 -0.05072703 0.21425518 -0.5278967 -0.51629114 -0.58740205 -0.13271894 0.20856537 0.35061833 1.007186 0.41833937 0.16372803 -0.013227967 0.39598525 0.32299843 0.5436443 0.6260052 -0.43124184 -0.5164654 -0.53585654 0.6368448 -1.211769 0.22538939 0.5111032 1.1198058 -0.67609656 0.08439454 0.32777515 0.9214674 0.7307939 -0.36563787 -0.044986118 0.21834154 -0.08624285 -0.19994558 0.6832236 0.42858136 0.6010516 -0.48983264 0.26912 0.11145991 0.3625163 -0.039832234 -0.035784863 -0.4540872 -0.36866283 -0.49857667 -0.403964 -0.28891087 -1.2366596
QRDB -0.5319113 0.13523431 -0.16256052 0.09048676 0.8511006 0.40700042 0.37291184 0.3983461 -0.24144283 0.4100738 0.07070518 -0.061748877 -0.24689524 1.1109765 0.5936779 0.0037730257 0.24591234 0.39427656 0.19568487 0.7819328 -0.106922664 0.05818051 -0.6928171 -0.38356963 1.077519 -0.06238638 -0.99874544 0.97553277 0.37071258 -0.40088513 0.054309648 0.28570706 -0.33593774 -0.42315164 0.03833886 0.47382054 -0.47407678 -0.1728889 -0.009816783 -0.20096943 1.1367295 -0.5446099 -0.74660254 0.5462922 -0.002997938 0.99046826 -0.25719833 -0.008757664 -0.30823362 0.11540888 -0.17018342 -0.64759594 -0.21135378 0.17572963 0.090779066 -0.8770001 -0.434237 0.58577055 -0.53135246 -0.36571968 -0.04069925 -0.25542998 -0.30838034 -0.48399013 0.78868794 0.1493651 -0.19819997 0.70562786 -0.03398099 0.25454792 0.8902678 0.5329556 -1.2404673 -0.12257223 -0.8851528 -1.1016581 -1.0574386 0.26962528 -0.6409603 -0.26506963 -0.071585186 -0.69864166 -0.113796 -0.4416162 -0.15203063 0.71487975 1.16392 0.83767503 -0.7433675 -0.34203228 0.42976865 -0.51622814 -1.5358557 -0.92827106 -0.4316535 0.81199634 0.13519122 -0.5027375 -0.6984667 -0.5741471
MKYH 0.00059362734 -0.006144195 0.7453278 1.0082685 -0.4817902 -1.0753182 -0.037073094 0.12653989 -0.45172486 0.84305376 0.19230059 -0.31198093 -0.4186262 0.25301287 -0.6723076 -0.12805952 0.262067 0.07182826 0.69447654 0.7523641 0.15002315 0.35515344 -0.5954174 0.37191167 -0.32991657 -0.017008508 0.87438834 0.82145983 -1.0110372 0.39897984 -0.08556489 0.11325362 0.6333579 0.37280548 0.6319144 -0.8375104 0.039001375 -0.11986829 -0.78305936 -0.4802201 0.23816624 0.09279515 0.23256442 0.27317697 -0.41638047 -0.94462204 0.14346178 0.24381852 0.0050729485 0.16524576 0.79589975 1.0832019 0.39352527 -0.47942096 -0.3183651 0.13744421 0.11172038 -0.51180273 0.32480592 0.91087425 0.7260399 -0.1832496 -0.03138557 0.8496606 -0.011555833 0.6124067 0.55993366 -0.58403826 0.23598477 0.36046198 0.009507291 0.9528968 -0.21081421 -0.18754356 0.6001098 -0.73146725 0.14542894 1.4021966 0.096360534 -0.15823151 -0.31681874 0.83637583 0.6801965 -0.7940503 -0.61020637 -0.114750415 0.38231134 0.09189763 0.14735484 -0.7888977 0.49777362 -0.024986388 -0.29283953 -0.15976633 0.98665744 -1.1241753 -1.0174788 1.4158483 -0.44560844 0.56529784
ILPB 0.8752563 -0.33817425 1.2298659 0.56163585 -0.2766142 -0.16141094 0.6948767 0.21816193 -0.4691724 -0.1890743 -0.38439423 0.314684 1.6139762 0.093238145 -0.29139873 0.2808104 -0.14591564 0.29760465 -0.034595296 0.3589332 -0.16008444 -0.1869445 -0.83157074 0.25645122 0.3074768 -0.8924104 -0.7034001 0.38452598 -0.34801558 -0.78880835 -0.04549978 0.039987434 -0.56909096 0.6620069 -0.66309595 0.077824585 0.5429041 0.49028498 1.3954768 0.7067817 0.6657465 -0.10026233 -1.0464836 -0.106672846 0.64927256 -0.028257037 0.34763262 -0.5108372 -0.3475631 -0.010917216 -0.5661298 0.5168137 1.3815731 -0.30054033 -0.17870781 0.41984266 0.2743096 0.35195267 0.34589443 -0.14849642 -0.06761141 0.010699492 1.0646374 0.16384386 -0.13343309 -0.26747456 -0.9530098 -0.6941196 -0.29460102 0.750982 -0.17121592 0.8687996 0.04023335 -0.6511842 0.03311622 0.28671458 0.004818338 1.0573874 -0.15185618 0.1986789 -1.0539265 0.2737379 -0.31404892 -0.39527583 -0.29319298 0.6873608 0.084585235 -0.2523729 -0.36797813 0.7299856 0.30386257 -0.098939136 -0.06342056 0.013102612 0.430531 0.845441 0.12853898 -0.011292909 0.2044305 -0.37349686
DILG -0.047617555 -0.22885855 -0.058221612 -0.24043387 0.4420412 0.1452882 -0.027627889 -0.53702146 0.98074824 -0.14781907 0.5623579 0.16432647 0.5416431 0.6108088 -0.030691253 -0.18435866 0.66881293 0.09893298 0.7765297 1.1526285 -0.541329 -0.043365818 -0.86964893 -0.12728943 -0.22723517 -0.6407771 0.34090805 -0.77881044 -0.7932663 -0.8741785 0.15431996 -0.44917625 0.88484746 -0.35991463 -0.09461408 -0.3685468 0.60676193 -0.9629433 0.79327947 -0.7105281 -1.0146021 0.30209047 -0.6561294 -0.62641656 -0.21328059 -0.38426897 1.0106884 0.2903824 -0.22205646 0.24935208 -0.7443907 0.32826188 -0.5111138 -0.27444872 0.3567566 0.9343705 -0.4085119 -1.1266949 1.5997131 0.41343832 0.6643282 0.014023444 0.30651256 -0.84502906 0.6894658 -0.8116491 0.87490183 -0.082194306 -0.7906424 0.24409208 0.42065674 -0.7749684 -0.068565 -0.52879053 0.5367389 0.18804975 -0.5871917 -0.32287833 0.46087232 -0.7512183 0.30289218 0.5145918 -0.5857451 -0.112115875 -0.46836978 -0.86890286 -0.5848435 0.21460374 0.30566734 0.34001452 0.67567873 0.7750036 0.39172903 -0.31327572 0.7146098 0.913771 0.78379667 0.65381044 0.19703536 -1.0478407
ZTXY 0.51893866 0.4862771 -0.16839404 -0.82788956 0.644433 -0.09302883 -0.42382294 -0.035434786 0.5955867 -0.44478178 0.64622843 0.4111095 -0.98990107 0.3846313 -0.121261075 -0.15949008 -0.9548543 -0.2962536 0.35146886 -0.38882864 0.18661211 1.1867696 -0.2805079 -0.044816826 -1.1764554 0.2660442 0.56706303 0.061100483 0.46216893 -0.71662223 0.5659659 0.75190854 -1.0498769 0.63946867 1.906723 0.11530088 0.52726567 0.484548 0.49721014 1.4857118 1.0787716 -0.19830889 0.27440155 0.16046484 0.67764056 -0.34531894 -0.540841 0.38036716 0.20993425 0.015618994 -0.04076565 -0.061719153 -0.64496505 0.82611316 -0.31852534 0.0057620252 0.1221954 0.07874715 -0.43172774 0.23868306 0.18299109 -0.78768414 -0.44997054 0.118080325 0.45043465 0.3725923 -0.05281777 -0.51138663 0.58307654 -0.0872038 0.21353868 -1.3274772 -0.052811597 -0.95440197 -0.2485109 0.8939668 1.2286631 0.114312716 -0.12669623 -0.30850387 0.013768527 -0.9731011 -0.31658933 -0.68798286 -0.49092838 -0.68343884 -0.7837588 -0.028148891 0.59227943 -0.22752222 -0.31112763 0.09059752 0.3277642 -0.22942562 -0.81948394 -0.3112384 -0.79744375 -0.26707077 1.3323259 -0.2604915
NLKF -0.72565836 -0.31835258 0.51238143 -0.20041248 0.101780534 1.1243939 0.3136597 0.54489505 0.25550222 0.04288814 -0.8096182 -0.83367646 -1.5103326 -0.20933135 -0.7441987 0.25301945 0.57837313 -0.06663648 0.083289966 0.2494068 0.0854506 0.7422516 0.29720795 -1.3509626 0.8358661 -0.6647327 -0.2649479 0.6088817 -0.018182578 -0.16079329 -0.52028435 0.39473966 -0.18001455 0.99575937 -0.6554096 -0.55399036 0.23199871 0.23217462 0.8691647 -0.170719 -0.8182767 0.8449438 -0.27242118 -1.6327057 -0.22595784 -0.98716396 0.20409189 0.108912796 -0.36934394 -0.55929786 0.04883124 -0.20608453 0.99231076 -0.9541249 -0.116239026 0.5516272 -0.8594719 0.40640098 0.17930546 -0.665732 -0.60894805 -0.13244128 -0.010467531 0.31797436 0.2913622 0.28077084 0.6678981 -0.1355515 -0.9334932 -0.4080556 -0.4085303 -0.6222424 1.012052 -0.112255126 0.14321288 -0.59552264 -0.30362356 -0.22313991 1.0260841 -0.18467513 0.3139908 0.041352626 -0.42465162 -0.67943454 -0.10951853 -0.11723083 0.33713827 0.19058989 0.43262428 0.6037798 -0.096672624 0.69011354 -0.056464456 0.28904304 1.9613512 0.16098246 -0.21147807 -0.14655913 0.76522654 -0.07909332
FQLC -0.08199097 0.37746635 -0.6813116 0.18583123 1.1527237 -0.3005463 -0.042308442 0.26473436 0.30824816 0.12650983 -0.31293032 0.18497923 -0.48617843 -0.4413784 0.24921854 0.66139257 -0.3411397 0.033471335 0.8971846 0.23237298 -0.5278308 0.6137535 0.2966315 -0.54988706 0.8620432 -0.35226408 0.43028829 0.009150778 0.31458238 0.22480994 0.5241623 -0.13233197 0.23322746 0.26843998 1.3361242 0.005014689 -0.28713313 0.49239856 -0.83040994 -0.17675142 -0.09866707 0.0023166237 0.39772218 0.9147784 -0.09635273 0.037096452 -0.83698297 0.16930637 -0.7390973 -0.031712085 0.3179265 1.1475253 -0.31052902 -0.10707735 -0.37721622 0.6587404 0.022625426 -0.39570805 -0.11700714 -0.8855086 -0.9958917 -0.17505123 -0.34975654 -0.14775673 -0.7788332 -0.0043604355 -0.9013357 -0.18869795 0.82820714 -0.5462188 -0.6237783 -0.20661232 0.34405008 -0.4133588 0.18129206 1.4005585 -0.06061471 1.1003789 0.21990596 -1.578596 0.54424083 -0.6413062 -0.8253051 0.05422215 0.27103305 0.030772628 0.3512582 0.21990861 -0.14098741 0.38596848 -0.8878153 0.7301632 1.0929217 1.3875539 -0.48812914 0.14811492 -0.3793531 0.18150553 0.5692644 1.068576
LCGQ 0.0022698669 1.2364243 -0.5713292 1.1562519 0.3598779 0.0925864 0.08653164 -0.28206575 0.36998138 -0.19971137 -0.6170887 0.82961065 0.91625327 -0.2061654 0.44403386 0.30603957 -0.4181967 0.05414011 -0.90820986 -0.035508953 -0.22357056 0.5194054 0.44652557 0.073705494 0.11736889 0.4404697 0.11120703 0.21167421 0.21929508 -0.11558133 -0.23398381 -0.45774806 0.9950116 -0.1550941 0.25984666 0.12543403 -0.15619303 -0.71340615 0.58631843 0.6924131 -0.15876746 0.9480623 0.5098098 0.17395115 0.5066054 -0.45715362 -0.3685409 -0.62118256 -0.812371 0.6228275 -0.7231774 -0.07971314 -0.25599283 -1.3258778 0.11613966 0.36261734 0.49292836 -0.687496 -0.09448546 -0.23284833 0.200164 -0.23499236 -0.51965505 -0.6331495 -0.026318042 0.6341655 0.360109 -0.41271424 0.15691581 -1.026779 -0.45116186 0.5748012 -0.30944318 0.26604477 -0.49199438 -0.17663677 0.30398786 0.6761084 -0.06592093 0.102970615 0.4256472 -1.1542666 -0.42908552 -0.6303185 0.2257749 0.4778378 -0.8784724 0.09733115 -0.42144808 -0.6188896 -0.9879361 -1.0007852 0.2883138 -0.18383011 -0.80373996 -0.18891048 -0.021096932 -0.51738083 0.1978666 -0.13679965
VKWM -0.13358699 -0.36003914 0.35198477 0.07822289 1.1927679 -1.4978299 0.5668535 0.11431962 -0.3300677 -0.120547235 -0.06397924 -1.0453931 0.7042331 0.69054127 0.31215265 0.093725674 -0.40976435 -0.53724253 -0.2849918 -0.9852693 0.35613558 -0.71992517 0.25942218 0.32542756 -0.28970817 -0.12622224 -0.29943696 -0.36816338 0.5292029 -0.40481612 -0.36615887 0.28070587 -0.9195478 -0.42901292 0.34617567 0.030116543 -0.54830134 -0.263581 -0.2981853 0.26187366 -1.142207 0.10268917 -0.260957 0.01743018 0.96004915 0.5862388 0.92776644 0.015193081 -0.39041257 0.008619323 -0.42101502 -0.7497047 -0.022441152 0.37340832 0.5253706 0.16550751 0.6907965 -0.2838195 0.4473686 -0.7914028 0.20922758 -0.20215127 -0.86434585 -0.03685082 -0.64451224 -0.25972039 0.7418544 -0.32617298 -0.9685421 -0.14259271 -0.16060406 0.3541462 0.24072959 0.5233153 0.2027682 0.11786464 0.38056535 0.5584716 -0.24213833 -0.33072343 0.61767036 -0.32629248 -0.06623413 -0.5730683 0.10680579 1.616789 1.0050623 0.072803006 -0.065726236 -1.1561865 -0.5717949 0.3801186 0.25026977 -0.7205782 -0.15490659 0.15082848 0.4008007 -0.097441286 0.65953195 0.30981034
OWZC -0.29836175 -0.66666716 -0.8501376 0.08114821 0.42900732 0.5747853 -0.10288803 0.34127146 1.6982232 -0.38805297 0.38004526 0.7228691 -0.73693377 -0.90664864 0.25647315 -0.33953765 0.097200416 0.6758726 0.43870655 0.18777558 -0.4642174 -0.62133914 0.62236106 -0.35462418 0.6449174 0.31511408 0.06870977 0.4749239 0.29842344 -0.6253392 -0.20371495 0.78268766 0.84512097 -0.3145532 -0.056025013 0.2314218 0.3867362 0.93761605 0.3850831 -0.77367973 -0.4647145 0.0054811784 0.6295682 -0.56609446 -0.62018526 -0.93818164 -1.1139746 0.41165528 -0.35064733 -0.15596977 -0.47180703 1.1294789 0.6625733 0.3784472 0.05109639 -0.37083945 0.33036953 0.06112476 -0.5346649 -0.59163135 0.703638 -0.12701303 0.509179 -0.031337652 0.53748244 -0.13925163 -0.21240012 -0.86274433 -0.0055660205 0.4232431 0.46825245 -0.2179941 0.53247577 0.64644206 -0.69354755 -0.14855966 0.11536491 0.21854691 0.92501485 0.29755196 0.5929905 -0.96717817 0.2411778 -0.7141272 0.14694367 0.04193904 -0.8491728 0.61661625 0.22311066 -0.11094952 -0.04438423 -0.17967673 0.15011741 -0.050091907 -0.64417046 -0.90794724 -0.14093702 0.90609425 -0.580929 -0.33286092
SDWQ 0.26230335 -0.13233653 -0.39480546 0.4016515 -0.19037014 -0.5011104 0.45670563 -1.0397581 1.2171848 0.2090382 -0.14957021 0.6202572 -0.44144318 -0.5083923 0.08327498 0.6610645 -0.1921073 1.1091355 0.2502494 0.7535102 -0.010509793 -0.87483966 -0.5101801 0.39510956 0.42294598 -0.3309634 -0.8483948 -0.29276147 0.5248967 -1.4028977 0.67404735 0.029057255 0.9973922 -0.35180184 0.94955295 -1.5420928 -0.48934412 -0.6768489 -0.5817624 0.22035632 -0.9749827 0.110589854 0.6325053 0.6056798 -0.1372172 0.4546511 0.10828524 -0.26396206 -0.4426882 0.20569904 -0.29260898 0.21789873 -0.44952086 0.047162168 0.70108867 -0.05457132 0.62105465 0.068144545 0.10089026 0.52028054 0.077345364 0.6129476 -1.3042186 -0.8154037 0.54902065 -0.115632184 -0.8597171 0.45387867 0.47365153 0.9816768 -0.6548266 -0.29715803 -0.8996783 0.54904824 -0.21478522 0.94083655 -0.30246803 0.23158935 0.048997894 -0.4910263 -0.11228608 1.4656293 -1.104087 -0.85441625 -0.5512221 0.2950212 -0.5406525 -0.4620681 -0.56634104 1.5353699 1.3774775 0.50767714 0.67666334 0.4016429 0.18561982 1.138938 -0.22364067 -0.4405533 0.23081185 -0.11402835
OZSN -0.74953693 0.79368734 0.6146174 1.9947902 0.119596064 -0.6141865 -0.2786276 -0.19064498 -0.07161612 -0.13986114 0.016577927 -0.71034163 0.65219814 0.35722014 0.505628 0.10272642 0.694865 -0.39068994 -0.084602535 0.06278803 0.28654218 -0.29766017 0.4695807 -0.19190527 0.1198593 -0.6939585 0.36932334 -0.20934665 -0.56481487 0.1868209 -0.1549767 -0.9477393 -0.29466486 -0.50976944 -0.21699141 0.48458102 -0.38978183 0.6253138 0.09981816 0.46140617 -0.7015171 0.63936377 -0.12589465 0.2859151 -0.04593721 0.71386707 0.33973652 -0.72986466 0.7319879 1.4500672 0.093792945 0.0940642 -0.048480973 0.6497364 -0.19010434 0.11252877 0.835976 -0.38096046 -0.4975169 -0.19117011 0.48072857 0.55233854 0.2973068 0.4058727 -0.24700564 -0.63864213 0.02676457 -0.19442452 -0.9215983 -0.4956801 0.7353287 -0.3242334 -0.3333595 0.265171 0.70313793 0.1186831 0.293808 -0.07881816 0.39608783 0.41464996 -0.08711573 0.48317352 -0.86188424 -0.6054013 0.42090687 0.23785745 -0.14094804 0.867546 -0.63357764 -0.5712094 -1.0993361 -0.29512024 -0.30910742 0.006115931 0.9843655 0.19842152 0.0831867 0.8891041 -0.7299726 -0.7914826
LKZT 0.6807138 -0.74158925 -0.25391096 -0.26382944 0.466587 -0.8264549 0.5308425 0.49539784 -1.2867571 -0.9885886 -0.58797705 -0.4576974 0.25896063 -0.18827459 0.08705942 0.08263222 -0.09280826 -0.09179717 -0.38497022 0.13750385 -1.0139946 -0.7652953 -0.43083906 -0.3091562 -0.16590486 -0.50186634 0.990201 0.06955913 -0.06017418 -0.21895418 -0.477146 0.18711832 -0.6789195 0.72207123 -0.22274853 -0.21726468 0.63754684 -0.4724509 -0.3332406 0.8149415 0.08502866 0.03605548 0.6666667 -0.97458494 -0.22854298 -0.59310967 0.36625588 -0.003258488 0.7729393 0.07651281 0.5207559 0.39212397 -0.03388914 0.91042024 0.59818673 0.20933764 -0.12958767 -0.49451184 0.21071288 1.1164265 0.209221 -0.30718797 -0.30483094 -1.2823983 0.34545267 -0.48925903 0.22223242 0.5049389 0.47727504 0.89616954 -0.19698983 0.99577665 0.21863623 -0.8208193 -0.74191475 -0.24883398 -0.047594436 -0.055830162 -0.062390722 -1.2092636 -1.0375232 -0.12501335 1.1227889 0.0023568207 -0.011580102 0.9488254 -0.15966128 1.0166067 -0.38929754 -0.6398491 -0.26895168 -1.218357 0.10898559 0.25818503 -0.06505402 0.41040885 -0.19762333 -1.1230767 0.38829276 -0.40399244
IAXP -0.5747126 -1.1851518 -0.2677898 0.36869785 0.27636552 0.1644768 -0.09652779 0.010769442 1.0475382 0.053207647 0.322858 0.34150034 0.31983432 0.8651027 -0.29101014 1.4779415 0.27147052 0.3056545 0.23240954 0.14484745 -0.77699286 0.21062317 -0.33697382 -0.13269822 -0.6977431 -0.3796111 0.6980757 0.7691251 -0.5469801 0.98840666 0.12973559 -1.0709347 0.18585193 -0.876796 -0.52810454 0.8573106 0.011276949 -0.6989944 -0.10074792 0.017688585 0.34492025 0.06341021 0.68435943 -0.27102098 -0.18590741 -0.3651248 -0.34926838 0.09414436 -0.20810828 -0.48839918 -0.30052775 -0.41298318 0.113251254 1.392424 -0.4151627 0.12029508 0.30078432 0.31840423 0.09658075 0.28354982 -0.38068855 0.42396906 0.118188545 -0.35062334 1.206762 -0.14693809 0.03353267 0.1900625 0.5327543 0.7838856 -0.19874357 0.5190654 0.26197043 -0.62001556 0.23983233 0.5953621 -0.34372944 -0.9075382 0.9694843 -0.5539647 -0.07755168 -0.20833297 0.50844485 0.8556672 -0.796526 0.32803264 -0.11914619 0.6760881 0.5886973 0.64016 -0.5854966 -0.8900743 0.06479683 0.9210319 -0.2913488 -0.5328618 -0.5607017 -0.26956078 0.20678225 -0.25089443
GZEF 0.5940245 0.24141818 0.65652853 -0.23498872 -0.22839628 0.3264567 -0.24261189 -0.8231682 -0.29151788 0.07694796 0.26321155 0.06839463 -1.3325813 0.20998584 0.1703447 0.119203694 -0.47451073 -0.32949704 1.7243584 -0.91632444 -0.050481033 1.2613288 0.06701076 -0.16913062 0.5676676 0.7468089 0.27751446 -0.7576988 0.32163215 0.38419276 -0.30162877 -0.03661808 0.24944378 0.3495821 0.78402585 0.52045643 0.3793878 0.18510757 -0.5263247 -0.89138025 -1.1111989 0.24567217 0.40792146 0.002039869 -0.7096549 -0.2969446 0.16687924 0.56501985 -0.6251315 -0.38086507 0.3405234 -0.3535164 0.8597823 0.21662518 -0.28590772 -0.35403726 0.040925603 0.5300965 0.6978152 -1.1884305 -0.9133712 -0.6045485 0.50784594 0.49710503 -0.32799 -0.99373335 0.06429395 -0.1956506 -1.019456 0.5279739 -0.8363663 -0.09625025 -0.8122782 -0.18800436 0.7981651 -1.4048051 0.5440436 0.7597938 -0.115671694 -1.0038322 0.21637337 -0.91789776 0.8320907 1.6163704 -0.7712273 -0.8614807 -0.39802453 1.1014012 0.10262635 0.7098702 -0.64645815 0.9952123 0.992477 0.319914 -0.16733111 0.7107311 0.044983845 0.2199215 -1.1066542 0.29242882
LQZA 0.3107184 -0.19092986 -0.16452006 0.6404635 -0.037164003 -0.5186498 0.24870387 -0.37983793 1.0716864 1.0293394 -0.9227299 -0.9931057 -0.45598897 -0.6612635 0.9778822 0.25969774 0.5325354 0.9258339 -0.38589716 0.61836034 -0.1727279 -0.82482827 0.15911902 -0.19267571 0.23724383 -0.39240775 -0.6189457 -0.18387175 -0.44215906 -0.19720705 -0.9782349 -0.7888724 0.49334466 1.0045676 0.2244896 -0.45760897 -0.7579824 -0.2130673 0.38185376 1.5600868 1.0541166 -0.21907881 1.1256478 0.61484975 -0.09185593 0.52932 0.36001512 -0.08040593 -0.028820114 -0.1974767 0.17706998 -0.3196157 0.5967397 -0.9348437 -0.08142424 0.78882974 0.029789137 -1.0854775 0.02663025 -0.104483664 0.4735852 -0.33572647 0.5655032 0.1921714 0.8978974 0.15419976 0.08292171 0.36306325 -0.42844567 0.38192934 -0.40979716 0.4692246 -1.1493977 -0.6850728 -1.4453732 0.12869348 0.2637779 -0.38243324 0.10406609 1.1953653 -0.1866961 0.5321197 -0.5899542 -0.5111718 -0.43089935 1.3162227 0.17686574 -1.545743 -0.4092534 -0.27243778 -0.9154334 -0.56402063 1.2006097 1.2508725 0.5298332 -0.6913883 -0.50632703 0.35163376 -0.2867008 -0.7780695
USFY -0.3801458 -0.7302816 -0.17196563 -0.13391572 -0.16422583 0.12640499 0.24665558 0.8395868 -0.8973291 1.3551686 0.46122482 -0.35711813 0.10586378 0.18804264 -1.1077539 -1.3524911 -0.17442548 0.7505023 0.60005045 0.3321443 -0.14634822 -0.019416558 0.17247096 -0.5454055 -0.68642503 -0.6360981 -0.49885032 -0.83768183 0.658506 0.2838889 0.52276427 -0.11249852 -0.9234269 -0.43318218 0.6490194 -0.67821324 -0.21319574 0.14182341 -0.087444365 0.21321027 0.59977025 -0.2626608 -1.1151745 1.30239 -0.1747046 0.88776296 0.5473229 0.17693877 0.27815336 -0.37522689 0.73923045 -1.3927997 0.9849207 -0.3950901 0.6364417 -0.52757865 1.1323799 0.41017687 0.61182654 -0.6692341 -0.37446645 -0.7600325 0.24268447 -0.05460593 -0.48023984 0.5745997 -0.063807644 -0.30081135 -0.513176 -0.28029367 -0.25244945 0.078531936 -0.054199826 -0.21463099 0.34195173 -0.3105336 -0.62507665 -1.1098527 0.24593462 0.44234976 -0.5481283 0.86996317 -0.26848269 1.1406747 -0.022201741 0.17596401 0.10420059 0.8628046 -0.5339302 0.16324693 0.26403797 -0.12446723 -0.61973023 -1.0662726 -0.3869535 0.45943382 -0.023097673 0.79133314 -1.3679014 0.040662132
LATM 0.61618704 -0.19520466 0.25841537 -0.15929736 0.37562767 0.18973562 -0.8534462 -0.8343944 0.03939753 -0.046301305 0.5200917 0.7175545 0.038071778 -0.20148559 0.104940556 -0.6577137 -0.58520496 -1.204859 0.06489132 -0.32487312 0.2782482 -0.4921697 -0.42903727 -0.018810786 -0.7397578 -1.2123647 0.40993497 -0.05974999 0.5822892 -0.2298936 0.090538226 0.57463056 -0.4352142 -0.076798454 -0.40933043 -0.613841 0.19348991 -0.7679615 -0.24576928 -0.29842347 0.16689631 -0.8685954 0.87507874 -0.049115032 -0.43655324 0.043360636 0.98261374 0.10670345 -0.24722263 0.27009392 -0.69625413 -0.4114145 0.20073687 -0.4031699 -0.36476895 -0.36521423 -1.2015612 0.35079533 -0.12646277 0.99524134 0.29897124 0.8804901 -0.40016446 0.29775417 -0.44922987 -0.39998773 -0.016849896 0.72862005 -0.2960025 0.50891376 -0.6592053 -0.8737477 0.2214153 -0.7639002 -0.3381626 0.33058026 0.38652205 0.08814966 0.06371511 -0.2906105 -0.833355 1.0130193 0.07077261 0.36924946 0.23573542 -0.42415324 0.16238305 -0.5462367 0.5927278 1.1304066 -0.7610188 0.40619227 -0.80215794 -1.0980203 -0.024650298 0.23336999 -0.9738309 0.19335051 -0.19053443 -0.75419253
QXNT 0.84299123 0.6529974 -0.0471418 0.4865024 0.09885867 -0.41503942 1.1102643 -0.013485305 -0.08130428 -0.07166174 0.61993265 -0.39859882 0.85566753 -0.6065006 0.8415815 0.77862525 0.23887867 0.29043004 -0.7628918 0.30813375 0.7634915 0.34148923 1.014355 0.35522315 -0.04039624 0.52642363 0.73567945 -0.054868877 -0.17023602 -0.49610946 1.8616862 0.5725813 -0.36367437 0.13032725 0.605095 -0.5126688 -0.04117417 0.10398892 1.6278013 -0.8919086 -0.6336615 0.7660401 0.2521023 0.14928554 0.03668189 0.7227466 0.34107283 0.4859766 -0.57278883 0.24432935 0.42060912 0.3618349 -0.9292626 -0.26703686 -0.35128573 0.19955717 -0.6592613 0.2697068 -0.35997644 -0.21904844 -0.69488084 -0.4503868 0.1464353 0.14090872 -0.1280792 1.224667 0.121198155 -0.4281026 -0.40590775 -0.25200325 -0.045325186 -0.012451801 0.10386478 0.30557287 -0.03482683 0.48425743 -0.23832196 -0.6094828 -0.83599555 -0.5991529 -0.5492086 -0.2781117 0.09934991 -0.51903415 -0.36275342 0.13518205 0.39806557 -1.2517058 1.1908709 0.20441115 0.3315707 -1.0504074 -0.04753385 0.2949766 -0.4068447 -0.97578347 0.983135 0.6416172 -0.29006913 0.7573881
