WGHM -0.14498617 -0.41694513 0.4314001 0.21485241 -0.033126313 0.5621978 -0.30936643 -0.14235395 -0.4508727 -0.8570878 0.43043554 -0.13970657 0.22595893 -0.48516828 -0.8886564 -0.72578776 -1.0785245 1.0442444 0.54749304 -0.05320306 -0.5549194 -0.3091317 -0.09887936 -0.33628607 -0.1021593 0.2725424 -0.10674261 -0.59934866 -0.14902918 0.4573149 0.024819568 -0.45445278 -1.1417443 0.2721206 -0.07595705 -0.5167363 0.6362413 -0.17549014 0.94300777 0.69608974 -1.0277798 0.5656994 -0.16547559 0.0343795 0.074343674 0.17254916 0.9785522 -0.14089742 0.7959686 -0.071091264 0.577531 -0.8756647 -0.26096964 -0.13186845 -0.19913685 0.35361296 -0.822043 -0.6640737 0.15035594 0.4601372 -0.12207963 -0.46996394 0.09980175 0.25052416 -0.39184776 0.37928432 -0.27870414 0.53278506 -1.2226496 -1.1072202 0.33158702 0.6676931 -0.33437583 -0.32637823 -1.3486217 0.81288654 0.22631104 -0.1316587 -0.46952906 0.68581855 0.68510896 0.96030074 -0.507152 0.74852365 -0.6570439 -0.2626913 -0.1402748 -0.79806566 0.093688175 -0.41695148 -0.23741797 0.29950652 0.49338448 0.051145524 -0.53846127 -0.47489762 0.8201511 -0.61393243 -1.2231324 -1.4532992
ATDU -0.5834588 0.96250117 -0.71179515 0.48325342 0.6258238 0.15643682 0.94032913 0.31024015 -0.61402935 0.89626414 0.4361282 -0.29645798 -0.0942152 -0.65603375 1.5442731 -0.38375413 -0.48490557 -0.18871772 -0.18742076 -0.68005663 0.16449253 -0.5041521 -0.63586664 -0.78788906 -0.36522526 -0.038326737 0.29258022 -0.3425769 -0.14173236 0.35579512 -1.2007958 -0.46368927 0.51711655 -0.4764954 0.1972041 -0.7586035 0.13353886 0.015693555 -0.008114652 0.15743302 -0.61239445 0.40285727 0.28461686 -0.08087808 -0.4465528 0.8124371 -0.24971312 0.6095265 0.8602849 0.17081611 0.02197838 0.21397361 0.27464828 0.094750516 -0.21235488 -0.3858926 -0.1998291 -0.9185822 0.23945592 -0.73695 0.5805059 -0.011703984 0.17292628 0.03325547 -0.105514936 -0.38135335 0.68842936 -0.26491398 -1.0173473 0.3428464 -0.02283578 -0.51910204 0.03580274 0.5668513 0.28408784 -0.21873422 0.17830491 0.8825887 0.42700252 0.28166944 -0.093648694 0.7038688 -0.9720746 -0.5731507 -0.05881535 -1.3772029 1.1778768 -0.41062316 -0.059109688 -0.69176525 0.2618941 -0.37717593 -0.34097773 0.3399219 -0.13787718 1.2126263 1.2907312 1.0082885 0.93577635 -0.46003765
DLFR -1.4335674 -0.24689977 -0.43284887 -0.106175214 0.4962637 0.32684708 0.3225654 0.1440253 -0.062719084 0.928179 -1.3332239 -0.933079 -0.58524483 -0.18158945 0.76720846 0.4401836 0.82206005 -0.14265932 -0.059691504 -0.9466708 -0.12263086 0.19244248 -0.16152212 -0.4794317 -0.95742565 0.5666576 -0.33431688 -0.6371415 0.46361867 0.24973187 -0.82973385 0.41959655 -0.05129868 -0.6672003 -0.255472 0.15337834 -0.025801852 -0.38813445 0.0042923484 0.6350907 -0.2400923 -0.028683 0.4985622 -0.054950587 -0.53315765 0.27582553 -0.5019599 0.42715216 -0.54975826 -0.60752404 1.0890595 -0.81191355 0.17554195 -0.26713973 -0.65671474 0.58967984 -0.44661182 1.3781474 -0.38471973 -0.3387751 0.7090362 -0.6543634 0.66241676 -0.29343474 -0.92954034 -0.5400172 0.11783134 0.1707684 0.55308694 -0.041354142 -0.16459557 -0.3329945 -0.01910768 0.90368515 -0.34277648 0.67520094 0.18117365 -0.45235768 0.28029424 -0.29793382 0.122171275 0.32671288 -0.34786865 0.3167306 -0.093110874 -0.60436994 -0.09156199 -0.7023076 0.1913965 0.48497757 0.17026202 -1.4084979 -0.149609 0.5916964 -0.17236276 -0.0019246173 -0.012327484 -0.7708441 0.26793912 -0.95153105
SJOD -0.11760806 -0.71760726 0.2733878 -0.48784116 -0.9450905 -0.13780288 -0.34740588 -0.98870146 -0.28401443 0.31473377 0.101685725 -0.53137124 -0.052667167 0.21712744 -0.60798544 -0.9427437 0.23362564 0.5242458 0.12982096 0.17053239 1.1195352 0.8636044 -0.1697369 -0.03292521 -0.28237575 1.0012382 -0.7202273 0.13873309 0.257728 0.108400054 -0.25388756 -1.2166389 0.60051084 0.11331599 0.1278806 1.1062541 0.4871768 0.08785041 0.43375957 0.32119018 -0.35047284 -0.26290536 -1.1835191 0.3007361 1.2736228 0.3068462 0.038010217 -0.43866357 0.27106756 -0.45873702 -0.2821198 0.90505785 -0.6195033 -0.8940752 -0.42661914 0.48082015 -0.56967336 -0.436405 -0.54527843 -0.25966844 -0.40963167 -0.6732023 0.07288729 -0.2749709 -0.07294095 -0.95740515 -0.04582697 -0.124409 -0.74816656 -0.2707309 0.7181772 0.68152905 0.09754206 0.40201202 -0.3515162 -0.37144145 -0.872605 1.0226852 -0.118635625 -0.844009 -0.61287606 0.01245408 -0.60630244 0.29667905 0.18000974 -0.15035126 0.6527827 0.84949946 -0.16194336 0.43360198 0.46265006 0.5351684 0.38404626 0.014889696 0.21458924 0.36836866 -0.9343718 0.9110458 -0.98531765 -0.947418
EXLM -0.92801607 0.26449504 -0.1414576 1.6105126 0.21687362 0.2210593 -0.22187734 -0.569969 -0.17135021 0.49281266 0.20601161 -1.5314099 -1.0572062 -0.122240685 -0.4806563 -0.44054005 0.9921363 0.32737106 0.5146923 -0.2075717 -0.34613156 -0.67398834 -0.38203853 0.43030444 0.04121053 -0.21445747 0.8358269 -0.32967198 0.9470703 0.045803327 0.08574595 0.84822524 -0.8798593 0.21170588 1.2267929 -1.432748 -0.18007393 -0.44142902 0.09571422 -0.48685136 0.015714685 0.44096622 0.6762921 0.5762303 0.8889975 0.5389137 -0.54416984 -0.79419094 0.57934403 0.11949942 0.923422 0.23296306 -0.8989131 -0.06746759 0.22959112 0.563596 -0.07865709 1.1273204 -0.5569911 0.88222295 -0.29132798 -1.6543605 -0.15016086 1.4042503 0.40908706 -0.12532675 0.15351762 0.35341635 -0.20127843 0.30427623 -0.5363418 -0.062654324 -0.06559076 -0.46684813 0.76155317 -0.043265317 -0.35744864 -0.8196258 -0.8042467 0.64206123 -0.53096914 -0.0066918596 0.014603393 0.27851877 1.1419455 -0.116933756 -0.50957686 -1.0753886 0.18451999 -0.74129754 -0.30170676 1.0726126 -0.20401976 -0.09376502 0.92908263 0.45364165 0.48471344 -0.14576083 0.20703939 -0.61299574
LQVR -0.49599546 -0.4901797 -0.41893223 0.7924369 0.005567921 -0.30547953 -0.35868385 -0.5719177 0.11444512 0.36150065 -0.36085048 -0.18123484 -0.70241624 1.0737288 0.6286917 1.2398039 -0.6305907 -0.05404486 -0.97373843 0.1672341 -0.69482046 0.59211004 -0.5040047 -0.07883968 0.47710526 -0.010515169 -0.8441818 -0.3920509 0.6062705 -0.73751915 0.958206 1.3520291 0.6019509 0.17263044 1.2420313 -0.75173885 -0.44510886 0.2792672 0.1647592 0.41842562 -0.20428479 0.26973757 0.053456083 -0.99612486 0.37066334 -0.0050102985 -0.014026022 0.01807073 -1.1536026 -0.04582034 -0.10788784 -0.25570342 -0.19407734 0.8600303 1.7357272 0.1506383 -0.22651993 -0.17229055 0.28546262 -0.42532578 1.1969008 1.3627994 0.43858367 0.23907271 0.08610327 0.14650458 -0.36716968 -0.5567753 -0.8143871 0.5041358 -0.041955195 -0.19171116 0.4659087 0.58441633 0.4998396 -0.6924562 0.104281016 0.7578207 1.0275807 0.1544897 -0.45654598 -0.78575516 0.85382044 0.47911993 -0.08976693 -0.27245963 0.28906572 -0.27379358 -0.31639838 0.3255871 0.7222943 0.23320988 -0.41229984 -0.4738945 -0.007711547 -0.7458011 -0.42620862 1.1347381 -0.50201255 -0.02302984
EDTC 0.7805148 0.7153973 0.25231847 -0.032154217 0.124248534 -0.67801404 0.54925793 -0.17961815 -0.41692194 -0.57691634 -1.0810122 0.23639557 0.66656786 -0.003987843 0.087000914 0.5884356 0.9866591 0.78297573 0.6174095 -0.5288544 0.69229645 -0.28210303 0.64762765 1.0896186 -0.17261973 -0.30410802 1.0187267 0.37306806 -1.1909008 0.04388384 0.16888162 -0.58938295 0.41261944 -0.082165286 -0.25636977 -0.56557715 0.3941887 0.12201888 0.38568205 -1.0141505 -0.13077924 -0.25327706 -0.038721588 -0.29438993 -0.86179173 0.48868978 -0.31323895 0.13060674 0.34736586 -0.21057256 -0.30006835 0.1238603 0.41835475 -1.0935302 -0.5174811 -0.04995351 -0.35030344 -0.13386351 0.035057314 0.56233335 -0.65270865 0.22656694 -0.652682 0.4252744 -0.35773587 0.11026693 0.17547001 0.05517258 0.5327759 -0.5518427 -0.03203232 0.19650136 -1.0098056 1.1079953 -0.012494573 0.45116538 0.28822345 1.0770489 -0.6202741 -0.30476764 -0.5912431 0.4237871 0.3739728 -0.4606064 -0.60770243 0.6171818 -0.41024163 -0.10747186 -0.9963845 0.4005858 0.103143945 -0.31383094 0.6527661 0.437152 0.60229564 -0.2764728 0.40233284 0.61360687 0.53078413 -0.8176717
KFGO 0.052726675 0.082427464 -0.2418508 0.007157299 -0.04542908 0.31049487 0.16331331 -0.6308363 -0.021292748 0.1626684 0.23366687 0.57276297 -1.0868256 0.8252511 -0.12665004 -0.92318296 -0.66225487 -0.28140834 1.3023643 -0.8709627 0.078022584 1.7722393 -0.80679387 -0.41132867 0.30790013 0.5999619 0.4715404 -0.3922553 0.34900826 0.11187457 0.1422072 0.019529574 0.07812593 0.0068717576 0.46653184 0.4005635 -0.013541689 0.448319 -0.3283994 -0.9983724 -0.8693634 0.31475377 0.23972121 -0.17514963 -0.33617207 -0.26069316 0.2280573 0.55746573 -1.0058833 0.1842738 0.13614197 -0.2644587 0.45588237 0.4403331 -0.21880038 -0.6184995 -0.16842692 0.36858395 -0.17806028 -1.552868 -1.313285 -1.185668 -0.3041215 0.4427992 0.4354817 -1.1330568 -0.2545045 0.6785985 -0.582559 0.8739995 -0.066310644 0.21386342 -0.14889152 0.21503916 1.989256 -0.6528633 0.5060426 -0.08452422 0.23388933 -0.80609787 0.121565804 -0.24359578 0.97684467 1.2767076 -0.4058383 -0.2288184 -0.11537085 1.527365 0.48814368 0.45442474 -0.4227154 1.1633801 0.7017097 0.1433013 -0.32675573 1.1131711 0.018784102 -0.08491021 -0.7925586 0.058146466
MNVQ 0.683337 1.9922363 0.27918074 0.5125125 -0.29581735 0.12065761 1.2264626 0.09771703 -0.22213644 0.18514195 0.65885735 0.029231723 1.2146602 -0.837159 0.94455385 1.0272965 0.9284389 0.9258052 -0.08288463 0.39244148 0.52507454 0.29771113 0.4249473 0.3327685 -0.6287716 0.6107636 0.406327 0.52369344 0.36438906 -0.25386456 1.3058121 0.7786573 -0.41788718 0.39631382 -0.191316 -1.0189358 -0.15036987 1.0058 1.0293546 -0.7665912 -0.514603 0.45541224 0.11327231 0.3816221 -0.68363786 0.6520128 0.6871269 0.11549455 -0.48240593 0.1685428 0.77642035 -0.3564892 -0.8780856 0.045251895 -0.64310354 0.23552744 -1.061026 0.073362686 -0.12922066 0.48220587 -0.43065852 -0.908707 0.42912376 0.3631062 -0.9170692 0.8973265 0.59271616 -0.558135 -0.8390754 -0.10039763 -0.15446968 0.08745828 -0.5024166 0.26939708 -0.45685205 -0.40974906 0.050755702 -0.11147663 -0.54687834 -0.8161525 -0.3168556 -0.06593355 0.4048803 -0.6292204 -0.2583622 -0.18841022 0.16855006 -1.1869209 0.64098155 0.17384742 0.31962737 -1.0322161 0.47335094 -0.16008939 -0.29328987 -0.5408204 0.7560029 0.85441494 -1.1254077 -0.43831226
TLOY 0.035244636 0.1493174 -0.14188105 0.85751534 -0.25265095 0.4356886 0.0936089 0.027790332 -0.916753 -0.8675816 0.4183008 -0.12813736 -0.5391661 0.85505277 0.49225917 0.20056221 -0.47971505 0.743155 -1.6179096 0.02478777 0.2536226 -0.69774497 -0.092993505 -0.32353815 1.1242853 -1.0391941 -0.33581147 -0.21889791 0.27405417 -0.91626316 0.9805888 0.46189168 -0.935725 0.019774955 -0.20351867 -0.25411174 0.32083943 -1.1848135 0.6430656 0.69133335 -1.2450405 0.28504822 -0.89114714 1.2592473 -0.21661769 -0.8705427 0.9512582 0.48110384 -0.3930954 0.39564994 -0.576697 -0.088396646 -0.66964644 1.2148894 0.35420024 0.265863 0.4999749 -0.86478126 -0.35872647 -1.1496819 -0.3104193 -0.05347858 0.03989824 -0.46165746 -0.84356105 0.20365195 0.24100515 -0.25245273 0.746136 0.19453508 -0.81682324 -0.8477513 0.77247316 0.77872753 -0.8153311 -1.0785663 -0.96883184 1.0972458 0.31019711 0.14796363 -0.022673942 0.35845104 0.37686616 -0.40315336 0.21072951 0.39635003 0.8797589 0.9451774 -0.05438524 0.34593523 0.42911187 -0.9658113 -0.20813704 0.16468436 0.03962856 -0.76585996 -0.8861716 -0.4744624 0.060299497 0.37199646
CZQP 0.709749 -0.252722 0.88513094 0.15491708 1.3244934 0.69672346 -0.14944418 0.29838797 -0.8442067 -0.097644776 -0.004660566 -0.22827113 0.34658968 0.40046182 -0.297134 0.40675947 -1.0801423 0.063113675 -1.1761869 -0.2135568 0.13170604 0.77084094 0.321125 0.66969895 -0.6872803 -0.8357517 0.6610986 -0.70569885 0.5789699 0.5643352 0.30548927 0.3527601 -0.45142156 0.5713265 -0.23092365 0.5287277 0.7917167 0.16841723 0.20900574 -0.14973909 0.18353663 -0.13444863 -0.40489978 -0.81668 0.9000521 0.24879937 0.29477045 0.65800226 -0.6776964 -0.30672902 0.93542874 0.8557077 0.51470447 -0.5761179 1.0396075 0.54467183 0.2780298 -0.26402587 0.7363061 -0.098183006 -0.789865 0.32429156 0.18361017 0.12987867 -0.7593638 -0.41329044 0.7326805 0.89744055 0.07686454 -0.03328279 -0.023137132 0.8430379 -0.7321451 -0.45133337 -0.11811403 -0.22589098 -0.5558331 -0.20519777 -0.2696976 0.9957053 0.07016972 -0.29244283 0.5037309 1.8648355 0.6037371 -0.8348571 -0.033618435 0.4368424 0.26377174 -0.19991106 0.65475863 -0.78613734 -0.30248475 0.39390156 -0.114482015 -0.61154306 -0.60786635 -0.70328367 -0.87083894 0.0018696748
LKXZ -0.016839392 -0.54647154 -0.08586798 0.18932274 -0.25123256 -0.3373131 -0.3720465 -0.24762483 0.06571902 0.039014686 0.4333472 1.1574285 -0.8843522 -0.015767096 -0.78050613 0.49154618 -0.40413487 0.158726 0.21600269 0.2917889 0.8836741 0.3083266 -0.08229204 -0.059975695 1.1775382 -0.4640915 0.17750274 -0.2653626 0.44003317 0.56172466 -0.8167814 0.5594858 0.4103606 -0.07844906 -1.3057551 0.7433785 0.23219816 0.38495338 -0.00796063 -0.37129113 0.93278253 -0.42662922 1.5326964 -0.8014463 -0.23115426 -0.82422435 -0.3541556 -0.2816164 0.24465182 0.21831617 0.7292494 1.4783789 0.26799086 0.93687445 -0.18545233 0.16721565 0.2823126 -0.4008333 -1.3192555 0.4837067 -0.3596074 0.17843412 -0.45608765 -0.1155845 -0.2846971 -1.220083 0.6201254 -0.005625099 -0.74308836 -0.31969118 -0.3174142 0.4023199 0.425087 0.03722595 1.116473 -0.46303463 0.99529046 0.25957313 0.120175935 0.9661512 -0.57874817 0.14999723 0.7939515 0.43059275 0.68957 0.3169351 -0.49842817 0.26321402 -0.1248667 0.18857978 0.31911138 0.04031798 -1.2726382 -0.14319398 0.25350502 -1.7317696 0.5363819 -0.16052535 0.10573376 0.2488854
LSKW 0.69950384 0.08243749 -0.65496045 0.5320384 -1.052811 -0.6748794 0.5704934 -0.5348072 0.4573358 0.051655293 0.67752033 -0.28756395 -1.0852982 -0.11933397 0.06438889 -0.9665203 0.2944033 -0.16359434 0.6725447 1.2610294 0.060407482 -0.86215925 0.34437793 -1.1353478 -0.4298643 -0.54808074 -0.090174094 0.914794 -0.17507663 -0.4832498 0.08445961 0.05260912 1.1003125 -0.6243402 1.4867274 -0.23011339 0.55519706 -0.3182321 -0.094652355 0.3761179 0.6340164 -1.2518315 0.6983998 -0.22058445 -0.73393023 -0.117651 0.46024147 -0.1358262 0.7263911 -0.29811943 0.01492861 0.7440154 -1.1303457 0.5681016 0.6333605 -0.7283913 1.1773959 0.23008554 -1.0585705 -0.9821639 -0.74898607 -0.2346006 -0.14318967 0.46865252 0.24404833 -0.5291945 -0.02693618 0.086208925 0.034991834 -0.9355783 -1.5545918 -0.873759 0.01887802 0.12504977 0.044752687 -0.010199128 -0.22321726 0.23047888 -0.4112642 -1.3813605 0.30664015 0.23824246 0.31684527 -0.8712295 0.6408488 0.6338 0.33664936 -0.054307852 -0.9604605 -0.25017133 0.26603994 -0.47402558 0.41825092 0.6483546 -1.0621526 -1.7122363 -0.4134877 0.91151917 1.0159246 0.90435153
CHNQ 0.11687575 0.21006751 -0.4744768 0.5229167 -0.14311844 -0.6300133 0.13817696 0.3319855 1.3547258 0.4188071 0.62263817 -0.21851696 -0.10839707 1.1918354 -0.6485264 -0.49201956 -0.2656006 -0.24324262 0.97124624 -0.37348548 -0.023211867 -0.57396924 0.004962162 1.5112207 -0.46821094 0.18665613 0.08453477 0.35811833 0.2597075 -0.42253533 -0.32822987 -0.7051128 -0.2760637 0.42726803 -0.6429638 0.8559889 -0.16431949 1.2888463 -0.28945118 -0.29028788 0.57405293 0.71628314 -0.32556465 -0.22568181 -0.184392 0.5180192 0.46277946 0.3489708 -0.41871917 0.6604813 -0.049025893 -0.14233866 -0.17621502 -0.7677256 0.110975415 -1.3679115 0.49961686 0.65580285 -0.15878814 -0.13398568 -0.5244051 -0.12537736 0.81527895 0.54358006 -0.6099241 -0.18251586 0.6037795 1.5137433 -0.61024386 -0.45225698 0.4421628 -0.88488406 -0.5370821 -1.0603907 0.4107469 0.45735103 -0.20992973 -0.35913092 0.18263309 0.19231658 -0.25214094 -0.5591743 0.22532283 -0.22948995 -0.2050067 -0.44623676 0.8653884 0.6435493 -0.3419372 -0.60567683 -1.2522106 -0.0826164 -0.46173134 -0.309205 0.43377122 -0.74295783 -0.34563217 0.8747521 -0.48836783 0.26707086
AKZJ -0.8541642 0.29747263 0.34561408 -0.23460717 -0.86028135 0.9078285 0.68906057 1.0615106 -0.22181338 0.57454884 0.56656545 -0.66914403 0.17426315 -0.03903013 -0.95984054 -1.1400821 0.53966695 0.5328591 -0.039787527 0.36997288 0.38338688 0.29949936 -0.2508588 -0.9022329 -0.07648244 0.456878 -0.3158781 -0.37441996 -0.4105487 0.6138271 -0.49012902 -0.5755162 0.674602 -0.34177813 0.05065263 -0.1106324 0.12342956 -0.7698062 0.33770302 -0.45314452 -0.2908979 0.94904304 -0.26609522 0.504061 0.28708547 0.014585119 -0.15061873 -0.039445687 0.06636001 0.59699994 -0.5312199 -1.1108515 -0.5750899 -1.0317996 -0.73704743 0.799441 0.5384345 -0.17723002 0.1977849 0.4860209 0.63331825 -0.4263103 -0.7179307 -0.5731318 0.23289669 0.44688985 -0.20836724 0.33720207 -0.25856978 -0.22519983 -0.25520512 -0.07428631 -0.8266739 -0.53501457 -0.5431839 -0.18278776 -0.58585596 -0.88549864 -1.1523387 -0.40481973 1.0117528 0.0134051405 -1.1147343 0.14064638 0.2628794 0.69453406 -0.45816126 0.6317446 0.6352895 0.27790567 -0.37346038 0.6574702 0.07540362 -0.24070899 -0.8739562 0.44144157 0.06399727 -0.30643025 0.2192015 0.4237533
ELPS -0.8983529 -0.40255797 -0.57833093 -0.7812311 0.11315966 0.17124864 0.38043314 0.18454082 0.7284416 0.13883916 0.20348677 -0.70407444 -1.345289 0.7739907 -0.32929945 0.4151014 -0.03523796 -0.3693623 -0.07652207 1.5597544 0.85292596 0.05183249 -0.46919963 1.0027343 0.6845853 -0.56796306 -0.6929317 0.21977821 0.32092693 -0.17346546 -0.11262503 1.2359794 -0.116248 1.17888 -1.1755604 0.14119887 -0.20853887 0.5436969 -0.54887176 -0.060714003 0.5046226 -0.0017321081 0.35659853 -0.07628089 -0.46718058 0.04360135 0.061899338 -0.08630293 0.50976044 0.75018567 -0.89877534 0.00862637 0.04135973 0.13732053 -0.79982126 -0.19906348 0.33221573 0.20699953 0.50269103 -0.10548357 0.69568723 -0.96497345 1.1898763 -0.5553577 -0.3110661 -1.2769073 -0.6418221 -0.31122485 0.4990026 -1.2932168 0.67216295 -0.4706926 -0.46778485 1.2696042 0.65802574 0.16336265 -0.13169841 -0.20936942 -0.91085374 0.5465904 -0.98913836 0.30716845 0.23618482 0.7218066 0.4549283 -0.14158003 0.6953371 0.94747996 0.24120136 0.50943357 0.2643606 -0.014776893 -0.8069055 -0.16306125 -0.6905041 -1.3640416 -0.546373 -0.6152529 1.0391964 -0.84299976
PKUN -0.051359292 0.18259227 -0.71583134 1.2384582 0.93555695 -0.44884405 -0.1681851 0.78701913 0.17646846 -0.4992996 -0.6339672 -0.60173374 0.87651646 -0.06620819 -0.66151524 0.4519638 0.3782767 -0.8329613 -0.41848466 0.60393834 0.31925413 0.28586903 0.21911749 -1.9147475 -0.85188454 0.32371444 0.19345647 0.72381973 0.18730962 0.90682256 -1.2949057 0.060551997 0.049812336 -0.49931473 0.782943 -0.73829234 0.017097337 -0.7820399 0.29169908 0.20952348 0.4149311 0.11790423 -0.22368748 0.3410697 -0.5996562 -0.19995046 0.08026518 -0.091522776 0.73903024 -0.4550116 -2.0420392 -0.04798636 0.1091448 0.4671814 0.78912514 -0.23736912 -0.03030245 -0.83185375 0.75585735 -0.05718045 0.49926433 -0.54518485 -0.08190112 -0.45041972 -0.1733732 0.05158935 0.16647144 0.29858425 -0.47536972 0.26410457 -0.78526306 0.35114098 -0.6415867 -0.23324369 1.0688323 0.56582725 -0.29607064 0.6622011 -0.659408 -0.26743066 -0.025227461 -0.17266709 -0.5477703 -0.34565756 0.29813847 0.44958577 0.23132364 0.14240147 0.2561092 0.8348954 -0.37413618 -0.11086376 -0.058800276 -0.4368904 -0.78812456 -1.1104494 -0.2783278 0.35256132 -0.6456358 -0.19403663
LJHY 0.5137172 0.6690454 -0.3226141 -0.019145634 1.0184282 0.10199264 0.2869248 -0.08389169 -0.641679 -0.203837 -0.3946265 -0.23821284 -0.18610047 -0.73933184 0.024815736 -0.31768012 0.46248934 -0.9414769 -0.44643605 0.12265943 0.5162598 -0.22348581 -0.54898447 -0.6429846 -0.8541842 0.5182098 -0.35058758 0.05297866 -0.007651135 0.16229577 -0.64339226 -0.22075044 0.058346782 0.06160258 1.025333 0.0838064 -0.28532392 0.08586847 0.9284128 0.10280139 0.546549 -0.68801177 -0.036506712 -1.4842043 0.41509762 0.04160223 0.93044037 -0.18889251 0.38182023 0.15800245 0.7166909 0.26456267 0.06181757 -0.8889073 -0.68502665 0.4062229 -0.15333526 0.2943191 -0.581847 -0.19113573 -0.1693778 0.17210802 -0.03128535 0.2823609 0.006032164 0.12726843 -0.569228 -0.30434152 0.49698433 -0.9913987 0.25843862 -0.70127267 -0.40567115 0.097182 -0.56841296 0.40648168 0.37407565 0.33405337 -0.04102499 -0.68004555 0.9871119 -0.05192547 1.4249302 -0.087286085 -1.2351658 -0.36483517 0.06820296 0.8114476 0.8399293 0.09232923 -0.6470555 -0.78273463 -0.20136374 0.01645586 -0.7247689 -0.7194577 -0.22513352 -0.2725103 -1.1142633 0.8655284
XSDJ 0.9093551 0.107771 0.60330766 0.25635877 -0.30310172 0.6412105 -0.9183887 0.2763769 0.25462997 0.1706379 -0.3204338 -0.6363465 -0.64617074 0.24115774 0.084690265 -0.5630543 -0.8024074 -0.6510831 -0.92904913 0.058245715 0.7495162 0.7165943 -0.2752385 -0.33574486 -0.3972518 0.03368616 0.4060686 0.35786116 0.31632617 0.14665022 0.19314922 -0.33727142 -0.4027841 0.47709394 0.4105366 0.86469245 0.49018374 -0.8783132 0.9835963 -0.8927232 -0.86532056 -0.48048785 0.38971686 -0.6054116 0.110827975 -0.45025516 -0.29398158 0.13314259 -0.0036281114 0.15711017 -0.3681618 0.27960488 -0.26467922 -0.9180386 -0.2356161 -0.8998762 -1.1888485 -0.1977736 -0.19920173 0.7148894 0.54637414 -0.6966197 0.06388717 0.53233004 0.7134428 -0.02080807 0.14509279 0.04756082 0.12445927 -0.054878887 0.5007293 0.26515165 0.5717526 0.0060995906 -0.57656115 -0.5076664 0.22811118 0.36110803 -0.26641703 -0.5329934 0.0017932061 0.53726095 0.0014669695 -0.54384875 -0.3746597 0.27062872 -0.7353178 0.48829958 0.026701208 -0.2118493 -0.65339863 -0.56946003 0.18498808 0.81366956 0.09876803 -0.8824734 -0.011773357 -0.06893159 -0.24335769 1.0555843
TMIK 0.15509345 -0.7126735 -0.4279468 -0.030467898 0.43321317 -0.9218409 0.46734583 0.20902291 -0.17459536 0.09129757 0.277137 0.65994674 0.39031944 -0.61890316 -0.35221386 -0.2525311 -0.20473255 -0.18933344 -0.4401461 0.9709753 -0.5952937 -1.2685899 -0.26028174 -0.5226067 -0.62780577 -0.31408897 -0.07248172 0.16156814 -0.4867004 0.2145241 -0.23541391 0.036450688 0.23066232 -0.2698455 -1.1991842 0.24774337 -0.33170366 -1.3547966 -0.26169315 -0.88680714 -0.13427684 -0.97058797 0.61113673 -0.23723237 0.019524202 -0.20460114 -0.11762842 0.8275087 0.2233158 -0.04622369 0.2866015 0.4450612 -0.7243598 -0.6832871 -0.048222758 -0.9953966 -0.33658892 -0.50383806 1.0427496 -0.1266853 0.36088264 0.9099648 -0.40191162 -0.046439268 -0.29633436 -0.13021825 0.28895748 0.083847344 0.33355427 -1.5589141 0.4565138 0.3248382 0.15554635 -0.032674346 0.092767 -0.22940892 0.40161952 0.0934379 0.80566347 0.82288873 0.40330955 0.1267815 0.5406194 1.2425328 0.97193706 -0.9706788 -0.22405247 0.18573713 -0.09418925 -0.40994516 1.0895705 -0.17327541 -0.197685 -0.3614921 -0.46683586 -0.36421815 -0.47210777 -1.1768912 -0.3966613 -0.8467325
RNEI -0.1640843 -0.57083035 -0.38644382 -0.39021277 -0.46244296 -0.39806226 0.012000657 -0.12637857 0.32247272 -0.04465877 -0.1866014 -0.62139326 0.29204527 0.23599698 -0.60203975 0.4925542 -0.64802444 0.065425046 -0.9894926 -0.7274736 -0.19349158 0.40843427 0.5482006 -0.72179747 -0.84920835 -0.16941439 -0.7837416 -0.3729467 -0.37714082 -0.8323812 0.36380145 1.484866 -0.47792795 0.8700771 0.19909145 -0.65504044 0.16592836 -0.94171923 -0.18417665 0.5793169 0.71320766 -0.07279956 -0.27104083 -0.5226053 0.0035868697 -1.6356348 -0.07961646 0.48326632 -0.7916495 -1.4238389 -0.49160022 -0.18036811 -0.42777774 -0.554137 0.6469965 -0.8200591 0.0053408057 0.0063087237 1.2214615 0.09508523 0.88920206 0.5376526 -0.097046405 0.83976126 0.7848445 0.26041374 0.28497362 -0.12892264 -0.3360014 0.28607413 -0.67990357 0.008413597 1.252118 -0.910088 0.59132683 -0.26778084 0.63894784 0.21842986 0.6944852 0.38748327 0.05443188 -0.69559526 0.51597774 -0.20975624 -0.50617534 -0.16943972 -0.35738686 -0.14032327 0.03421591 0.32661244 1.314203 0.85604125 0.07424828 0.22477853 -0.023005104 -0.11566207 -0.029332722 -1.0009099 0.8214013 -0.879726
DECR 0.31199235 0.21369915 0.28595033 -0.59165406 0.1647745 -0.7847731 0.34927353 0.6328779 -0.33596233 0.6599187 -0.71470153 -1.9211076 -0.08333157 -0.6289456 -0.1169344 0.15237398 0.18042171 0.34087363 0.37987146 0.0070182597 -1.3487724 -0.03276748 -0.007330547 -1.0333802 -1.0036585 -0.2925057 0.18380988 -0.6907329 0.02868097 0.8102435 0.28219324 0.58896065 -0.32432124 0.28823498 -0.45094335 0.41926572 0.4272972 -0.8626301 -0.542508 0.5785888 -0.03172744 -0.2925706 1.1021721 0.24318425 0.0025792408 0.68032324 0.923812 0.23163359 -0.5660055 -0.4894693 0.69687855 -0.43470994 0.16256547 0.010197214 -0.5557687 1.1740124 0.24885559 0.451502 -0.16160144 0.12563746 -0.4933491 -0.46362934 -0.21263744 0.273364 0.08760532 -0.10822986 0.03567468 0.20328872 -0.014103033 -0.48793134 -0.30275 0.73742205 -0.6833124 0.280168 0.46704048 0.57706386 -0.285972 -1.431538 -0.1734784 -0.4179867 1.0730948 -0.35530582 0.2099444 0.98499876 -0.6285286 -0.81262654 -1.1375704 1.2425655 0.15430965 1.4363984 0.3188809 0.03607902 0.76810056 0.69190544 0.45255253 0.40452197 -0.26004457 -0.67588913 0.01702313 0.531994
MRPN -0.11669923 0.0949292 -0.8521808 1.2232575 0.8320684 -0.49298573 0.10040333 0.74520403 0.12079285 -0.44442332 -0.49678203 -0.2941956 0.9364164 -0.099635005 -0.6882789 0.42565608 0.46184695 -0.76274323 -0.6030107 0.6573274 0.3405016 0.1872127 0.13756101 -1.6252803 -0.6180587 0.589776 0.23621964 0.7273089 0.28836542 0.96811265 -1.0876949 -0.06298481 0.024583992 -0.6912576 0.7277782 -0.5232939 -0.13295037 -0.7209235 0.21860114 0.14470966 0.57153255 0.017606426 -0.3934385 0.5821632 -0.53309083 -0.20377886 0.012517141 -0.068268426 0.78360564 -0.3041067 -2.0479956 -0.17673343 -0.21930309 0.6068873 0.87662506 -0.35224584 -0.060644504 -0.6923003 0.84467727 -0.053213835 0.56047827 -0.46053487 0.23825383 -0.50008017 -0.056358557 0.16444787 0.2602291 0.21833205 -0.80598813 0.052876838 -0.9440758 0.25721645 -0.91994977 -0.30837184 1.0815051 0.26085865 -0.4466688 0.88502157 -0.567634 -0.25812718 -0.13898176 -0.25941318 -0.39202574 -0.22734666 0.32346272 0.23159356 0.099276215 0.064935066 0.24341671 0.8105096 -0.23182814 -0.13302347 -0.2972762 -0.52091074 -0.75684494 -1.0380242 -0.25229695 0.5518819 -0.79396594 -0.22488435
HQSD 0.8578941 0.27799153 1.3064938 0.43476272 -0.06712829 -0.931504 0.4004976 0.41665417 0.7272736 -0.087219134 0.34255344 1.1855696 -0.17637485 0.7320138 0.7920733 -1.2514361 -1.115938 -0.33430928 -1.4157953 -0.4787485 0.2556097 0.71816194 -0.0137550505 1.0409755 -0.3215365 0.051966853 0.37835053 -0.5889061 0.14112252 0.19528551 0.72969764 -0.5319459 0.083090864 0.06670963 -0.32123035 -0.3022638 -0.10348019 -0.24762827 -1.0470526 0.085160345 -0.66097665 -0.3369299 0.93499076 -0.0663126 -0.3135465 0.4254099 0.78978044 -0.35600916 -0.22719637 0.11541683 0.98291785 0.3025088 0.038863935 0.46795824 0.49047458 -0.1932859 -0.42054746 -0.121936046 -0.21692567 1.145685 1.1766789 0.105926104 -0.2312242 -0.3317793 -1.1133982 -0.12822613 -0.17486508 0.8085113 -0.27115467 -0.053816143 0.5952812 0.584053 -0.29145005 -0.40282962 -0.46168616 -0.3988469 0.042674705 -0.008428038 -0.09998199 -0.24207406 0.49966806 0.41341865 0.3860703 0.054806057 -0.44945642 0.10000562 -0.27905113 0.33777335 -0.37064797 -0.033945538 -0.53242946 -0.48255342 0.40053448 -0.35849136 -0.65936476 0.53926176 -0.76960593 -0.036571868 0.29521322 0.15029298
OYIW -0.5698879 1.184067 -0.5665765 0.17574835 -0.14855811 0.57658774 -0.25645393 1.0820608 -0.23728259 -0.0491225 -0.30761123 -0.89337206 -0.3808444 -0.03953638 -0.05110518 -0.99699914 -0.47925767 0.27656394 0.032477316 -0.6664306 -0.16151676 -0.494925 -1.3681786 -0.3666558 0.7030826 0.06666789 1.1334846 -0.055757556 0.32145372 -0.6652192 -0.21600087 0.7622715 0.3245803 1.0070064 -0.49487457 -0.834505 -0.19946735 -0.17094097 -0.31164476 -0.43671322 -0.17149526 0.14774059 -0.26987353 0.059506524 0.5800634 -0.123195514 0.77601343 0.11014055 -0.6980158 0.13265604 0.28814495 -0.26148194 -0.33377883 0.041633148 0.509943 0.576418 0.5542211 1.1579853 -0.013303984 -1.0324359 1.4757183 -1.3552885 -0.8370166 -1.1246694 -1.5414959 -0.9349724 -0.46160737 -0.6817169 -0.10138046 0.48471949 -0.30980083 -0.24001427 0.37546575 -0.025918283 -0.4202976 0.4097737 0.5057275 1.1255405 0.051190797 -1.196489 -0.2880673 -0.5987721 -0.16307464 -0.7712556 1.3665193 -0.8263941 -1.0728639 0.34561062 -0.28635585 -0.91691756 -0.19208023 -1.3189725 0.2724875 0.3428045 0.0021497346 -0.76548016 0.14808375 -0.97253406 1.7677594 0.25037646
CMQR -0.45342985 0.17449982 -0.39331368 0.24057926 0.38862756 0.94325197 0.026998604 0.36622375 -1.0501329 -0.6274 1.1143804 -0.73909724 0.20434384 -0.5656193 -0.72189116 0.01655911 -0.4696248 -0.6830701 0.39763743 -0.076425776 -0.5531199 -0.22004603 0.41464835 0.16653916 -0.15932144 -0.4323616 0.3993147 0.65232927 -0.15051107 0.74737555 0.097966954 -0.5374731 0.9168412 0.2735579 -0.10870496 -0.40399435 -0.905182 -0.65765345 0.32258543 0.3530646 0.83150995 0.1292533 -0.5760296 0.0381715 1.0959767 0.038301118 -0.3373783 -0.56714404 -0.13367063 0.5436604 -1.2388836 -0.30937493 0.48415938 0.42839494 -0.18872431 -0.19733377 0.19166236 0.7789597 0.136932 -0.382998 -0.3298557 0.47344768 -0.28556016 0.14304057 0.7381831 0.39210695 0.14274372 0.7005659 -0.2637985 0.4940295 -0.5756362 -0.88490677 -0.76948357 -0.36648643 0.05455462 0.6066241 -0.19940214 -0.13925934 -0.269138 -0.019002963 -0.80014765 0.011258442 -0.51730824 -0.62732893 -0.587793 0.7530377 1.3249509 -0.5253316 0.09808314 -0.26784474 0.114009276 0.1746102 0.60121924 0.57975936 -0.2800353 -0.56018406 0.14363886 -0.74086183 -0.7438405 0.3890798
VWZF 0.7314828 -0.72241277 0.11094961 -0.658468 -0.86896706 -0.8964514 0.067726575 -0.53447676 0.43075132 -0.39174065 -0.6119739 -0.93125397 0.6243539 0.36069214 -0.60592824 0.08216041 -0.43383563 -0.7414014 0.021922743 -0.22617403 -0.5370832 -0.45010513 -0.1626137 0.11035199 0.19603138 -0.12275966 -0.07972024 -0.20741472 -0.03799667 0.85796535 0.22479545 -0.040779475 0.042066917 0.0311408 -0.3165007 0.38190317 -0.05569038 0.6777972 -0.7662602 -0.29778504 -0.44519 -0.6048498 0.13261734 0.28687775 0.24944134 -0.6458267 -0.22384924 0.97362584 1.033472 0.26525074 1.4059666 -0.617631 0.23101999 0.17641702 0.45417103 -0.3426085 0.090287924 0.097641036 0.34864762 -0.327704 -0.5008123 0.90035987 -0.47093004 -0.53869104 1.0433505 -0.50013936 -0.84684837 -0.015450657 -0.3054625 -0.4169916 -0.24184224 -0.4778648 -0.9083271 0.47693786 -1.7968479 -0.44191816 0.19011158 0.99839324 0.4948691 0.19491938 -0.6199893 -0.07851826 0.70045227 0.40993327 -0.8269604 -0.13224174 -0.21500619 -0.42088652 0.072693 -0.14330806 -0.38726526 -0.15358286 -0.5903387 -0.3396402 0.5066692 -0.15053205 -0.048945606 0.14795601 0.31947187 0.47034067
QYPU 0.5477458 -0.22814865 0.7195221 0.9077638 0.41818276 -0.012675367 -0.40710032 0.40846935 -0.5229026 0.6405026 -1.0738183 -0.16863163 0.25536627 0.91247135 -0.4898711 0.60385746 0.19328207 0.14216502 -0.47021374 0.14501576 0.2037341 0.31422904 -0.44198728 0.78612626 -0.58288556 -0.3585061 0.21767314 0.7826945 0.19983892 -0.48291013 -0.27324328 -0.06859995 -0.19042975 -0.2996951 1.1789951 0.21676838 -0.460606 1.307857 -0.17261772 0.17661563 0.47564104 0.41518083 0.22798187 -0.6933296 0.3094074 0.7963518 -0.86589485 0.12856321 -0.11447217 -0.040678136 0.16504546 -0.09372341 -0.13018458 1.3607965 1.2544979 -0.66008383 -0.26125914 -0.8064996 -0.16883807 -0.1168559 0.31666437 -0.63025534 -0.57674426 1.0639669 -0.36865026 -0.29362696 -0.5577507 -0.39145353 0.69208795 0.5900207 -0.78112924 1.1104276 -0.94934934 0.45816645 0.5588091 1.2089242 -0.57951117 0.86137116 -0.22610459 0.41182175 0.45939773 -0.040298764 0.58675504 0.6835031 0.19941501 -0.13676186 -0.09809756 -4.4147397e-05 0.38401285 0.68932605 0.08470918 -0.41020542 0.9855326 -0.47672597 0.24343792 -0.1917516 -0.29475075 -0.4113257 -0.40567327 -0.10649896
XRIA -0.54019886 -0.097367674 0.7114145 0.076302424 1.6577476 0.32874873 0.58787227 0.9697139 -0.34060887 -0.46414876 0.07078633 -0.47160688 0.4546468 -0.077938505 0.7899831 0.12319572 0.022788322 -0.13656607 -0.21641141 0.07844731 0.07380123 0.90268105 0.31508294 -0.57392824 -0.6374406 -0.65154934 0.7475079 -0.7022431 -0.22256692 -0.2579993 0.51501584 -0.089739025 0.9189212 0.49460274 0.23379983 -0.27740744 -0.4126172 0.018534979 -0.6321633 0.38180393 -0.5108669 -1.2290353 0.8368505 0.118745685 -0.09813155 -0.912131 -1.1057701 1.9786162 0.47655493 0.19427182 0.1263045 0.1509204 -0.3093688 -0.6265374 0.3145148 0.37059128 0.8633691 -0.20881508 0.0851055 0.23357761 0.2130828 -0.29045972 0.3434496 0.17427866 -0.3304001 0.43039715 0.33530715 0.24548338 0.5094143 -0.16746221 -0.1147442 -0.29293218 0.003835305 0.4520527 -0.95404583 -0.21384041 -0.11627346 0.5488419 0.5844298 0.05989659 -0.5420606 -0.30959037 -0.13024403 -0.86966664 -0.13171165 -0.048361752 -1.0828403 -0.29288673 0.3252579 -0.2629676 0.042433973 1.4700985 0.42130533 0.21974337 0.15084545 0.30275106 -0.104061365 -0.23192587 1.0797622 0.62555456
VOYB -0.32937068 -0.6719918 -0.740295 -0.92461133 0.45432508 0.54933053 -1.308432 0.09569607 0.74955535 0.09910813 0.059774082 -0.5032339 -0.17325895 0.119142175 -0.058817524 0.715881 0.19281948 0.57473665 0.48911783 0.21203446 0.32280666 0.71561646 -0.41577223 -0.03514286 -0.15601866 -0.592017 -0.18671305 0.31422544 0.13744986 -0.3708577 -0.48614022 -0.65040004 -0.44566673 0.023604004 -0.2980261 0.99790394 0.5855227 -0.89739996 0.089906186 -0.4141612 0.047341015 -0.42922544 0.5757316 -0.2580332 -0.32346934 -0.22581337 -1.2771465 -0.54178995 0.12416872 -0.377268 0.5701413 -0.32694384 0.56735945 0.7980421 -0.6706132 -0.09423338 -0.772311 -0.099883355 0.23796354 -0.48412314 -1.0744842 -0.36959612 -0.37560385 -0.3899872 0.63501096 -0.0876908 -0.48507935 -0.17571399 -0.67235476 0.58107483 0.39348668 0.58649987 1.0725942 0.14996052 -0.29434547 0.008645832 0.59853023 -1.641066 0.07138945 -0.71531916 -0.33916464 -0.11227372 0.95609367 -0.87113434 0.37802276 -0.15567847 -0.2087833 -0.03755793 0.06971757 -0.8796467 -0.29474416 -0.57053596 -0.81925905 0.35329303 -0.87869275 0.25483635 0.9548337 -0.17410426 0.10848588 -0.3340408
TLBF -0.43515483 0.08323225 -0.7310393 0.5254569 -0.57771146 0.37788627 1.0777489 0.4628608 0.5303816 0.10611749 0.81191057 -1.1336429 0.561146 0.0059156497 -0.7809281 -1.2701674 -0.066994466 0.13534386 -0.46796992 -0.64390665 -0.10223462 -0.03960786 -0.7745121 0.30922002 0.2535187 -0.53936577 0.15650788 -0.5001095 0.057858564 -1.0029914 0.50079095 -0.5163314 0.93459547 0.5648726 -0.8641747 0.019143209 -0.25516614 -0.89337087 -0.29974827 1.3189377 1.5372176 -0.03464522 -0.37539658 0.6946298 0.31748676 -1.0601422 0.25956312 -0.10953518 -0.8141783 -0.6832987 -0.6060378 0.35144475 0.4650708 0.96706706 0.98403513 0.43829012 -0.37440777 0.27611986 -0.10441713 -0.6630298 0.56515706 -0.62494147 0.67686373 0.95998967 -1.261204 0.5840387 -0.50679314 0.23619984 0.8695645 0.1874549 -0.16405204 0.1934414 -0.8936686 -0.6895635 -0.119048946 -0.3646662 0.8171876 -0.5671602 -0.0050928816 -0.18126246 -0.14120224 -1.3489486 0.22972003 -0.6769305 0.5999966 0.67401946 -0.61289644 -0.36991256 -0.42650664 0.07390221 0.105026916 0.52195555 0.16760509 0.6141719 -0.70529115 0.48169568 0.58186364 -0.19827335 -1.6711174 -1.1832293
JHTP -0.043827143 -0.053142015 -0.5073285 1.7623172 0.16135268 -0.22569853 1.3410589 -0.63509077 0.5536993 0.29727527 0.9974247 0.27456868 -0.03783215 0.040724576 1.2761354 0.093438745 1.0372065 0.24387486 1.1581707 -0.8782912 0.04980026 -0.5774864 0.51285887 -0.57089627 0.24269176 0.14921339 -0.59339577 -0.81197983 -0.88443786 0.6638989 0.15006036 0.31891298 0.598379 -1.0433018 0.1566656 0.19316524 0.4214449 0.08122527 -0.44692737 -1.5142679 -1.1735198 0.119874455 0.026640667 0.015818631 0.6832737 -0.45667303 0.1447458 -1.197263 -0.11375997 0.6916131 -0.20155561 -0.7323684 -0.11189927 -0.15849411 0.5921278 -0.22451875 0.1207058 1.4300381 0.1827094 -0.3599997 0.7648383 0.7835234 0.5691786 0.17740065 -0.20860057 0.10829399 -0.06583484 0.4961279 -0.69251126 1.0783812 -1.9134495 -0.43476596 -0.5471046 0.17278063 0.6376607 -0.49813482 0.45212284 -0.43356284 -0.16381231 -0.39984635 0.06346105 -0.3069244 0.28278708 -0.13156122 1.3404654 1.0227177 -0.30829558 0.2293751 0.15001206 -0.5105246 0.09491404 0.87400746 -0.36872128 -0.7269031 0.13438475 0.5156762 0.15792024 0.31464 0.35163808 0.4882726
YMLR 0.014457244 -0.027574085 0.33374777 -0.05427279 -0.12505396 -1.2640302 0.4650842 0.53481895 -0.63687676 0.59571636 0.444876 -0.82717973 -1.6231799 0.6504628 0.926761 -0.7242833 -0.7629363 0.065059245 0.48684987 -0.7200902 -0.7661944 0.43849927 0.20201634 0.10441792 0.26674312 -0.11466588 -0.74845695 0.2800569 0.45420125 0.6133408 0.40059382 -0.19176412 0.97193164 -0.18594477 0.63217604 0.8966262 0.5327207 0.107363686 0.63404006 0.17164388 -0.13105397 -0.18120682 -0.97616684 0.3425085 0.3096792 -0.5837756 -0.6453185 -0.18930367 0.12966865 0.1667554 -0.4184201 -0.23019136 -0.96991795 1.0650494 0.42432117 1.0221727 -0.34733403 -0.47722277 -1.1011958 0.13523577 -0.02552839 0.406658 -0.39049682 0.5541446 -0.23516174 0.107849024 1.1013328 -0.042720456 -0.40544546 0.083501 0.7653131 0.039154097 -0.010549223 1.3929423 -0.50091875 -0.72619516 -0.49575898 1.32699 -1.0053625 1.2095425 -0.037217584 -0.91071653 -0.35497764 0.6607957 -0.7120914 0.8497478 0.22994782 -0.62078077 -1.0222272 -0.9771384 0.8886588 -0.49389714 -0.5382396 1.4788432 0.19693244 -0.19978812 0.39541987 -0.31098723 0.74964774 -0.25594327
DLMP -0.33415458 0.42200658 -0.033881303 0.7328899 0.38312498 -0.69142944 0.7246935 -0.3167552 0.032698896 0.46906546 0.6657022 -0.012164259 -0.10629495 -0.5228038 0.36274225 -0.700582 0.6781918 -0.53535575 0.60236996 0.75686634 -0.28079873 0.29584476 -0.2929387 0.95571125 0.15275826 0.2527667 0.42252755 -0.3979259 -0.44668064 0.41948876 -0.3153044 -1.1036805 -0.35691682 -0.27100176 0.5347771 1.1306461 -1.0045255 -0.25784436 -0.031350236 0.2616816 0.19014573 0.23747285 0.54493797 0.87044555 0.8029792 -0.498084 0.37007353 0.1460476 0.35661942 -0.099249795 -0.47694823 -0.59726757 -0.21845 -0.12515523 -0.92405134 -0.3152287 -0.6871807 -0.032632943 -0.40220428 -1.1067673 -0.3219859 0.576195 1.3980731 0.10481784 -0.53867465 0.4233807 -0.6770831 -1.1900845 -0.4521654 0.354943 -0.777712 0.05699971 0.06653517 -0.31748968 0.32166392 0.46358415 -0.74226874 0.2829247 0.8937216 0.39350706 0.26071563 0.47492927 1.2239215 0.5642489 1.065054 0.045807708 0.69229805 0.59905547 0.46825522 0.23156108 -0.6645543 -0.6025333 -0.622371 0.4943032 0.78413856 -0.20903563 -0.8160001 0.27410865 -0.30494663 -0.23327081
LBJH 0.2667143 0.4243866 0.21742131 -0.40704116 0.6138104 -0.061250504 -0.18883179 -0.18155377 0.41069034 0.013380917 0.56466967 -0.11433159 -0.99327415 0.0128831845 0.74748015 0.2565215 -0.15277687 -0.28747517 0.17739011 -0.6591027 0.1971648 1.0309517 0.32947052 -0.277126 -0.03445535 1.1975427 0.60815656 0.2874961 0.3113904 -0.44131845 0.14628576 0.27323955 -0.76953053 0.7236933 1.4412638 0.10866794 0.7691306 0.5977325 0.9704575 1.2024584 0.9018639 -0.25894612 0.41911662 0.11054232 0.7213355 -0.42027807 -0.48010105 0.30566642 -0.044705823 -0.66171247 -0.105185136 -0.5544368 -1.1740886 0.6604332 -0.13136369 0.16427308 -0.3305918 0.061010882 0.045242354 0.04347146 0.30974627 -0.573091 -0.31921723 0.1199913 0.056710456 0.40070927 -0.12618077 -0.7093461 0.18148787 -0.116965435 0.0105304 -0.9773043 0.0015362835 -0.47945634 -0.67924285 0.7524615 0.13195746 0.49057415 0.60141224 0.33333978 -0.46969256 -1.1144997 -0.5714125 -0.731814 -0.07289418 -0.48977783 -0.67218965 -0.24408282 0.69380265 -0.027789466 -0.17704372 0.3430031 1.2422345 -0.10538457 -0.29819924 -0.0042026774 -1.0070972 0.14789344 1.5004041 -0.81428736
SYLK -0.10641064 -1.0324769 -0.090439744 -0.07449261 -0.8092232 0.1764097 0.78181666 1.12854 -0.14978346 0.22094873 0.3331071 0.57784593 -0.13567261 0.05566232 0.40181187 -0.10857745 -0.49268875 -0.15367112 -0.19054724 0.20378175 0.4561478 -0.8461472 0.8410491 0.24640295 0.4420712 -0.16254333 -0.243186 -0.33381483 0.019031089 0.9163598 0.39166427 -0.555146 0.77867293 0.18662603 -1.1849805 -0.3296769 0.16089274 0.16773693 0.93098193 1.0284675 0.4813861 0.5367261 0.16243033 -0.2092133 -1.0574329 0.598462 0.6934422 -0.24227993 0.13129014 -0.2666231 0.2361341 -0.2895258 -0.40087742 0.27067152 -1.3584107 -0.02684355 -0.29719085 0.40955344 -0.048446137 0.8709042 -1.3847624 0.26505435 0.7067487 -0.64711577 -0.20521466 0.050593097 -0.34504166 -0.024272388 -0.54893684 0.25638288 1.3178408 -0.9993916 -0.5705656 -1.0692977 0.6053127 -1.177176 -0.38184297 -0.24671991 0.6386891 -0.24261603 0.67448896 -0.3040064 1.2398798 0.48511124 -1.3920096 -0.1412999 -0.55377114 -0.2857503 -0.4163936 -0.020521197 -1.2238001 -0.94721806 -0.60224783 -0.22225982 -1.0325675 0.9327924 0.5147934 0.31247577 1.0353402 -0.17025048
HFOI -0.52159286 -0.10269345 -0.6738887 0.50208855 -0.46069932 0.75796896 0.51290286 0.59134585 0.15249877 0.37829992 0.4509496 0.16644558 -0.9826127 0.52085584 0.090382546 0.5965714 0.3432841 0.70784086 -0.2536863 -0.5091696 -0.85627705 0.36079234 0.25593874 0.4417811 -0.18500769 1.1320709 -0.5490538 0.18599392 -0.3627099 0.2742026 -0.40595362 0.4548688 -0.19732334 0.40293154 0.69776523 -0.35437676 0.47910005 -1.2645891 -0.3385206 0.8331221 0.9659569 0.28471604 1.4642552 0.041229103 -0.33209348 -0.4164609 -0.32149926 0.13842249 0.018229032 -1.0494106 -0.5840033 -0.30430138 0.20399733 -0.50753033 -1.0960948 0.22849473 -0.13115989 1.2897828 0.47042343 -0.55344456 0.65559626 -0.09019283 -0.12389023 -0.07210813 -0.06301377 0.10819233 0.9144971 -0.090445034 0.23664956 0.4077552 0.4562019 0.062399514 0.55862314 -0.9105434 -0.019552017 -0.11935028 0.18580991 -0.44167313 -0.19499283 -0.22988366 0.068103164 -0.18772984 1.1436316 0.16300227 -1.0685776 1.5025463 -0.2926212 0.7431158 0.16536058 -0.31838423 0.16740027 -0.6707702 0.9928608 -0.12141919 0.3284436 0.7735174 0.8972342 -0.8798184 0.87985796 0.11808827
EBPR -0.1438017 -0.9871382 -0.25467858 -0.17907155 -0.7871984 0.3464387 0.57790804 0.17841461 -0.006908366 -0.7532835 -0.15068063 0.87854314 -0.7653582 -0.64962727 -0.71311116 0.3743568 -0.5540302 1.2392546 -0.15349904 -0.06464652 -1.2809806 -0.76338637 0.6763898 0.41352367 -1.3805459 -0.6098368 -0.4922465 0.5555321 -0.42975137 1.2358598 0.40895623 -0.82738215 -0.23831274 0.17148106 0.66126406 0.02632212 0.6921551 -0.5363663 -0.2792489 -0.5014639 -0.852643 -0.65321946 0.101110324 0.3035307 0.258733 0.17198445 -0.30657685 0.26272276 0.1964002 -0.06391351 0.81579506 -0.23536344 0.8289299 0.49492067 0.14109112 -0.18570082 0.29939768 -0.15404153 0.058572665 -0.415947 -0.6799577 0.26525518 0.7148553 -0.5649552 0.24099615 0.5013558 -0.20765674 -0.39158976 0.10567473 0.19328845 -0.70540375 -0.18539496 0.3675619 -0.60386443 0.23962632 0.7219893 0.23456433 -0.18599547 0.099642456 0.23268475 0.45947576 1.02889 -0.08168996 -0.39940578 0.7300881 -0.61914504 -0.13876387 -0.53214383 -0.25195792 0.697769 0.09817161 0.19323309 -0.38882124 0.051216174 -0.6485155 0.7061388 -0.8052786 0.14297254 0.94120216 0.66362065
VTYH -0.7719328 -1.1785663 -0.74290144 -1.0507421 -0.01897616 -0.29715717 -1.0525337 -0.20297724 0.325714 -0.09467661 0.45436165 -0.001288714 0.550502 -0.5237679 -0.59303606 1.574213 -0.15956911 0.7550239 -1.2733809 0.24387144 1.1052896 0.45512083 0.27189937 0.6089046 0.11880696 -0.040237058 0.40187496 0.5421588 0.34697425 0.2856183 0.55283415 0.9801481 -0.53526473 -0.9536126 0.0762979 0.10134418 0.019061048 -0.85061234 -0.50017637 -0.5044203 -0.7032 0.30926698 0.6871679 -0.10400259 0.4801976 0.59633696 0.618829 -0.2951218 -0.26584417 0.22991279 -0.12827887 0.949082 -0.11743638 -0.018398235 -0.32870248 0.06856708 -0.66653425 -0.722819 0.83422697 0.42930362 0.5696092 0.19053932 -0.029096989 0.090813935 -0.35877937 -0.49760005 -0.6735831 0.792957 -0.8233471 0.04756068 -0.47334146 1.3685361 0.77671915 -0.013558482 -0.3620472 -0.011458294 0.16393305 0.016278591 -0.089394644 -0.9548427 -0.6125288 0.234345 -0.10347943 -0.12736894 -0.7787286 -0.40184444 -0.36569354 1.0053061 -0.10118041 0.43143314 -0.022553185 -1.2770699 0.8461649 0.086149804 1.4848233 -0.901948 0.77009016 0.70383435 -0.13088186 0.28877193
SWUB 0.6337989 0.8648266 -0.4782398 -0.5171053 -0.88004684 -1.2914516 0.2462087 0.36425027 1.1250186 0.14273481 -1.4279376 -0.4168072 1.2581497 0.038002864 0.36480445 0.20158593 -0.050553326 0.27315155 -0.8026062 -0.7610317 0.5926021 0.71629477 0.060737647 0.6824213 0.25276902 -0.7259618 -0.40161353 -0.44902596 -0.31655982 0.31724876 0.8044987 0.5849004 -0.6274141 1.4606677 0.48647547 0.01095359 -1.2139063 -0.19468027 -0.24691312 -0.4504228 0.554156 0.13324974 -0.6724526 -0.10060365 -0.35827303 0.15243927 0.8467019 -0.6088712 -0.7238511 -0.15888482 0.7833478 -0.5167395 0.06696651 0.44330487 -0.06274441 -0.23852837 -0.0870491 0.940295 0.27358025 -0.011121483 -0.29419792 -0.5838667 -0.71840227 -0.5701531 -0.027797068 0.50067043 0.03107936 -0.60654986 -0.28717366 -0.09101135 0.67694616 -1.029015 -0.29058558 0.21256961 0.5836935 0.68975365 -0.19912376 -0.040964346 -0.14007406 -0.33943194 -0.63943255 0.13802329 -0.033861686 0.11812491 -0.4530915 0.90389526 0.7096871 0.38843712 -0.08614604 0.87219274 -0.31506622 -0.9145696 -1.1074365 -0.2406022 0.78579897 0.6038148 -0.4265372 -0.035072036 -0.3840852 -0.3913765
DQKB -0.031037772 0.20620833 -0.2769144 -1.0725589 -0.29584342 0.71464556 -0.82560474 -0.6518372 -0.66606337 0.33082882 0.07819357 -0.6108019 -0.9696928 -0.7103141 0.44437805 0.46357632 0.27883035 0.06349556 -0.10427979 0.34401605 -0.2824368 -0.46296448 0.41833326 -0.58839965 0.02629783 -0.09833143 -1.2052394 0.13321812 -0.5843043 -0.4754165 0.25161397 -0.12830538 0.23100919 -0.8330356 1.114897 0.0473129 0.6634188 -0.6988357 -0.3801817 0.79006445 0.24472712 0.96388054 0.1970222 0.20457295 -0.06822563 0.32219335 -0.21290386 0.7251431 0.46926263 -0.15377598 0.42490715 -0.20776542 1.4165102 -0.2726644 -0.6906378 0.022679575 0.65332127 0.24393937 -0.18303758 -1.118112 -0.26157448 1.1355485 0.2796065 -1.405146 -0.9176678 0.7360253 0.26602158 0.12694678 0.010124499 -0.5789256 -0.58812475 0.116580166 -0.8636377 0.3155498 0.14588532 -0.64825165 -0.08000612 -0.2917274 -0.4193734 0.2920227 -0.05581246 0.22962958 -1.0515751 -0.5652694 -0.6648596 -1.2584779 -0.3806624 -0.2439533 -0.02396684 0.0386679 -0.4554295 -1.044939 -1.1354584 -0.8551968 -0.48781165 0.43464234 -0.10169763 1.1299217 -0.12678568 -0.43382162
AMYF 0.684957 -0.68328524 0.17416286 -1.6017559 -0.37969267 -0.39808849 0.8223399 -0.82011366 0.7008126 1.0782442 0.055031314 -0.35618114 -0.13785113 0.41043454 -0.37984952 -0.12446976 -0.15009652 0.16308087 -0.019758377 -0.59838593 0.42303464 -0.39006346 0.33067805 1.1738992 0.23946953 0.23756677 1.0286884 -0.57929194 0.5684944 -0.3197303 -0.46194288 0.020251483 0.44061896 1.0349277 -0.83838946 -0.37741348 0.14283653 0.1481118 -0.01840626 -0.4436144 -0.43668148 -0.1234415 0.2907873 0.965903 1.0092702 0.97444123 0.43453306 0.09583309 -0.7544744 -0.71729887 0.18536268 0.22905241 -0.08408887 -0.37168735 -0.30016 0.8743988 0.041611977 -0.19531608 0.23056729 0.29790094 0.26547828 -0.21274993 0.28709307 0.027760074 -0.07787315 -0.70452374 -0.29970026 -0.45652097 0.41373956 0.61750287 -0.15669776 -0.882475 0.31100604 0.12155539 0.13688357 0.1141632 0.680778 0.17104042 -0.4080302 -1.2981603 -0.22305022 -0.80513483 0.91798323 -0.28906775 -0.64636683 0.1706427 0.36347398 -0.40374163 -0.26976004 0.60557693 0.28007486 -0.27279165 0.04089901 0.30016074 0.11486087 -0.096093945 -0.70278215 -0.08280432 1.2995993 -0.059155457
ITJV 0.8507153 -0.7094697 1.1253228 0.50120884 -0.17625815 -0.2511588 0.6067793 0.43853706 -0.4164661 -0.7105229 -0.35466567 0.26525995 1.1546668 0.3545306 -0.17544927 0.92298186 0.24763656 0.25103006 0.6103774 0.628779 -0.14337067 0.22593807 -0.7641351 -0.456376 0.10429569 -1.4986789 -0.30384344 0.40848377 -0.5689913 -0.7971476 -0.028915022 -0.30368647 -0.23773737 1.1123145 -0.410967 0.23976587 0.26109773 -0.039092254 0.9517562 0.10754288 0.30211267 -0.5926593 -0.8779358 -0.40582126 0.51284415 0.011520913 -0.3694474 -0.66230094 0.10624906 0.30567697 -0.45023748 0.516319 1.023183 0.096876696 0.77082145 0.22515178 0.13155271 0.36445746 0.44280463 0.298092 0.29901618 0.17080618 0.9821561 -0.08157251 -0.18756217 -0.30537525 -0.8576947 -0.92795557 -0.23912872 0.9434634 -0.101224326 0.5086043 0.40918863 -0.7178599 0.0674547 0.07792319 -0.14892678 0.41653553 -1.0100259 -0.004785052 -1.319631 -0.2584781 -0.510163 -0.40039128 0.018105548 0.3978347 0.8546551 -0.035185255 -0.4714219 0.38582772 0.1649506 -0.29383028 0.028441615 0.2169438 0.39574137 0.65323216 0.07830536 0.095260724 0.17389092 -0.5273366
ANLQ 0.5755866 -0.25874284 0.7932044 0.8867364 0.6683642 -0.03529074 -0.37014568 0.2318167 -0.6037668 0.54039544 -0.94873214 -0.56974643 0.31921217 0.84463096 -0.4992321 0.4278208 0.2003764 0.1577146 -0.27320904 0.22251977 0.38418058 0.05393491 -0.6375152 0.62175024 -0.6205995 -0.31240866 0.006429901 0.6706456 0.15042414 -0.41810888 -0.283208 -0.13999362 -0.3482104 -0.35966408 1.1407739 0.40968668 -0.37665734 1.2827754 -0.031128274 0.13628674 0.44475028 0.15401283 -0.095632866 -0.58346885 0.38839597 0.91561306 -0.7940568 0.29469955 0.0968844 0.23866317 0.11219265 -0.049565934 -0.42701468 1.3810517 1.2400339 -0.58698416 -0.30859444 -0.92574626 -0.5075437 0.062225405 0.33057642 -0.49509835 -0.48514968 0.93710536 -0.26866734 -0.40903834 -0.6376243 -0.29741207 0.70561504 0.6273107 -0.59804183 1.063243 -1.1648915 0.5970755 0.375728 1.0236955 -0.6684955 0.6877112 -0.51400334 0.3885926 0.47208455 -0.120310284 0.8850918 0.75566554 0.32806987 0.054880906 -0.32095197 0.1281036 0.37045273 0.48308378 -0.09789316 -0.06979898 0.91806346 -0.69283646 0.33096388 0.076569155 -0.15934302 -0.45979303 -0.7696493 -0.08186072
HVTI -0.34298944 -0.5412162 -0.5260421 -0.60128605 -0.53099126 -0.16354449 -0.1440375 -0.21368298 0.37427312 0.13391548 -0.16338626 -0.7087516 0.18228275 0.1480792 -0.77228713 0.2506209 -0.75307304 0.23926182 -0.66996115 -0.65838003 0.018610962 0.39365005 0.5529176 -0.898236 -0.66560274 -0.24164523 -0.8036151 -0.30529124 -0.4682232 -0.967175 0.40794745 1.2499787 -0.5713014 0.79133993 0.02939771 -0.87475044 -0.06962932 -0.85555595 -0.24435066 0.6493796 1.0665107 -0.18885034 -0.26840603 -0.37221417 -0.2574514 -1.3695985 -0.13960963 0.33754012 -0.9650875 -1.3990175 -0.52910835 0.038955115 -0.13081838 -0.54054284 0.33890113 -0.79733014 -0.074218884 0.072283335 1.0442227 0.11825784 0.8426697 0.119002014 -0.047049955 0.8837109 0.7036317 0.14593676 0.24464054 0.05544052 -0.5708283 0.119533285 -0.53131866 0.37772077 1.1514463 -1.080966 0.72861594 -0.26649204 0.8550192 0.17584679 0.8490162 0.35482034 0.021083618 -0.47032982 0.42808762 -0.3974093 -0.4855336 -0.14005381 -0.3396975 -0.48413396 -0.098415986 0.18954936 1.2517629 0.99303025 0.13193643 0.30478388 -0.27158985 -0.044978995 0.09269422 -0.78905785 0.76682043 -1.1022576
VRDS 0.09811647 -0.4390553 -0.41664383 0.5728 -0.64565194 -0.12195218 0.5170044 -0.22879042 0.5613717 0.5677518 -1.0281339 0.8968824 1.1941203 0.02683037 0.2330583 -0.24303779 0.30681354 0.87472117 0.08198322 -0.21095602 -0.025707776 -1.1101643 -0.036480293 -0.36983758 0.05328002 0.9234875 0.045297336 -0.03428504 -0.654452 0.087868445 -0.5016805 -0.09901382 -0.9339347 -0.4890658 0.33578882 0.17240267 -0.87104106 -0.3799613 -0.2527799 -0.73695695 0.6102294 -0.52618307 0.19192371 0.66509145 -0.2796666 -0.0027906578 0.8289292 0.79153556 -0.7520035 -0.0637491 -0.34579906 -0.5628159 -0.20509891 -0.44338387 -0.19047084 0.6203833 0.20582445 0.9642675 0.685351 -0.75677115 -0.1773923 -0.9332635 1.4093342 -0.27678865 -0.089008264 -0.46902606 0.19491214 0.39223775 -0.49246332 -0.36903375 -0.60725605 0.25325742 -1.2843453 -0.4399244 0.29810578 -0.1745564 0.48970845 0.8451657 -0.6476435 -1.7300924 0.092907146 -0.20543098 1.0452193 0.37541032 -0.2706968 0.39426133 -1.6673249 -0.60194296 -0.32597315 -0.51465577 -0.25115588 0.028600773 0.080154985 0.3184685 0.3635892 -0.10297528 1.1025304 -0.44301465 -0.016428856 0.20643024
KTHB -0.22992794 -0.7107968 -0.27588093 0.09177285 -0.55493754 -0.6012524 -0.8243425 0.71760416 -1.5173658 -0.3089006 -0.8865019 -0.89305437 0.47970656 0.07639194 -0.4056342 -0.10227221 -0.03957387 0.16676724 0.19451329 0.09842786 -0.6320842 -0.5185331 -0.178594 -1.0112507 -0.08949375 0.5990235 1.069834 -0.38698104 -0.2398906 0.41322878 -0.12203189 0.036618296 0.240113 0.12538972 -1.3432927 -0.16911922 0.8409299 0.4429665 -0.40305284 -0.051964566 0.28502995 0.80083597 0.9893335 -0.1703733 -0.394178 0.5588596 -1.1497188 0.52998775 0.8792032 0.3448748 -0.08501364 -0.7939354 0.86244047 0.54481536 -0.5698892 0.5734597 -0.22398251 -0.63953906 0.16953965 0.6895593 0.46020943 0.06997006 -0.26461324 0.13049248 0.28259426 0.7446653 0.36106676 -0.23440228 -0.5389717 -0.031480875 0.6017997 1.26561 0.07842422 0.6515623 -0.8529861 0.6009195 0.522799 0.6625578 -0.13394761 -0.44025686 -0.265547 -0.61490214 0.83274007 0.38364455 0.21615094 0.646356 -0.60663635 -0.8200729 -0.18789938 0.10120775 0.34583732 -0.6133469 0.076244794 0.09019075 -1.208174 -0.71829534 -0.65209883 -0.15207104 0.23602192 -0.12698619
WFRB 0.8208272 -0.7477562 0.23459883 -0.61283153 -0.74335575 -0.60903084 -0.063048586 -0.53483236 0.36850545 -0.1284996 -0.61231655 -0.61528885 0.5630312 0.26612788 -0.47648963 -0.11410545 -0.42859718 -0.7258444 0.06580619 -0.3082314 -0.66959625 -0.5733218 -0.0035134852 -0.046659492 0.15033036 -0.103800915 0.10874862 -0.042433813 0.018867245 0.8237809 -7.9988524e-05 -0.2234024 -0.19358364 0.30982247 -0.2923884 0.6259461 -0.19619021 0.73253644 -0.82125837 -0.2943552 -0.5992942 -0.70828474 0.36000535 0.481324 0.19716504 -0.65258706 -0.15037948 0.9695604 0.89606273 0.10870098 1.4477289 -0.70853287 0.18601626 0.22209978 0.42521963 -0.48881757 0.075387865 -0.07041243 0.38142824 -0.6322642 -0.47385475 0.8540553 -0.51276785 -0.5245063 0.8571201 -0.6280773 -0.7045925 -0.08036145 -0.13435194 -0.40480343 -0.15341146 -0.4954966 -0.77279043 0.37930912 -1.7102275 -0.36759943 0.22642808 0.9844214 0.579611 -0.016710008 -0.6972061 -0.0044707567 0.600079 0.59561914 -0.82957065 -0.32449374 -0.12632343 -0.3643982 0.12002222 -0.24165854 -0.3427356 -0.13881776 -0.65472215 -0.15765071 0.38013834 -0.3317905 -0.28241098 0.026944293 0.121043116 0.32830003
LNZD -1.0780106 0.02469154 -0.24571383 0.8924527 0.6207802 0.15311311 -0.40389347 -0.19669916 0.15611483 -1.0097497 1.0577297 -0.37322462 -0.18836652 -0.35090238 -0.94843787 0.16613308 0.53276664 0.25953203 0.3941739 0.23485088 0.36360875 -0.55584174 -0.55982023 -0.79991704 0.45680913 -0.17796218 0.007192368 0.08485907 0.37758118 0.30183077 0.28178236 -0.93885636 -0.65247935 0.16148607 -0.030928569 0.7128564 0.03726044 -0.14249477 -0.26148564 -0.15650286 -0.22750795 0.13436633 -1.2965685 -0.064959 -0.19911055 -0.65301776 -0.3022522 -0.035239313 -0.03789141 1.1953864 -0.16723983 -0.26424247 -0.11092226 0.36612135 -0.8259266 0.89639753 0.024181228 0.32312226 0.76141524 0.5498005 -0.31182042 0.6621536 -0.87566787 -1.198875 0.0644256 -0.028079705 0.5616482 -0.4540945 0.067720175 0.6781181 0.5282899 -0.18463396 0.101488374 0.4528828 -0.7922525 0.08313562 -0.9147988 -0.20441554 0.7944723 0.109579995 0.27201876 0.12626922 0.6666147 -0.3114012 -0.25223932 -0.40187556 0.12989713 0.34598207 0.25267398 -0.9964076 0.11043466 1.2315152 -0.16415812 -1.0635014 0.20209178 0.18225119 -0.98371893 0.013237875 -0.34934908 0.07703119
OTKW 0.38660708 -1.0504014 -0.09781782 -1.549291 -0.42967188 -0.3272309 0.8284918 -0.6853823 0.7852574 1.1600853 0.22004229 -0.2953944 -0.03676059 0.34817275 -0.64079446 -0.1803955 -0.27456427 0.14838882 -0.197618 -0.5466019 0.40006527 -0.58786076 0.38461038 1.2912976 0.10085328 0.26200747 1.1417931 -0.66468984 0.5539063 -0.19607818 -0.41755882 -0.074047185 0.60158926 0.8636603 -0.8939545 -0.425007 0.12640913 0.47376302 -0.09237106 -0.20901181 -0.28988105 -0.055653576 0.2713213 0.9593258 1.0690031 0.96318763 0.31092742 0.16803932 -0.67274296 -0.9010268 0.59387314 0.29574278 -0.12721199 -0.2639633 -0.35467193 1.0145282 0.19127437 -0.12005249 0.2587812 0.452973 0.12659767 -0.4181941 0.28128365 0.15270689 0.075182505 -0.45774385 -0.3281482 -0.6446218 0.49647233 0.32263237 -0.09817145 -0.94850385 0.36318445 -0.016478548 0.1371289 0.28528693 0.5783724 0.07527192 -0.20653984 -1.2632982 -0.32613876 -0.8140824 0.80073494 -0.18750378 -0.60593545 0.04442126 0.42581913 -0.69927776 -0.2666934 0.4540552 0.036818646 -0.20784031 0.03721674 0.12601486 -0.14400782 -0.08401052 -0.70734394 0.010642023 1.114216 -0.07307049
FDLW 0.08980744 0.0017723042 -0.13482632 1.1393025 -0.19542637 0.00551124 0.7543966 -0.18634392 1.013004 0.43635556 0.6019863 -0.5054112 -0.04953953 -0.7248921 -0.42338297 0.7941822 -0.43296316 0.4863066 -0.9579899 0.57325 -0.1786171 -0.6296694 0.29896542 -0.8357955 0.82216185 0.40375665 0.38888502 0.45765144 0.7347133 0.015268425 0.85198265 0.6214051 -0.3147474 0.39543635 0.6687126 0.89827174 -0.24220334 1.3885628 0.3853812 0.11814849 0.8774498 -0.44089344 -0.4747605 0.5168479 0.54294854 1.1555017 -0.67838544 1.3602474 -0.26891658 0.40058967 0.43800926 0.48632863 -0.16231462 0.35973772 -0.43098173 -0.41918632 -0.026253613 0.32175526 -0.080992654 0.8424848 0.10877519 -0.43495408 0.78189963 -0.54942286 0.62532085 0.3127209 -0.29867426 -0.7100486 1.2384272 0.15410839 0.5371178 -0.9252358 -0.5171206 0.18579745 -0.47696555 1.1866894 -0.14883117 0.89959764 -0.20484887 1.178119 -0.31843072 0.23283641 -1.0571079 -0.13071088 0.9033284 -0.5312419 -0.2928748 -0.23537147 0.5507548 1.0180826 0.98737127 0.28105894 0.39459252 1.2193967 -0.0015648635 0.3479136 0.96634704 -0.09507897 -0.34999824 0.22206019
FRWT -0.20395453 -0.37123147 -0.78967994 -1.2272388 0.5476049 0.27259073 -1.2838447 0.2245891 0.7234376 0.16432147 0.13763279 -0.53411484 -0.11795859 0.14734523 0.045353144 0.70641786 -0.0128932325 0.6798092 0.52817404 0.06867192 0.42559454 0.6713621 -0.41703728 -0.065461695 -0.18941613 -0.73387 -0.31059343 0.13052253 0.1129948 -0.46562508 -0.59217685 -0.6462492 -0.25687546 0.2337139 -0.37126276 0.798145 0.39606923 -0.8683059 0.012174302 -0.30081633 0.08848155 -0.44639808 0.64654404 0.053520493 -0.20168257 -0.19792794 -1.1411 -0.43523395 0.08096842 -0.4420644 0.52546865 -0.3167834 0.4753084 0.7550707 -0.57655025 0.13033514 -0.44845593 -0.093553565 0.05492007 -0.43033725 -1.1688513 -0.3828258 -0.4914883 -0.5449254 0.44905326 -0.07623874 -0.46388665 0.13719966 -0.7701396 0.46666807 0.4017656 0.72836477 0.92147785 0.046845086 -0.13772415 0.006772254 0.70904577 -1.4378588 0.13774732 -0.6474267 -0.4351708 -0.1699311 0.81773704 -0.9499454 0.19831195 -0.18487418 -0.10397571 -0.08378914 0.041662317 -0.79840714 -0.22531247 -0.49627 -1.0889143 0.30737224 -0.9005356 0.23457819 0.98428136 -0.15677898 0.15792315 -0.34913072
SAVQ 0.81994706 0.7971418 0.26472613 0.32679313 -0.15694526 -0.6460629 0.6606934 -0.30562776 -0.47624385 -0.5372532 -0.90695566 0.06865845 0.4897989 0.09152443 0.024489556 0.82400763 1.0622495 0.9816538 0.51522374 -0.5112558 0.624321 -0.204642 0.6718942 1.2785585 -0.057319306 -0.23819655 0.8635544 0.25276208 -1.2230234 0.061424796 0.30696115 -0.6157987 0.588647 0.19502133 -0.18334374 -0.7768553 0.38630912 0.12302714 0.37097815 -0.8826294 -0.1598422 -0.1296024 0.18123943 -0.2182333 -0.9128832 0.3527097 -0.3923504 0.066690765 0.33768976 -0.07303444 -0.23135613 -0.06669256 0.31173098 -1.1987795 -0.55927104 -0.18034945 -0.35906404 0.19094053 0.11248522 0.40660688 -0.5643553 0.17595273 -0.73376924 0.40148664 -0.39338997 0.20969567 0.16413309 0.12044855 0.45442384 -0.48488444 -0.07987217 0.2751914 -1.2591302 0.94513375 0.013423807 0.27344233 0.33968657 1.0701549 -0.76620305 -0.08415455 -0.46903187 0.50619227 0.66144496 -0.4537871 -0.2591708 0.52305776 -0.3482438 -0.100416325 -0.8685793 0.39918336 0.1835435 -0.29438078 0.6275932 0.1809282 0.3683374 -0.30873615 0.11032713 0.47683066 0.4747827 -0.8582521
PFQA -0.97083026 -0.88725054 -0.85734487 -0.88807625 -0.037258185 -0.5094886 -1.1556652 -0.33384132 0.1913553 0.09715054 0.31388107 -0.19140671 0.64316094 -0.40757498 -0.59740734 1.6657839 0.055699244 0.77793795 -1.2119334 0.46512988 0.92730623 0.5627562 -0.06235456 0.43861586 0.42823306 0.048939094 0.560902 0.30535558 0.68223083 0.20095803 0.80808115 0.87994134 -0.4661059 -1.0342053 0.11957704 0.094875075 -0.13297096 -0.8077273 -0.31039044 -0.5543901 -0.7964563 0.4490888 0.6814182 0.15078783 0.71969455 0.5717602 0.628247 -0.31568342 -0.31534293 0.4874149 -0.12393759 0.91584796 0.027745998 -0.17442249 -0.47783434 0.42428496 -0.68148446 -0.7447054 0.7656163 0.36560142 0.6228561 0.26370475 -0.13572736 0.07542193 -0.102180496 -0.30075336 -0.762757 0.6381161 -0.92529476 0.3306247 -0.35887176 1.4419649 0.9096862 0.20023845 -0.32615218 -0.20885603 0.17576636 0.21855414 0.051288314 -0.64920366 -0.83703154 0.35608882 -0.2330841 -0.31029704 -0.47352275 -0.35808393 -0.45770064 0.78344816 0.1309172 0.600427 -0.19262885 -1.0410957 0.7512527 0.18226926 1.523765 -0.98476416 0.9365155 0.87628585 -0.26703602 0.19755541
GOLQ 0.4742235 0.9171961 -0.33286935 -0.42154905 -0.580677 -1.2606641 0.27593124 0.25056264 1.0809202 0.026241807 -1.4054954 -0.2499862 1.3182056 0.20859624 0.37725616 0.24991661 0.03238661 0.22575264 -0.9104609 -0.7859713 0.76123065 0.81794244 0.19344266 0.59250546 0.33594579 -0.69509184 -0.3345014 -0.4015471 -0.4216525 0.12833829 0.737573 0.4553117 -0.65213567 1.2726477 0.30071944 0.031037942 -1.2792232 -0.06823636 -0.08667684 -0.2204934 0.7903983 0.12346499 -0.7521445 -0.18797034 -0.3261758 0.12874188 0.93106395 -0.55876356 -0.73182374 -0.16242829 0.8246062 -0.47576702 0.13678986 0.57540715 -0.20324083 -0.27517527 -0.21582092 0.7432069 0.28963554 0.031372573 -0.22351599 -0.49819717 -0.718458 -0.56400925 -0.16175409 0.4626713 -0.10899531 -0.90005606 -0.15519746 -0.24615468 0.67744845 -1.1161224 -0.06497096 0.14929205 0.4427563 0.59096175 -0.023704935 0.10280664 0.10224632 -0.31231144 -0.56751406 -0.0134839965 -0.055354282 0.025967605 -0.5374213 0.8642489 0.8542553 0.4106254 -0.1251521 0.7465743 -0.28421402 -0.8383306 -0.86949426 -0.22594956 0.7317746 0.44467458 -0.33163992 0.007716888 -0.45202172 -0.34843165
PNMC -0.15747026 -1.0349325 -0.36176997 0.5929575 1.0417966 0.124806166 0.6803252 -0.0035272085 0.6826625 -0.035920355 0.19018234 0.62676394 0.34944656 0.078971654 0.06352091 -0.4386394 0.1926508 0.06426368 1.0664942 1.2103002 -0.35325444 0.12058563 -0.909655 -0.15819508 0.24819209 -0.14928468 -0.0985955 -0.59224117 -0.24357595 -0.27135813 -0.6439221 -0.38441986 0.7582635 -0.45261544 0.09666635 -0.6623655 0.1931019 -1.3335747 0.113126814 -0.18650451 -1.0079472 -0.050530374 -0.283037 -0.93840736 -1.0728519 -0.27030918 0.41123334 -0.07991275 0.26673377 -0.34790006 -0.5685675 0.77086025 -0.6702323 0.011671551 0.07913535 0.52914125 -0.024010027 -1.8765411 1.3401463 0.41728607 -0.25176668 0.047071498 -0.46432334 -0.58199775 1.1099719 -0.39326736 0.4361031 -0.2971534 -0.16409758 0.101283744 0.33872598 -1.3564689 -0.59524804 -0.09886329 0.5211074 0.10920885 -0.07154189 -0.61319613 0.24295288 -1.009603 0.04692156 0.025474826 -0.44813105 -0.0008397522 -0.7906349 -0.618611 -0.4511998 0.28726068 -0.22042878 0.0680376 -0.019948855 0.81685936 -0.19082132 -0.010563818 0.89870137 1.0178957 0.19676162 1.0384151 -0.2730929 -1.0418212
ZUDN 0.5923236 -0.99594986 -0.4951261 0.102815025 -0.34362012 0.1969744 -0.6387723 0.40649056 -0.8198592 0.0032745847 -1.0716974 0.20047611 -1.3897951 0.31665474 0.8750388 -0.55819345 -0.05614146 0.9771325 -0.34848183 -0.3062441 -0.4251701 -1.2472912 0.09438538 0.5743146 -0.12226268 0.32876223 -0.3916712 0.4011103 -0.7365485 0.07288377 0.072013885 0.57506955 -0.43888664 -0.14695434 -0.007005848 0.3629187 0.05918173 -0.110503584 -1.0857784 -0.28198355 0.5389017 0.73369074 -0.22382098 -0.057962235 1.4041437 0.1385502 0.25863886 -0.14981733 1.1979109 -0.09242068 -0.71920085 -0.54465014 0.81054467 -0.064425044 0.24708658 0.3998148 0.012905047 -0.22661126 -0.6011636 0.55202925 0.094847366 -0.6798664 0.6947297 -0.24515618 0.24406505 -0.18529956 -0.297271 0.4020373 -0.28974333 -0.27958897 -0.48725614 0.3157305 -0.29162666 0.47716114 0.13222563 0.5202763 -0.76078445 0.9751975 -0.42173097 -0.28769943 -0.62338823 -0.67516273 -0.5655793 1.3268936 0.09173733 -0.058989536 -1.3913459 0.75956976 0.91526145 0.006899459 -0.82808405 -0.3030603 0.15129003 -1.3211553 0.22571479 0.7142498 -0.083738744 -0.20847355 0.4928856 0.5981627
GDRK 0.29174426 -0.5902076 -0.0072767013 0.015861724 -0.019000616 -0.785831 0.8605449 -0.108348876 -0.2553202 0.4242733 0.048889603 1.2264423 0.08897373 -0.09705165 0.02446703 -0.17189927 0.27930376 -0.060000885 0.08057741 0.760592 0.07286187 0.59765 0.105857134 -0.05287292 0.20063737 1.0702249 -0.80949026 -0.66610664 1.3839868 -0.115351334 0.083018504 -0.34471992 0.57967454 -0.41969252 -0.5747173 0.2892361 -0.23955067 -0.92108136 0.051763937 0.31822473 -0.82752365 0.276661 -0.15775277 0.40783545 0.85406166 0.037097268 -0.29529253 -0.3528825 0.29473236 0.40717873 1.4622786 0.39339134 0.16037498 -0.65556157 -0.3955006 -0.4364291 1.0589576 -0.09425771 -1.0933261 0.095243104 -0.5562439 0.038899973 0.584019 -1.1957417 0.72108513 0.94772947 0.5905743 -0.03344924 0.50027376 1.4353696 -0.7714109 -0.5440056 0.028645508 0.25703534 -0.0058652386 -1.1367332 -0.04801333 -0.15247864 0.41608208 0.9591092 -0.3808367 0.9344651 -0.2918395 -0.59808326 0.14138389 1.4271446 0.22091663 -1.018619 0.032365892 0.027715955 -0.12162252 -0.6686489 0.11830952 -1.2117697 -0.33466378 0.6398728 0.51742506 -1.0293401 -0.043205656 -0.34741545
THOI 0.803054 0.06000446 -0.72556186 -0.35139647 0.12987295 -0.14854741 -0.48112658 -0.07706098 0.92903614 1.4599277 0.6886324 0.4663339 -0.3084733 0.10612417 -0.17812076 -0.27948532 -0.25620842 0.6274464 1.6289215 -0.84412897 0.07821815 1.5131476 -1.2050142 0.20413403 -0.69700915 0.22580491 -0.663771 -1.1934042 0.42035264 -0.0797768 -0.011229276 -1.0354753 -0.78167194 0.13693377 0.022277487 0.29222775 -0.5072847 0.51884687 -0.9948942 -0.33982483 -0.26996338 0.26979196 -0.64646006 -0.41274017 -0.16439937 -0.7745209 0.06930258 0.23876555 -0.7334019 -0.06014022 -0.29726404 -0.19913675 1.3773831 -0.3499225 0.6858534 -0.096718736 -0.049767986 0.40109193 0.3556494 -0.37030044 0.014931137 -0.20052695 0.07893068 1.8960185 -0.68716043 0.72768277 0.864869 -0.46604848 -1.4395441 0.09368253 -0.37933576 -0.48005283 0.72210836 0.52498114 -0.3844788 0.99805933 0.6019066 -0.0938825 0.7145702 -0.96192515 -0.3244755 0.5917741 0.27667114 -0.8598026 -0.3643204 0.80360866 -0.1790776 -0.409207 0.34402794 0.00019977294 0.13871174 1.2665931 0.24244042 -0.29219854 -0.17545466 -0.37535655 -0.18884827 0.29179224 -1.0583661 0.8010601
ERAJ -0.15134713 0.015211414 -0.29739353 1.8837216 0.35190317 -0.11730463 1.3862686 -0.6607942 0.49261263 0.36577415 1.02752 0.32159287 -0.34289095 0.048147433 1.0665677 -0.09515358 0.8827377 0.2756567 1.2623488 -0.75820714 0.08117668 -0.260999 0.26968905 -0.77813786 0.4548626 0.14403102 -0.32729208 -0.84598696 -0.884666 0.6896719 0.17054115 0.12144734 0.4186271 -1.0206767 0.02649094 0.17871213 0.46965453 -0.070191376 -0.6040554 -1.4516287 -1.3695238 0.17909229 -0.14816391 0.106190674 0.2694246 -0.35167813 0.040092085 -0.859608 -0.23548944 0.6047791 -0.1599417 -0.6486033 -0.12572846 -0.09367203 0.487381 -0.11323049 -0.07311134 1.3017937 0.26018873 -0.11827083 0.5081124 0.58080024 0.7627707 0.06764197 -0.27695054 0.103466995 -0.054683387 0.16947575 -0.52397186 0.97023433 -1.8020334 -0.302207 -0.4096923 0.30877346 0.9130251 -0.28952944 0.36907452 -0.64101416 -0.088819884 -0.41071147 0.42961606 -0.2274081 0.45612052 0.21388511 1.2733238 0.76968145 -0.5496711 0.061145067 0.09076238 -0.44555464 0.2840627 0.8275839 -0.22708051 -0.72217226 0.041763183 0.7927328 0.32759047 0.06326415 0.19985314 0.35792089
ZARM -0.63559103 -0.19007698 -0.13843232 0.7374301 0.45849746 0.0140163945 -0.5440561 -0.8490947 0.49968368 0.44233552 -0.34920552 -0.037648592 0.7521196 -0.27405092 0.12725149 -0.5892398 -0.13707326 -0.067572914 0.9429571 -0.90702754 -0.08558112 -0.2793968 0.33660063 -0.20671055 -0.18482918 -0.67648095 1.4595635 0.6410989 -0.06664586 -0.40036958 0.35356513 0.9102284 0.77479726 0.086030275 0.46619633 1.0815786 -0.121120036 0.35758758 -0.52684593 -0.09225476 0.14581506 -0.25686762 0.25041866 -0.21753645 -0.77056783 0.130954 -0.009780742 0.09816915 -0.30645397 -0.6207863 -0.31870174 0.38233265 -0.13423434 -0.19613446 0.28030822 0.96946317 -1.0393851 -0.18611604 -0.32507688 0.4168351 -0.44794172 -0.3010167 0.08856828 0.24608599 -0.5609969 -0.34011427 -0.13204868 0.54546946 0.2893901 0.49051958 0.6028027 -0.124418214 0.16535299 0.92481846 0.5714775 0.8451376 -0.7687719 0.2638573 0.19800471 -0.57992035 0.6820408 0.1216687 0.26732984 0.5061775 -0.0030074622 0.008251785 0.07402575 -1.050965 -0.5293208 -0.17320254 -0.5810733 -0.6264699 0.006331962 -0.3353584 0.03872486 0.70232594 0.87546223 -0.14501242 0.020929791 -0.8221137
JMWV -1.100996 0.54775584 -0.47846773 -0.10628096 0.87171996 0.07855809 0.06715592 0.71201825 -0.3341414 0.22052638 0.37813845 0.5654482 0.5355247 -0.26918215 -0.15330519 -0.14668895 0.25649065 -0.34960377 -0.11003051 -0.023727806 0.8697502 -0.2736835 -1.3685007 -0.60219157 -0.19468832 -0.13274764 0.02335198 0.22072981 -0.036316335 -0.81552356 -0.43196943 -0.20106143 -0.18645129 0.2704322 -0.23377141 1.1878828 -0.28071523 -1.2861758 0.40175268 -0.13540804 0.41399825 -0.042617902 0.0005391312 0.70527583 0.5029397 -0.3856822 0.77575576 0.9137533 0.055204775 0.681087 -1.4687544 -0.67797804 0.5224606 0.11168804 0.4176504 1.0559874 0.58208853 0.1920275 0.68289626 0.06423116 -0.10638436 0.64032817 1.5413728 -0.1853129 -0.41469583 0.39222676 -0.5313798 -0.7980641 -0.1656669 -0.15376863 0.00015704843 -0.5857513 0.3149219 -0.2233481 0.71479297 -0.69630086 0.09066711 -0.24486832 0.34801987 -0.53826237 0.6479898 -0.4106576 0.18869103 -0.034312863 -1.2356433 -0.5135873 0.25272533 0.08176415 -0.2395691 0.49295092 0.5425791 0.0072545735 -0.5167899 -0.42320386 0.24067605 -0.4970533 -0.13588594 0.118117735 0.7392662 1.2683727
VTQA 1.1296653 -0.020457478 0.5140788 0.36322248 -0.27677053 0.6116823 -0.95397526 0.16837552 0.28145736 0.34741676 -0.2322507 -0.6917648 -0.67216045 0.33820307 0.06610103 -0.44766203 -0.82254773 -0.664875 -0.78741467 0.18736032 0.6318891 0.7012238 -0.20469007 -0.037994467 -0.60683924 0.032481525 0.08651962 0.3219835 0.26093024 -0.050120294 0.14257205 -0.28013286 -0.31016594 0.5173265 0.5591082 0.7287553 0.288192 -0.76325446 1.18197 -0.7283984 -0.86688167 -0.27933475 0.5068067 -0.5556807 0.0463509 -0.4996031 -0.09178944 0.1653239 0.029848231 0.04313844 -0.6091537 0.14348808 -0.21369216 -0.89996064 -0.46793383 -0.981887 -1.3827934 -0.36165953 0.0006343752 0.78989744 0.51669675 -0.5713755 0.008937705 0.5472607 0.6337528 -0.083957255 0.05440678 -0.12062857 0.12057676 0.025125014 0.73857266 0.22666746 0.46544817 0.068515904 -0.4586782 -0.4539667 0.14432351 0.38648367 -0.11933064 -0.7062227 -0.09934106 0.66945964 0.08801808 -0.3480043 -0.35833916 0.14106242 -0.63560337 0.47674412 0.007825951 -0.07031982 -0.56863046 -0.39893013 0.116189435 0.7173147 0.1074369 -0.7897544 -0.03009876 0.012198281 -0.2232265 1.0233369
NPBL 0.68586725 0.8050469 -0.108275265 -0.033174988 0.1887233 0.524431 -0.98759824 -0.64023656 0.36454675 0.33059585 -0.05484916 -0.92714596 0.13913314 -0.14820234 1.1808156 0.20339394 0.23715459 0.561647 -0.8740195 -1.0898122 0.23261721 -0.2708161 0.64594054 -0.63488346 0.038158935 -0.028175538 0.20294091 1.1377348 -0.5292613 -0.918121 -0.27790478 0.8748432 -0.3474612 0.3842243 1.3009506 0.42850745 -0.41641933 -0.17373714 1.2048793 0.32353383 0.6833755 -0.20042011 1.0459284 0.03331862 -0.47806627 0.114240974 0.1737063 -0.031055462 -0.94927037 -0.17555563 -0.14970851 -0.42812797 -0.4767788 0.31803134 -0.086466044 -0.54856 -0.7709406 -0.8198071 -0.13475923 0.19499326 0.2782539 -0.22537848 -0.95525664 -0.29181442 -0.09179768 -0.38753712 -0.5794602 0.38470796 -0.24653152 0.61226225 -0.01533236 -0.5014865 0.51055354 0.32579696 -0.17297523 0.08066922 -0.15948671 -0.07252137 0.3858552 -0.012163107 -0.21307431 -0.19100076 -0.17949185 0.5300644 0.34142628 -1.3218441 -0.097130075 0.8144324 1.6299214 0.14391318 -0.43997112 0.8380542 0.48423743 -0.8806076 -0.14103061 -0.015650002 0.244249 -0.1457484 -0.3263403 -0.56853354
LVCI -0.37345916 0.59417266 1.0287337 1.0567695 -0.18839996 1.153083 0.52943915 0.31406635 -0.40779257 1.1624542 0.1752627 0.70557475 -0.45279092 -0.38160202 -0.6837784 -0.29164997 0.3969857 -1.1893486 -0.39064074 0.20519958 -0.15558134 -0.5627092 0.87829876 0.40683177 0.19896479 -0.3909815 1.0835248 0.7226713 0.19219874 -0.63649553 0.42235762 0.055562936 -0.33543718 0.48637363 -0.81590486 0.2564458 0.2580149 -0.11546693 -0.29603508 0.265311 -0.1289181 0.6480454 0.6075587 0.16413195 0.5473078 0.19583952 -1.0976083 0.120935336 0.25888044 -0.07969582 -1.0049409 0.2676908 -0.41321334 0.79866594 0.33983445 -0.80484474 0.06736138 0.48988083 -0.45476878 -0.17334545 -0.22220902 0.76684636 -0.013264856 0.9707834 0.07756033 0.11191508 0.76316375 0.11507294 0.8438447 -0.053923003 -0.408855 -0.58311814 0.073204204 -0.061195347 0.46745735 -0.19189581 -0.8783559 -0.696928 -1.2281567 -0.55273813 0.33602735 0.19697736 -0.8124312 -0.7506112 0.42675474 0.3500899 -0.3657215 -0.78773695 -0.42784885 0.94168836 0.80244225 0.6439049 0.48970878 0.54050404 0.5441302 0.21099648 -0.39296204 -0.8954898 -0.26257223 0.31385022
JWHX -0.25557363 -0.9545127 -0.5903221 -0.2743118 -0.64144874 0.4562184 0.47403735 0.026593484 -0.037013564 -0.75557494 -0.157029 0.9488861 -0.8115922 -0.74984145 -0.58219624 0.2744568 -0.40390363 1.2497679 0.060657594 0.18321101 -1.20264 -0.8648152 0.60412633 0.5164306 -1.4765068 -0.5491874 -0.5968633 0.22260857 -0.17461401 0.85301805 0.5103176 -0.7215886 -0.4851074 0.012219401 0.89423996 -0.06689712 0.5566798 -0.5815296 -0.35403907 -0.36848015 -0.59778315 -0.49385372 0.27423245 0.3914305 0.19995376 0.28685084 -0.3426946 0.3257455 0.5527986 0.13819687 0.6571452 -0.2599079 0.8899714 0.5326667 0.16771397 -0.29653063 0.45950305 -0.3687618 0.04970117 -0.68631744 -0.6590477 0.2514595 0.93974906 -0.47059327 0.32268906 0.5069794 -0.4935037 -0.6356723 0.008543119 0.16833763 -0.7994828 -0.27215332 0.18915693 -0.6229455 0.23603109 0.763096 0.31496415 -0.13259335 0.31228778 0.10479809 0.46298143 1.1513532 0.078244984 -0.6547482 0.9956962 -0.52554476 -0.3872468 -0.24555495 -0.2991338 0.8169822 0.17579876 0.2753181 -0.27248764 0.13159099 -0.555235 0.84026116 -0.8637358 0.34260103 1.2500863 1.0453593
QWKZ 0.16561869 -0.30029264 -0.23791309 1.0511166 -0.11900856 -0.2302011 0.9086365 0.12037122 0.99480546 0.52928007 0.7219089 -0.6596162 -0.3217508 -0.6822276 -0.31666732 0.8905707 -0.25454405 0.3262845 -0.6817157 0.49603263 -0.014214103 -0.7435161 0.1611489 -0.5676484 0.6687159 0.42612177 0.42797595 0.32585886 0.85092115 -0.1676964 0.8071425 0.8894378 -0.102156796 0.29532206 0.38337752 0.9351025 -0.38435265 1.4469192 0.4573071 0.06902463 0.98508894 -0.55241734 -0.3906231 0.40641215 0.39216742 1.0743103 -0.9043722 1.378174 -0.2207083 0.34344622 0.3486611 0.37910202 0.023249647 0.48395595 -0.54191476 -0.47368306 -0.2524674 0.60665846 -0.07180919 0.8792705 0.15988095 -0.57746255 1.0600746 -0.4121768 0.52959865 0.06587404 -0.47740299 -0.58452123 1.3168496 0.088895835 0.6258054 -0.88506895 -0.5521453 0.14290458 -0.24245422 1.2211621 0.04212102 0.84823006 -0.1516213 0.83034414 -0.4013648 0.030244438 -0.7861868 -0.2830247 0.7853671 -0.6496082 -0.2355214 -0.15272349 0.64299166 1.0975088 0.99953485 0.077500604 0.38065606 1.4664485 -0.04632759 0.40198442 1.1668838 0.18111141 -0.37977967 0.4151222
EMQK 0.1437371 -0.24321212 0.46382645 -0.19071133 -0.44841668 0.36208877 -0.79967874 -0.34432438 0.16018811 -0.27850267 -0.37673092 0.31419674 -0.5167964 -0.31146234 0.70825905 0.06446314 -0.24897489 -0.54756504 0.13499714 -0.12979417 0.930273 0.21013933 0.64467055 -0.8737759 -0.017651694 -0.42115957 0.09581204 0.19160633 -0.31062323 -0.12578866 -0.004456091 0.8053387 -1.0768944 -0.35081735 0.62405735 0.6646739 0.16724518 -0.29228157 0.57159626 -0.04597688 -0.03567147 0.38288698 -0.35405117 -0.31820372 -0.107685775 -0.027147781 -0.8030763 -0.4650721 -0.102818154 0.42993242 -0.0030422728 -0.15221845 0.4036748 -0.29962066 -0.21839508 -0.9724393 -0.59350544 -0.040797856 0.23234032 0.43126416 -0.339174 -0.36182588 0.23971781 0.418591 0.9779515 -0.5362511 0.5407477 0.7402701 -0.7854815 -0.9625434 -0.6439204 -0.041593272 0.28533593 0.51092714 0.3053397 -0.07026428 -1.0886585 -0.43015715 0.31060117 -0.37388185 -0.29488367 0.24085599 -1.179668 0.10536845 0.103194796 0.0955819 0.43146998 0.10118056 0.019754635 -0.03783816 -0.28696373 0.030318059 0.4338815 0.0786738 -0.7145367 0.35603806 0.19276485 0.40341386 -0.5268602 -0.4754019
KTVI -0.08347719 0.22982517 -0.30266112 0.5779197 -0.07883614 0.49565727 0.17257214 -0.009917554 -0.9814491 -0.8254108 0.2737879 0.10484434 -0.4176915 0.9270755 0.34084252 0.038473997 -0.30119234 0.91258436 -1.7415539 -0.09137978 0.05670779 -0.6340535 0.20920156 -0.45106062 0.8487812 -1.0729189 -0.2616794 -0.25951573 0.3968707 -0.7252262 0.80877155 0.38525897 -0.9456065 0.11751395 -0.16177423 -0.34298334 0.23377256 -1.08694 0.3029322 0.5682937 -1.082443 0.036087926 -1.014641 1.2254828 -0.21615581 -0.86248225 0.65900993 0.2932786 -0.2626991 0.0021556811 -0.51131505 0.11996255 -0.60011446 0.92739666 0.2267403 0.22499932 0.6069186 -1.0850879 -0.3783969 -1.5016302 -0.40209198 -0.07252177 0.10798295 -0.46581343 -0.81929076 0.21486305 0.22132476 -0.38763028 0.90250915 0.115041025 -0.8954298 -0.64331347 1.2188895 0.4918473 -0.67925155 -0.77527964 -0.8229421 1.3678187 0.24186733 0.16495273 -0.063377745 0.28015786 0.42912003 -0.18439077 0.32183295 0.4512495 1.0809722 1.0591421 0.058293056 0.3219297 0.50595057 -0.9233166 -0.45578024 0.31466755 -0.018756548 -0.59635603 -0.74247754 -0.6834303 -0.26760155 0.20893683
OVNW -1.0832981 -0.61497015 -0.21530646 0.42797777 0.7053852 0.043815345 0.2823305 -0.22060147 0.07752979 -0.6441247 0.33545277 0.71082944 -0.2842451 0.46416694 0.2755153 0.08029138 -0.12593175 -0.36820656 -0.16674927 -0.17211245 0.1059129 -0.49061096 -0.08755864 0.6299593 0.35750937 -0.038474984 0.015178739 -0.2678606 -1.1086818 0.4997032 -0.26562077 0.23065542 0.47039288 -0.64031285 -0.8732008 -0.70273536 -0.1736223 0.0412887 0.2635285 -0.6810697 0.018705687 0.18431355 0.17095397 0.27156478 0.53610575 -0.51690966 -0.0774445 -0.20684944 -0.12859786 0.4757574 0.8717075 0.260824 0.38059428 -0.5041146 -0.2963985 -0.63529736 -0.49550608 0.4696359 0.15793619 1.3236256 0.8440342 0.3879759 -0.28164816 0.67742485 0.8184878 0.50757384 0.7224982 -0.6229802 -0.14076467 -0.39864302 0.63823897 -0.75798523 0.61117256 0.5238611 0.3352085 -0.9815241 0.30310985 -0.34536803 0.8207507 0.7615091 -0.380153 0.17888853 0.41979635 -0.21595517 -0.23322624 0.51631576 0.7177306 0.5102865 -0.3214571 0.22501053 -0.06911361 -0.24723607 -0.01014222 -0.2617762 -0.2856278 -0.2789223 -0.71253943 -0.29231024 -0.110088855 -0.4026906
QRDB -0.45222723 0.3347065 0.13927634 -0.5075205 0.49162546 0.6565511 -0.5797759 -0.10008769 0.4262562 0.54493344 0.017163508 -0.21824683 -0.04420551 1.2368119 0.45546326 -0.020914672 -0.042693846 0.3385791 -0.18312329 0.9067566 -0.4077637 -0.46933806 -0.3413183 -0.45185244 0.7411732 -0.4279891 -1.1391664 1.0294551 0.40299344 -0.4964314 0.042684704 -0.3368359 -0.20373514 -0.61652213 0.007021069 -0.03689877 -0.2383562 0.32891306 -0.4531392 -0.08530603 1.0816444 -0.37556797 -0.82447684 0.9602143 0.25933373 1.3513949 -0.35135984 -0.463565 -0.15176556 0.19237706 -0.74593115 -0.18316779 -0.5753249 0.45409948 0.6463231 -0.40449992 0.06964046 0.4101832 -0.9131399 -0.3313919 -0.2173585 -0.29446468 -0.08992999 -0.30847612 0.5085053 0.42625257 -0.45270053 0.32805258 -0.63977826 0.12962009 0.72134495 -0.009937167 -0.9370204 -0.09231107 -1.1804678 -0.9170834 -1.1221397 0.7434371 -1.0166012 -0.20601916 0.13775879 -0.38256982 -0.09406333 -0.37025765 -0.16331086 0.5809452 0.95412815 0.85141665 -0.76136357 0.17855044 0.21622095 -0.9200422 -0.9199136 -0.4881337 -0.4778341 0.8400305 -0.695564 -0.39679363 -0.41095933 -0.18454461
MKYH 0.112384036 0.29303953 1.2344692 0.8923365 -0.5236015 -0.45466575 -0.45342943 -0.24195357 -0.18326345 0.47541076 0.5266588 -0.32261008 -0.005159636 0.23336053 -0.76929826 -0.57289577 0.094462134 -0.19176556 0.09152443 0.04892186 0.30602586 0.3679469 -0.6256174 0.36965105 0.41238302 -0.16278471 1.2120241 0.3042984 -1.0980548 0.7647526 0.17281924 -0.4614414 0.12096031 0.42865327 0.16040452 -0.57373804 0.20833145 -0.03457423 -1.6028311 -0.123795554 0.0011612305 -0.5787262 0.062331308 0.2522077 -0.92590696 -0.80229795 -0.3147751 -0.16151436 -0.49785686 -0.028587716 0.38632315 0.990397 0.07710768 -0.9329591 0.12202497 0.098698474 0.7211881 -0.09834384 0.42513 0.38965842 0.5639285 0.07967166 0.30869174 0.6290493 0.55417967 0.5821808 0.0042843604 -0.81586033 0.028118536 -0.3937674 -0.87098646 0.6454232 -0.82861435 -0.7354734 0.33765477 -0.8273045 0.18779357 0.79238653 -0.13762645 -0.12855142 -0.3951083 0.8701196 0.5822527 -0.6005271 -0.36770123 -0.45897472 -0.26736346 -0.30280653 -0.5334882 -0.49091694 -0.5420136 0.029801529 -0.01650068 -0.13790347 0.5679909 -0.91844505 -1.2776543 1.0402987 -0.48133957 -0.1749491
ILPB 0.8588589 -0.5373372 1.0812355 0.4933721 -0.3634557 -0.2954351 0.5492991 0.28325477 -0.21632591 -0.8598749 -0.42585605 0.24210702 0.91803145 0.09393647 -0.10075474 0.944863 0.054163978 0.19690375 0.32921764 0.60493827 0.06484801 0.29125795 -0.67826784 -0.24853978 0.34937835 -1.4395614 -0.3804334 0.29551107 -0.7737074 -0.9898232 -0.030780824 -0.27757972 -0.48009908 1.1546055 -0.23674506 0.5178645 0.42177936 -0.06573548 1.0618534 -0.07293376 0.3082572 -0.47527388 -0.9897634 -0.5710083 0.705271 0.20887132 -0.21623404 -0.52735865 -0.16884033 0.34864533 -0.4128891 0.52225506 1.1392846 0.17508884 0.4856634 0.097275436 0.019077256 0.271327 0.4827813 0.20233418 0.00751644 0.51082224 1.3141209 -0.025738763 -0.13675775 -0.22982904 -1.1182281 -0.73551124 -0.41666368 0.90092736 -0.2285398 0.32991642 0.49855176 -0.9461601 -0.025747374 0.083434835 -0.12072917 0.17889132 -0.9609579 -0.05037446 -1.0683986 -0.42648366 -0.32782638 -0.29814032 0.15250261 0.3696931 0.9963889 -0.14672266 -0.5856074 0.24261035 0.119270265 -0.12031629 -0.06528457 0.5631007 0.31121883 0.6984967 0.29410794 0.20809214 -0.021921385 -0.5515241
DILG -0.035934217 -0.8008733 -0.0976493 0.50231117 1.0785075 0.16193725 0.7590912 -0.18141027 0.61136544 -0.00021701481 0.22452435 0.34811485 0.3436968 0.18541586 -0.016000355 -0.361301 0.2549967 0.18172085 1.0262702 1.2828189 -0.358025 0.42540655 -0.9996709 -0.21612851 0.42502087 -0.308811 0.077206776 -0.5071206 -0.16001831 -0.0969384 -0.61772376 -0.53733015 0.7975921 -0.44598442 -0.006574355 -0.47514072 0.0520731 -1.4089667 0.17035778 -0.2584521 -0.8955087 -0.0045965714 -0.27397522 -1.0634911 -0.91835326 -0.11760129 0.5395682 -0.26739258 0.04868502 -0.19649768 -0.62055963 0.7312004 -0.62854415 0.036521193 0.024812793 0.8436789 -0.42442983 -1.9161143 1.1377287 0.41589022 -0.085098065 0.07007717 -0.43200278 -0.65091735 0.9987255 -0.44923168 0.42804816 -0.47001478 -0.3495468 0.17336944 0.22919638 -1.2512083 -0.69623184 0.045102887 0.45788032 0.20693809 -0.00967774 -0.7131871 0.20048194 -0.8848834 0.23980802 -0.07096731 -0.30153272 -0.023431996 -0.67037404 -0.6939139 -0.45714235 0.19623864 -0.083392315 0.055026688 -0.01940403 0.61488384 -0.40188307 -0.10099009 1.0020652 0.991375 0.4334237 1.0098846 -0.3440912 -1.0087729
ZTXY 0.44944167 0.37873238 0.09778885 -0.31653336 0.4018357 -0.3582427 -0.12852968 -0.17148069 0.45585164 0.18026595 0.76160604 -0.10081264 -0.91877913 0.13262358 0.7637694 -0.07112912 -0.4029792 -0.13386258 0.030076724 -0.8951504 0.1996236 0.7360068 0.25805795 -0.34764245 0.021747943 1.2488585 0.7173622 0.21830189 0.2556566 -0.66102195 0.077281676 0.4063708 -1.0518659 0.9417191 1.6435794 0.086730905 0.8425071 0.6011187 0.6891943 1.3258307 0.99524146 -0.16060363 0.31052658 0.19431496 0.4593491 -0.3044846 -0.44706804 0.3195139 -0.21187806 -0.5005018 -0.040281173 -0.52299213 -1.2511536 0.730917 -0.12797603 0.0382443 0.020271013 -0.054673698 0.25012666 -0.05073931 0.37480357 -0.6524699 -0.32359904 0.19967648 0.22170271 0.44877544 0.185914 -0.5641365 0.17367907 0.030715952 0.0526512 -0.94422895 0.12262511 -0.4736709 -0.5394432 0.8113169 0.1366768 0.5125569 0.4998449 0.32579467 -0.32983857 -1.0961977 -0.2651337 -0.687371 0.052058686 -0.59452647 -0.516615 -0.14401059 0.84286064 -0.35218957 -0.0332611 0.35950357 1.1944703 -0.36547485 -0.53039354 0.286082 -0.98402023 0.02589312 1.388825 -0.9087726
NLKF -0.75240767 -0.97432655 1.014684 0.2767367 -0.15574951 1.0381843 -0.16830848 0.50690216 0.18098545 0.2925306 -0.8684724 -0.309904 -1.4633932 -0.007586545 -0.73972356 0.29726163 0.77304494 -0.53241616 -0.011251773 0.41105345 0.34575963 0.7238653 0.2639074 -1.2337455 1.2783737 -0.1758209 -0.10918879 0.100849316 -0.12899321 -0.09042117 -0.31563282 -0.049079854 0.034809254 0.11171603 -0.43774337 -0.78433293 0.16426046 -0.29548854 0.59222656 -0.8935756 -0.828224 1.3529724 -0.5163402 -1.4084047 0.57765424 -0.8083775 0.6501666 -0.17671448 -0.11515672 -0.66006035 0.18844758 0.33783886 0.93789405 -1.0724858 -0.05842649 0.57246214 -0.5947906 0.62211823 -0.012818118 -0.39659828 -0.74853647 -0.40044793 0.004882237 0.19427948 0.6860938 -0.17191295 0.14564869 -0.26733887 -0.22800806 0.072870076 -0.36149782 0.058050983 0.69904447 -0.21525928 -0.49202266 -1.107378 -0.114608064 0.08636054 0.6304343 -0.28496432 0.6092319 0.103876114 -0.8151531 -0.91339713 -0.5366676 -0.40099663 -0.33410525 -0.30989027 0.6638015 0.6427416 0.29708204 0.68349403 0.5878548 0.13643707 1.4800197 -0.09346975 -0.035288613 0.13526241 0.35733542 0.040577963
FQLC -0.39863622 0.6146667 -0.9574125 -0.37171236 0.5412058 -0.60555434 -0.025148476 0.4930683 -0.28931597 -0.5176747 -0.60441256 0.27737674 -0.70393646 -0.9610669 0.4663546 0.69343805 0.22332697 -0.57007366 0.5932738 -0.18750098 -0.4545212 0.52243596 0.0016774354 -0.82169557 0.53214514 0.19426635 0.29175487 -0.05884087 0.47945592 0.014649911 0.20869625 0.041537147 0.45650628 0.31843263 1.2480222 0.032790974 -0.2974 1.4583747 -0.49317384 -0.19754906 -0.26822174 0.060435366 0.49587202 0.43357867 0.17124917 -0.14804523 -0.10706445 -0.07477253 0.054957878 -0.09657806 0.7037835 1.0686938 -1.0226176 -0.06205614 -0.41489294 0.83431524 0.42917466 -0.20701914 0.115342095 -0.28605932 -0.9719134 -0.6499163 -0.5496989 0.006263338 -1.0224868 -0.44787773 -0.8038295 0.13572383 0.18177332 -0.26974463 -0.22740065 0.80246264 0.18537824 -0.47561008 0.4065027 0.85595137 -0.38092923 1.4079596 0.61321706 -0.6184031 0.16824217 -0.70329255 -0.4176504 -0.17191602 -0.35323247 0.23393935 0.4092937 0.2639007 -0.17951828 0.68308836 -0.63544095 0.16921894 1.8904376 1.4199541 -0.60843444 -0.05832128 -0.26206526 -0.2584759 0.4824929 -0.1414141
LCGQ -0.08824717 1.443751 -0.33007184 0.34400865 0.16788802 -0.23394309 0.033616103 -0.13966392 0.17517693 -0.63181 -0.45874205 0.7638915 0.6923708 0.66712236 0.7098297 0.38242313 -0.015922828 0.8394832 -0.3256735 0.13110232 -0.61583436 0.55705845 1.1188049 0.10431991 -0.6819608 0.3120151 -0.30263925 0.27961686 0.31120718 -0.34447366 0.066644706 -0.5287606 0.8008114 -0.029319452 0.3900914 0.035083216 -0.100170776 -0.2711892 0.7378365 0.26967144 -0.31149274 1.1567036 0.21882188 0.17834401 0.9995509 0.20121129 -0.76444244 -0.76322895 -0.4161615 0.80469096 -0.070792586 -0.22883569 0.17867045 -0.718627 -0.4761467 0.15903497 0.2453197 -1.2431006 0.5826054 0.17832729 0.3977217 -0.4491168 0.18801819 -0.72054005 -0.39561412 0.8690612 0.38974476 -0.5064377 0.42757663 -0.4464281 -0.19141543 0.7555172 -0.08976869 0.27923226 -0.26313546 -0.06823644 0.51424193 1.0049039 0.4420889 0.42442003 0.44828674 -1.0211864 -0.7967918 -0.20098929 0.07045728 0.2812458 -0.5139841 -0.0031524485 -1.096278 -0.7258177 -0.22333577 -0.55428964 0.071674846 0.09357381 -1.1295109 -0.35630867 -0.014692807 -0.075779624 0.08631219 0.5883858
VKWM 0.16340141 -0.0058838427 0.09469765 -0.03911717 1.2033886 -0.7975942 0.96254265 0.16384114 0.26636508 -0.004176924 0.2537217 -0.59160465 0.85558206 1.3576115 -0.065518305 -0.22210163 -0.29339957 -0.5608218 -0.04215291 -0.40909973 -0.1830727 -0.6124136 0.7349337 -0.4106551 -0.6910515 -0.7996154 0.14244759 -0.3522774 0.057199385 -0.11205141 0.3045676 0.53459126 -1.127887 -0.61419225 0.30007482 -0.45970568 -0.39150202 -0.056247924 0.25109535 0.23532541 -0.76523143 0.13419989 -0.18149279 0.05292471 0.5693052 0.21146816 0.6595524 0.11401351 -0.20790629 0.45099193 0.18984568 -0.22754166 0.0823582 0.51355875 0.08179321 0.6939706 0.4860574 0.3337447 0.69691837 -0.5300283 0.4760787 -0.2066252 -0.7268772 -0.01003463 -0.4527739 -0.43341503 0.85190344 -0.59701955 -0.4575523 -0.60217357 -0.19119784 0.8081367 0.9471502 0.025691163 0.49516937 0.15057838 0.19109634 0.34876943 -0.6504546 -0.45737293 0.9968718 -0.061509836 0.4106758 -0.63781065 -0.103570245 1.152971 1.1925658 -0.40517238 0.14145839 -1.3628073 -0.25598413 0.8847911 -0.084693454 -0.8749969 -0.23963884 -0.013803164 0.54217076 -0.046870675 0.38525936 1.2696671
OWZC -0.24794707 -0.92712253 -0.3598764 -0.43829077 -0.93905026 0.55646014 0.26563594 -0.18939297 1.9188352 -0.33262438 0.33584443 0.47747558 -0.86600775 -1.1218646 -0.22150671 0.07033884 -0.12811475 0.5374353 0.7976072 -0.16220173 -0.044571728 -0.18794644 0.27414462 -0.16449313 0.3833946 0.46018675 -0.054965194 0.2744705 0.41670913 -0.03138511 -0.2803271 1.1430432 1.4101796 -0.3679684 0.12305018 -0.35058123 -0.022370804 0.69190156 0.42604584 -0.27146718 -0.23986991 -0.23155196 -0.20084995 -0.5214404 -0.020501154 -0.21766084 -1.4715048 0.41713697 -0.32270163 0.33112106 -0.395548 0.8770714 0.89293486 0.05672368 -0.0804986 -0.13148232 0.2874202 -0.730128 -0.7351128 -0.46824571 0.6443644 0.021972053 0.49592403 -0.5386801 -0.07514121 -0.72268665 0.22135428 -0.4132082 -0.24058503 0.34419242 0.066380136 -0.03911864 -0.1458751 0.98963124 -0.8801551 0.1530743 0.19722341 1.0037739 0.6166472 0.05664751 0.5936887 -0.18250374 -0.02321005 -0.16274416 0.4149684 -0.17854813 -0.76689583 0.58806837 -0.03805733 0.09492133 -0.019271128 -0.45706967 0.9053606 -0.15307237 0.09312447 -0.3565047 -0.5607313 1.0291296 -0.4100018 0.59502923
SDWQ -0.046575528 0.08230693 -0.8917409 0.11911498 -0.0016724175 -0.3970259 0.06239795 -0.8748937 0.45873374 -0.14089891 0.6088249 0.74069464 0.1796563 -0.5955542 -0.38068444 0.58750534 0.024893932 0.43857375 0.4623901 0.92504466 0.17414737 -0.8112494 -0.74636126 0.0045016897 -0.18552238 -0.49140018 -0.7636053 -0.49602827 0.9269568 -1.5072545 0.97080505 0.33081833 0.49084732 -0.4996655 1.0170317 -0.9289419 -0.43197054 -0.75193834 -0.39276832 0.035425466 -0.38959968 0.5228892 0.47273803 -0.33662942 0.10709774 0.4155962 -0.06907807 -0.4445889 0.14938337 0.27995843 0.1479042 0.43391317 -0.72847223 0.36381894 0.43850502 -0.041855354 0.5059125 0.06463597 0.076342896 1.3174704 0.04202144 0.67048925 -1.4976519 -0.59370154 0.3320148 -0.20600839 -0.8563054 0.40100938 0.84030247 0.8978016 -0.36909997 0.51100636 -0.37407222 -0.017501649 0.11695848 1.1204996 0.16266091 -0.023184652 -0.1720395 -0.6294738 0.26296827 1.642999 -0.75050557 -0.44194928 -0.3716467 0.531951 -0.13297507 -0.5701202 -0.5336741 1.2184663 1.2997242 0.76473576 0.5657181 0.27580452 -0.101393804 0.512365 -0.37494984 -0.33204126 0.2937588 -0.47987825
OZSN -1.2761675 0.6245476 0.22309239 1.7576306 0.6938865 -0.19258338 0.16400293 -0.090365864 -0.12594274 0.069818474 -0.6801291 -0.54741734 0.7103967 0.36268574 -0.08211203 -0.896717 0.4443578 0.12548733 0.006597081 -0.45796692 0.7146195 -0.12621145 0.6286115 -0.6341388 -0.14854504 -0.85484296 0.35827905 -0.360712 -1.0542206 0.2643407 0.2042107 -0.65825284 -0.5996955 -0.77428204 -0.8853382 0.36275968 0.034306996 0.52222705 -0.47351947 0.5126042 -0.49371803 0.45894814 -0.17445037 -0.1350038 -0.10804162 1.067444 0.29446784 -0.49198627 0.58984494 1.1099874 0.70980984 0.3925892 0.5375793 -0.011736749 -1.1472261 0.17292826 0.24202225 -0.78347325 -0.8383011 -0.24894682 0.4935669 0.7791578 -0.116599016 0.12783411 0.27349275 0.009292518 -0.64850783 -0.43451896 -0.36925417 -0.7029605 0.68529177 0.02300223 -0.06285392 0.33851832 0.27274665 0.76351583 0.41530737 -0.3923409 0.035812616 0.42017797 0.37733325 0.022677016 -0.89691114 -0.35177612 0.6936231 -0.10408274 -0.08348756 0.42383242 -0.9009298 -0.7373216 -0.7753707 -0.1261613 -0.3174313 -0.029666407 0.8115064 0.3430715 0.68673646 0.8584906 -0.40730947 0.6998451
LKZT 0.66034114 -0.68407243 -0.19873978 0.22738247 0.689347 0.034142658 0.11939949 0.38962838 -0.5777255 -0.85604733 0.045260105 -0.36605176 -0.10940314 -0.105325 -0.20676851 0.25785795 -0.28501132 -0.7913272 -0.69009864 -0.23419282 -0.5741898 -0.33785328 -0.59089065 -0.4073933 -0.43849343 -0.41897327 0.6978888 0.819704 -0.11989408 0.02879249 -0.3934142 0.669054 -1.154828 0.24503724 -0.2259468 0.8088217 1.5064473 -1.1497521 -0.27765128 0.39250845 0.49676287 0.31367227 -0.11068448 -0.7265825 -0.36785233 -0.57482034 -0.24465585 -0.08794149 1.0878891 -0.2807173 0.31797725 0.7091385 -0.029687472 0.7862422 0.56350875 0.43219894 0.09392617 -0.19139013 0.56581885 0.8492126 0.71277267 -0.526855 -0.02382261 -0.6543987 0.67074066 -0.07151131 0.35258746 0.23174474 0.7620755 0.33527848 -0.28977975 0.57862353 0.53278655 -0.5392369 -1.310521 -0.8590687 -0.52422994 -0.2585367 -0.42167717 -0.8375022 -0.72531724 0.06744277 0.9884997 -0.15400544 -0.31282738 0.99066746 -0.029990386 0.76942664 -0.30960453 -0.5441223 -0.51895946 -1.3685564 0.04695701 0.7246837 -0.18035388 0.5188316 -0.64571583 -0.6457435 0.7104399 0.99800736
IAXP -0.058177996 -0.9515349 -0.022964278 0.44304284 0.07361 0.39658505 0.11418659 -0.091724366 0.40411517 -0.015388751 0.37244844 0.8148026 0.5131767 0.5918176 0.082714975 0.73033905 0.57027346 0.41036576 0.3551236 0.219842 -0.4619783 0.29023147 0.059638444 -0.19320913 -0.6169115 -0.091732554 0.5337286 0.7167732 -0.58946353 1.2075374 -0.5474107 -0.8851592 0.15232828 -1.0484748 -0.79809797 0.70197695 -0.040999334 -0.08307293 -0.5123779 0.92851907 0.18185936 0.34475705 0.9528297 -0.2329353 0.07842576 -0.2986236 -0.56667274 0.36991057 0.119101 -0.8282832 -0.34551913 -0.4642238 -0.36126202 0.8640728 -0.6559224 -0.20042063 -0.002274239 -0.010766035 -0.3703128 0.21088307 -0.5174977 0.39427385 -0.0043717995 -0.33686998 1.0074109 -0.2738974 0.1729448 0.13198467 -0.12097582 0.39095378 -0.44792208 0.28528777 -0.012942845 -0.57746017 -0.12485966 1.2274064 -0.3849994 -0.34445482 1.0030475 -0.75566596 -0.4232454 0.070139766 0.4039177 0.8353227 -0.49531892 0.3162635 -0.7722408 0.5822411 0.60584086 0.6617421 -0.6153347 -1.0921909 0.02150578 0.72942084 0.38122892 -0.613861 -0.79415494 0.13140261 -0.11367102 0.039674558
GZEF 0.123435654 -0.033596713 -0.037114993 -0.026141876 0.0960235 0.03821578 -0.09029731 -0.5031529 -0.021004453 0.27975115 -0.105045125 0.45151258 -1.3158054 0.6893247 -0.0886765 -0.93385744 -0.5693351 -0.41307727 1.0591866 -1.194264 0.17971273 1.8848583 -0.7775639 -0.2282027 0.41729018 0.70999867 0.36869153 -0.4194868 0.20679142 -0.037026513 -0.052429087 0.21716003 -0.08775366 -0.2643604 0.5756631 0.44149083 0.07310191 0.35452253 -0.35121652 -0.7411499 -0.5266514 0.20090137 0.18753049 -0.10894677 -0.1594429 -0.22626978 0.026233071 0.38561815 -1.0543503 -0.036421537 0.29139462 -0.2300007 0.74534446 0.7296024 -0.5290853 -0.6048258 0.009679326 0.36136392 -0.20928398 -1.2920069 -1.4029069 -0.8586391 -0.18696904 0.45658466 0.721556 -0.8544483 -0.3545467 0.61955786 -0.54364365 1.0450008 -0.14746891 0.4682002 -0.29317653 -0.04068415 1.8219242 -0.74645454 0.495443 -0.0052118152 0.500086 -0.6245861 0.3139164 -0.22318992 1.0137658 1.3765855 -0.4815391 -0.38475984 -0.07884807 1.257635 0.46130443 0.45096868 -0.21362165 0.81274575 0.5182152 0.38712355 -0.27852494 1.0497401 -0.11547718 -0.059060223 -0.84943295 -0.055114586
LQZA 0.338231 0.5407189 -0.22717848 0.7870412 0.16699195 -0.18027006 0.51656073 0.13947697 0.67746836 1.283884 -1.2367972 -1.0817448 -0.6341548 -0.54951215 0.82492554 0.5549829 0.3709248 1.1054145 -0.13797419 0.6980516 0.29970565 -0.84623617 0.6666675 -0.26435506 0.071465954 -1.017124 -0.5410209 -0.29049906 -0.8068194 -0.74283403 -0.3922756 -0.8447064 -0.0342905 0.5600936 0.22915436 -0.4249658 -0.72443134 -0.609478 0.07731753 1.185182 1.1040239 0.49800473 0.7819898 0.15125562 0.07703799 0.90111583 0.101153344 -0.10056277 -0.030306451 0.0512268 0.4557065 0.25442994 1.4163182 -0.39262402 -0.57306725 0.0444849 0.79759914 -0.820382 -0.13356914 0.6504384 0.35574508 -0.18496345 0.013233455 -0.022117613 0.97182214 0.121293 0.06749955 0.8947812 0.43734536 0.22389814 -0.7491595 0.814352 -0.6719782 -0.68288964 -0.8771887 0.0062141214 0.7131051 -0.34777078 -0.16461278 0.48876476 0.3603352 0.68585783 -0.57689106 0.20564482 -0.34390435 0.8931198 0.233451 -1.4384811 -0.45127276 -0.5955942 -0.2233277 0.10858663 0.2785512 1.190887 -0.37327385 -0.856897 -0.8285016 0.72663105 -0.44367516 0.24001606
USFY -0.5845032 -1.0874758 -0.33788288 -0.79826796 -0.23880729 0.19106458 0.15490144 1.0888473 -0.56126606 1.0048444 -0.09476978 -0.45047328 -0.22054076 0.4039702 -1.1497068 -0.75108385 0.06519273 0.57760036 0.9852018 -0.11170853 -0.62562543 -0.68322825 0.002080999 -0.13051178 -0.50938624 -0.36856863 -0.54172724 -0.8647062 0.55625004 0.2974946 0.26936698 -0.003351213 -0.7970482 -0.13040577 0.7917232 0.05400381 0.08016021 0.38406077 -0.046759408 0.61599445 0.5815119 -0.3141162 -0.96540016 1.5562217 -0.57960695 0.60834587 0.4967227 -0.051037997 0.37120557 -0.4427745 0.60570604 -1.1445553 0.84790826 -0.22843441 0.5262681 -0.6867205 0.8606899 0.47322536 0.24785317 -0.57042754 -0.07683284 0.046233542 0.21068685 0.24907878 -0.6071489 0.49176222 -0.10412291 -0.43813387 -0.30833405 0.016693717 -0.46460095 -0.09242845 -0.138556 -0.31594133 0.2600542 -0.36428496 -1.0511953 -0.12991603 0.32679915 -0.15206592 -1.118498 0.38851 -0.3901357 1.0261499 0.45370767 0.24080524 0.699305 0.7694082 -0.48460355 0.7279126 -0.2557088 0.5181458 -0.33273813 -1.4161654 -0.07346588 0.8818529 0.36512733 0.7947129 -1.2875438 -0.23779063
LATM 0.3420651 -0.113799475 -0.107029125 -0.33756518 0.36725023 0.004699015 -0.8912809 -0.38236275 -0.6602376 -0.20287198 0.45893618 -0.05539261 0.010221188 -0.04073462 0.53451943 -0.18750848 -0.6577713 -1.0199418 -0.06460872 0.32525197 0.058005575 -0.77974266 -0.28421974 0.08795869 0.058697376 -0.25293574 0.7195257 -1.0133625 0.10486816 -0.22901906 0.040980645 -0.084004134 -0.9640131 -0.1751973 -0.029335644 0.24461074 -0.013429798 -0.7380496 0.23466985 -0.8299522 0.49090254 0.42618522 1.3063629 -0.61779934 -0.39435044 0.17186733 0.4447059 0.6087696 -0.40241826 0.7014211 -1.0164301 -0.44864 -0.04341418 0.05285183 -0.85131556 -0.8023816 -1.3416264 -0.23658806 0.51477957 0.8688517 0.1255132 0.5891153 0.05023388 0.49988472 -1.1846493 0.058179684 -0.10179324 0.24261431 0.13250494 0.45658907 -0.3865203 -1.0311034 0.36535457 -0.80674493 0.1514584 0.61563325 0.08226834 -0.05841665 0.30315125 -0.46527004 -0.0011355999 0.68119204 0.27026194 0.26881793 0.31245986 -0.0013439466 0.45325452 -0.12978113 0.54600537 0.35671854 -0.834491 1.0166379 -0.8086544 -0.56542826 0.11319255 0.3615264 -1.095231 -0.37466577 0.16284417 -0.9987417
QXNT 0.8318885 1.4704953 0.15904565 0.5223706 -0.3039108 -0.12738088 1.2359536 -0.109130464 -0.13649617 0.10739917 0.5822521 -0.39651877 0.92751825 -0.574658 0.77013266 0.8380465 0.94957066 0.73303056 -0.20633303 0.30430332 0.42475134 0.37441084 0.45779145 0.2697097 -0.55691206 0.48913956 0.41994196 0.59367245 0.21121281 -0.37371132 1.3089504 0.64653903 -0.31457335 0.26767054 0.019380314 -0.8595044 -0.27077815 0.88897973 0.7140835 -0.6876368 -0.4436204 0.8172125 0.17176077 0.2491161 -0.7169259 0.4818426 0.9136932 0.22470346 -0.249472 0.042903293 0.7244589 -0.20376709 -1.0393807 0.09629501 -0.31908876 0.30304882 -1.2198224 0.07047155 -0.13102284 0.32711735 -0.3329954 -0.9684537 0.73412573 0.41410542 -1.0863814 0.76501507 0.49752006 -0.3441702 -0.92569417 -0.5069561 -0.24612407 0.2256782 -0.48179364 0.06473833 -0.3485607 -0.3331786 -0.018435122 -0.10230239 -0.378655 -1.0524943 -0.18279998 -0.3055562 0.38244942 -0.68043417 -0.17106386 -0.30869803 0.20440884 -1.0964788 0.6752146 0.21093781 0.2189339 -1.1421727 0.37114665 -0.04385831 -0.009791559 -0.49373487 0.6127306 1.1138362 -1.0784161 -0.2508797
